{"learner":{"attributes":{"scikit_learn":"{\"_estimator_type\": \"regressor\"}"},"feature_names":["lag_1","lag_2","lag_3","lag_4","roll_mean_2","roll_mean_4","q2","q3","q4","covid","trend","gasto_medio__excursionistas_fronterizos__en_automoviles__entrada","gasto_medio__excursionistas_fronterizos__en_automoviles__salida","gasto_medio__excursionistas_fronterizos__peatones__entrada","gasto_medio__excursionistas_fronterizos__peatones__salida","gasto_medio__turistas_de_internacion__via_aerea__entrada","gasto_medio__turistas_de_internacion__via_aerea__salida","gasto_medio__turistas_de_internacion__via_terrestre__entrada","gasto_medio__turistas_de_internacion__via_terrestre__salida","gasto_medio__turistas_fronterizos__en_automoviles__entrada","gasto_medio__turistas_fronterizos__en_automoviles__salida","gasto_medio__turistas_fronterizos__peatones__entrada","gasto_medio__turistas_fronterizos__peatones__salida","gasto_total__excursionistas_fronterizos__en_automoviles__entrada","gasto_total__excursionistas_fronterizos__en_automoviles__salida","gasto_total__excursionistas_fronterizos__peatones__entrada","gasto_total__excursionistas_fronterizos__peatones__salida","gasto_total__turistas_de_internacion__via_aerea__entrada","gasto_total__turistas_de_internacion__via_aerea__salida","gasto_total__turistas_de_internacion__via_terrestre__entrada","gasto_total__turistas_de_internacion__via_terrestre__salida","gasto_total__turistas_fronterizos__en_automoviles__entrada","gasto_total__turistas_fronterizos__en_automoviles__salida","gasto_total__turistas_fronterizos__peatones__entrada","gasto_total__turistas_fronterizos__peatones__salida","num_visitantes__excursionistas_fronterizos__en_automoviles__entrada","num_visitantes__excursionistas_fronterizos__en_automoviles__salida","num_visitantes__excursionistas_fronterizos__peatones__entrada","num_visitantes__excursionistas_fronterizos__peatones__salida","num_visitantes__turistas_de_internacion__via_aerea__entrada","num_visitantes__turistas_de_internacion__via_aerea__salida","num_visitantes__turistas_de_internacion__via_terrestre__entrada","num_visitantes__turistas_de_internacion__via_terrestre__salida","num_visitantes__turistas_fronterizos__en_automoviles__entrada","num_visitantes__turistas_fronterizos__en_automoviles__salida","num_visitantes__turistas_fronterizos__peatones__entrada","num_visitantes__turistas_fronterizos__peatones__salida"],"feature_types":["float","float","float","float","float","float","int","int","int","int","int","float","float","float","float","float","float","float","float","float","float","float","float","float","float","float","float","float","float","float","float","float","float","float","float","float","float","float","float","float","float","float","float","float","float","float","float"],"gradient_booster":{"model":{"gbtree_model_param":{"num_parallel_tree":"1","num_trees":"100"},"iteration_indptr":[0,1,2,3,4,5,6,7,8,9,10,11,12,13,14,15,16,17,18,19,20,21,22,23,24,25,26,27,28,29,30,31,32,33,34,35,36,37,38,39,40,41,42,43,44,45,46,47,48,49,50,51,52,53,54,55,56,57,58,59,60,61,62,63,64,65,66,67,68,69,70,71,72,73,74,75,76,77,78,79,80,81,82,83,84,85,86,87,88,89,90,91,92,93,94,95,96,97,98,99,100],"tree_info":[0,0,0,0,0,0,0,0,0,0,0,0,0,0,0,0,0,0,0,0,0,0,0,0,0,0,0,0,0,0,0,0,0,0,0,0,0,0,0,0,0,0,0,0,0,0,0,0,0,0,0,0,0,0,0,0,0,0,0,0,0,0,0,0,0,0,0,0,0,0,0,0,0,0,0,0,0,0,0,0,0,0,0,0,0,0,0,0,0,0,0,0,0,0,0,0,0,0,0,0],"trees":[{"base_weights":[-2.0547176E-2,-9.4793625E0,8.280465E0,-1.302306E0,-5.14677E0,3.0471547E0,1.4063895E1,-6.391485E-1,-2.7769852E-1,1.2949565E-1,5.4780835E-1,1.5824714E0,-1.2337055E0],"categories":[],"categories_nodes":[],"categories_segments":[],"categories_sizes":[],"default_left":[0,0,0,0,0,0,0,0,0,0,0,0,0],"id":0,"left_children":[1,3,5,-1,7,9,11,-1,-1,-1,-1,-1,-1],"loss_changes":[7.223607E3,5.931697E2,1.4402031E3,0E0,4.4194824E1,1.0791179E2,1.2644375E3,0E0,0E0,0E0,0E0,0E0,0E0],"parents":[2147483647,0,0,1,1,2,2,4,4,5,5,6,6],"right_children":[2,4,6,-1,8,10,12,-1,-1,-1,-1,-1,-1],"split_conditions":[5.2E1,6.8725E1,8.7E1,-1.302306E0,4.2E1,7.5E1,9.995E1,-6.391485E-1,-2.7769852E-1,1.2949565E-1,5.4780835E-1,1.5824714E0,-1.2337055E0],"split_indices":[10,5,10,0,10,10,5,0,0,0,0,0,0],"split_type":[0,0,0,0,0,0,0,0,0,0,0,0,0],"sum_hessian":[9E1,4.2E1,4.8E1,2.2E1,2E1,2.6E1,2.2E1,1.2E1,8E0,1.6E1,1E1,2.1E1,1E0],"tree_param":{"num_deleted":"0","num_feature":"47","num_nodes":"13","size_leaf_vector":"1"}},{"base_weights":[-9.352584E-2,-5.426656E0,1.2156384E1,-9.983297E0,1.0273927E-1,6.6691047E-1,1.6101602E0,-1.2965587E0,-7.5197095E-1,-2.3227838E-1,1.3103639E-1],"categories":[],"categories_nodes":[],"categories_segments":[],"categories_sizes":[],"default_left":[0,0,0,0,0,0,0,0,0,0,0],"id":1,"left_children":[1,3,5,7,9,-1,-1,-1,-1,-1,-1],"loss_changes":[5.8150405E3,1.5631448E3,4.771267E2,1.5230518E2,8.79882E1,0E0,0E0,0E0,0E0,0E0,0E0],"parents":[2147483647,0,0,1,1,2,2,3,3,4,4],"right_children":[2,4,6,8,10,-1,-1,-1,-1,-1,-1],"split_conditions":[8.36E1,7.35E1,8.85E1,6.65E1,5.5E1,6.6691047E-1,1.6101602E0,-1.2965587E0,-7.5197095E-1,-2.3227838E-1,1.3103639E-1],"split_indices":[0,0,3,0,10,0,0,0,0,0,0],"split_type":[0,0,0,0,0,0,0,0,0,0,0],"sum_hessian":[8.7E1,6.1E1,2.6E1,3.3E1,2.8E1,1.2E1,1.4E1,1.3E1,2E1,9E0,1.9E1],"tree_param":{"num_deleted":"0","num_feature":"47","num_nodes":"11","size_leaf_vector":"1"}},{"base_weights":[-3.696035E-2,-6.707491E0,7.240822E0,-8.725418E0,-1.183567E0,2.5772278E0,1.178727E1,-1.1094186E0,-6.394133E-1,3.8561898E-1,-1.8678705E-1,1.294338E-1,4.4290185E-1,1.3541453E0,-1.2525284E0],"categories":[],"categories_nodes":[],"categories_segments":[],"categories_sizes":[],"default_left":[0,0,0,0,0,0,0,0,0,0,0,0,0,0,0],"id":2,"left_children":[1,3,5,7,9,11,13,-1,-1,-1,-1,-1,-1,-1,-1],"loss_changes":[4.4663145E3,5.247229E2,9.025442E2,1.223418E2,5.5484993E1,4.890715E1,1.1078811E3,0E0,0E0,0E0,0E0,0E0,0E0,0E0,0E0],"parents":[2147483647,0,0,1,1,2,2,3,3,4,4,5,5,6,6],"right_children":[2,4,6,8,10,12,14,-1,-1,-1,-1,-1,-1,-1,-1],"split_conditions":[7.81E1,7.35E1,8.7E1,2.3E1,6.05E1,7.5E1,1.038E2,-1.1094186E0,-6.394133E-1,3.8561898E-1,-1.8678705E-1,1.294338E-1,4.4290185E-1,1.3541453E0,-1.2525284E0],"split_indices":[0,0,10,10,3,10,0,0,0,0,0,0,0,0,0],"split_type":[0,0,0,0,0,0,0,0,0,0,0,0,0,0,0],"sum_hessian":[9E1,4.7E1,4.3E1,3.4E1,1.3E1,2.2E1,2.1E1,1.5E1,1.9E1,1E0,1.2E1,1.4E1,8E0,2E1,1E0],"tree_param":{"num_deleted":"0","num_feature":"47","num_nodes":"15","size_leaf_vector":"1"}},{"base_weights":[-8.699049E-1,-6.345606E0,5.496701E0,-9.497416E0,-3.4174263E0,3.8944535E0,1.4995191E0,-1.3325997E-1,-9.794468E-1,-4.456102E-1,-1.10219955E-1,4.6232033E-1,-1.1899022E0],"categories":[],"categories_nodes":[],"categories_segments":[],"categories_sizes":[],"default_left":[0,0,0,0,0,0,0,0,0,0,0,0,0],"id":3,"left_children":[1,3,5,7,9,11,-1,-1,-1,-1,-1,-1,-1],"loss_changes":[3.3118728E3,4.382256E2,6.1123474E2,4.5156982E1,6.242206E1,5.0388177E2,0E0,0E0,0E0,0E0,0E0,0E0,0E0],"parents":[2147483647,0,0,1,1,2,2,3,3,4,4,5,5],"right_children":[2,4,6,8,10,12,-1,-1,-1,-1,-1,-1,-1],"split_conditions":[7.81E1,6.96E1,1.3846E2,6.05E1,7.36E1,9.7E1,1.4995191E0,-1.3325997E-1,-9.794468E-1,-4.456102E-1,-1.10219955E-1,4.6232033E-1,-1.1899022E0],"split_indices":[0,0,12,1,2,0,0,0,0,0,0,0,0],"split_type":[0,0,0,0,0,0,0,0,0,0,0,0,0],"sum_hessian":[9.3E1,5E1,4.3E1,2.3E1,2.7E1,3.8E1,5E0,1E0,2.2E1,1.8E1,9E0,3.7E1,1E0],"tree_param":{"num_deleted":"0","num_feature":"47","num_nodes":"13","size_leaf_vector":"1"}},{"base_weights":[1.6276911E-1,-4.007508E0,9.837956E0,-7.3843613E0,-6.565685E-2,4.6562082E-1,1.2916957E1,-9.9798936E-1,-5.1787734E-1,3.8861847E-1,-3.269244E-2,8.0149996E-1,1.4291524E0],"categories":[],"categories_nodes":[],"categories_segments":[],"categories_sizes":[],"default_left":[0,0,0,0,0,0,0,0,0,0,0,0,0],"id":4,"left_children":[1,3,5,7,9,-1,11,-1,-1,-1,-1,-1,-1],"loss_changes":[3.7514607E3,8.6473376E2,3.8658496E2,1.4867993E2,3.327761E1,0E0,4.8828125E-4,0E0,0E0,0E0,0E0,0E0,0E0],"parents":[2147483647,0,0,1,1,2,2,3,3,4,4,6,6],"right_children":[2,4,6,8,10,-1,12,-1,-1,-1,-1,-1,-1],"split_conditions":[8.36E1,4.4E1,9.1E1,2.1E1,6.05E1,4.6562082E-1,9.23E1,-9.9798936E-1,-5.1787734E-1,3.8861847E-1,-3.269244E-2,8.0149996E-1,1.4291524E0],"split_indices":[1,10,10,10,3,0,3,0,0,0,0,0,0],"split_type":[0,0,0,0,0,0,0,0,0,0,0,0,0],"sum_hessian":[9.1E1,6.4E1,2.7E1,3.4E1,3E1,1.1E1,1.6E1,1.4E1,2E1,1E0,2.9E1,5E0,1.1E1],"tree_param":{"num_deleted":"0","num_feature":"47","num_nodes":"13","size_leaf_vector":"1"}},{"base_weights":[5.9863444E-2,-4.7439923E0,5.3091974E0,-7.612152E0,-2.3374984E0,3.6038413E0,1.2319651E0,-8.9662236E-1,-5.5660665E-1,3.6918756E-1,-2.7113926E-1,4.393588E-1,-1.2018646E0],"categories":[],"categories_nodes":[],"categories_segments":[],"categories_sizes":[],"default_left":[0,0,0,0,0,0,0,0,0,0,0,0,0],"id":5,"left_children":[1,3,5,7,9,11,-1,-1,-1,-1,-1,-1,-1],"loss_changes":[2.269504E3,3.0661047E2,4.6968066E2,8.274902E0,7.087752E1,4.9696613E2,0E0,0E0,0E0,0E0,0E0,0E0,0E0],"parents":[2147483647,0,0,1,1,2,2,3,3,4,4,5,5],"right_children":[2,4,6,8,10,12,-1,-1,-1,-1,-1,-1,-1],"split_conditions":[7.94E1,2.8E1,2.07956E3,6.41E1,6.05E1,9.7E1,1.2319651E0,-8.9662236E-1,-5.5660665E-1,3.6918756E-1,-2.7113926E-1,4.393588E-1,-1.2018646E0],"split_indices":[4,10,16,3,3,3,0,0,0,0,0,0,0],"split_type":[0,0,0,0,0,0,0,0,0,0,0,0,0],"sum_hessian":[8.8E1,4.6E1,4.2E1,2E1,2.6E1,3.5E1,7E0,1E1,1E1,1E0,2.5E1,3.4E1,1E0],"tree_param":{"num_deleted":"0","num_feature":"47","num_nodes":"13","size_leaf_vector":"1"}},{"base_weights":[8.370374E-2,-5.5079384E0,4.8748317E0,-7.5685835E-1,-3.4765973E0,2.010572E0,8.927479E0,-3.8387668E-1,-1.4050339E-1,7.726386E-2,2.9117778E-1,1.0599211E0,-1.1417713E0],"categories":[],"categories_nodes":[],"categories_segments":[],"categories_sizes":[],"default_left":[0,0,0,0,0,0,0,0,0,0,0,0,0],"id":6,"left_children":[1,3,5,-1,7,9,11,-1,-1,-1,-1,-1,-1],"loss_changes":[2.4379746E3,1.4949377E2,5.508346E2,0E0,1.1862335E1,3.1219246E1,8.012528E2,0E0,0E0,0E0,0E0,0E0,0E0],"parents":[2147483647,0,0,1,1,2,2,4,4,5,5,6,6],"right_children":[2,4,6,-1,8,10,12,-1,-1,-1,-1,-1,-1],"split_conditions":[7.585E1,6.7725E1,8.895E1,-7.5685835E-1,7.35E1,7.9525E1,1.038E2,-3.8387668E-1,-1.4050339E-1,7.726386E-2,2.9117778E-1,1.0599211E0,-1.1417713E0],"split_indices":[4,5,4,0,2,5,0,0,0,0,0,0,0],"split_type":[0,0,0,0,0,0,0,0,0,0,0,0,0],"sum_hessian":[8.9E1,4.1E1,4.8E1,1.9E1,2.2E1,2.9E1,1.9E1,1.8E1,4E0,1.3E1,1.6E1,1.8E1,1E0],"tree_param":{"num_deleted":"0","num_feature":"47","num_nodes":"13","size_leaf_vector":"1"}},{"base_weights":[6.0688573E-1,-3.1932E0,6.5611095E0,-7.616498E-1,-1.7816635E0,7.3921323E0,-1.0846828E0,-3.3293542E-1,-1.7329624E-4,3.5658795E-1,1.0595142E0],"categories":[],"categories_nodes":[],"categories_segments":[],"categories_sizes":[],"default_left":[0,0,0,0,0,0,0,0,0,0,0],"id":7,"left_children":[1,3,5,-1,7,9,-1,-1,-1,-1,-1],"loss_changes":[2.034715E3,3.2983057E2,5.865049E2,0E0,1.1844983E2,3.7890674E2,0E0,0E0,0E0,0E0,0E0],"parents":[2147483647,0,0,1,1,2,2,4,4,5,5],"right_children":[2,4,6,-1,8,10,-1,-1,-1,-1,-1],"split_conditions":[8.26E1,6.65E1,1.038E2,-7.616498E-1,7.39E1,8.935E1,-1.0846828E0,-3.3293542E-1,-1.7329624E-4,3.5658795E-1,1.0595142E0],"split_indices":[0,0,0,0,3,4,0,0,0,0,0],"split_type":[0,0,0,0,0,0,0,0,0,0,0],"sum_hessian":[8.8E1,5.4E1,3.4E1,1.2E1,4.2E1,3.3E1,1E0,2.2E1,2E1,1.6E1,1.7E1],"tree_param":{"num_deleted":"0","num_feature":"47","num_nodes":"11","size_leaf_vector":"1"}},{"base_weights":[-7.759811E-1,-4.616901E0,2.8313134E0,-6.3510127E0,-2.4977834E0,3.3522084E0,-1.0304486E0,-8.2579464E-1,-4.7834522E-1,-2.8706065E-1,-7.30629E-2,6.3275725E-2,6.4300215E-1],"categories":[],"categories_nodes":[],"categories_segments":[],"categories_sizes":[],"default_left":[0,0,0,0,0,0,0,0,0,0,0,0,0],"id":8,"left_children":[1,3,5,7,9,11,-1,-1,-1,-1,-1,-1,-1],"loss_changes":[1.232341E3,1.4215234E2,3.49292E2,2.9250854E1,1.1738205E1,3.7257968E2,0E0,0E0,0E0,0E0,0E0,0E0,0E0],"parents":[2147483647,0,0,1,1,2,2,3,3,4,4,5,5],"right_children":[2,4,6,8,10,12,-1,-1,-1,-1,-1,-1,-1],"split_conditions":[7.67E1,6.96E1,1.014E2,6.34E1,7.36E1,8.455E1,-1.0304486E0,-8.2579464E-1,-4.7834522E-1,-2.8706065E-1,-7.30629E-2,6.3275725E-2,6.4300215E-1],"split_indices":[0,0,0,0,2,4,0,0,0,0,0,0,0],"split_type":[0,0,0,0,0,0,0,0,0,0,0,0,0],"sum_hessian":[8.7E1,4.2E1,4.5E1,2.2E1,2E1,4.4E1,1E0,8E0,1.4E1,1.6E1,4E0,2.4E1,2E1],"tree_param":{"num_deleted":"0","num_feature":"47","num_nodes":"13","size_leaf_vector":"1"}},{"base_weights":[2.6046675E-1,-2.8692164E0,5.65839E0,-5.435716E0,-8.379526E-1,6.4470434E0,-9.789261E-1,-7.8084594E-1,-4.0791795E-1,-1.5338841E-1,9.1607824E-2,2.9377845E-1,9.772692E-1],"categories":[],"categories_nodes":[],"categories_segments":[],"categories_sizes":[],"default_left":[0,0,0,0,0,0,0,0,0,0,0,0,0],"id":9,"left_children":[1,3,5,7,9,11,-1,-1,-1,-1,-1,-1,-1],"loss_changes":[1.5197825E3,2.9259967E2,4.6514575E2,4.8615723E1,4.168777E1,3.447478E2,0E0,0E0,0E0,0E0,0E0,0E0,0E0],"parents":[2147483647,0,0,1,1,2,2,3,3,4,4,5,5],"right_children":[2,4,6,8,10,12,-1,-1,-1,-1,-1,-1,-1],"split_conditions":[8.26E1,7.08E1,1.038E2,6.34E1,7.87E1,9.5E1,-9.789261E-1,-7.8084594E-1,-4.0791795E-1,-1.5338841E-1,9.1607824E-2,2.9377845E-1,9.772692E-1],"split_indices":[0,0,0,0,3,10,0,0,0,0,0,0,0],"split_type":[0,0,0,0,0,0,0,0,0,0,0,0,0],"sum_hessian":[8.8E1,5.6E1,3.2E1,2.4E1,3.2E1,3.1E1,1E0,7E0,1.7E1,2.3E1,9E0,1.6E1,1.5E1],"tree_param":{"num_deleted":"0","num_feature":"47","num_nodes":"13","size_leaf_vector":"1"}},{"base_weights":[1.7871001E-1,-3.0447233E0,3.9841604E0,-4.9314575E0,-1.6075336E0,4.509364E0,-9.2997974E-1,-6.9180906E-1,-3.9402077E-1,-2.3916338E-1,-4.84581E-2,2.386744E-1,8.735739E-1],"categories":[],"categories_nodes":[],"categories_segments":[],"categories_sizes":[],"default_left":[0,0,0,0,0,0,0,0,0,0,0,0,0],"id":10,"left_children":[1,3,5,7,9,11,-1,-1,-1,-1,-1,-1,-1],"loss_changes":[1.1774591E3,1.3307544E2,3.4891455E2,1.6064758E1,2.613678E1,3.6490253E2,0E0,0E0,0E0,0E0,0E0,0E0,0E0],"parents":[2147483647,0,0,1,1,2,2,3,3,4,4,5,5],"right_children":[2,4,6,8,10,12,-1,-1,-1,-1,-1,-1,-1],"split_conditions":[7.89E1,6.96E1,1.038E2,6.31E1,7.36E1,9.01E1,-9.2997974E-1,-6.9180906E-1,-3.9402077E-1,-2.3916338E-1,-4.84581E-2,2.386744E-1,8.735739E-1],"split_indices":[0,0,0,0,2,3,0,0,0,0,0,0,0],"split_type":[0,0,0,0,0,0,0,0,0,0,0,0,0],"sum_hessian":[9.4E1,5.1E1,4.3E1,2.1E1,3E1,4.2E1,1E0,5E0,1.6E1,1.7E1,1.3E1,2.9E1,1.3E1],"tree_param":{"num_deleted":"0","num_feature":"47","num_nodes":"13","size_leaf_vector":"1"}},{"base_weights":[1.581436E-1,-1.6378483E0,5.539243E0,-3.4213486E0,-9.285194E-2,3.3244765E0,8.085993E-1,-4.2054924E-1,-2.3743616E-1,4.1509834E-1,-4.4392567E-2,2.8887177E-2,3.535764E-1],"categories":[],"categories_nodes":[],"categories_segments":[],"categories_sizes":[],"default_left":[0,0,0,0,0,0,0,0,0,0,0,0,0],"id":11,"left_children":[1,3,5,7,9,11,-1,-1,-1,-1,-1,-1,-1],"loss_changes":[8.885338E2,1.8981192E2,1.02848816E2,1.6286224E1,5.845889E1,7.958023E0,0E0,0E0,0E0,0E0,0E0,0E0,0E0],"parents":[2147483647,0,0,1,1,2,2,3,3,4,4,5,5],"right_children":[2,4,6,8,10,12,-1,-1,-1,-1,-1,-1,-1],"split_conditions":[8.455E1,4.4E1,9.23E1,2.5E1,6.7E1,8.2E1,8.085993E-1,-4.2054924E-1,-2.3743616E-1,4.1509834E-1,-4.4392567E-2,2.8887177E-2,3.535764E-1],"split_indices":[4,10,3,10,3,10,0,0,0,0,0,0,0],"split_type":[0,0,0,0,0,0,0,0,0,0,0,0,0],"sum_hessian":[9E1,6.8E1,2.2E1,3.1E1,3.7E1,1.3E1,9E0,1.6E1,1.5E1,2E0,3.5E1,1E0,1.2E1],"tree_param":{"num_deleted":"0","num_feature":"47","num_nodes":"13","size_leaf_vector":"1"}},{"base_weights":[1.9247825E-1,-1.894336E0,4.2338004E0,-3.4409115E0,-2.685318E-2,4.943551E0,-9.239109E-1,-4.896937E-1,-2.2370405E-1,5.0171416E-2,-2.2247417E-1,2.2271447E-1,7.209372E-1],"categories":[],"categories_nodes":[],"categories_segments":[],"categories_sizes":[],"default_left":[0,0,0,0,0,0,0,0,0,0,0,0,0],"id":12,"left_children":[1,3,5,7,9,11,-1,-1,-1,-1,-1,-1,-1],"loss_changes":[8.1763513E2,1.8475264E2,3.6123346E2,5.039569E1,3.5968147E1,1.8090015E2,0E0,0E0,0E0,0E0,0E0,0E0,0E0],"parents":[2147483647,0,0,1,1,2,2,3,3,4,4,5,5],"right_children":[2,4,6,8,10,12,-1,-1,-1,-1,-1,-1,-1],"split_conditions":[8.34E1,7.25E1,1.038E2,6.65E1,8.2E1,9.5E1,-9.239109E-1,-4.896937E-1,-2.2370405E-1,5.0171416E-2,-2.2247417E-1,2.2271447E-1,7.209372E-1],"split_indices":[0,0,0,0,1,10,0,0,0,0,0,0,0],"split_type":[0,0,0,0,0,0,0,0,0,0,0,0,0],"sum_hessian":[9.5E1,6.3E1,3.2E1,3.4E1,2.9E1,3.1E1,1E0,1.4E1,2E1,2.4E1,5E0,1.5E1,1.6E1],"tree_param":{"num_deleted":"0","num_feature":"47","num_nodes":"13","size_leaf_vector":"1"}},{"base_weights":[-8.7814376E-2,-1.7627876E0,4.1366305E0,-3.723638E0,-2.8425372E-1,5.0318956E0,-4.105947E0,-5.1582605E-1,-2.9636073E-1,-1.0591866E-1,3.566088E-2,2.6190245E-1,7.426026E-1,2.6182327E-1,-8.777153E-1],"categories":[],"categories_nodes":[],"categories_segments":[],"categories_sizes":[],"default_left":[0,0,0,0,0,0,0,0,0,0,0,0,0,0,0],"id":13,"left_children":[1,3,5,7,9,11,13,-1,-1,-1,-1,-1,-1,-1,-1],"loss_changes":[6.228894E2,1.8159012E2,2.0514304E2,1.4152557E1,1.8752855E1,1.1341583E2,1.1721071E2,0E0,0E0,0E0,0E0,0E0,0E0,0E0,0E0],"parents":[2147483647,0,0,1,1,2,2,3,3,4,4,5,5,6,6],"right_children":[2,4,6,8,10,12,14,-1,-1,-1,-1,-1,-1,-1,-1],"split_conditions":[8.42E1,3.9E1,1.09E2,6.34E1,7.6725E1,9.355E1,8.85E1,-5.1582605E-1,-2.9636073E-1,-1.0591866E-1,3.566088E-2,2.6190245E-1,7.426026E-1,2.6182327E-1,-8.777153E-1],"split_indices":[1,10,10,1,5,4,1,0,0,0,0,0,0,0,0],"split_type":[0,0,0,0,0,0,0,0,0,0,0,0,0,0,0],"sum_hessian":[8.6E1,6.2E1,2.4E1,2.6E1,3.6E1,2.2E1,2E0,7E0,1.9E1,1.6E1,2E1,1.2E1,1E1,1E0,1E0],"tree_param":{"num_deleted":"0","num_feature":"47","num_nodes":"15","size_leaf_vector":"1"}},{"base_weights":[8.480329E-2,-2.645727E0,2.1187477E0,-4.8203084E-1,-2.1352186E0,2.4668095E0,-8.338295E-1,-3.5367033E-1,-1.5889749E-1,1.11046195E-1,5.3535384E-1],"categories":[],"categories_nodes":[],"categories_segments":[],"categories_sizes":[],"default_left":[0,0,0,0,0,0,0,0,0,0,0],"id":14,"left_children":[1,3,5,-1,7,9,-1,-1,-1,-1,-1],"loss_changes":[5.3321155E2,3.522339E1,2.2075233E2,0E0,2.1174591E1,2.0548709E2,0E0,0E0,0E0,0E0,0E0],"parents":[2147483647,0,0,1,1,2,2,4,4,5,5],"right_children":[2,4,6,-1,8,10,-1,-1,-1,-1,-1],"split_conditions":[7.55E1,6.2E1,1.038E2,-4.8203084E-1,6.46E1,8.935E1,-8.338295E-1,-3.5367033E-1,-1.5889749E-1,1.11046195E-1,5.3535384E-1],"split_indices":[0,0,0,0,3,4,0,0,0,0,0],"split_type":[0,0,0,0,0,0,0,0,0,0,0],"sum_hessian":[9.4E1,4E1,5.4E1,6E0,3.4E1,5.3E1,1E0,8E0,2.6E1,3.7E1,1.6E1],"tree_param":{"num_deleted":"0","num_feature":"47","num_nodes":"11","size_leaf_vector":"1"}},{"base_weights":[-2.7853492E-1,-1.9034851E0,2.0439823E0,-3.7986138E0,-1.2572285E0,2.5026166E0,-7.921379E-1,-1.5017357E-1,-4.2885137E-1,-8.755387E-2,-2.2021066E-1,1.3610165E-1,6.1567265E-1],"categories":[],"categories_nodes":[],"categories_segments":[],"categories_sizes":[],"default_left":[0,0,0,0,0,0,0,0,0,0,0,0,0],"id":15,"left_children":[1,3,5,7,9,11,-1,-1,-1,-1,-1,-1,-1],"loss_changes":[3.6619223E2,6.5034424E1,2.0264247E2,9.313141E0,1.3940582E1,1.5431035E2,0E0,0E0,0E0,0E0,0E0,0E0,0E0],"parents":[2147483647,0,0,1,1,2,2,3,3,4,4,5,5],"right_children":[2,4,6,8,10,12,-1,-1,-1,-1,-1,-1,-1],"split_conditions":[7.98E1,1.9E1,1.038E2,7E0,1E0,9.64E1,-7.921379E-1,-1.5017357E-1,-4.2885137E-1,-8.755387E-2,-2.2021066E-1,1.3610165E-1,6.1567265E-1],"split_indices":[2,10,0,10,7,0,0,0,0,0,0,0,0],"split_type":[0,0,0,0,0,0,0,0,0,0,0,0,0],"sum_hessian":[9.5E1,5.6E1,3.9E1,1.3E1,4.3E1,3.8E1,1E0,3E0,1E1,3.2E1,1.1E1,3E1,8E0],"tree_param":{"num_deleted":"0","num_feature":"47","num_nodes":"13","size_leaf_vector":"1"}},{"base_weights":[-7.063538E-2,-1.5671633E0,2.652465E0,-4.303489E0,-1.1834329E0,3.2056866E0,-7.5253105E-1,-1.9052416E-1,-4.8817396E-1,-1.3485359E-1,3.7835082E-1,1.9261755E-1,6.2615293E-1],"categories":[],"categories_nodes":[],"categories_segments":[],"categories_sizes":[],"default_left":[0,0,0,0,0,0,0,0,0,0,0,0,0],"id":16,"left_children":[1,3,5,7,9,11,-1,-1,-1,-1,-1,-1,-1],"loss_changes":[3.7907492E2,5.7907776E1,2.0993237E2,4.0663147E-1,4.9385216E1,1.13058716E2,0E0,0E0,0E0,0E0,0E0,0E0,0E0],"parents":[2147483647,0,0,1,1,2,2,3,3,4,4,5,5],"right_children":[2,4,6,8,10,12,-1,-1,-1,-1,-1,-1,-1],"split_conditions":[8.26E1,6.31E1,1.038E2,6.31E1,1.6363E2,9.61E1,-7.5253105E-1,-1.9052416E-1,-4.8817396E-1,-1.3485359E-1,3.7835082E-1,1.9261755E-1,6.2615293E-1],"split_indices":[0,0,0,2,11,0,0,0,0,0,0,0,0],"split_type":[0,0,0,0,0,0,0,0,0,0,0,0,0],"sum_hessian":[9.1E1,5.9E1,3.2E1,6E0,5.3E1,3.1E1,1E0,2E0,4E0,5.2E1,1E0,2.3E1,8E0],"tree_param":{"num_deleted":"0","num_feature":"47","num_nodes":"13","size_leaf_vector":"1"}},{"base_weights":[-2.3320714E-2,-1.4980205E0,1.9914722E0,-2.4742134E0,-4.3346295E-1,2.3987112E0,-7.149044E-1,-3.855477E-1,-1.9462542E-1,3.5943338E-1,-7.157641E-2,1.2914184E-1,5.5914485E-1],"categories":[],"categories_nodes":[],"categories_segments":[],"categories_sizes":[],"default_left":[0,0,0,0,0,0,0,0,0,0,0,0,0],"id":17,"left_children":[1,3,5,7,9,11,-1,-1,-1,-1,-1,-1,-1],"loss_changes":[2.8821988E2,5.7123474E1,1.6976585E2,1.3644531E1,3.4410133E1,1.3419089E2,0E0,0E0,0E0,0E0,0E0,0E0,0E0],"parents":[2147483647,0,0,1,1,2,2,3,3,4,4,5,5],"right_children":[2,4,6,8,10,12,-1,-1,-1,-1,-1,-1,-1],"split_conditions":[7.89E1,7.08E1,1.038E2,6.31E1,6.05E1,1E2,-7.149044E-1,-3.855477E-1,-1.9462542E-1,3.5943338E-1,-7.157641E-2,1.2914184E-1,5.5914485E-1],"split_indices":[0,0,0,0,3,10,0,0,0,0,0,0,0],"split_type":[0,0,0,0,0,0,0,0,0,0,0,0,0],"sum_hessian":[9.5E1,5.5E1,4E1,2.8E1,2.7E1,3.9E1,1E0,6E0,2.2E1,1E0,2.6E1,3E1,9E0],"tree_param":{"num_deleted":"0","num_feature":"47","num_nodes":"13","size_leaf_vector":"1"}},{"base_weights":[-2.905409E-1,-1.4489716E0,1.824501E0,-3.1390345E0,-8.15861E-1,2.3059912E0,-6.7915916E-1,-3.6627683E-1,-1.9424102E-1,-4.1360497E-2,-1.6770276E-1,6.915185E-2,3.3742347E-1],"categories":[],"categories_nodes":[],"categories_segments":[],"categories_sizes":[],"default_left":[0,0,0,0,0,0,0,0,0,0,0,0,0],"id":18,"left_children":[1,3,5,7,9,11,-1,-1,-1,-1,-1,-1,-1],"loss_changes":[2.2805557E2,6.1638786E1,1.5256396E2,2.912796E0,1.4894798E1,5.285544E1,0E0,0E0,0E0,0E0,0E0,0E0,0E0],"parents":[2147483647,0,0,1,1,2,2,3,3,4,4,5,5],"right_children":[2,4,6,8,10,12,-1,-1,-1,-1,-1,-1,-1],"split_conditions":[8.26E1,6.65E1,1.038E2,6.34E1,1E0,9.1E1,-6.7915916E-1,-3.6627683E-1,-1.9424102E-1,-4.1360497E-2,-1.6770276E-1,6.915185E-2,3.3742347E-1],"split_indices":[0,0,0,0,7,10,0,0,0,0,0,0,0],"split_type":[0,0,0,0,0,0,0,0,0,0,0,0,0],"sum_hessian":[9.1E1,5.9E1,3.2E1,1.5E1,4.4E1,3.1E1,1E0,9E0,6E0,3.1E1,1.3E1,1.3E1,1.8E1],"tree_param":{"num_deleted":"0","num_feature":"47","num_nodes":"13","size_leaf_vector":"1"}},{"base_weights":[-1.0516267E-2,-1.0986322E0,1.9203514E0,-1.7586036E0,5.3635735E-2,2.4144971E0,-6.4520115E-1,-2.9483896E-1,-1.233355E-1,6.0076006E-2,-1.8173142E-1,1.6573413E-1,5.868808E-1],"categories":[],"categories_nodes":[],"categories_segments":[],"categories_sizes":[],"default_left":[0,0,0,0,0,0,0,0,0,0,0,0,0],"id":19,"left_children":[1,3,5,7,9,11,-1,-1,-1,-1,-1,-1,-1],"loss_changes":[1.8069543E2,4.191983E1,1.4383057E2,1.823626E1,2.2588255E1,6.873694E1,0E0,0E0,0E0,0E0,0E0,0E0,0E0],"parents":[2147483647,0,0,1,1,2,2,3,3,4,4,5,5],"right_children":[2,4,6,8,10,12,-1,-1,-1,-1,-1,-1,-1],"split_conditions":[7.4E1,7.45E1,1.038E2,6.41E1,8.2E1,9.96E1,-6.4520115E-1,-2.9483896E-1,-1.233355E-1,6.0076006E-2,-1.8173142E-1,1.6573413E-1,5.868808E-1],"split_indices":[10,3,0,3,1,0,0,0,0,0,0,0,0],"split_type":[0,0,0,0,0,0,0,0,0,0,0,0,0],"sum_hessian":[8.4E1,5.4E1,3E1,3.4E1,2E1,2.9E1,1E0,9E0,2.5E1,1.6E1,4E0,2.5E1,4E0],"tree_param":{"num_deleted":"0","num_feature":"47","num_nodes":"13","size_leaf_vector":"1"}},{"base_weights":[-3.0851865E-2,-9.722927E-1,2.145265E0,-3.1613367E0,-6.218912E-1,2.6596966E0,-6.1294097E-1,-8.311793E-2,-3.7083563E-1,-1.1321677E-1,2.4813053E-3,1.437275E-1,4.4182324E-1],"categories":[],"categories_nodes":[],"categories_segments":[],"categories_sizes":[],"default_left":[0,0,0,0,0,0,0,0,0,0,0,0,0],"id":20,"left_children":[1,3,5,7,9,11,-1,-1,-1,-1,-1,-1,-1],"loss_changes":[1.9671092E2,4.942596E1,1.3974825E2,8.389465E0,1.9497974E1,5.384059E1,0E0,0E0,0E0,0E0,0E0,0E0,0E0],"parents":[2147483647,0,0,1,1,2,2,3,3,4,4,5,5],"right_children":[2,4,6,8,10,12,-1,-1,-1,-1,-1,-1,-1],"split_conditions":[8.49E1,6.34E1,1.038E2,6.08E1,7.45E1,1E2,-6.1294097E-1,-8.311793E-2,-3.7083563E-1,-1.1321677E-1,2.4813053E-3,1.437275E-1,4.4182324E-1],"split_indices":[0,0,0,2,3,10,0,0,0,0,0,0,0],"split_type":[0,0,0,0,0,0,0,0,0,0,0,0,0],"sum_hessian":[9.4E1,6.6E1,2.8E1,8E0,5.8E1,2.7E1,1E0,2E0,6E0,3.2E1,2.6E1,1.7E1,1E1],"tree_param":{"num_deleted":"0","num_feature":"47","num_nodes":"13","size_leaf_vector":"1"}},{"base_weights":[1.2794228E-2,-1.460613E0,9.577575E-1,-3.105278E0,-9.97282E-1,1.2001351E0,-5.822941E-1,-6.5877534E-2,-3.4032327E-1,-2.1639843E-1,-7.707184E-2,4.349951E-2,3.4620944E-1],"categories":[],"categories_nodes":[],"categories_segments":[],"categories_sizes":[],"default_left":[0,0,0,0,0,0,0,0,0,0,0,0,0],"id":21,"left_children":[1,3,5,7,9,11,-1,-1,-1,-1,-1,-1,-1],"loss_changes":[1.2113807E2,2.2811989E1,9.409328E1,2.8606644E0,5.7334805E0,8.849121E1,0E0,0E0,0E0,0E0,0E0,0E0,0E0],"parents":[2147483647,0,0,1,1,2,2,3,3,4,4,5,5],"right_children":[2,4,6,8,10,12,-1,-1,-1,-1,-1,-1,-1],"split_conditions":[7.45E1,6.31E1,1.038E2,6.08E1,6.08E1,9.9E1,-5.822941E-1,-6.5877534E-2,-3.4032327E-1,-2.1639843E-1,-7.707184E-2,4.349951E-2,3.4620944E-1],"split_indices":[0,0,0,2,3,10,0,0,0,0,0,0,0],"split_type":[0,0,0,0,0,0,0,0,0,0,0,0,0],"sum_hessian":[8.5E1,3.3E1,5.2E1,6E0,2.7E1,5.1E1,1E0,1E0,5E0,3E0,2.4E1,3.9E1,1.2E1],"tree_param":{"num_deleted":"0","num_feature":"47","num_nodes":"13","size_leaf_vector":"1"}},{"base_weights":[2.4001098E-1,-7.6501817E-1,2.356803E0,-1.3395202E0,4.903204E-1,2.8132226E0,-1.2280426E-1,-2.56461E-1,-9.273426E-2,1.6198985E-2,9.8312706E-2,1.5272014E-1,4.87286E-1,1.0010427E-1,-1.2057165E-1],"categories":[],"categories_nodes":[],"categories_segments":[],"categories_sizes":[],"default_left":[0,0,0,0,0,0,0,0,0,0,0,0,0,0,0],"id":22,"left_children":[1,3,5,7,9,11,13,-1,-1,-1,-1,-1,-1,-1,-1],"loss_changes":[1.71998E2,4.0322495E1,2.9770767E1,1.6810005E1,2.7532058E0,5.0830383E1,7.292111E0,0E0,0E0,0E0,0E0,0E0,0E0,0E0,0E0],"parents":[2147483647,0,0,1,1,2,2,3,3,4,4,5,5,6,6],"right_children":[2,4,6,8,10,12,14,-1,-1,-1,-1,-1,-1,-1,-1],"split_conditions":[8.3E1,7.74E1,7.264E2,6.41E1,1E0,1E2,9.64E1,-2.56461E-1,-9.273426E-2,1.6198985E-2,9.8312706E-2,1.5272014E-1,4.87286E-1,1.0010427E-1,-1.2057165E-1],"split_indices":[10,3,18,3,8,10,3,0,0,0,0,0,0,0,0],"split_type":[0,0,0,0,0,0,0,0,0,0,0,0,0,0,0],"sum_hessian":[7.9E1,5.4E1,2.5E1,3.7E1,1.7E1,2.1E1,4E0,8E0,2.9E1,1.1E1,6E0,1.4E1,7E0,2E0,2E0],"tree_param":{"num_deleted":"0","num_feature":"47","num_nodes":"15","size_leaf_vector":"1"}},{"base_weights":[-2.6526678E-2,-9.591982E-1,1.2436796E0,-1.5464997E0,-4.634898E-1,1.591871E0,-5.471508E-1,-1.7711885E-1,-4.283203E-2,-6.8792175E-3,-1.6377553E-1,5.763302E-2,3.4902966E-1],"categories":[],"categories_nodes":[],"categories_segments":[],"categories_sizes":[],"default_left":[0,0,0,0,0,0,0,0,0,0,0,0,0],"id":23,"left_children":[1,3,5,7,9,11,-1,-1,-1,-1,-1,-1,-1],"loss_changes":[1.007065E2,1.3548599E1,9.2884056E1,4.768692E0,1.286477E1,6.546594E1,0E0,0E0,0E0,0E0,0E0,0E0,0E0],"parents":[2147483647,0,0,1,1,2,2,3,3,4,4,5,5],"right_children":[2,4,6,8,10,12,-1,-1,-1,-1,-1,-1,-1],"split_conditions":[7.89E1,6.87E1,1.018E2,1E0,1E0,9.23E1,-5.471508E-1,-1.7711885E-1,-4.283203E-2,-6.8792175E-3,-1.6377553E-1,5.763302E-2,3.4902966E-1],"split_indices":[0,1,0,6,7,3,0,0,0,0,0,0,0],"split_type":[0,0,0,0,0,0,0,0,0,0,0,0,0],"sum_hessian":[8.3E1,4.8E1,3.5E1,2.1E1,2.7E1,3.4E1,1E0,1.7E1,4E0,2.1E1,6E0,2.3E1,1.1E1],"tree_param":{"num_deleted":"0","num_feature":"47","num_nodes":"13","size_leaf_vector":"1"}},{"base_weights":[-6.871832E-2,-7.2844756E-1,1.5359355E0,-8.600873E-1,2.4104412E0,8.491089E-1,2.8915575E0,-1.9878808E-1,-6.2319767E-2,6.199303E-2,2.9957315E-1,1.0402181E-1,-1.3909836E-1,4.676474E-1,5.283295E-2],"categories":[],"categories_nodes":[],"categories_segments":[],"categories_sizes":[],"default_left":[0,0,0,0,0,0,0,0,0,0,0,0,0,0,0],"id":24,"left_children":[1,3,5,7,9,11,13,-1,-1,-1,-1,-1,-1,-1,-1],"loss_changes":[1.0168937E2,3.0170944E1,2.3614914E1,1.6393887E1,1.2867622E0,1.0008976E1,3.5492767E1,0E0,0E0,0E0,0E0,0E0,0E0,0E0,0E0],"parents":[2147483647,0,0,1,1,2,2,3,3,4,4,5,5,6,6],"right_children":[2,4,6,8,10,12,14,-1,-1,-1,-1,-1,-1,-1,-1],"split_conditions":[8.42E1,1.13E2,9.9E1,6.41E1,7.63E1,9.61E1,1.5181E2,-1.9878808E-1,-6.2319767E-2,6.199303E-2,2.9957315E-1,1.0402181E-1,-1.3909836E-1,4.676474E-1,5.283295E-2],"split_indices":[4,10,10,3,1,1,22,0,0,0,0,0,0,0,0],"split_type":[0,0,0,0,0,0,0,0,0,0,0,0,0,0,0],"sum_hessian":[9.4E1,6.7E1,2.7E1,6.5E1,2E0,1.9E1,8E0,1E1,5.5E1,1E0,1E0,1.8E1,1E0,4E0,4E0],"tree_param":{"num_deleted":"0","num_feature":"47","num_nodes":"15","size_leaf_vector":"1"}},{"base_weights":[-1.2805788E-1,5.6399684E-2,-5.434641E-1,-6.4882183E-1,1.8313019E0,-1.2159256E-1,-9.642676E-3,1.1819219E-1,4.1924378E-1],"categories":[],"categories_nodes":[],"categories_segments":[],"categories_sizes":[],"default_left":[0,0,0,0,0,0,0,0,0],"id":25,"left_children":[1,3,-1,5,7,-1,-1,-1,-1],"loss_changes":[8.742323E1,1.1008601E2,0E0,1.9618465E1,3.337674E1,0E0,0E0,0E0,0E0],"parents":[2147483647,0,0,1,1,3,3,4,4],"right_children":[2,4,-1,6,8,-1,-1,-1,-1],"split_conditions":[7.9676E2,8.3E1,-5.434641E-1,4.3E1,9.96E1,-1.2159256E-1,-9.642676E-3,1.1819219E-1,4.1924378E-1],"split_indices":[18,10,0,10,0,0,0,0,0],"split_type":[0,0,0,0,0,0,0,0,0],"sum_hessian":[8.8E1,8.6E1,2E0,6.2E1,2.4E1,3E1,3.2E1,2E1,4E0],"tree_param":{"num_deleted":"0","num_feature":"47","num_nodes":"9","size_leaf_vector":"1"}},{"base_weights":[-9.3046874E-2,-6.1413753E-1,1.2806747E0,-2.1046245E0,-3.6383092E-1,1.7268562E0,-5.160023E-1,-2.702395E-2,-2.5294408E-1,2.7868462E-1,-4.611674E-2,9.8045975E-2,2.8230447E-1],"categories":[],"categories_nodes":[],"categories_segments":[],"categories_sizes":[],"default_left":[0,0,0,0,0,0,0,0,0,0,0,0,0],"id":26,"left_children":[1,3,5,7,9,11,-1,-1,-1,-1,-1,-1,-1],"loss_changes":[7.022236E1,2.572286E1,8.650107E1,7.109215E0,2.0299097E1,1.8505089E1,0E0,0E0,0E0,0E0,0E0,0E0,0E0],"parents":[2147483647,0,0,1,1,2,2,3,3,4,4,5,5],"right_children":[2,4,6,8,10,12,-1,-1,-1,-1,-1,-1,-1],"split_conditions":[8.49E1,6.34E1,1.038E2,6.08E1,6.05E1,1E2,-5.160023E-1,-2.702395E-2,-2.5294408E-1,2.7868462E-1,-4.611674E-2,9.8045975E-2,2.8230447E-1],"split_indices":[0,0,0,2,3,10,0,0,0,0,0,0,0],"split_type":[0,0,0,0,0,0,0,0,0,0,0,0,0],"sum_hessian":[9.6E1,7E1,2.6E1,9E0,6.1E1,2.5E1,1E0,2E0,7E0,1E0,6E1,1.6E1,9E0],"tree_param":{"num_deleted":"0","num_feature":"47","num_nodes":"13","size_leaf_vector":"1"}},{"base_weights":[1.3112597E-1,-3.7631026E-1,1.7921724E0,-1.2691809E0,1.598476E-1,1.1458597E0,3.6312014E-1,-1.9527566E-1,-9.664704E-2,7.12531E-4,2.2446774E-1,1.6927926E-1,-1.0548706E-1],"categories":[],"categories_nodes":[],"categories_segments":[],"categories_sizes":[],"default_left":[0,0,0,0,0,0,0,0,0,0,0,0,0],"id":27,"left_children":[1,3,5,7,9,11,-1,-1,-1,-1,-1,-1,-1],"loss_changes":[7.569031E1,3.323453E1,2.07995E1,3.4927826E0,1.3993605E1,2.2247755E1,0E0,0E0,0E0,0E0,0E0,0E0,0E0],"parents":[2147483647,0,0,1,1,2,2,3,3,4,4,5,5],"right_children":[2,4,6,8,10,12,-1,-1,-1,-1,-1,-1,-1],"split_conditions":[8.455E1,7.08E1,9.96E1,6.34E1,1.13E2,9.92E1,3.6312014E-1,-1.9527566E-1,-9.664704E-2,7.12531E-4,2.2446774E-1,1.6927926E-1,-1.0548706E-1],"split_indices":[4,0,0,0,10,1,0,0,0,0,0,0,0],"split_type":[0,0,0,0,0,0,0,0,0,0,0,0,0],"sum_hessian":[8.8E1,6.8E1,2E1,2.5E1,4.3E1,1.6E1,4E0,6E0,1.9E1,4.1E1,2E0,1.3E1,3E0],"tree_param":{"num_deleted":"0","num_feature":"47","num_nodes":"13","size_leaf_vector":"1"}},{"base_weights":[-1.6692227E-1,-4.4214463E-1,1.9749707E0,-2.4649732E-1,-4.3423787E-1,2.9787107E0,1.747406E-1,-8.75793E-2,5.0520808E-2,3.2557705E-1,6.581765E-2,6.7436986E-2,-3.831355E-2],"categories":[],"categories_nodes":[],"categories_segments":[],"categories_sizes":[],"default_left":[0,0,0,0,0,0,0,0,0,0,0,0,0],"id":28,"left_children":[1,3,5,7,-1,9,11,-1,-1,-1,-1,-1,-1],"loss_changes":[5.6875427E1,6.37906E1,1.9356087E1,3.9232147E1,0E0,2.3576164E0,1.6520311E0,0E0,0E0,0E0,0E0,0E0,0E0],"parents":[2147483647,0,0,1,1,2,2,3,3,5,5,6,6],"right_children":[2,4,6,8,-1,10,12,-1,-1,-1,-1,-1,-1],"split_conditions":[5.921093E7,9.7E1,3.607812E8,7.65E1,-4.3423787E-1,1E0,9.74E1,-8.75793E-2,5.0520808E-2,3.2557705E-1,6.581765E-2,6.7436986E-2,-3.831355E-2],"split_indices":[26,1,30,5,0,8,0,0,0,0,0,0,0],"split_type":[0,0,0,0,0,0,0,0,0,0,0,0,0],"sum_hessian":[9.4E1,8.4E1,1E1,8.1E1,3E0,6E0,4E0,4.4E1,3.7E1,5E0,1E0,2E0,2E0],"tree_param":{"num_deleted":"0","num_feature":"47","num_nodes":"13","size_leaf_vector":"1"}},{"base_weights":[-5.0474167E-2,5.831738E-2,-4.866461E-1,-9.1199166E-1,7.346026E-1,-1.7581087E-1,-6.179556E-2,1.3020758E-1,-6.5905906E-2],"categories":[],"categories_nodes":[],"categories_segments":[],"categories_sizes":[],"default_left":[0,0,0,0,0,0,0,0,0],"id":29,"left_children":[1,3,-1,5,7,-1,-1,-1,-1],"loss_changes":[4.7438274E1,5.907225E1,0E0,8.118761E0,4.277403E1,0E0,0E0,0E0,0E0],"parents":[2147483647,0,0,1,1,3,3,4,4],"right_children":[2,4,-1,6,8,-1,-1,-1,-1],"split_conditions":[1.038E2,7.475E1,-4.866461E-1,1.5E1,1E0,-1.7581087E-1,-6.179556E-2,1.3020758E-1,-6.5905906E-2],"split_indices":[0,4,0,10,7,0,0,0,0],"split_type":[0,0,0,0,0,0,0,0,0],"sum_hessian":[8.9E1,8.8E1,1E0,3.6E1,5.2E1,8E0,2.8E1,3.7E1,1.5E1],"tree_param":{"num_deleted":"0","num_feature":"47","num_nodes":"9","size_leaf_vector":"1"}},{"base_weights":[-1.2131565E-1,-1.6431041E-2,-4.6231386E-1,-4.5390382E-1,1.2967342E0,2.3073769E-1,-5.318832E-2,5.02212E-2,2.3885761E-1],"categories":[],"categories_nodes":[],"categories_segments":[],"categories_sizes":[],"default_left":[0,0,0,0,0,0,0,0,0],"id":30,"left_children":[1,3,-1,5,7,-1,-1,-1,-1],"loss_changes":[4.1475166E1,5.0567837E1,0E0,1.5438565E1,1.788527E1,0E0,0E0,0E0,0E0],"parents":[2147483647,0,0,1,1,3,3,4,4],"right_children":[2,4,-1,6,8,-1,-1,-1,-1],"split_conditions":[1.038E2,8.49E1,-4.6231386E-1,6.05E1,1E2,2.3073769E-1,-5.318832E-2,5.02212E-2,2.3885761E-1],"split_indices":[0,0,0,3,10,0,0,0,0],"split_type":[0,0,0,0,0,0,0,0,0],"sum_hessian":[8.7E1,8.6E1,1E0,6.5E1,2.1E1,1E0,6.4E1,1.3E1,8E0],"tree_param":{"num_deleted":"0","num_feature":"47","num_nodes":"9","size_leaf_vector":"1"}},{"base_weights":[-1.6621369E-1,-6.828473E-2,-4.391981E-1,-1.0195135E0,2.839887E-1,-1.3428828E-1,-4.23475E-3,3.8626213E-3,1.3644543E-1],"categories":[],"categories_nodes":[],"categories_segments":[],"categories_sizes":[],"default_left":[0,0,0,0,0,0,0,0,0],"id":31,"left_children":[1,3,-1,5,7,-1,-1,-1,-1],"loss_changes":[3.653052E1,2.9777681E1,0E0,7.526785E0,1.7179169E1,0E0,0E0,0E0,0E0],"parents":[2147483647,0,0,1,1,3,3,4,4],"right_children":[2,4,-1,6,8,-1,-1,-1,-1],"split_conditions":[1.018E2,7.07E1,-4.391981E-1,1E0,8.935E1,-1.3428828E-1,-4.23475E-3,3.8626213E-3,1.3644543E-1],"split_indices":[0,0,0,8,4,0,0,0,0],"split_type":[0,0,0,0,0,0,0,0,0],"sum_hessian":[8.8E1,8.7E1,1E0,2.3E1,6.4E1,1.7E1,6E0,5.3E1,1.1E1],"tree_param":{"num_deleted":"0","num_feature":"47","num_nodes":"9","size_leaf_vector":"1"}},{"base_weights":[-9.786497E-2,-1.0131998E-2,-4.1723824E-1,-9.266777E-1,3.353799E-1,-1.5684785E-1,-5.5429526E-2,7.247383E-2,-5.8909353E-2],"categories":[],"categories_nodes":[],"categories_segments":[],"categories_sizes":[],"default_left":[0,0,0,0,0,0,0,0,0],"id":32,"left_children":[1,3,-1,5,7,-1,-1,-1,-1],"loss_changes":[3.3917336E1,3.007847E1,0E0,5.3444786E0,2.5263592E1,0E0,0E0,0E0,0E0],"parents":[2147483647,0,0,1,1,3,3,4,4],"right_children":[2,4,-1,6,8,-1,-1,-1,-1],"split_conditions":[1.038E2,7.08E1,-4.1723824E-1,6.41E1,1E0,-1.5684785E-1,-5.5429526E-2,7.247383E-2,-5.8909353E-2],"split_indices":[0,0,0,3,7,0,0,0,0],"split_type":[0,0,0,0,0,0,0,0,0],"sum_hessian":[9.4E1,9.3E1,1E0,2.5E1,6.8E1,8E0,1.7E1,4.8E1,2E1],"tree_param":{"num_deleted":"0","num_feature":"47","num_nodes":"9","size_leaf_vector":"1"}},{"base_weights":[-1.0221867E-1,-2.516872E-1,2.9127064E-1,-3.6818147E-1,1.5693634E0,-1.7454338E-1,-2.2519652E-2,2.4453048E-1,1.703008E-2],"categories":[],"categories_nodes":[],"categories_segments":[],"categories_sizes":[],"default_left":[0,0,0,0,0,0,0,0,0],"id":33,"left_children":[1,3,-1,5,7,-1,-1,-1,-1],"loss_changes":[3.813591E1,1.7549171E1,0E0,1.4573339E1,5.711047E0,0E0,0E0,0E0,0E0],"parents":[2147483647,0,0,1,1,3,3,4,4],"right_children":[2,4,-1,6,8,-1,-1,-1,-1],"split_conditions":[9.96E1,4.5224244E7,2.9127064E-1,6.34E1,7.372114E7,-1.7454338E-1,-2.2519652E-2,2.4453048E-1,1.703008E-2],"split_indices":[0,33,0,0,25,0,0,0,0],"split_type":[0,0,0,0,0,0,0,0,0],"sum_hessian":[8.2E1,7.9E1,3E0,7.5E1,4E0,6E0,6.9E1,2E0,2E0],"tree_param":{"num_deleted":"0","num_feature":"47","num_nodes":"9","size_leaf_vector":"1"}},{"base_weights":[1.4471884E-1,-1.11417495E-1,2.2305648E0,-3.772969E-2,-2.0392863E-1,2.9399976E-1,-4.0477753E-1,-3.7242647E-2,3.236804E-2,7.304764E-3,-6.8021394E-2],"categories":[],"categories_nodes":[],"categories_segments":[],"categories_sizes":[],"default_left":[0,0,0,0,0,0,0,0,0,0,0],"id":34,"left_children":[1,3,5,7,-1,-1,9,-1,-1,-1,-1],"loss_changes":[4.8866272E1,1.1572011E1,1.9886024E1,9.79757E0,0E0,0E0,4.445193E-1,0E0,0E0,0E0,0E0],"parents":[2147483647,0,0,1,1,2,2,3,3,6,6],"right_children":[2,4,6,8,-1,-1,10,-1,-1,-1,-1],"split_conditions":[9.61E1,1.00139E3,7.2986E2,7.55E1,-2.0392863E-1,2.9399976E-1,9.74E1,-3.7242647E-2,3.236804E-2,7.304764E-3,-6.8021394E-2],"split_indices":[0,17,18,0,0,0,0,0,0,0,0],"split_type":[0,0,0,0,0,0,0,0,0,0,0],"sum_hessian":[9E1,8.1E1,9E0,7.9E1,2E0,7E0,2E0,4.1E1,3.8E1,1E0,1E0],"tree_param":{"num_deleted":"0","num_feature":"47","num_nodes":"11","size_leaf_vector":"1"}},{"base_weights":[-2.682642E-2,5.8688875E-2,-4.0753898E-1,-4.6951998E-2,2.4737568E-1,-5.165332E-2,2.6414543E-2],"categories":[],"categories_nodes":[],"categories_segments":[],"categories_sizes":[],"default_left":[0,0,0,0,0,0,0],"id":35,"left_children":[1,3,-1,5,-1,-1,-1],"loss_changes":[3.3475735E1,2.4353485E1,0E0,1.3576306E1,0E0,0E0,0E0],"parents":[2147483647,0,0,1,1,3,3],"right_children":[2,4,-1,6,-1,-1,-1],"split_conditions":[1.038E2,9.96E1,-4.0753898E-1,7.35E1,2.4737568E-1,-5.165332E-2,2.6414543E-2],"split_indices":[0,0,0,0,0,0,0],"split_type":[0,0,0,0,0,0,0],"sum_hessian":[9.5E1,9.4E1,1E0,9.1E1,3E0,3.6E1,5.5E1],"tree_param":{"num_deleted":"0","num_feature":"47","num_nodes":"7","size_leaf_vector":"1"}},{"base_weights":[9.14439E-2,4.4024026E-1,-7.4644184E-1,1.7996919E-1,1.9057884E0,-5.450737E-1,-1.8183823E-1,-4.4360697E-2,5.19841E-2,2.4751568E-1,-2.4779003E-2,-8.5804574E-2,3.8228936E-2],"categories":[],"categories_nodes":[],"categories_segments":[],"categories_sizes":[],"default_left":[0,0,0,0,0,0,0,0,0,0,0,0,0],"id":36,"left_children":[1,3,5,7,9,11,-1,-1,-1,-1,-1,-1,-1],"loss_changes":[2.7800255E1,2.5213478E1,5.0527782E0,1.2522892E1,1.2875114E1,7.5839877E0,0E0,0E0,0E0,0E0,0E0,0E0,0E0],"parents":[2147483647,0,0,1,1,2,2,3,3,4,4,5,5],"right_children":[2,4,6,8,10,12,-1,-1,-1,-1,-1,-1,-1],"split_conditions":[1E0,9.61E1,9.64E1,7.08E1,1.5687E2,8.2E1,-1.8183823E-1,-4.4360697E-2,5.19841E-2,2.4751568E-1,-2.4779003E-2,-8.5804574E-2,3.8228936E-2],"split_indices":[7,0,2,0,12,0,0,0,0,0,0,0,0],"split_type":[0,0,0,0,0,0,0,0,0,0,0,0,0],"sum_hessian":[9.3E1,6.6E1,2.7E1,5.7E1,9E0,2.4E1,3E0,2E1,3.7E1,7E0,2E0,1.8E1,6E0],"tree_param":{"num_deleted":"0","num_feature":"47","num_nodes":"13","size_leaf_vector":"1"}},{"base_weights":[9.8285265E-3,9.585633E-2,-3.9953786E-1,1.3660049E-2,1.9213085E-1,-1.0866111E-1,1.3425492E-2],"categories":[],"categories_nodes":[],"categories_segments":[],"categories_sizes":[],"default_left":[0,0,0,0,0,0,0],"id":37,"left_children":[1,3,-1,5,-1,-1,-1],"loss_changes":[3.277154E1,1.3927975E1,0E0,1.2087718E1,0E0,0E0,0E0],"parents":[2147483647,0,0,1,1,3,3],"right_children":[2,4,-1,6,-1,-1,-1],"split_conditions":[1.038E2,9.96E1,-3.9953786E-1,6.34E1,1.9213085E-1,-1.0866111E-1,1.3425492E-2],"split_indices":[0,0,0,0,0,0,0],"split_type":[0,0,0,0,0,0,0],"sum_hessian":[9.3E1,9.2E1,1E0,8.9E1,3E0,8E0,8.1E1],"tree_param":{"num_deleted":"0","num_feature":"47","num_nodes":"7","size_leaf_vector":"1"}},{"base_weights":[-1.4701366E-2,-9.897851E-2,1.7798634E0,-2.9682302E-1,5.588573E-1,2.0725708E-1,4.508705E-2,-2.0235194E-2,-1.710537E-1,7.317751E-2,-6.649348E-2],"categories":[],"categories_nodes":[],"categories_segments":[],"categories_sizes":[],"default_left":[0,0,0,0,0,0,0,0,0,0,0],"id":38,"left_children":[1,3,5,7,9,-1,-1,-1,-1,-1,-1],"loss_changes":[1.3485359E1,1.1228565E1,6.2156296E-1,8.468506E0,4.71889E0,0E0,0E0,0E0,0E0,0E0,0E0],"parents":[2147483647,0,0,1,1,2,2,3,3,4,4],"right_children":[2,4,6,8,10,-1,-1,-1,-1,-1,-1],"split_conditions":[3.17375E3,8.56E1,1E0,8.42E1,2.9544726E8,2.0725708E-1,4.508705E-2,-2.0235194E-2,-1.710537E-1,7.317751E-2,-6.649348E-2],"split_indices":[15,0,7,3,31,0,0,0,0,0,0],"split_type":[0,0,0,0,0,0,0,0,0,0,0],"sum_hessian":[8.7E1,8.4E1,3E0,6.5E1,1.9E1,2E0,1E0,6.2E1,3E0,1.7E1,2E0],"tree_param":{"num_deleted":"0","num_feature":"47","num_nodes":"11","size_leaf_vector":"1"}},{"base_weights":[1.4324898E-2,1.0466281E-1,-3.8321993E-1,-1.2678395E-1,1.0379077E0,9.475573E-3,-7.1477026E-2,1.3896932E-1,-4.5281794E-2],"categories":[],"categories_nodes":[],"categories_segments":[],"categories_sizes":[],"default_left":[0,0,0,0,0,0,0,0,0],"id":39,"left_children":[1,3,-1,5,7,-1,-1,-1,-1],"loss_changes":[3.028497E1,1.8491295E1,0E0,9.055828E0,9.544342E0,0E0,0E0,0E0,0E0],"parents":[2147483647,0,0,1,1,3,3,4,4],"right_children":[2,4,-1,6,8,-1,-1,-1,-1],"split_conditions":[1.038E2,8.935E1,-3.8321993E-1,1E0,3.607812E8,9.475573E-3,-7.1477026E-2,1.3896932E-1,-4.5281794E-2],"split_indices":[0,4,0,7,30,0,0,0,0],"split_type":[0,0,0,0,0,0,0,0,0],"sum_hessian":[8.5E1,8.4E1,1E0,6.8E1,1.6E1,5E1,1.8E1,1.3E1,3E0],"tree_param":{"num_deleted":"0","num_feature":"47","num_nodes":"9","size_leaf_vector":"1"}},{"base_weights":[8.361344E-3,8.429404E-2,-3.6405888E-1,3.0833927E-1,-6.006891E-1,-3.7474167E-2,5.9140544E-2,-3.7678476E-2,-1.6260147E-1],"categories":[],"categories_nodes":[],"categories_segments":[],"categories_sizes":[],"default_left":[0,0,0,0,0,0,0,0,0],"id":40,"left_children":[1,3,-1,5,7,-1,-1,-1,-1],"loss_changes":[2.7183119E1,1.4918067E1,0E0,1.4336693E1,4.8971386E0,0E0,0E0,0E0,0E0],"parents":[2147483647,0,0,1,1,3,3,4,4],"right_children":[2,4,-1,6,8,-1,-1,-1,-1],"split_conditions":[1.018E2,1E0,-3.6405888E-1,6.96E1,9.32E1,-3.7474167E-2,5.9140544E-2,-3.7678476E-2,-1.6260147E-1],"split_indices":[0,7,0,1,1,0,0,0,0],"split_type":[0,0,0,0,0,0,0,0,0],"sum_hessian":[9.6E1,9.5E1,1E0,7.2E1,2.3E1,2.1E1,5.1E1,2E1,3E0],"tree_param":{"num_deleted":"0","num_feature":"47","num_nodes":"9","size_leaf_vector":"1"}},{"base_weights":[-1.606068E-2,2.2623941E-1,-6.550905E-1,3.164191E-2,1.3128211E0,2.0038033E-1,-8.789772E-1,1.8315391E-1,-3.320517E-3,1.5466647E-1,-3.958855E-2,-3.179207E-2,5.3901102E-2,1.9729614E-2,-9.460072E-2],"categories":[],"categories_nodes":[],"categories_segments":[],"categories_sizes":[],"default_left":[0,0,0,0,0,0,0,0,0,0,0,0,0,0,0],"id":41,"left_children":[1,3,5,7,9,11,13,-1,-1,-1,-1,-1,-1,-1,-1],"loss_changes":[1.4083535E1,1.3913902E1,4.964343E0,6.713747E0,4.6080036E0,1.2244384E0,1.6294956E0,0E0,0E0,0E0,0E0,0E0,0E0,0E0,0E0],"parents":[2147483647,0,0,1,1,2,2,3,3,4,4,5,5,6,6],"right_children":[2,4,6,8,10,12,14,-1,-1,-1,-1,-1,-1,-1,-1],"split_conditions":[1E0,8.84E1,6.79E1,6.05E1,1.2344E2,6.62E1,6.9E1,1.8315391E-1,-3.320517E-3,1.5466647E-1,-3.958855E-2,-3.179207E-2,5.3901102E-2,1.9729614E-2,-9.460072E-2],"split_indices":[7,5,3,3,14,2,2,0,0,0,0,0,0,0,0],"split_type":[0,0,0,0,0,0,0,0,0,0,0,0,0,0,0],"sum_hessian":[8.9E1,6.5E1,2.4E1,5.6E1,9E0,5E0,1.9E1,1E0,5.5E1,8E0,1E0,2E0,3E0,1E0,1.8E1],"tree_param":{"num_deleted":"0","num_feature":"47","num_nodes":"15","size_leaf_vector":"1"}},{"base_weights":[7.687478E-2,1.5681045E-1,-3.4387645E-1,-4.5712788E-2,1.3131515E0,-2.2330416E-2,5.290657E-2,2.3613118E-1,7.7398024E-3],"categories":[],"categories_nodes":[],"categories_segments":[],"categories_sizes":[],"default_left":[0,0,0,0,0,0,0,0,0],"id":42,"left_children":[1,3,-1,5,7,-1,-1,-1,-1],"loss_changes":[2.5269436E1,2.0434204E1,0E0,7.7738194E0,1.665572E1,0E0,0E0,0E0,0E0],"parents":[2147483647,0,0,1,1,3,3,4,4],"right_children":[2,4,-1,6,8,-1,-1,-1,-1],"split_conditions":[1.038E2,9.9E1,-3.4387645E-1,1E0,3.402059E8,-2.2330416E-2,5.290657E-2,2.3613118E-1,7.7398024E-3],"split_indices":[0,10,0,8,30,0,0,0,0],"split_type":[0,0,0,0,0,0,0,0,0],"sum_hessian":[8.7E1,8.6E1,1E0,7.4E1,1.2E1,5.7E1,1.7E1,6E0,6E0],"tree_param":{"num_deleted":"0","num_feature":"47","num_nodes":"9","size_leaf_vector":"1"}},{"base_weights":[-5.4210622E-2,1.6218102E-2,-3.2668266E-1,-7.032566E-2,1.2683996E0,-1.0452899E-3,-1.7432785E-1,1.5083711E-1,3.4271241E-3],"categories":[],"categories_nodes":[],"categories_segments":[],"categories_sizes":[],"default_left":[0,0,0,0,0,0,0,0,0],"id":43,"left_children":[1,3,-1,5,7,-1,-1,-1,-1],"loss_changes":[2.1095203E1,1.0059102E1,0E0,8.696072E0,1.7252388E0,0E0,0E0,0E0,0E0],"parents":[2147483647,0,0,1,1,3,3,4,4],"right_children":[2,4,-1,6,8,-1,-1,-1,-1],"split_conditions":[1.015E2,9.83E1,-3.2668266E-1,9.9495E2,1.014E2,-1.0452899E-3,-1.7432785E-1,1.5083711E-1,3.4271241E-3],"split_indices":[4,4,0,17,1,0,0,0,0],"split_type":[0,0,0,0,0,0,0,0,0],"sum_hessian":[9.2E1,9.1E1,1E0,8.6E1,5E0,8.4E1,2E0,4E0,1E0],"tree_param":{"num_deleted":"0","num_feature":"47","num_nodes":"9","size_leaf_vector":"1"}},{"base_weights":[-5.848013E-3,1.0351155E-1,-1.9512787E0,-1.0730553E-1,1.5703197E-1,-2.7720356E-1,6.658745E-2,1.1136532E-2,1.3833542E-1],"categories":[],"categories_nodes":[],"categories_segments":[],"categories_sizes":[],"default_left":[0,0,0,0,0,0,0,0,0],"id":44,"left_children":[1,3,5,-1,7,-1,-1,-1,-1],"loss_changes":[1.9987864E1,5.772865E0,1.25860615E1,0E0,4.662117E0,0E0,0E0,0E0,0E0],"parents":[2147483647,0,0,1,1,2,2,4,4],"right_children":[2,4,6,-1,8,-1,-1,-1,-1],"split_conditions":[1.00139E3,6.12E1,9.9975E1,-1.0730553E-1,1.4066E2,-2.7720356E-1,6.658745E-2,1.1136532E-2,1.3833542E-1],"split_indices":[17,1,5,0,13,0,0,0,0],"split_type":[0,0,0,0,0,0,0,0,0],"sum_hessian":[9.2E1,8.8E1,4E0,3E0,8.5E1,3E0,1E0,8.3E1,2E0],"tree_param":{"num_deleted":"0","num_feature":"47","num_nodes":"9","size_leaf_vector":"1"}},{"base_weights":[-1.85769E-2,4.364616E-2,-2.9648837E-1,-3.7606042E-2,1.5137069E-1,1.5790192E-2,-5.600632E-2],"categories":[],"categories_nodes":[],"categories_segments":[],"categories_sizes":[],"default_left":[0,0,0,0,0,0,0],"id":45,"left_children":[1,3,-1,5,-1,-1,-1],"loss_changes":[1.7728914E1,1.14042635E1,0E0,9.383588E0,0E0,0E0,0E0],"parents":[2147483647,0,0,1,1,3,3],"right_children":[2,4,-1,6,-1,-1,-1],"split_conditions":[1.038E2,9.96E1,-2.9648837E-1,1E0,1.5137069E-1,1.5790192E-2,-5.600632E-2],"split_indices":[0,0,0,7,0,0,0],"split_type":[0,0,0,0,0,0,0],"sum_hessian":[9.5E1,9.4E1,1E0,9E1,4E0,6.6E1,2.4E1],"tree_param":{"num_deleted":"0","num_feature":"47","num_nodes":"7","size_leaf_vector":"1"}},{"base_weights":[-1.3860561E-1,-7.616615E-2,-2.816639E-1,-2.7325186E-1,6.075878E-1,-1.3048649E-1,-1.7226858E-2,9.757086E-2,-2.1545192E-2],"categories":[],"categories_nodes":[],"categories_segments":[],"categories_sizes":[],"default_left":[0,0,0,0,0,0,0,0,0],"id":46,"left_children":[1,3,-1,5,7,-1,-1,-1,-1],"loss_changes":[1.4667598E1,1.2024738E1,0E0,6.9633346E0,6.269779E0,0E0,0E0,0E0,0E0],"parents":[2147483647,0,0,1,1,3,3,4,4],"right_children":[2,4,-1,6,8,-1,-1,-1,-1],"split_conditions":[1.038E2,8.82E1,-2.816639E-1,1.3E1,9.64E1,-1.3048649E-1,-1.7226858E-2,9.757086E-2,-2.1545192E-2],"split_indices":[0,0,0,10,2,0,0,0,0],"split_type":[0,0,0,0,0,0,0,0,0],"sum_hessian":[8.8E1,8.7E1,1E0,6.8E1,1.9E1,5E0,6.3E1,1.3E1,6E0],"tree_param":{"num_deleted":"0","num_feature":"47","num_nodes":"9","size_leaf_vector":"1"}},{"base_weights":[3.0449701E-2,8.959328E-2,-2.675808E-1,1.5425013E-2,1.3622025E-1,9.142849E-3,-1.02585986E-1],"categories":[],"categories_nodes":[],"categories_segments":[],"categories_sizes":[],"default_left":[0,0,0,0,0,0,0],"id":47,"left_children":[1,3,-1,5,-1,-1,-1],"loss_changes":[1.4965049E1,8.568226E0,0E0,6.979082E0,0E0,0E0,0E0],"parents":[2147483647,0,0,1,1,3,3],"right_children":[2,4,-1,6,-1,-1,-1],"split_conditions":[1.038E2,9.96E1,-2.675808E-1,9.92E1,1.3622025E-1,9.142849E-3,-1.02585986E-1],"split_indices":[0,0,0,1,0,0,0],"split_type":[0,0,0,0,0,0,0],"sum_hessian":[9.1E1,9E1,1E0,8.6E1,4E0,8.1E1,5E0],"tree_param":{"num_deleted":"0","num_feature":"47","num_nodes":"7","size_leaf_vector":"1"}},{"base_weights":[2.0462502E-2,7.78164E-2,-2.542017E-1,-4.4540837E-1,2.5626943E-1,-5.7082656E-3,-1.1663838E-1,4.6677932E-2,-3.427175E-2],"categories":[],"categories_nodes":[],"categories_segments":[],"categories_sizes":[],"default_left":[0,0,0,0,0,0,0,0,0],"id":48,"left_children":[1,3,-1,5,7,-1,-1,-1,-1],"loss_changes":[1.3424946E1,8.424168E0,0E0,6.372804E0,8.608183E0,0E0,0E0,0E0,0E0],"parents":[2147483647,0,0,1,1,3,3,4,4],"right_children":[2,4,-1,6,8,-1,-1,-1,-1],"split_conditions":[1.038E2,7E1,-2.542017E-1,6.79E1,1E0,-5.7082656E-3,-1.1663838E-1,4.6677932E-2,-3.427175E-2],"split_indices":[0,0,0,2,7,0,0,0,0],"split_type":[0,0,0,0,0,0,0,0,0],"sum_hessian":[8.9E1,8.8E1,1E0,2.2E1,6.6E1,1.5E1,7E0,4.9E1,1.7E1],"tree_param":{"num_deleted":"0","num_feature":"47","num_nodes":"9","size_leaf_vector":"1"}},{"base_weights":[-3.318303E-2,6.480887E-2,-1.6336136E0,-2.4275994E-1,4.645568E-1,-2.2296296E-1,3.7522506E-2,-7.8415E-3,-1.9898644E-1,1.4134446E-1,3.3546265E-2],"categories":[],"categories_nodes":[],"categories_segments":[],"categories_sizes":[],"default_left":[0,0,0,0,0,0,0,0,0,0,0],"id":49,"left_children":[1,3,5,7,9,-1,-1,-1,-1,-1,-1],"loss_changes":[1.3593185E1,1.0194675E1,6.8231125E0,1.3338971E1,3.9356933E0,0E0,0E0,0E0,0E0,0E0,0E0],"parents":[2147483647,0,0,1,1,2,2,3,3,4,4],"right_children":[2,4,6,8,10,-1,-1,-1,-1,-1,-1],"split_conditions":[1.0602E2,7.87E1,1.13E2,7.92E1,6.4E1,-2.2296296E-1,3.7522506E-2,-7.8415E-3,-1.9898644E-1,1.4134446E-1,3.3546265E-2],"split_indices":[13,2,10,1,10,0,0,0,0,0,0],"split_type":[0,0,0,0,0,0,0,0,0,0,0],"sum_hessian":[8.5E1,8.1E1,4E0,4.6E1,3.5E1,3E0,1E0,4.3E1,3E0,3E0,3.2E1],"tree_param":{"num_deleted":"0","num_feature":"47","num_nodes":"11","size_leaf_vector":"1"}},{"base_weights":[-1.6230683E-1,-6.1516784E-2,-1.3773978E0,-1.5936288E-1,1.984169E-1,-1.9419342E0,2.2628784E-2,-2.0931667E-2,1.24251045E-1,-5.3786088E-2,-2.1584873E-1,-3.1143188E-2,3.4537505E-2],"categories":[],"categories_nodes":[],"categories_segments":[],"categories_sizes":[],"default_left":[0,0,0,0,0,0,0,0,0,0,0,0,0],"id":50,"left_children":[1,3,5,7,-1,9,11,-1,-1,-1,-1,-1,-1],"loss_changes":[1.1182421E1,1.7530167E1,5.5765038E0,6.0724754E0,0E0,3.5931778E-1,4.3101132E-1,0E0,0E0,0E0,0E0,0E0,0E0],"parents":[2147483647,0,0,1,1,2,2,3,3,5,5,6,6],"right_children":[2,4,6,8,-1,10,12,-1,-1,-1,-1,-1,-1],"split_conditions":[9.64E1,9.56E1,2.95181E3,7.23125E7,1.984169E-1,9.64E1,9.96E1,-2.0931667E-2,1.24251045E-1,-5.3786088E-2,-2.1584873E-1,-3.1143188E-2,3.4537505E-2],"split_indices":[2,5,15,25,0,1,0,0,0,0,0,0,0],"split_type":[0,0,0,0,0,0,0,0,0,0,0,0,0],"sum_hessian":[9.1E1,8.5E1,6E0,8.2E1,3E0,4E0,2E0,8E1,2E0,1E0,3E0,1E0,1E0],"tree_param":{"num_deleted":"0","num_feature":"47","num_nodes":"13","size_leaf_vector":"1"}},{"base_weights":[-1.3322777E-1,-8.6438775E-2,-2.1955128E-1,-1.5432405E-1,1.1120529E0,-1.9888494E-2,1.15967564E-1,1.2260132E-1,3.2810595E-2],"categories":[],"categories_nodes":[],"categories_segments":[],"categories_sizes":[],"default_left":[0,0,0,0,0,0,0,0,0],"id":51,"left_children":[1,3,-1,5,7,-1,-1,-1,-1],"loss_changes":[8.687507E0,7.5753717E0,0E0,5.3247514E0,4.4431686E-2,0E0,0E0,0E0,0E0],"parents":[2147483647,0,0,1,1,3,3,4,4],"right_children":[2,4,-1,6,8,-1,-1,-1,-1],"split_conditions":[1.038E2,9.96E1,-2.1955128E-1,1.4066E2,1.05E2,-1.9888494E-2,1.15967564E-1,1.2260132E-1,3.2810595E-2],"split_indices":[0,0,0,13,10,0,0,0,0],"split_type":[0,0,0,0,0,0,0,0,0],"sum_hessian":[9.1E1,9E1,1E0,8.6E1,4E0,8.4E1,2E0,3E0,1E0],"tree_param":{"num_deleted":"0","num_feature":"47","num_nodes":"9","size_leaf_vector":"1"}},{"base_weights":[9.357071E-3,5.6332707E-2,-2.0857373E-1,-1.5454087E-1,3.3064604E-1,4.888187E-3,-1.4401811E-1,5.6078393E-2,-2.3389626E-2],"categories":[],"categories_nodes":[],"categories_segments":[],"categories_sizes":[],"default_left":[0,0,0,0,0,0,0,0,0],"id":52,"left_children":[1,3,-1,5,7,-1,-1,-1,-1],"loss_changes":[8.97515E0,5.1993413E0,0E0,1.3408351E1,5.1981463E0,0E0,0E0,0E0,0E0],"parents":[2147483647,0,0,1,1,3,3,4,4],"right_children":[2,4,-1,6,8,-1,-1,-1,-1],"split_conditions":[1.038E2,7.88E1,-2.0857373E-1,7.69E1,1E0,4.888187E-3,-1.4401811E-1,5.6078393E-2,-2.3389626E-2],"split_indices":[0,2,0,2,7,0,0,0,0],"split_type":[0,0,0,0,0,0,0,0,0],"sum_hessian":[8.9E1,8.8E1,1E0,5E1,3.8E1,4.4E1,6E0,2.7E1,1.1E1],"tree_param":{"num_deleted":"0","num_feature":"47","num_nodes":"9","size_leaf_vector":"1"}},{"base_weights":[-3.4563836E-2,-1.3581166E-1,8.2949907E-1,-2.9590526E-1,2.6024917E-1,1.525271E0,-1.713272E-1,-8.247064E-3,-6.2151402E-2,-2.3297071E-3,6.878983E-2,5.61409E-2,1.86685E-1,-8.539581E-2,5.684128E-2],"categories":[],"categories_nodes":[],"categories_segments":[],"categories_sizes":[],"default_left":[0,0,0,0,0,0,0,0,0,0,0,0,0,0,0],"id":53,"left_children":[1,3,5,7,9,11,13,-1,-1,-1,-1,-1,-1,-1,-1],"loss_changes":[8.336198E0,5.466587E0,7.2247887E0,4.18801E0,3.0474834E0,9.273443E-1,3.0102477E0,0E0,0E0,0E0,0E0,0E0,0E0,0E0,0E0],"parents":[2147483647,0,0,1,1,2,2,3,3,4,4,5,5,6,6],"right_children":[2,4,6,8,10,12,14,-1,-1,-1,-1,-1,-1,-1,-1],"split_conditions":[9.61E1,1E0,9.92E1,7.75E1,7.88E1,9.44E1,9.96E1,-8.247064E-3,-6.2151402E-2,-2.3297071E-3,6.878983E-2,5.61409E-2,1.86685E-1,-8.539581E-2,5.684128E-2],"split_indices":[0,8,1,1,1,3,0,0,0,0,0,0,0,0,0],"split_type":[0,0,0,0,0,0,0,0,0,0,0,0,0,0,0],"sum_hessian":[9.3E1,8.4E1,9E0,6E1,2.4E1,5E0,4E0,3.7E1,2.3E1,1.5E1,9E0,2E0,3E0,2E0,2E0],"tree_param":{"num_deleted":"0","num_feature":"47","num_nodes":"15","size_leaf_vector":"1"}},{"base_weights":[-7.848182E-2,-3.4690008E-2,-2.0098725E-1,-8.895182E-2,9.0555114E-1,-2.659117E-3,-9.159953E-2,3.4315746E-2,1.1660945E-1],"categories":[],"categories_nodes":[],"categories_segments":[],"categories_sizes":[],"default_left":[0,0,0,0,0,0,0,0,0],"id":54,"left_children":[1,3,-1,5,7,-1,-1,-1,-1],"loss_changes":[7.626975E0,4.672277E0,0E0,4.41109E0,3.3248568E-1,0E0,0E0,0E0,0E0],"parents":[2147483647,0,0,1,1,3,3,4,4],"right_children":[2,4,-1,6,8,-1,-1,-1,-1],"split_conditions":[1.038E2,9.96E1,-2.0098725E-1,9.64E1,1.015E2,-2.659117E-3,-9.159953E-2,3.4315746E-2,1.1660945E-1],"split_indices":[0,0,0,3,0,0,0,0,0],"split_type":[0,0,0,0,0,0,0,0,0],"sum_hessian":[9E1,8.9E1,1E0,8.5E1,4E0,8E1,5E0,2E0,2E0],"tree_param":{"num_deleted":"0","num_feature":"47","num_nodes":"9","size_leaf_vector":"1"}},{"base_weights":[4.9335174E-2,-5.1796533E-2,1.0544853E0,1.3902016E-1,-8.764716E-2,1.5692978E-1,1.473484E-1,4.1704453E-3,-3.858156E-2,-1.8572235E-2,3.2027945E-2],"categories":[],"categories_nodes":[],"categories_segments":[],"categories_sizes":[],"default_left":[0,0,0,0,0,0,0,0,0,0,0],"id":55,"left_children":[1,3,5,-1,7,-1,9,-1,-1,-1,-1],"loss_changes":[8.89839E0,4.2575703E0,3.5048103E0,0E0,3.0630074E0,0E0,2.8987613E-1,0E0,0E0,0E0,0E0],"parents":[2147483647,0,0,1,1,2,2,4,4,6,6],"right_children":[2,4,6,-1,8,-1,10,-1,-1,-1,-1],"split_conditions":[9.44E1,6.05E1,9.91E1,1.3902016E-1,8.05E1,1.5692978E-1,9.96E1,4.1704453E-3,-3.858156E-2,-1.8572235E-2,3.2027945E-2],"split_indices":[0,3,5,0,1,0,0,0,0,0,0],"split_type":[0,0,0,0,0,0,0,0,0,0,0],"sum_hessian":[8.6E1,7.9E1,7E0,1E0,7.8E1,4E0,3E0,5.5E1,2.3E1,1E0,2E0],"tree_param":{"num_deleted":"0","num_feature":"47","num_nodes":"11","size_leaf_vector":"1"}},{"base_weights":[-9.0806216E-2,-4.9487773E-2,-1.9253922E-1,-1.4896631E-1,6.1782646E-1,1.3206902E-1,-1.8428717E-2,1.6028081E-1,1.1140951E-2],"categories":[],"categories_nodes":[],"categories_segments":[],"categories_sizes":[],"default_left":[0,0,0,0,0,0,0,0,0],"id":56,"left_children":[1,3,-1,5,7,-1,-1,-1,-1],"loss_changes":[6.878522E0,6.1329284E0,0E0,4.396147E0,5.8071685E0,0E0,0E0,0E0,0E0],"parents":[2147483647,0,0,1,1,3,3,4,4],"right_children":[2,4,-1,6,8,-1,-1,-1,-1],"split_conditions":[1.038E2,9.61E1,-1.9253922E-1,6.05E1,9.64E1,1.3206902E-1,-1.8428717E-2,1.6028081E-1,1.1140951E-2],"split_indices":[0,0,0,3,1,0,0,0,0],"split_type":[0,0,0,0,0,0,0,0,0],"sum_hessian":[9.1E1,9E1,1E0,7.9E1,1.1E1,1E0,7.8E1,3E0,8E0],"tree_param":{"num_deleted":"0","num_feature":"47","num_nodes":"9","size_leaf_vector":"1"}},{"base_weights":[1.3351484E-1,2.8119394E-1,-3.5807437E-1,-2.9630661E-2,4.8171526E-1,3.1303558E-1,-5.3439647E-1,4.1500714E-2,-2.9970763E-2,7.753278E-2,2.7121032E-2,-1.5659332E-2,6.7831926E-2,-1.0565122E-1,-2.2880554E-2],"categories":[],"categories_nodes":[],"categories_segments":[],"categories_sizes":[],"default_left":[0,0,0,0,0,0,0,0,0,0,0,0,0,0,0],"id":57,"left_children":[1,3,5,7,9,11,13,-1,-1,-1,-1,-1,-1,-1,-1],"loss_changes":[6.561862E0,4.314833E0,2.6522467E0,3.4868007E0,2.3856125E0,9.639592E-1,2.4706793E0,0E0,0E0,0E0,0E0,0E0,0E0,0E0,0E0],"parents":[2147483647,0,0,1,1,2,2,3,3,4,4,5,5,6,6],"right_children":[2,4,6,8,10,12,14,-1,-1,-1,-1,-1,-1,-1,-1],"split_conditions":[1E0,7.35E1,6.9E1,6.48E1,8.1025E1,6.62E1,7.65E1,4.1500714E-2,-2.9970763E-2,7.753278E-2,2.7121032E-2,-1.5659332E-2,6.7831926E-2,-1.0565122E-1,-2.2880554E-2],"split_indices":[7,1,2,2,5,2,5,0,0,0,0,0,0,0,0],"split_type":[0,0,0,0,0,0,0,0,0,0,0,0,0,0,0],"sum_hessian":[8.8E1,6.8E1,2E1,2.7E1,4.1E1,4E0,1.6E1,1E1,1.7E1,1.6E1,2.5E1,2E0,2E0,5E0,1.1E1],"tree_param":{"num_deleted":"0","num_feature":"47","num_nodes":"15","size_leaf_vector":"1"}},{"base_weights":[-2.7037507E-2,5.2664965E-2,-1.0137628E0,-3.8714513E-2,1.1025325E0,-1.7544185E-1,-1.9666672E-2,1.1894327E-2,-3.9662566E-2,1.4622574E-1,4.6717454E-2,-2.993164E-2,4.0964127E-2],"categories":[],"categories_nodes":[],"categories_segments":[],"categories_sizes":[],"default_left":[0,0,0,0,0,0,0,0,0,0,0,0,0],"id":58,"left_children":[1,3,5,7,9,-1,11,-1,-1,-1,-1,-1,-1],"loss_changes":[7.367324E0,8.389146E0,5.119476E0,4.617802E0,9.16749E-1,0E0,6.028358E-1,0E0,0E0,0E0,0E0,0E0,0E0],"parents":[2147483647,0,0,1,1,2,2,3,3,4,4,6,6],"right_children":[2,4,6,8,10,-1,12,-1,-1,-1,-1,-1,-1],"split_conditions":[9.92E1,9.61E1,2.07956E3,8.16E1,9.64E1,-1.7544185E-1,9.96E1,1.1894327E-2,-3.9662566E-2,1.4622574E-1,4.6717454E-2,-2.993164E-2,4.0964127E-2],"split_indices":[1,0,16,0,1,0,0,0,0,0,0,0,0],"split_type":[0,0,0,0,0,0,0,0,0,0,0,0,0],"sum_hessian":[9.2E1,8.6E1,6E0,8E1,6E0,3E0,3E0,5.6E1,2.4E1,3E0,3E0,2E0,1E0],"tree_param":{"num_deleted":"0","num_feature":"47","num_nodes":"13","size_leaf_vector":"1"}},{"base_weights":[4.7021933E-2,1.0747069E-1,-1.2341576E0,1.735603E-2,9.613905E-1,-1.7671815E-1,1.8245697E-2,-1.0325903E-1,5.9122466E-3,1.7324562E-1,1.5225983E-2],"categories":[],"categories_nodes":[],"categories_segments":[],"categories_sizes":[],"default_left":[0,0,0,0,0,0,0,0,0,0,0],"id":59,"left_children":[1,3,5,7,9,-1,-1,-1,-1,-1,-1],"loss_changes":[6.870413E0,6.4471726E0,3.342792E0,3.4376926E0,4.72736E0,0E0,0E0,0E0,0E0,0E0,0E0],"parents":[2147483647,0,0,1,1,2,2,3,3,4,4],"right_children":[2,4,6,8,10,-1,-1,-1,-1,-1,-1],"split_conditions":[1.00139E3,1E2,9.94E1,6.12E1,2.2030683E8,-1.7671815E-1,1.8245697E-2,-1.0325903E-1,5.9122466E-3,1.7324562E-1,1.5225983E-2],"split_indices":[17,10,1,1,23,0,0,0,0,0,0],"split_type":[0,0,0,0,0,0,0,0,0,0,0],"sum_hessian":[8.6E1,8.3E1,3E0,7.6E1,7E0,2E0,1E0,2E0,7.4E1,3E0,4E0],"tree_param":{"num_deleted":"0","num_feature":"47","num_nodes":"11","size_leaf_vector":"1"}},{"base_weights":[-5.5394363E-2,-2.7999324E-1,2.593197E-1,-1.8991566E-1,-2.4820137E-1,3.56415E-1,-1.6666031E-1,-6.586294E-2,-6.2635513E-3,5.174711E-2,-2.0214504E-2],"categories":[],"categories_nodes":[],"categories_segments":[],"categories_sizes":[],"default_left":[0,0,0,0,0,0,0,0,0,0,0],"id":60,"left_children":[1,3,5,7,-1,9,-1,-1,-1,-1,-1],"loss_changes":[6.4342055E0,1.0041319E1,7.6999273E0,3.0609596E0,0E0,3.433105E0,0E0,0E0,0E0,0E0,0E0],"parents":[2147483647,0,0,1,1,2,2,3,3,5,5],"right_children":[2,4,6,8,-1,10,-1,-1,-1,-1,-1],"split_conditions":[7.88E1,8.16E1,1.038E2,6.41E1,-2.4820137E-1,1E0,-1.6666031E-1,-6.586294E-2,-6.2635513E-3,5.174711E-2,-2.0214504E-2],"split_indices":[2,1,0,3,0,7,0,0,0,0,0],"split_type":[0,0,0,0,0,0,0,0,0,0,0],"sum_hessian":[8.9E1,5.2E1,3.7E1,5.1E1,1E0,3.6E1,1E0,1E1,4.1E1,2.8E1,8E0],"tree_param":{"num_deleted":"0","num_feature":"47","num_nodes":"11","size_leaf_vector":"1"}},{"base_weights":[-5.6988336E-2,6.2176175E-3,-1.4648752E-1,-4.8568547E-2,9.4729614E-1,-5.5477332E-2,1.7803094E-3,1.2846503E-1,2.9417673E-2],"categories":[],"categories_nodes":[],"categories_segments":[],"categories_sizes":[],"default_left":[0,0,0,0,0,0,0,0,0],"id":61,"left_children":[1,3,-1,5,7,-1,-1,-1,-1],"loss_changes":[8.2848835E0,4.686236E0,0E0,2.8992739E0,7.237482E-1,0E0,0E0,0E0,0E0],"parents":[2147483647,0,0,1,1,3,3,4,4],"right_children":[2,4,-1,6,8,-1,-1,-1,-1],"split_conditions":[7.2986E2,3.08701E3,-1.4648752E-1,6.41E1,5.4015124E9,-5.5477332E-2,1.7803094E-3,1.2846503E-1,2.9417673E-2],"split_indices":[18,15,0,3,27,0,0,0,0],"split_type":[0,0,0,0,0,0,0,0,0],"sum_hessian":[9.2E1,8.9E1,3E0,8.5E1,4E0,9E0,7.6E1,2E0,2E0],"tree_param":{"num_deleted":"0","num_feature":"47","num_nodes":"9","size_leaf_vector":"1"}},{"base_weights":[6.3316174E-2,9.875725E-2,-1.5100288E-1,-8.958809E-2,3.5569927E-1,3.2048437E-3,-2.0464554E-1,1.252034E-1,2.0911222E-2],"categories":[],"categories_nodes":[],"categories_segments":[],"categories_sizes":[],"default_left":[0,0,0,0,0,0,0,0,0],"id":62,"left_children":[1,3,-1,5,7,-1,-1,-1,-1],"loss_changes":[5.0560985E0,4.24213E0,0E0,1.220494E1,4.5996537E0,0E0,0E0,0E0,0E0],"parents":[2147483647,0,0,1,1,3,3,4,4],"right_children":[2,4,-1,6,8,-1,-1,-1,-1],"split_conditions":[1.038E2,7.4E1,-1.5100288E-1,8.26E1,8.025E1,3.2048437E-3,-2.0464554E-1,1.252034E-1,2.0911222E-2],"split_indices":[0,10,0,1,5,0,0,0,0],"split_type":[0,0,0,0,0,0,0,0,0],"sum_hessian":[8.7E1,8.6E1,1E0,5E1,3.6E1,4.8E1,2E0,4E0,3.2E1],"tree_param":{"num_deleted":"0","num_feature":"47","num_nodes":"9","size_leaf_vector":"1"}},{"base_weights":[4.4811934E-2,7.652527E-1,1.9058676E-3,-5.56633E-2,1.2348824E-1,-1.5567884E0,7.7916496E-2,-4.7444727E-2,-1.7594199E-1,-6.41227E-2,1.2301651E-2],"categories":[],"categories_nodes":[],"categories_segments":[],"categories_sizes":[],"default_left":[0,0,0,0,0,0,0,0,0,0,0],"id":63,"left_children":[1,3,5,-1,-1,7,9,-1,-1,-1,-1],"loss_changes":[2.7496455E0,3.7913597E0,1.0191872E1,0E0,0E0,4.2512894E-2,2.7384186E0,0E0,0E0,0E0,0E0],"parents":[2147483647,0,0,1,1,2,2,5,5,6,6],"right_children":[2,4,6,-1,-1,8,10,-1,-1,-1,-1],"split_conditions":[8E0,6.08E1,1.1E1,-5.56633E-2,1.2348824E-1,6.16E1,6.12E1,-4.7444727E-2,-1.7594199E-1,-6.41227E-2,1.2301651E-2],"split_indices":[10,3,10,0,0,0,1,0,0,0,0],"split_type":[0,0,0,0,0,0,0,0,0,0,0],"sum_hessian":[8.8E1,4E0,8.4E1,1E0,3E0,3E0,8.1E1,1E0,2E0,4E0,7.7E1],"tree_param":{"num_deleted":"0","num_feature":"47","num_nodes":"11","size_leaf_vector":"1"}},{"base_weights":[1.5488117E-2,-3.258129E-2,8.776398E-1,3.1542845E-2,-1.1290001E0,3.206304E-2,1.1421026E-1,-1.6245976E-2,3.4804583E-2,-1.3630152E-1,-9.6469885E-3],"categories":[],"categories_nodes":[],"categories_segments":[],"categories_sizes":[],"default_left":[0,0,0,0,0,0,0,0,0,0,0],"id":64,"left_children":[1,3,5,7,9,-1,-1,-1,-1,-1,-1],"loss_changes":[3.9242475E0,6.363233E0,3.7034845E-1,5.33715E0,1.0766482E0,0E0,0E0,0E0,0E0,0E0,0E0],"parents":[2147483647,0,0,1,1,2,2,3,3,4,4],"right_children":[2,4,6,8,10,-1,-1,-1,-1,-1,-1],"split_conditions":[4.5224244E7,7.2986E2,9.8077E2,7.88E1,9.94E1,3.206304E-2,1.1421026E-1,-1.6245976E-2,3.4804583E-2,-1.3630152E-1,-9.6469885E-3],"split_indices":[33,18,17,2,2,0,0,0,0,0,0],"split_type":[0,0,0,0,0,0,0,0,0,0,0],"sum_hessian":[9.3E1,8.9E1,4E0,8.5E1,4E0,2E0,2E0,5.3E1,3.2E1,3E0,1E0],"tree_param":{"num_deleted":"0","num_feature":"47","num_nodes":"11","size_leaf_vector":"1"}},{"base_weights":[2.2914087E-2,-6.979991E-2,6.00467E-1,7.1528625E-1,-1.2410457E-1,1.0110234E0,2.1406809E-2,-5.2067947E-2,1.1544476E-1,-8.358843E-3,-1.0146078E-1,1.2316971E-1,3.062261E-2,-2.71492E-2,2.3572922E-2],"categories":[],"categories_nodes":[],"categories_segments":[],"categories_sizes":[],"default_left":[0,0,0,0,0,0,0,0,0,0,0,0,0,0,0],"id":65,"left_children":[1,3,5,7,9,11,13,-1,-1,-1,-1,-1,-1,-1,-1],"loss_changes":[4.646976E0,3.2863083E0,2.8311992E0,3.3150387E0,2.4768531E0,7.1153355E-1,4.406473E-1,0E0,0E0,0E0,0E0,0E0,0E0,0E0,0E0],"parents":[2147483647,0,0,1,1,2,2,3,3,4,4,5,5,6,6],"right_children":[2,4,6,8,10,12,14,-1,-1,-1,-1,-1,-1,-1,-1],"split_conditions":[1E2,8E0,8.98728E5,6.08E1,9.61E1,7.264E2,2.8487E3,-5.2067947E-2,1.1544476E-1,-8.358843E-3,-1.0146078E-1,1.2316971E-1,3.062261E-2,-2.71492E-2,2.3572922E-2],"split_indices":[10,10,41,3,2,18,15,0,0,0,0,0,0,0,0],"split_type":[0,0,0,0,0,0,0,0,0,0,0,0,0,0,0],"sum_hessian":[8.5E1,7.4E1,1.1E1,4E0,7E1,6E0,5E0,1E0,3E0,6.8E1,2E0,4E0,2E0,2E0,3E0],"tree_param":{"num_deleted":"0","num_feature":"47","num_nodes":"15","size_leaf_vector":"1"}},{"base_weights":[-4.5481086E-2,-1.5145535E-2,-1.3878404E-1,2.3634154E-1,-1.325323E-1,-4.7239E-2,3.686342E-2,-5.6497574E-2,7.168632E-3],"categories":[],"categories_nodes":[],"categories_segments":[],"categories_sizes":[],"default_left":[0,0,0,0,0,0,0,0,0],"id":66,"left_children":[1,3,-1,5,7,-1,-1,-1,-1],"loss_changes":[3.68461E0,2.688236E0,0E0,2.893178E0,5.5159073E0,0E0,0E0,0E0,0E0],"parents":[2147483647,0,0,1,1,3,3,4,4],"right_children":[2,4,-1,6,8,-1,-1,-1,-1],"split_conditions":[1.038E2,7.2375E1,-1.3878404E-1,6.16E1,7.85E1,-4.7239E-2,3.686342E-2,-5.6497574E-2,7.168632E-3],"split_indices":[0,5,0,3,2,0,0,0,0],"split_type":[0,0,0,0,0,0,0,0,0],"sum_hessian":[9E1,8.9E1,1E0,2.8E1,6.1E1,4E0,2.4E1,1.9E1,4.2E1],"tree_param":{"num_deleted":"0","num_feature":"47","num_nodes":"9","size_leaf_vector":"1"}},{"base_weights":[-1.660107E-2,-1.5023644E-1,1.7228474E-1,2.8605541E-2,-1.2045088E0,2.764472E-1,-1.1698138E-1,-1.4275831E-2,4.1512325E-2,-1.7925262E-2,-1.5163855E-1,1.01361595E-1,2.0536281E-2],"categories":[],"categories_nodes":[],"categories_segments":[],"categories_sizes":[],"default_left":[0,0,0,0,0,0,0,0,0,0,0,0,0],"id":67,"left_children":[1,3,5,7,9,11,-1,-1,-1,-1,-1,-1,-1],"loss_changes":[2.373373E0,1.0404604E1,5.775446E0,3.2385502E0,2.286211E0,1.730685E0,0E0,0E0,0E0,0E0,0E0,0E0,0E0],"parents":[2147483647,0,0,1,1,2,2,3,3,4,4,5,5],"right_children":[2,4,6,8,10,12,-1,-1,-1,-1,-1,-1,-1],"split_conditions":[7.88E1,7.69E1,1.231E2,1E0,7.75E1,8.03E1,-1.1698138E-1,-1.4275831E-2,4.1512325E-2,-1.7925262E-2,-1.5163855E-1,1.01361595E-1,2.0536281E-2],"split_indices":[2,2,11,6,1,2,0,0,0,0,0,0,0],"split_type":[0,0,0,0,0,0,0,0,0,0,0,0,0],"sum_hessian":[9.2E1,5.4E1,3.8E1,4.7E1,7E0,3.6E1,2E0,3.3E1,1.4E1,2E0,5E0,2E0,3.4E1],"tree_param":{"num_deleted":"0","num_feature":"47","num_nodes":"13","size_leaf_vector":"1"}},{"base_weights":[-1.00546725E-1,-5.6661326E-2,-8.615974E-1,-1.2121491E-1,4.654335E-1,1.9535065E-2,-1.1746722E-1,2.4555419E-3,-4.0826615E-2,1.183321E-1,-1.1278426E-3],"categories":[],"categories_nodes":[],"categories_segments":[],"categories_sizes":[],"default_left":[0,0,0,0,0,0,0,0,0,0,0],"id":68,"left_children":[1,3,5,7,9,-1,-1,-1,-1,-1,-1],"loss_changes":[3.0572891E0,3.0559926E0,1.8839915E0,3.3575094E0,3.435601E0,0E0,0E0,0E0,0E0,0E0,0E0],"parents":[2147483647,0,0,1,1,2,2,3,3,4,4],"right_children":[2,4,6,8,10,-1,-1,-1,-1,-1,-1],"split_conditions":[1.0602E2,1E2,7.67E1,8.16E1,2.6125458E8,1.9535065E-2,-1.1746722E-1,2.4555419E-3,-4.0826615E-2,1.183321E-1,-1.1278426E-3],"split_indices":[13,10,3,0,29,0,0,0,0,0,0],"split_type":[0,0,0,0,0,0,0,0,0,0,0],"sum_hessian":[9.2E1,8.8E1,4E0,7.9E1,9E0,1E0,3E0,5.3E1,2.6E1,3E0,6E0],"tree_param":{"num_deleted":"0","num_feature":"47","num_nodes":"11","size_leaf_vector":"1"}},{"base_weights":[3.0812405E-2,5.6976523E-2,-1.2012253E-1,-1.0502737E-1,2.4779564E-1,-2.1301307E-2,3.0701274E-2,1.0857817E-1,8.256056E-3],"categories":[],"categories_nodes":[],"categories_segments":[],"categories_sizes":[],"default_left":[0,0,0,0,0,0,0,0,0],"id":69,"left_children":[1,3,-1,5,7,-1,-1,-1,-1],"loss_changes":[3.0985484E0,2.9009752E0,0E0,2.3346143E0,5.864338E0,0E0,0E0,0E0,0E0],"parents":[2147483647,0,0,1,1,3,3,4,4],"right_children":[2,4,-1,6,8,-1,-1,-1,-1],"split_conditions":[1.038E2,7.88E1,-1.2012253E-1,1E0,8.16E1,-2.1301307E-2,3.0701274E-2,1.0857817E-1,8.256056E-3],"split_indices":[0,0,0,6,0,0,0,0,0],"split_type":[0,0,0,0,0,0,0,0,0],"sum_hessian":[9.3E1,9.2E1,1E0,5E1,4.2E1,4E1,1E1,6E0,3.6E1],"tree_param":{"num_deleted":"0","num_feature":"47","num_nodes":"9","size_leaf_vector":"1"}},{"base_weights":[-2.8536348E-2,2.813146E-2,-6.801872E-1,-1.1613175E-1,3.7559542E-1,-1.2783766E-1,8.8048935E-2,-2.1869524E-3,-1.8369828E-1,9.8330386E-2,2.0488854E-2,1.9796753E-2,-1.2085343E-2],"categories":[],"categories_nodes":[],"categories_segments":[],"categories_sizes":[],"default_left":[0,0,0,0,0,0,0,0,0,0,0,0,0],"id":70,"left_children":[1,3,5,7,9,-1,11,-1,-1,-1,-1,-1,-1],"loss_changes":[3.2318382E0,4.103846E0,3.3294148E0,9.368078E0,2.2882924E0,0E0,1.15774065E-1,0E0,0E0,0E0,0E0,0E0,0E0],"parents":[2147483647,0,0,1,1,2,2,3,3,4,4,6,6],"right_children":[2,4,6,8,10,-1,12,-1,-1,-1,-1,-1,-1],"split_conditions":[9.5675E1,7.4E1,2.07956E3,8.205E1,8.025E1,-1.2783766E-1,9.64E1,-2.1869524E-3,-1.8369828E-1,9.8330386E-2,2.0488854E-2,1.9796753E-2,-1.2085343E-2],"split_indices":[5,10,16,4,5,0,3,0,0,0,0,0,0],"split_type":[0,0,0,0,0,0,0,0,0,0,0,0,0],"sum_hessian":[8.6E1,8E1,6E0,5.7E1,2.3E1,3E0,3E0,5.5E1,2E0,4E0,1.9E1,2E0,1E0],"tree_param":{"num_deleted":"0","num_feature":"47","num_nodes":"13","size_leaf_vector":"1"}},{"base_weights":[-3.6170015E-3,1.8787941E-2,-1.0772457E-1,-5.0430298E-2,3.9592844E-1,5.692446E-3,-4.093921E-2,5.2500565E-2,-2.9538218E-2],"categories":[],"categories_nodes":[],"categories_segments":[],"categories_sizes":[],"default_left":[0,0,0,0,0,0,0,0,0],"id":71,"left_children":[1,3,-1,5,7,-1,-1,-1,-1],"loss_changes":[2.3535342E0,2.526047E0,0E0,3.1832778E0,1.4935637E0,0E0,0E0,0E0,0E0],"parents":[2147483647,0,0,1,1,3,3,4,4],"right_children":[2,4,-1,6,8,-1,-1,-1,-1],"split_conditions":[1.038E2,9.16E1,-1.0772457E-1,8.1075E1,2.9544726E8,5.692446E-3,-4.093921E-2,5.2500565E-2,-2.9538218E-2],"split_indices":[0,0,0,5,31,0,0,0,0],"split_type":[0,0,0,0,0,0,0,0,0],"sum_hessian":[9.6E1,9.5E1,1E0,8.1E1,1.4E1,6.3E1,1.8E1,1.2E1,2E0],"tree_param":{"num_deleted":"0","num_feature":"47","num_nodes":"9","size_leaf_vector":"1"}},{"base_weights":[-3.547488E-2,2.5532642E-2,-4.9257937E-1,-9.835027E-2,3.3417606E-1,-1.0460342E0,-2.6885986E-2,-1.4471514E-3,-1.6872229E-1,6.609481E-2,1.2948084E-2,-2.98172E-2,-1.1584568E-1,1.2777253E-2,-2.7568817E-2],"categories":[],"categories_nodes":[],"categories_segments":[],"categories_sizes":[],"default_left":[0,0,0,0,0,0,0,0,0,0,0,0,0,0,0],"id":72,"left_children":[1,3,5,7,9,11,13,-1,-1,-1,-1,-1,-1,-1,-1],"loss_changes":[2.6060503E0,3.2064247E0,2.8070197E0,7.9719424E0,1.5197475E0,7.496357E-2,3.0458102E-1,0E0,0E0,0E0,0E0,0E0,0E0,0E0,0E0],"parents":[2147483647,0,0,1,1,2,2,3,3,4,4,5,5,6,6],"right_children":[2,4,6,8,10,12,14,-1,-1,-1,-1,-1,-1,-1,-1],"split_conditions":[9.64E1,7.2E1,1.6973E2,8.205E1,8.48E1,6.05E1,2.726326E8,-1.4471514E-3,-1.6872229E-1,6.609481E-2,1.2948084E-2,-2.98172E-2,-1.1584568E-1,1.2777253E-2,-2.7568817E-2],"split_indices":[2,10,20,4,4,0,31,0,0,0,0,0,0,0,0],"split_type":[0,0,0,0,0,0,0,0,0,0,0,0,0,0,0],"sum_hessian":[9.2E1,8.2E1,1E1,5.9E1,2.3E1,4E0,6E0,5.7E1,2E0,8E0,1.5E1,1E0,3E0,4E0,2E0],"tree_param":{"num_deleted":"0","num_feature":"47","num_nodes":"15","size_leaf_vector":"1"}},{"base_weights":[3.4214873E-2,-4.8352328E-1,1.0160659E-1,2.1020508E-1,-1.3580383E0,1.6927065E-1,-5.6236076E-1,-5.0302602E-2,8.708849E-2,-5.978775E-2,-1.6655198E-1,1.0822019E-2,6.8230346E-2,-1.19467415E-1,-1.5247727E-2],"categories":[],"categories_nodes":[],"categories_segments":[],"categories_sizes":[],"default_left":[0,0,0,0,0,0,0,0,0,0,0,0,0,0,0],"id":73,"left_children":[1,3,5,7,9,11,13,-1,-1,-1,-1,-1,-1,-1,-1],"loss_changes":[3.3289082E0,6.958901E0,3.8690362E0,3.7365994E0,1.729002E-1,2.3378694E0,1.891238E0,0E0,0E0,0E0,0E0,0E0,0E0,0E0,0E0],"parents":[2147483647,0,0,1,1,2,2,3,3,4,4,5,5,6,6],"right_children":[2,4,6,8,10,12,14,-1,-1,-1,-1,-1,-1,-1,-1],"split_conditions":[1.5E1,6.48E1,9.92E1,6.31E1,6.54E1,9.23E1,9.94E1,-5.0302602E-2,8.708849E-2,-5.978775E-2,-1.6655198E-1,1.0822019E-2,6.8230346E-2,-1.19467415E-1,-1.5247727E-2],"split_indices":[10,2,1,3,1,0,1,0,0,0,0,0,0,0,0],"split_type":[0,0,0,0,0,0,0,0,0,0,0,0,0,0,0],"sum_hessian":[9.3E1,1E1,8.3E1,6E0,4E0,7.6E1,7E0,3E0,3E0,2E0,2E0,6.9E1,7E0,2E0,5E0],"tree_param":{"num_deleted":"0","num_feature":"47","num_nodes":"15","size_leaf_vector":"1"}},{"base_weights":[-1.0438182E-2,-6.44426E-1,2.742345E-2,3.0439569E-2,-9.5773034E-2,1.2963043E-1,-2.4928333E-1,2.6482036E-2,-1.2820678E-2,2.6372312E-2,-4.4585757E-2],"categories":[],"categories_nodes":[],"categories_segments":[],"categories_sizes":[],"default_left":[0,0,0,0,0,0,0,0,0,0,0],"id":74,"left_children":[1,3,5,-1,-1,7,9,-1,-1,-1,-1],"loss_changes":[2.130008E0,1.7778785E0,2.4079492E0,0E0,0E0,2.195086E0,2.4369912E0,0E0,0E0,0E0,0E0],"parents":[2147483647,0,0,1,1,2,2,5,5,6,6],"right_children":[2,4,6,-1,-1,8,10,-1,-1,-1,-1],"split_conditions":[6.2E1,6.06E1,1E0,3.0439569E-2,-9.5773034E-2,8.1075E1,6.9E1,2.6482036E-2,-1.2820678E-2,2.6372312E-2,-4.4585757E-2],"split_indices":[2,0,7,0,0,5,2,0,0,0,0],"split_type":[0,0,0,0,0,0,0,0,0,0,0],"sum_hessian":[8.7E1,4E0,8.3E1,1E0,3E0,6.1E1,2.2E1,4E1,2.1E1,6E0,1.6E1],"tree_param":{"num_deleted":"0","num_feature":"47","num_nodes":"11","size_leaf_vector":"1"}},{"base_weights":[-4.0991534E-2,6.149734E-1,-7.658311E-2,-4.3883514E-2,9.881344E-2,-1.5001282E-1,3.0546162E-1,-4.8650387E-3,-3.7182774E-2,1.037555E-1,-5.5077295E-3],"categories":[],"categories_nodes":[],"categories_segments":[],"categories_sizes":[],"default_left":[0,0,0,0,0,0,0,0,0,0,0],"id":75,"left_children":[1,3,5,-1,-1,7,9,-1,-1,-1,-1],"loss_changes":[2.265045E0,2.399829E0,2.5986857E0,0E0,0E0,1.7131555E0,4.016368E0,0E0,0E0,0E0,0E0],"parents":[2147483647,0,0,1,1,2,2,5,5,6,6],"right_children":[2,4,6,-1,-1,8,10,-1,-1,-1,-1],"split_conditions":[8E0,6.08E1,1E2,-4.3883514E-2,9.881344E-2,8.06E1,1.90302E3,-4.8650387E-3,-3.7182774E-2,1.037555E-1,-5.5077295E-3],"split_indices":[10,3,10,0,0,4,16,0,0,0,0],"split_type":[0,0,0,0,0,0,0,0,0,0,0],"sum_hessian":[9.4E1,4E0,9E1,1E0,3E0,7.6E1,1.4E1,5.3E1,2.3E1,4E0,1E1],"tree_param":{"num_deleted":"0","num_feature":"47","num_nodes":"11","size_leaf_vector":"1"}},{"base_weights":[3.2038481E-3,-2.4141096E-1,8.3531514E-2,-2.0539094E-2,-1.2854176E0,3.1624022E-1,-4.4756517E-2,5.6446075E-2,-2.0206785E-2,-2.3104478E-2,-1.5598603E-1,-1.1552874E-2,6.637394E-2,-1.1128336E-1,1.1263908E-2],"categories":[],"categories_nodes":[],"categories_segments":[],"categories_sizes":[],"default_left":[0,0,0,0,0,0,0,0,0,0,0,0,0,0,0],"id":76,"left_children":[1,3,5,7,9,11,13,-1,-1,-1,-1,-1,-1,-1,-1],"loss_changes":[1.8279043E0,5.277208E0,2.103916E0,2.2379453E0,7.970619E-1,3.8276646E0,7.858438E0,0E0,0E0,0E0,0E0,0E0,0E0,0E0,0E0],"parents":[2147483647,0,0,1,1,2,2,3,3,4,4,5,5,6,6],"right_children":[2,4,6,8,10,12,14,-1,-1,-1,-1,-1,-1,-1,-1],"split_conditions":[6.96E1,6.875E1,7.69E1,8E0,6.89E1,4.4E1,7.85E1,5.6446075E-2,-2.0206785E-2,-2.3104478E-2,-1.5598603E-1,-1.1552874E-2,6.637394E-2,-1.1128336E-1,1.1263908E-2],"split_indices":[1,4,2,10,0,10,2,0,0,0,0,0,0,0,0],"split_type":[0,0,0,0,0,0,0,0,0,0,0,0,0,0,0],"sum_hessian":[9.1E1,2.2E1,6.9E1,1.9E1,3E0,2.4E1,4.5E1,4E0,1.5E1,1E0,2E0,1.1E1,1.3E1,5E0,4E1],"tree_param":{"num_deleted":"0","num_feature":"47","num_nodes":"15","size_leaf_vector":"1"}},{"base_weights":[-1.9201862E-2,-5.311035E-2,5.0957996E-1,-1.5915462E-3,-4.8055726E-1,7.670644E-2,1.8907165E-2,-1.1345411E-2,4.148742E-2,-8.385658E-2,4.516449E-3],"categories":[],"categories_nodes":[],"categories_segments":[],"categories_sizes":[],"default_left":[0,0,0,0,0,0,0,0,0,0,0],"id":77,"left_children":[1,3,5,7,9,-1,-1,-1,-1,-1,-1],"loss_changes":[1.7842226E0,2.0472393E0,3.501253E-1,3.9603708E0,1.9200022E0,0E0,0E0,0E0,0E0,0E0,0E0],"parents":[2147483647,0,0,1,1,2,2,3,3,4,4],"right_children":[2,4,6,8,10,-1,-1,-1,-1,-1,-1],"split_conditions":[3.12609E3,9.64E1,2.9805293E8,8.43E1,2.19355E3,7.670644E-2,1.8907165E-2,-1.1345411E-2,4.148742E-2,-8.385658E-2,4.516449E-3],"split_indices":[15,2,30,2,16,0,0,0,0,0,0],"split_type":[0,0,0,0,0,0,0,0,0,0,0],"sum_hessian":[9.7E1,9.2E1,5E0,8.3E1,9E0,2E0,3E0,6.6E1,1.7E1,5E0,4E0],"tree_param":{"num_deleted":"0","num_feature":"47","num_nodes":"11","size_leaf_vector":"1"}},{"base_weights":[-4.2118486E-2,7.427432E-2,-2.5246546E-1,-7.5056287E-3,6.945376E-1,-9.789167E-1,-5.4775663E-2,-1.3547974E-2,3.3425905E-2,-4.8446655E-3,1.0014206E-1,-8.36436E-3,-1.3202973E-1,8.843414E-3,-4.7657993E-2],"categories":[],"categories_nodes":[],"categories_segments":[],"categories_sizes":[],"default_left":[0,0,0,0,0,0,0,0,0,0,0,0,0,0,0],"id":78,"left_children":[1,3,5,7,9,11,13,-1,-1,-1,-1,-1,-1,-1,-1],"loss_changes":[2.271176E0,3.0487185E0,4.685575E0,2.4070847E0,1.6445804E0,2.028967E0,1.6731215E0,0E0,0E0,0E0,0E0,0E0,0E0,0E0,0E0],"parents":[2147483647,0,0,1,1,2,2,3,3,4,4,5,5,6,6],"right_children":[2,4,6,8,10,12,14,-1,-1,-1,-1,-1,-1,-1,-1],"split_conditions":[8.06E1,7.94E1,7.7E1,1E0,6E1,6.2E1,9.92E1,-1.3547974E-2,3.3425905E-2,-4.8446655E-3,1.0014206E-1,-8.36436E-3,-1.3202973E-1,8.843414E-3,-4.7657993E-2],"split_indices":[4,4,10,6,10,10,1,0,0,0,0,0,0,0,0],"split_type":[0,0,0,0,0,0,0,0,0,0,0,0,0,0,0],"sum_hessian":[9.1E1,5.9E1,3.2E1,5.3E1,6E0,6E0,2.6E1,3.9E1,1.4E1,2E0,4E0,2E0,4E0,2E1,6E0],"tree_param":{"num_deleted":"0","num_feature":"47","num_nodes":"15","size_leaf_vector":"1"}},{"base_weights":[-2.3509813E-2,-1.9077416E-1,1.7153035E-1,-8.604894E-2,-1.3736019E0,2.3748493E-1,-5.308981E-1,-2.049979E-2,2.089735E-2,-2.8015137E-2,-1.6447017E-1,6.1154176E-2,1.5348839E-2,-8.364391E-2,-1.5023804E-2],"categories":[],"categories_nodes":[],"categories_segments":[],"categories_sizes":[],"default_left":[0,0,0,0,0,0,0,0,0,0,0,0,0,0,0],"id":79,"left_children":[1,3,5,7,9,11,13,-1,-1,-1,-1,-1,-1,-1,-1],"loss_changes":[3.0340638E0,6.0753975E0,2.1182005E0,1.6921918E0,7.249718E-1,1.1629148E0,3.395642E-1,0E0,0E0,0E0,0E0,0E0,0E0,0E0,0E0],"parents":[2147483647,0,0,1,1,2,2,3,3,4,4,5,5,6,6],"right_children":[2,4,6,8,10,12,14,-1,-1,-1,-1,-1,-1,-1,-1],"split_conditions":[7.88E1,7.79E1,1.231E2,1E0,7.75E1,8.05E1,9.92E1,-2.049979E-2,2.089735E-2,-2.8015137E-2,-1.6447017E-1,6.1154176E-2,1.5348839E-2,-8.364391E-2,-1.5023804E-2],"split_indices":[2,2,11,6,1,1,2,0,0,0,0,0,0,0,0],"split_type":[0,0,0,0,0,0,0,0,0,0,0,0,0,0,0],"sum_hessian":[9.1E1,4.9E1,4.2E1,4.6E1,3E0,3.9E1,3E0,3.3E1,1.3E1,1E0,2E0,6E0,3.3E1,1E0,2E0],"tree_param":{"num_deleted":"0","num_feature":"47","num_nodes":"15","size_leaf_vector":"1"}},{"base_weights":[-8.862506E-3,-5.2534103E-1,4.724797E-2,-1.3320504E-1,1.00021996E-1,3.996228E-1,-4.9570143E-2,7.5334676E-2,-4.1497707E-2,-6.7915595E-3,4.6230983E-2,6.807948E-3,-4.214802E-2],"categories":[],"categories_nodes":[],"categories_segments":[],"categories_sizes":[],"default_left":[0,0,0,0,0,0,0,0,0,0,0,0,0],"id":80,"left_children":[1,3,5,-1,7,9,11,-1,-1,-1,-1,-1,-1],"loss_changes":[2.661988E0,4.6736097E0,2.8514595E0,0E0,2.3313913E0,5.5895257E-1,2.916529E0,0E0,0E0,0E0,0E0,0E0,0E0],"parents":[2147483647,0,0,1,1,2,2,4,4,5,5,6,6],"right_children":[2,4,6,-1,8,10,12,-1,-1,-1,-1,-1,-1],"split_conditions":[1.3E1,6.41E1,7.17E1,-1.3320504E-1,6.54E1,1.5E1,1E0,7.5334676E-2,-4.1497707E-2,-6.7915595E-3,4.6230983E-2,6.807948E-3,-4.214802E-2],"split_indices":[10,3,5,0,3,10,6,0,0,0,0,0,0],"split_type":[0,0,0,0,0,0,0,0,0,0,0,0,0],"sum_hessian":[9E1,8E0,8.2E1,3E0,5E0,1.7E1,6.5E1,2E0,3E0,2E0,1.5E1,5E1,1.5E1],"tree_param":{"num_deleted":"0","num_feature":"47","num_nodes":"13","size_leaf_vector":"1"}},{"base_weights":[5.7262843E-3,-1.673061E-1,1.550332E-1,2.8244624E-1,-3.609995E-1,6.82164E-1,-5.1225934E-6,-5.1154327E-2,6.0394753E-2,-1.2308502E-1,-2.4217743E-2,9.714257E-2,5.4149627E-4,1.1710697E-2,-3.5134085E-2],"categories":[],"categories_nodes":[],"categories_segments":[],"categories_sizes":[],"default_left":[0,0,0,0,0,0,0,0,0,0,0,0,0,0,0],"id":81,"left_children":[1,3,5,7,9,11,13,-1,-1,-1,-1,-1,-1,-1,-1],"loss_changes":[2.1185675E0,3.4122968E0,3.5959244E0,3.3721693E0,2.492567E0,1.9523158E0,1.4812424E0,0E0,0E0,0E0,0E0,0E0,0E0,0E0,0E0],"parents":[2147483647,0,0,1,1,2,2,3,3,4,4,5,5,6,6],"right_children":[2,4,6,8,10,12,14,-1,-1,-1,-1,-1,-1,-1,-1],"split_conditions":[5.5E1,6.48E1,8.03E1,6.12E1,6.41E1,8.06E1,9.92E1,-5.1154327E-2,6.0394753E-2,-1.2308502E-1,-2.4217743E-2,9.714257E-2,5.4149627E-4,1.1710697E-2,-3.5134085E-2],"split_indices":[10,2,2,1,3,0,1,0,0,0,0,0,0,0,0],"split_type":[0,0,0,0,0,0,0,0,0,0,0,0,0,0,0],"sum_hessian":[8E1,3.7E1,4.3E1,1.1E1,2.6E1,9E0,3.4E1,3E0,8E0,2E0,2.4E1,6E0,3E0,2.6E1,8E0],"tree_param":{"num_deleted":"0","num_feature":"47","num_nodes":"15","size_leaf_vector":"1"}},{"base_weights":[-3.8182396E-3,-8.973909E-2,2.279605E-1,7.499182E-2,-2.568891E-1,3.0042356E-1,-3.5526786E-2,-5.6775836E-3,6.554477E-2,-6.629785E-2,-3.9100647E-5,1.3974299E-2,5.4406166E-2],"categories":[],"categories_nodes":[],"categories_segments":[],"categories_sizes":[],"default_left":[0,0,0,0,0,0,0,0,0,0,0,0,0],"id":82,"left_children":[1,3,5,7,9,11,-1,-1,-1,-1,-1,-1,-1],"loss_changes":[1.6932857E0,1.7264205E0,1.0787687E0,2.4847434E0,3.2287362E0,7.460773E-1,0E0,0E0,0E0,0E0,0E0,0E0,0E0],"parents":[2147483647,0,0,1,1,2,2,3,3,4,4,5,5],"right_children":[2,4,6,8,10,12,-1,-1,-1,-1,-1,-1,-1],"split_conditions":[1E0,7.77E1,9.64E1,7.525E1,8.2E1,7.9E1,-3.5526786E-2,-5.6775836E-3,6.554477E-2,-6.629785E-2,-3.9100647E-5,1.3974299E-2,5.4406166E-2],"split_indices":[8,4,3,4,3,3,0,0,0,0,0,0,0],"split_type":[0,0,0,0,0,0,0,0,0,0,0,0,0],"sum_hessian":[8.3E1,6.1E1,2.2E1,3.1E1,3E1,2E1,2E0,2.6E1,5E0,1.1E1,1.9E1,1.3E1,7E0],"tree_param":{"num_deleted":"0","num_feature":"47","num_nodes":"13","size_leaf_vector":"1"}},{"base_weights":[-3.6892023E-2,-7.076331E-2,4.4345474E-1,-3.5867233E-2,-5.184345E-1,6.1395522E-2,2.0471573E-2,-1.5678544E-2,1.6685868E-2,-9.4350055E-2,-7.00264E-3],"categories":[],"categories_nodes":[],"categories_segments":[],"categories_sizes":[],"default_left":[0,0,0,0,0,0,0,0,0,0,0],"id":83,"left_children":[1,3,5,7,9,-1,-1,-1,-1,-1,-1],"loss_changes":[1.4794073E0,1.2936507E0,1.1854434E-1,1.9627078E0,1.0775483E0,0E0,0E0,0E0,0E0,0E0,0E0],"parents":[2147483647,0,0,1,1,2,2,3,3,4,4],"right_children":[2,4,6,8,10,-1,-1,-1,-1,-1,-1],"split_conditions":[1.604E2,9.64E1,2.9805293E8,7.88E1,9.92E1,6.1395522E-2,2.0471573E-2,-1.5678544E-2,1.6685868E-2,-9.4350055E-2,-7.00264E-3],"split_indices":[21,2,30,2,2,0,0,0,0,0,0],"split_type":[0,0,0,0,0,0,0,0,0,0,0],"sum_hessian":[8.8E1,8.3E1,5E0,7.8E1,5E0,2E0,3E0,4.9E1,2.9E1,2E0,3E0],"tree_param":{"num_deleted":"0","num_feature":"47","num_nodes":"11","size_leaf_vector":"1"}},{"base_weights":[-5.1080436E-3,-9.190941E-2,2.7920133E-1,-5.4986715E-1,-3.413139E-2,3.5615826E-1,-3.2691192E-2,3.8717654E-2,-1.1895287E-1,9.4703E-3,-3.0857978E-2,1.1947042E-2,5.808991E-2],"categories":[],"categories_nodes":[],"categories_segments":[],"categories_sizes":[],"default_left":[0,0,0,0,0,0,0,0,0,0,0,0,0],"id":84,"left_children":[1,3,5,7,9,11,-1,-1,-1,-1,-1,-1,-1],"loss_changes":[2.3207564E0,1.8863447E0,1.1426138E0,5.255684E0,2.3275185E0,9.9446774E-1,0E0,0E0,0E0,0E0,0E0,0E0,0E0],"parents":[2147483647,0,0,1,1,2,2,3,3,4,4,5,5],"right_children":[2,4,6,8,10,12,-1,-1,-1,-1,-1,-1,-1],"split_conditions":[1E0,1.3E1,9.64E1,7E0,1E0,7.74E1,-3.2691192E-2,3.8717654E-2,-1.1895287E-1,9.4703E-3,-3.0857978E-2,1.1947042E-2,5.808991E-2],"split_indices":[8,10,3,10,7,0,0,0,0,0,0,0,0],"split_type":[0,0,0,0,0,0,0,0,0,0,0,0,0],"sum_hessian":[9.2E1,7.1E1,2.1E1,7E0,6.4E1,1.9E1,2E0,3E0,4E0,4.4E1,2E1,1E1,9E0],"tree_param":{"num_deleted":"0","num_feature":"47","num_nodes":"13","size_leaf_vector":"1"}},{"base_weights":[-2.402955E-2,5.3558505E-1,-5.485225E-2,-3.0295944E-2,8.20961E-2,-1.3084882E-1,-1.1491342E-2,1.3763047E-2,-1.3862682E-2],"categories":[],"categories_nodes":[],"categories_segments":[],"categories_sizes":[],"default_left":[0,0,0,0,0,0,0,0,0],"id":85,"left_children":[1,3,5,-1,-1,-1,7,-1,-1],"loss_changes":[1.6507684E0,1.4452202E0,4.8772554E0,0E0,0E0,0E0,1.6874423E0,0E0,0E0],"parents":[2147483647,0,0,1,1,2,2,6,6],"right_children":[2,4,6,-1,-1,-1,8,-1,-1],"split_conditions":[8E0,6.08E1,1E1,-3.0295944E-2,8.20961E-2,-1.3084882E-1,7.69E1,1.3763047E-2,-1.3862682E-2],"split_indices":[10,3,10,0,0,0,2,0,0],"split_type":[0,0,0,0,0,0,0,0,0],"sum_hessian":[9.3E1,4E0,8.9E1,1E0,3E0,2E0,8.7E1,4E1,4.7E1],"tree_param":{"num_deleted":"0","num_feature":"47","num_nodes":"9","size_leaf_vector":"1"}},{"base_weights":[-4.5854375E-3,-8.777943E-2,2.3796165E-1,-1.474238E-1,3.7052584E-1,1.07501164E-1,3.9681014E-1,5.0614714E-3,-4.0834397E-2,7.868973E-2,-2.4256993E-2,4.9686052E-2,-9.792862E-3,8.1181146E-2,1.0297938E-2],"categories":[],"categories_nodes":[],"categories_segments":[],"categories_sizes":[],"default_left":[0,0,0,0,0,0,0,0,0,0,0,0,0,0,0],"id":86,"left_children":[1,3,5,7,9,11,13,-1,-1,-1,-1,-1,-1,-1,-1],"loss_changes":[1.816771E0,1.8860916E0,4.3398178E-1,3.121003E0,2.2330823E0,1.1684611E0,1.1358017E0,0E0,0E0,0E0,0E0,0E0,0E0,0E0,0E0],"parents":[2147483647,0,0,1,1,2,2,3,3,4,4,5,5,6,6],"right_children":[2,4,6,8,10,12,14,-1,-1,-1,-1,-1,-1,-1,-1],"split_conditions":[1E0,9.9E1,7.2E1,7.63E1,7.1437E2,6.41E1,8.4E1,5.0614714E-3,-4.0834397E-2,7.868973E-2,-2.4256993E-2,4.9686052E-2,-9.792862E-3,8.1181146E-2,1.0297938E-2],"split_indices":[8,10,10,2,18,2,10,0,0,0,0,0,0,0,0],"split_type":[0,0,0,0,0,0,0,0,0,0,0,0,0,0,0],"sum_hessian":[8.8E1,6.6E1,2.2E1,5.9E1,7E0,1.3E1,9E0,3.4E1,2.5E1,4E0,3E0,4E0,9E0,3E0,6E0],"tree_param":{"num_deleted":"0","num_feature":"47","num_nodes":"15","size_leaf_vector":"1"}},{"base_weights":[4.1198906E-2,-1.5935701E-1,1.3744761E-1,2.0410288E-3,-6.6689956E-1,-7.047043E-2,1.6366552E-1,-3.410324E-2,9.221609E-3,-1.02349855E-1,1.4973195E-2,4.734313E-2,3.7393793E-3],"categories":[],"categories_nodes":[],"categories_segments":[],"categories_sizes":[],"default_left":[0,0,0,0,0,0,0,0,0,0,0,0,0],"id":87,"left_children":[1,3,5,7,9,-1,11,-1,-1,-1,-1,-1,-1],"loss_changes":[1.720589E0,2.376936E0,1.4401032E0,7.4299204E-1,2.19172E0,0E0,2.2900615E0,0E0,0E0,0E0,0E0,0E0,0E0],"parents":[2147483647,0,0,1,1,2,2,3,3,4,4,6,6],"right_children":[2,4,6,8,10,-1,12,-1,-1,-1,-1,-1,-1],"split_conditions":[7.08E1,6.9E1,6.7E1,6.12E1,3.7E1,-7.047043E-2,7.67E1,-3.410324E-2,9.221609E-3,-1.02349855E-1,1.4973195E-2,4.734313E-2,3.7393793E-3],"split_indices":[0,0,1,1,10,0,1,0,0,0,0,0,0],"split_type":[0,0,0,0,0,0,0,0,0,0,0,0,0],"sum_hessian":[8.7E1,2.8E1,5.9E1,2.2E1,6E0,1E0,5.8E1,4E0,1.8E1,4E0,2E0,1.6E1,4.2E1],"tree_param":{"num_deleted":"0","num_feature":"47","num_nodes":"13","size_leaf_vector":"1"}},{"base_weights":[-1.0227339E-1,-2.69904E-2,-3.4834653E-1,1.1668379E-1,-2.7461916E-1,9.512234E-2,-4.2754257E-1,-1.857601E-2,3.069447E-2,-1.527382E-1,-1.0658137E-2,9.2868804E-4,1.20638525E-2,-6.567112E-2,-1.2540606E-2],"categories":[],"categories_nodes":[],"categories_segments":[],"categories_sizes":[],"default_left":[0,0,0,0,0,0,0,0,0,0,0,0,0,0,0],"id":88,"left_children":[1,3,5,7,9,11,13,-1,-1,-1,-1,-1,-1,-1,-1],"loss_changes":[1.6578588E0,2.522494E0,7.782097E-1,2.6464643E0,5.3105087E0,7.6404214E-3,1.1639681E0,0E0,0E0,0E0,0E0,0E0,0E0,0E0,0E0],"parents":[2147483647,0,0,1,1,2,2,3,3,4,4,5,5,6,6],"right_children":[2,4,6,8,10,12,14,-1,-1,-1,-1,-1,-1,-1,-1],"split_conditions":[1E0,8.18E1,6.83E1,2.8E1,7.85E1,6.2E1,7.74E1,-1.857601E-2,3.069447E-2,-1.527382E-1,-1.0658137E-2,9.2868804E-4,1.20638525E-2,-6.567112E-2,-1.2540606E-2],"split_indices":[7,3,2,10,2,0,3,0,0,0,0,0,0,0,0],"split_type":[0,0,0,0,0,0,0,0,0,0,0,0,0,0,0],"sum_hessian":[8.9E1,6.9E1,2E1,4.4E1,2.5E1,3E0,1.7E1,1.7E1,2.7E1,2E0,2.3E1,1E0,2E0,9E0,8E0],"tree_param":{"num_deleted":"0","num_feature":"47","num_nodes":"15","size_leaf_vector":"1"}},{"base_weights":[3.2248385E-2,6.420872E-2,-4.41878E-1,1.3394127E-2,4.5922318E-1,-8.560639E-2,-2.076912E-2,1.061923E-2,-1.912976E-2,9.055729E-2,1.3856289E-2,-1.4617539E-2,6.9758096E-3],"categories":[],"categories_nodes":[],"categories_segments":[],"categories_sizes":[],"default_left":[0,0,0,0,0,0,0,0,0,0,0,0,0],"id":89,"left_children":[1,3,5,7,9,-1,11,-1,-1,-1,-1,-1,-1],"loss_changes":[1.4376237E0,1.7602292E0,1.0287243E0,1.5209208E0,1.3057876E0,0E0,5.560764E-2,0E0,0E0,0E0,0E0,0E0,0E0],"parents":[2147483647,0,0,1,1,2,2,3,3,4,4,6,6],"right_children":[2,4,6,8,10,-1,12,-1,-1,-1,-1,-1,-1],"split_conditions":[7.2986E2,9.9E1,9.94E1,8.06E1,1.90302E3,-8.560639E-2,6.05E1,1.061923E-2,-1.912976E-2,9.055729E-2,1.3856289E-2,-1.4617539E-2,6.9758096E-3],"split_indices":[18,10,1,4,16,0,0,0,0,0,0,0,0],"split_type":[0,0,0,0,0,0,0,0,0,0,0,0,0],"sum_hessian":[9.2E1,8.7E1,5E0,7.8E1,9E0,2E0,3E0,5.4E1,2.4E1,3E0,6E0,1E0,2E0],"tree_param":{"num_deleted":"0","num_feature":"47","num_nodes":"13","size_leaf_vector":"1"}},{"base_weights":[-4.4240974E-2,-3.594763E-1,-7.7680754E-3,2.7725753E-1,-9.2431486E-1,1.0003844E-1,-1.3931581E-1,-5.1067162E-2,6.0190775E-2,-3.5224404E-2,-1.1882807E-1,-7.051193E-3,3.082245E-2,-4.585084E-2,1.7040957E-2],"categories":[],"categories_nodes":[],"categories_segments":[],"categories_sizes":[],"default_left":[0,0,0,0,0,0,0,0,0,0,0,0,0,0,0],"id":90,"left_children":[1,3,5,7,9,11,13,-1,-1,-1,-1,-1,-1,-1,-1],"loss_changes":[9.9749404E-1,3.49314E0,1.1342915E0,1.586384E0,3.3647108E-1,1.5840065E0,3.6371677E0,0E0,0E0,0E0,0E0,0E0,0E0,0E0,0E0],"parents":[2147483647,0,0,1,1,2,2,3,3,4,4,5,5,6,6],"right_children":[2,4,6,8,10,12,14,-1,-1,-1,-1,-1,-1,-1,-1],"split_conditions":[1.3E1,6.48E1,8.005E1,6.16E1,6.55E1,7.325E1,8.51E1,-5.1067162E-2,6.0190775E-2,-3.5224404E-2,-1.1882807E-1,-7.051193E-3,3.082245E-2,-4.585084E-2,1.7040957E-2],"split_indices":[10,2,4,2,4,4,2,0,0,0,0,0,0,0,0],"split_type":[0,0,0,0,0,0,0,0,0,0,0,0,0,0,0],"sum_hessian":[8.6E1,8E0,7.8E1,4E0,4E0,4.3E1,3.5E1,1E0,3E0,2E0,2E0,2.4E1,1.9E1,1.7E1,1.8E1],"tree_param":{"num_deleted":"0","num_feature":"47","num_nodes":"15","size_leaf_vector":"1"}},{"base_weights":[-2.724994E-2,4.7901002E-1,-5.3888768E-2,-2.733612E-2,7.3544316E-2,-1.1090622E-1,-1.889519E-2,1.324349E-3,-4.8175685E-2],"categories":[],"categories_nodes":[],"categories_segments":[],"categories_sizes":[],"default_left":[0,0,0,0,0,0,0,0,0],"id":91,"left_children":[1,3,5,-1,-1,-1,7,-1,-1],"loss_changes":[1.347458E0,1.165706E0,3.4499276E0,0E0,0E0,0E0,1.3749503E0,0E0,0E0],"parents":[2147483647,0,0,1,1,2,2,6,6],"right_children":[2,4,6,-1,-1,-1,8,-1,-1],"split_conditions":[8E0,6.08E1,1E1,-2.733612E-2,7.3544316E-2,-1.1090622E-1,9.92E1,1.324349E-3,-4.8175685E-2],"split_indices":[10,3,10,0,0,0,1,0,0],"split_type":[0,0,0,0,0,0,0,0,0],"sum_hessian":[9.7E1,4E0,9.3E1,1E0,3E0,2E0,9.1E1,8.6E1,5E0],"tree_param":{"num_deleted":"0","num_feature":"47","num_nodes":"9","size_leaf_vector":"1"}},{"base_weights":[-4.089448E-2,-7.588782E-2,2.5014037E-1,-4.0778484E-2,-7.5032525E-2,3.4804344E-1,-9.4314575E-2,-1.4464927E-2,1.1630202E-2,4.6754073E-2,1.8283693E-2,-1.6481018E-2,2.3338317E-3],"categories":[],"categories_nodes":[],"categories_segments":[],"categories_sizes":[],"default_left":[0,0,0,0,0,0,0,0,0,0,0,0,0],"id":92,"left_children":[1,3,5,7,-1,9,11,-1,-1,-1,-1,-1,-1],"loss_changes":[9.4575226E-1,1.9110848E0,3.7005752E-1,1.3057928E0,0E0,7.245016E-2,2.8728427E-2,0E0,0E0,0E0,0E0,0E0,0E0],"parents":[2147483647,0,0,1,1,2,2,3,3,5,5,6,6],"right_children":[2,4,6,8,-1,10,12,-1,-1,-1,-1,-1,-1],"split_conditions":[2.1199506E8,9.56E1,8.406481E6,7.88E1,-7.5032525E-2,9.713287E8,9.92E1,-1.4464927E-2,1.1630202E-2,4.6754073E-2,1.8283693E-2,-1.6481018E-2,2.3338317E-3],"split_indices":[23,5,35,2,0,28,0,0,0,0,0,0,0],"split_type":[0,0,0,0,0,0,0,0,0,0,0,0,0],"sum_hessian":[9E1,8.1E1,9E0,7.8E1,3E0,7E0,2E0,4.7E1,3.1E1,3E0,4E0,1E0,1E0],"tree_param":{"num_deleted":"0","num_feature":"47","num_nodes":"13","size_leaf_vector":"1"}},{"base_weights":[-3.4133956E-2,1.02166526E-1,-1.3913976E-1,4.1592386E-2,7.950007E-2,-4.152314E-1,3.456608E-2,-6.3573397E-3,2.8638495E-2,-2.3950733E-2,-1.2725906E-1,8.737183E-3,-4.874115E-2],"categories":[],"categories_nodes":[],"categories_segments":[],"categories_sizes":[],"default_left":[0,0,0,0,0,0,0,0,0,0,0,0,0],"id":93,"left_children":[1,3,5,7,-1,9,11,-1,-1,-1,-1,-1,-1],"loss_changes":[1.2450769E0,1.5617118E0,2.3643308E0,9.449833E-1,0E0,2.5577195E0,8.9705193E-1,0E0,0E0,0E0,0E0,0E0,0E0],"parents":[2147483647,0,0,1,1,2,2,3,3,5,5,6,6],"right_children":[2,4,6,8,-1,10,12,-1,-1,-1,-1,-1,-1],"split_conditions":[7.33E1,7.24E1,8.05E1,1E0,7.950007E-2,1E0,1.0602E2,-6.3573397E-3,2.8638495E-2,-2.3950733E-2,-1.2725906E-1,8.737183E-3,-4.874115E-2],"split_indices":[2,2,2,6,0,6,13,0,0,0,0,0,0],"split_type":[0,0,0,0,0,0,0,0,0,0,0,0,0],"sum_hessian":[8.5E1,3.7E1,4.8E1,3.5E1,2E0,1.8E1,3E1,2.5E1,1E1,1.6E1,2E0,2.8E1,2E0],"tree_param":{"num_deleted":"0","num_feature":"47","num_nodes":"13","size_leaf_vector":"1"}},{"base_weights":[-8.3217425E-3,4.5000687E-1,-3.2873586E-2,-2.4928093E-2,6.871491E-2,-1.0329081E-1,4.5583537E-4,-8.147879E-3,1.0695945E-2],"categories":[],"categories_nodes":[],"categories_segments":[],"categories_sizes":[],"default_left":[0,0,0,0,0,0,0,0,0],"id":94,"left_children":[1,3,5,-1,-1,-1,7,-1,-1],"loss_changes":[1.1063161E0,1.0004462E0,3.100214E0,0E0,0E0,0E0,8.028111E-1,0E0,0E0],"parents":[2147483647,0,0,1,1,2,2,6,6],"right_children":[2,4,6,-1,-1,-1,8,-1,-1],"split_conditions":[8E0,6.08E1,1E1,-2.4928093E-2,6.871491E-2,-1.0329081E-1,7.89E1,-8.147879E-3,1.0695945E-2],"split_indices":[10,3,10,0,0,0,0,0,0],"split_type":[0,0,0,0,0,0,0,0,0],"sum_hessian":[9.6E1,4E0,9.2E1,1E0,3E0,2E0,9E1,5.1E1,3.9E1],"tree_param":{"num_deleted":"0","num_feature":"47","num_nodes":"9","size_leaf_vector":"1"}},{"base_weights":[-5.361101E-3,4.137619E-1,-2.9113986E-2,-2.368164E-2,6.356106E-2,-1.36144E-1,8.1010215E-2,-3.6108163E-3,-6.740374E-2,1.0111405E-1,-3.7281325E-3],"categories":[],"categories_nodes":[],"categories_segments":[],"categories_sizes":[],"default_left":[0,0,0,0,0,0,0,0,0,0,0],"id":95,"left_children":[1,3,5,-1,-1,7,9,-1,-1,-1,-1],"loss_changes":[9.2794126E-1,8.721728E-1,1.0482495E0,0E0,0E0,2.3970494E0,4.8788643E0,0E0,0E0,0E0,0E0],"parents":[2147483647,0,0,1,1,2,2,5,5,6,6],"right_children":[2,4,6,-1,-1,8,10,-1,-1,-1,-1],"split_conditions":[8E0,6.08E1,7.89E1,-2.368164E-2,6.356106E-2,7.69E1,7.9E1,-3.6108163E-3,-6.740374E-2,1.0111405E-1,-3.7281325E-3],"split_indices":[10,3,0,0,0,0,1,0,0,0,0],"split_type":[0,0,0,0,0,0,0,0,0,0,0],"sum_hessian":[9.1E1,4E0,8.7E1,1E0,3E0,4.4E1,4.3E1,3.8E1,6E0,4E0,3.9E1],"tree_param":{"num_deleted":"0","num_feature":"47","num_nodes":"11","size_leaf_vector":"1"}},{"base_weights":[3.8934708E-2,7.178819E-2,-4.220276E-1,4.133068E-2,4.5577112E-1,-7.229131E-2,-9.085655E-2,1.0675377E-2,-1.4132981E-2,6.663437E-2,-2.9854584E-2,-1.801173E-2,8.846283E-3],"categories":[],"categories_nodes":[],"categories_segments":[],"categories_sizes":[],"default_left":[0,0,0,0,0,0,0,0,0,0,0,0,0],"id":96,"left_children":[1,3,5,7,9,-1,11,-1,-1,-1,-1,-1,-1],"loss_changes":[1.3629876E0,9.518614E-1,5.3218603E-1,9.4720423E-1,1.1519645E0,0E0,7.995841E-2,0E0,0E0,0E0,0E0,0E0,0E0],"parents":[2147483647,0,0,1,1,2,2,3,3,4,4,6,6],"right_children":[2,4,6,8,10,-1,12,-1,-1,-1,-1,-1,-1],"split_conditions":[9.92E1,9.56E1,9.94E1,8.2E1,1E0,-7.229131E-2,9.88E1,1.0675377E-2,-1.4132981E-2,6.663437E-2,-2.9854584E-2,-1.801173E-2,8.846283E-3],"split_indices":[1,5,1,1,8,0,4,0,0,0,0,0,0],"split_type":[0,0,0,0,0,0,0,0,0,0,0,0,0],"sum_hessian":[8.7E1,8.2E1,5E0,7.7E1,5E0,2E0,3E0,5.7E1,2E1,4E0,1E0,2E0,1E0],"tree_param":{"num_deleted":"0","num_feature":"47","num_nodes":"13","size_leaf_vector":"1"}},{"base_weights":[2.3432134E-2,-2.7635384E-1,5.3493597E-2,-1.0884966E-2,-1.06731795E-1,5.799351E-2,2.5082286E-2,-2.3606205E-2,2.1701336E-2,-8.4302025E-3,1.2563571E-2],"categories":[],"categories_nodes":[],"categories_segments":[],"categories_sizes":[],"default_left":[0,0,0,0,0,0,0,0,0,0,0],"id":97,"left_children":[1,3,5,7,-1,-1,9,-1,-1,-1,-1],"loss_changes":[7.898156E-1,1.6681932E0,1.1670483E0,4.10451E-1,0E0,0E0,8.465129E-1,0E0,0E0,0E0,0E0],"parents":[2147483647,0,0,1,1,2,2,3,3,6,6],"right_children":[2,4,6,8,-1,-1,10,-1,-1,-1,-1],"split_conditions":[6.41E1,6.65E1,8E0,6.08E1,-1.06731795E-1,5.799351E-2,7.89E1,-2.3606205E-2,2.1701336E-2,-8.4302025E-3,1.2563571E-2],"split_indices":[3,0,10,3,0,0,0,0,0,0,0],"split_type":[0,0,0,0,0,0,0,0,0,0,0],"sum_hessian":[8.5E1,7E0,7.8E1,6E0,1E0,3E0,7.5E1,3E0,3E0,3.6E1,3.9E1],"tree_param":{"num_deleted":"0","num_feature":"47","num_nodes":"11","size_leaf_vector":"1"}},{"base_weights":[1.7515847E-2,3.3871662E-2,-4.6264138E-2,-9.669342E-3,2.8246424E-1,1.562749E-3,-4.62595E-2,7.1339265E-2,1.1674669E-3],"categories":[],"categories_nodes":[],"categories_segments":[],"categories_sizes":[],"default_left":[0,0,0,0,0,0,0,0,0],"id":98,"left_children":[1,3,-1,5,7,-1,-1,-1,-1],"loss_changes":[7.146197E-1,9.4441676E-1,0E0,8.66548E-1,1.5086533E0,0E0,0E0,0E0,0E0],"parents":[2147483647,0,0,1,1,3,3,4,4],"right_children":[2,4,-1,6,8,-1,-1,-1,-1],"split_conditions":[1.6122E2,1E2,-4.6264138E-2,9.61E1,1.90302E3,1.562749E-3,-4.62595E-2,7.1339265E-2,1.1674669E-3],"split_indices":[12,10,0,1,16,0,0,0,0],"split_type":[0,0,0,0,0,0,0,0,0],"sum_hessian":[8.8E1,8.6E1,2E0,7.4E1,1.2E1,7.1E1,3E0,4E0,8E0],"tree_param":{"num_deleted":"0","num_feature":"47","num_nodes":"9","size_leaf_vector":"1"}},{"base_weights":[7.609117E-2,-2.4128962E-1,1.0576533E-1,-6.462952E-1,3.2528973E-1,2.2873269E-1,-1.3942275E-2,-3.0050278E-2,-1.01473235E-1,3.888639E-2,6.728363E-3,6.8679373E-3,4.7452357E-2,-1.4460297E-1,5.4584322E-3],"categories":[],"categories_nodes":[],"categories_segments":[],"categories_sizes":[],"default_left":[0,0,0,0,0,0,0,0,0,0,0,0,0,0,0],"id":99,"left_children":[1,3,5,7,9,11,13,-1,-1,-1,-1,-1,-1,-1,-1],"loss_changes":[8.731407E-1,2.0459752E0,1.2249599E0,3.3208418E-1,3.9445907E-2,1.5803354E0,4.298782E0,0E0,0E0,0E0,0E0,0E0,0E0,0E0,0E0],"parents":[2147483647,0,0,1,1,2,2,3,3,4,4,5,5,6,6],"right_children":[2,4,6,8,10,12,14,-1,-1,-1,-1,-1,-1,-1,-1],"split_conditions":[6.41E1,1.7E1,6.4E1,6.65E1,6.46E1,4.4E1,6.6E1,-3.0050278E-2,-1.01473235E-1,3.888639E-2,6.728363E-3,6.8679373E-3,4.7452357E-2,-1.4460297E-1,5.4584322E-3],"split_indices":[3,10,10,0,0,10,10,0,0,0,0,0,0,0,0],"split_type":[0,0,0,0,0,0,0,0,0,0,0,0,0,0,0],"sum_hessian":[8.9E1,7E0,8.2E1,4E0,3E0,4E1,4.2E1,3E0,1E0,2E0,1E0,2.5E1,1.5E1,1E0,4.1E1],"tree_param":{"num_deleted":"0","num_feature":"47","num_nodes":"15","size_leaf_vector":"1"}}]},"name":"gbtree"},"learner_model_param":{"base_score":"7.877411E1","boost_from_average":"1","num_class":"0","num_feature":"47","num_target":"1"},"objective":{"name":"reg:squarederror","reg_loss_param":{"scale_pos_weight":"1"}}},"version":[2,1,4]}