{"learner":{"attributes":{"scikit_learn":"{\"_estimator_type\": \"regressor\"}"},"feature_names":["lag_1","lag_2","lag_3","lag_4","roll_mean_2","roll_mean_4","q2","q3","q4","covid","trend","gasto_medio__excursionistas_fronterizos__en_automoviles__entrada","gasto_medio__excursionistas_fronterizos__en_automoviles__salida","gasto_medio__excursionistas_fronterizos__peatones__entrada","gasto_medio__excursionistas_fronterizos__peatones__salida","gasto_medio__turistas_de_internacion__via_aerea__entrada","gasto_medio__turistas_de_internacion__via_aerea__salida","gasto_medio__turistas_de_internacion__via_terrestre__entrada","gasto_medio__turistas_de_internacion__via_terrestre__salida","gasto_medio__turistas_fronterizos__en_automoviles__entrada","gasto_medio__turistas_fronterizos__en_automoviles__salida","gasto_medio__turistas_fronterizos__peatones__entrada","gasto_medio__turistas_fronterizos__peatones__salida","gasto_total__excursionistas_fronterizos__en_automoviles__entrada","gasto_total__excursionistas_fronterizos__en_automoviles__salida","gasto_total__excursionistas_fronterizos__peatones__entrada","gasto_total__excursionistas_fronterizos__peatones__salida","gasto_total__turistas_de_internacion__via_aerea__entrada","gasto_total__turistas_de_internacion__via_aerea__salida","gasto_total__turistas_de_internacion__via_terrestre__entrada","gasto_total__turistas_de_internacion__via_terrestre__salida","gasto_total__turistas_fronterizos__en_automoviles__entrada","gasto_total__turistas_fronterizos__en_automoviles__salida","gasto_total__turistas_fronterizos__peatones__entrada","gasto_total__turistas_fronterizos__peatones__salida","num_visitantes__excursionistas_fronterizos__en_automoviles__entrada","num_visitantes__excursionistas_fronterizos__en_automoviles__salida","num_visitantes__excursionistas_fronterizos__peatones__entrada","num_visitantes__excursionistas_fronterizos__peatones__salida","num_visitantes__turistas_de_internacion__via_aerea__entrada","num_visitantes__turistas_de_internacion__via_aerea__salida","num_visitantes__turistas_de_internacion__via_terrestre__entrada","num_visitantes__turistas_de_internacion__via_terrestre__salida","num_visitantes__turistas_fronterizos__en_automoviles__entrada","num_visitantes__turistas_fronterizos__en_automoviles__salida","num_visitantes__turistas_fronterizos__peatones__entrada","num_visitantes__turistas_fronterizos__peatones__salida"],"feature_types":["float","float","float","float","float","float","int","int","int","int","int","float","float","float","float","float","float","float","float","float","float","float","float","float","float","float","float","float","float","float","float","float","float","float","float","float","float","float","float","float","float","float","float","float","float","float","float"],"gradient_booster":{"model":{"gbtree_model_param":{"num_parallel_tree":"1","num_trees":"100"},"iteration_indptr":[0,1,2,3,4,5,6,7,8,9,10,11,12,13,14,15,16,17,18,19,20,21,22,23,24,25,26,27,28,29,30,31,32,33,34,35,36,37,38,39,40,41,42,43,44,45,46,47,48,49,50,51,52,53,54,55,56,57,58,59,60,61,62,63,64,65,66,67,68,69,70,71,72,73,74,75,76,77,78,79,80,81,82,83,84,85,86,87,88,89,90,91,92,93,94,95,96,97,98,99,100],"tree_info":[0,0,0,0,0,0,0,0,0,0,0,0,0,0,0,0,0,0,0,0,0,0,0,0,0,0,0,0,0,0,0,0,0,0,0,0,0,0,0,0,0,0,0,0,0,0,0,0,0,0,0,0,0,0,0,0,0,0,0,0,0,0,0,0,0,0,0,0,0,0,0,0,0,0,0,0,0,0,0,0,0,0,0,0,0,0,0,0,0,0,0,0,0,0,0,0,0,0,0,0],"trees":[{"base_weights":[1.5261288E-1,-8.776477E0,6.4332204E0,-1.1655976E0,-4.0886693E0,-1.5540622E0,7.141041E0,-4.561158E-1,-5.2083082E-2,3.9839312E-1,1.2580924E0],"categories":[],"categories_nodes":[],"categories_segments":[],"categories_sizes":[],"default_left":[0,0,0,0,0,0,0,0,0,0,0],"id":0,"left_children":[1,3,5,-1,7,-1,9,-1,-1,-1,-1],"loss_changes":[5.159751E3,4.6528687E2,9.508667E2,0E0,2.459665E1,0E0,8.601167E2,0E0,0E0,0E0,0E0],"parents":[2147483647,0,0,1,1,2,2,4,4,6,6],"right_children":[2,4,6,-1,8,-1,10,-1,-1,-1,-1],"split_conditions":[4.7E1,2.8E1,1.7710845E8,-1.1655976E0,8.25E1,-1.5540622E0,9.435E1,-4.561158E-1,-5.2083082E-2,3.9839312E-1,1.2580924E0],"split_indices":[10,10,24,0,3,0,5,0,0,0,0],"split_type":[0,0,0,0,0,0,0,0,0,0,0],"sum_hessian":[9E1,3.7E1,5.3E1,2.2E1,1.5E1,1E0,5.2E1,1.3E1,2E0,3.4E1,1.8E1],"tree_param":{"num_deleted":"0","num_feature":"47","num_nodes":"11","size_leaf_vector":"1"}},{"base_weights":[-1.5515622E-1,-8.61437E0,5.866884E0,-1.2296473E0,-5.8384624E0,2.2180905E0,1.0031389E1,1.16017915E-1,-6.209318E-1,-6.4733713E-3,3.0908203E-1,6.385353E-1,1.115709E0],"categories":[],"categories_nodes":[],"categories_segments":[],"categories_sizes":[],"default_left":[0,0,0,0,0,0,0,0,0,0,0,0,0],"id":1,"left_children":[1,3,5,-1,7,9,11,-1,-1,-1,-1,-1,-1],"loss_changes":[4.5334116E3,3.063911E2,7.6791113E2,0E0,6.6900024E1,5.7976456E1,2.7262207E1,0E0,0E0,0E0,0E0,0E0,0E0],"parents":[2147483647,0,0,1,1,2,2,4,4,5,5,6,6],"right_children":[2,4,6,-1,8,10,12,-1,-1,-1,-1,-1,-1],"split_conditions":[8.37E1,7.59E1,9.2475E1,-1.2296473E0,6.66E1,5.5E1,9.63E1,1.16017915E-1,-6.209318E-1,-6.4733713E-3,3.0908203E-1,6.385353E-1,1.115709E0],"split_indices":[0,0,5,0,3,10,1,0,0,0,0,0,0],"split_type":[0,0,0,0,0,0,0,0,0,0,0,0,0],"sum_hessian":[8.7E1,3.6E1,5.1E1,1.4E1,2.2E1,2.8E1,2.3E1,1E0,2.1E1,8E0,2E1,7E0,1.6E1],"tree_param":{"num_deleted":"0","num_feature":"47","num_nodes":"13","size_leaf_vector":"1"}},{"base_weights":[-2.467274E-1,-7.412749E0,4.8005977E0,-1.0649967E0,-4.8384776E0,5.4693427E0,-1.5321445E0,-5.300769E-1,1.0388693E-3,1.79476E-1,8.448488E-1],"categories":[],"categories_nodes":[],"categories_segments":[],"categories_sizes":[],"default_left":[0,0,0,0,0,0,0,0,0,0,0],"id":2,"left_children":[1,3,5,-1,7,9,-1,-1,-1,-1,-1],"loss_changes":[3.3269866E3,2.6514233E2,8.104502E2,0E0,5.1611572E1,5.6503406E2,0E0,0E0,0E0,0E0,0E0],"parents":[2147483647,0,0,1,1,2,2,4,4,5,5],"right_children":[2,4,6,-1,8,10,-1,-1,-1,-1,-1],"split_conditions":[8.46E1,7.71E1,1.038E2,-1.0649967E0,4.4E1,7.5E1,-1.5321445E0,-5.300769E-1,1.0388693E-3,1.79476E-1,8.448488E-1],"split_indices":[0,0,0,0,10,10,0,0,0,0,0],"split_type":[0,0,0,0,0,0,0,0,0,0,0],"sum_hessian":[9E1,3.7E1,5.3E1,1.5E1,2.2E1,5.2E1,1E0,2E1,2E0,2.4E1,2.8E1],"tree_param":{"num_deleted":"0","num_feature":"47","num_nodes":"11","size_leaf_vector":"1"}},{"base_weights":[-5.8720374E-1,-6.745312E0,4.0992713E0,-8.80795E0,-2.9719439E0,4.7258754E0,-1.4555374E0,-1.1211709E0,-6.87586E-1,-1.0393772E-1,-3.3379686E-1,2.1121572E-1,8.608106E-1],"categories":[],"categories_nodes":[],"categories_segments":[],"categories_sizes":[],"default_left":[0,0,0,0,0,0,0,0,0,0,0,0,0],"id":3,"left_children":[1,3,5,7,9,11,-1,-1,-1,-1,-1,-1,-1],"loss_changes":[2.7404744E3,2.9292993E2,6.9999713E2,4.3661133E1,7.848465E0,5.196123E2,0E0,0E0,0E0,0E0,0E0,0E0,0E0],"parents":[2147483647,0,0,1,1,2,2,3,3,4,4,5,5],"right_children":[2,4,6,8,10,12,-1,-1,-1,-1,-1,-1,-1],"split_conditions":[8.46E1,7.96E1,1.025E2,7.25E1,1.15554E6,8.3E1,-1.4555374E0,-1.1211709E0,-6.87586E-1,-1.0393772E-1,-3.3379686E-1,2.1121572E-1,8.608106E-1],"split_indices":[0,0,0,0,42,10,0,0,0,0,0,0,0],"split_type":[0,0,0,0,0,0,0,0,0,0,0,0,0],"sum_hessian":[9.3E1,4E1,5.3E1,2.5E1,1.5E1,5.2E1,1E0,9E0,1.6E1,3E0,1.2E1,3.2E1,2E1],"tree_param":{"num_deleted":"0","num_feature":"47","num_nodes":"13","size_leaf_vector":"1"}},{"base_weights":[2.5941867E-1,-5.698303E0,4.9518647E0,-8.170017E0,-2.955242E0,2.243659E0,8.842851E0,-9.012438E-1,-5.1976854E-1,1.4454423E-1,-3.2475483E-1,1.2378269E-3,2.9869035E-1,9.153029E-1,1.3196449E-1],"categories":[],"categories_nodes":[],"categories_segments":[],"categories_sizes":[],"default_left":[0,0,0,0,0,0,0,0,0,0,0,0,0,0,0],"id":4,"left_children":[1,3,5,7,9,11,13,-1,-1,-1,-1,-1,-1,-1,-1],"loss_changes":[2.6001958E3,2.5383826E2,5.281144E2,5.739258E0,3.1707443E1,5.3031418E1,3.6925537E1,0E0,0E0,0E0,0E0,0E0,0E0,0E0,0E0],"parents":[2147483647,0,0,1,1,2,2,3,3,4,4,5,5,6,6],"right_children":[2,4,6,8,10,12,14,-1,-1,-1,-1,-1,-1,-1,-1],"split_conditions":[8.47E1,2.8E1,8.7E1,2.1E1,6.66E1,8.67E1,1.038E2,-9.012438E-1,-5.1976854E-1,1.4454423E-1,-3.2475483E-1,1.2378269E-3,2.9869035E-1,9.153029E-1,1.3196449E-1],"split_indices":[0,10,10,10,3,3,1,0,0,0,0,0,0,0,0],"split_type":[0,0,0,0,0,0,0,0,0,0,0,0,0,0,0],"sum_hessian":[9.1E1,4E1,5.1E1,2E1,2E1,3.1E1,2E1,1.4E1,6E0,1E0,1.9E1,8E0,2.3E1,1.9E1,1E0],"tree_param":{"num_deleted":"0","num_feature":"47","num_nodes":"15","size_leaf_vector":"1"}},{"base_weights":[1.946953E-2,-5.290711E0,3.5592294E0,-6.400613E0,-2.1863327E0,-1.4285259E0,4.165451E0,1.373169E-1,-6.766491E-1,-7.619629E-2,-3.246314E-1,2.0911863E-1,7.226655E-1],"categories":[],"categories_nodes":[],"categories_segments":[],"categories_sizes":[],"default_left":[0,0,0,0,0,0,0,0,0,0,0,0,0],"id":5,"left_children":[1,3,5,7,9,-1,11,-1,-1,-1,-1,-1,-1],"loss_changes":[1.6917429E3,1.1004614E2,6.4366113E2,8.324231E1,1.4134289E1,0E0,3.2142444E2,0E0,0E0,0E0,0E0,0E0,0E0],"parents":[2147483647,0,0,1,1,2,2,3,3,4,4,6,6],"right_children":[2,4,6,8,10,-1,12,-1,-1,-1,-1,-1,-1],"split_conditions":[8.345E1,8.03E1,1.7710845E8,6.66E1,2.726827E2,-1.4285259E0,8.7E1,1.373169E-1,-6.766491E-1,-7.619629E-2,-3.246314E-1,2.0911863E-1,7.226655E-1],"split_indices":[4,4,24,3,20,0,10,0,0,0,0,0,0],"split_type":[0,0,0,0,0,0,0,0,0,0,0,0,0],"sum_hessian":[8.8E1,3.5E1,5.3E1,2.5E1,1E1,1E0,5.2E1,1E0,2.4E1,5E0,5E0,3.2E1,2E1],"tree_param":{"num_deleted":"0","num_feature":"47","num_nodes":"13","size_leaf_vector":"1"}},{"base_weights":[3.63344E-2,-4.1354446E0,4.491727E0,-6.940456E0,-2.3145895E0,-1.3570995E0,5.2273946E0,-7.492663E-1,-3.1345654E-1,-2.9339382E-1,-2.4463845E-2,3.4567127E-1,7.9993767E-1],"categories":[],"categories_nodes":[],"categories_segments":[],"categories_sizes":[],"default_left":[0,0,0,0,0,0,0,0,0,0,0,0,0],"id":6,"left_children":[1,3,5,7,9,-1,11,-1,-1,-1,-1,-1,-1],"loss_changes":[1.6913975E3,2.2398914E2,6.5562024E2,1.4343262E1,3.774289E1,0E0,1.8340527E2,0E0,0E0,0E0,0E0,0E0,0E0],"parents":[2147483647,0,0,1,1,2,2,3,3,4,4,6,6],"right_children":[2,4,6,8,10,-1,12,-1,-1,-1,-1,-1,-1],"split_conditions":[8.76E1,7.73E1,2.07956E3,2.5983892E3,8.36E1,-1.3570995E0,9.7E1,-7.492663E-1,-3.1345654E-1,-2.9339382E-1,-2.4463845E-2,3.4567127E-1,7.9993767E-1],"split_indices":[4,0,16,16,2,0,0,0,0,0,0,0,0],"split_type":[0,0,0,0,0,0,0,0,0,0,0,0,0],"sum_hessian":[8.9E1,4.6E1,4.3E1,1.7E1,2.9E1,1E0,4.2E1,1.4E1,3E0,2.2E1,7E0,2.7E1,1.5E1],"tree_param":{"num_deleted":"0","num_feature":"47","num_nodes":"13","size_leaf_vector":"1"}},{"base_weights":[3.0641353E-1,-3.8522904E0,3.7798922E0,-6.917912E0,-2.00649E0,-1.2892445E0,4.395825E0,-7.4233115E-1,-2.4218777E-1,-2.4078302E-1,2.4097292E-2,2.3913363E-1,6.470646E-1],"categories":[],"categories_nodes":[],"categories_segments":[],"categories_sizes":[],"default_left":[0,0,0,0,0,0,0,0,0,0,0,0,0],"id":7,"left_children":[1,3,5,7,9,-1,11,-1,-1,-1,-1,-1,-1],"loss_changes":[1.3001813E3,2.1811884E2,5.5985596E2,1.610608E1,2.493415E1,0E0,1.8415637E2,0E0,0E0,0E0,0E0,0E0,0E0],"parents":[2147483647,0,0,1,1,2,2,3,3,4,4,6,6],"right_children":[2,4,6,8,10,-1,12,-1,-1,-1,-1,-1,-1],"split_conditions":[8.76E1,7.71E1,1.6603222E8,2.5983892E3,8.4E1,-1.2892445E0,9.32E1,-7.4233115E-1,-2.4218777E-1,-2.4078302E-1,2.4097292E-2,2.3913363E-1,6.470646E-1],"split_indices":[0,0,23,16,3,0,3,0,0,0,0,0,0],"split_type":[0,0,0,0,0,0,0,0,0,0,0,0,0],"sum_hessian":[8.8E1,4E1,4.8E1,1.4E1,2.6E1,1E0,4.7E1,1.2E1,2E0,2.2E1,4E0,2.5E1,2.2E1],"tree_param":{"num_deleted":"0","num_feature":"47","num_nodes":"13","size_leaf_vector":"1"}},{"base_weights":[-5.355907E-1,-4.57141E0,2.34635E0,-7.9313594E-1,-3.2081637E0,-1.2247822E0,2.8726635E0,-3.9132237E-1,-1.5477334E-1,6.0044743E-2,4.8701724E-1],"categories":[],"categories_nodes":[],"categories_segments":[],"categories_sizes":[],"default_left":[0,0,0,0,0,0,0,0,0,0,0],"id":8,"left_children":[1,3,5,-1,7,-1,9,-1,-1,-1,-1],"loss_changes":[1.0342534E3,1.4403119E2,4.3460165E2,0E0,2.6723053E1,0E0,2.2855307E2,0E0,0E0,0E0,0E0],"parents":[2147483647,0,0,1,1,2,2,4,4,6,6],"right_children":[2,4,6,-1,8,-1,10,-1,-1,-1,-1],"split_conditions":[8.36E1,7.25E1,2.07956E3,-7.9313594E-1,8.04E1,-1.2247822E0,7.5E1,-3.9132237E-1,-1.5477334E-1,6.0044743E-2,4.8701724E-1],"split_indices":[0,0,16,0,0,0,10,0,0,0,0],"split_type":[0,0,0,0,0,0,0,0,0,0,0],"sum_hessian":[8.7E1,3.6E1,5.1E1,9E0,2.7E1,1E0,5E1,1.8E1,9E0,2.4E1,2.6E1],"tree_param":{"num_deleted":"0","num_feature":"47","num_nodes":"11","size_leaf_vector":"1"}},{"base_weights":[4.829398E-2,-4.3727536E0,2.3703988E0,-7.1115837E0,-2.9290693E0,-1.163543E0,2.8124893E0,-1.6388436E-1,-7.5375724E-1,-4.6400443E-1,-1.9974509E-1,8.34783E-2,5.389671E-1],"categories":[],"categories_nodes":[],"categories_segments":[],"categories_sizes":[],"default_left":[0,0,0,0,0,0,0,0,0,0,0,0,0],"id":9,"left_children":[1,3,5,7,9,-1,11,-1,-1,-1,-1,-1,-1],"loss_changes":[9.240512E2,1.017439E2,3.980434E2,1.0960358E1,2.579921E1,0E0,2.9112146E2,0E0,0E0,0E0,0E0,0E0,0E0],"parents":[2147483647,0,0,1,1,2,2,3,3,4,4,6,6],"right_children":[2,4,6,8,10,-1,12,-1,-1,-1,-1,-1,-1],"split_conditions":[8.28E1,7.25E1,2.07956E3,6.66E1,7.42E1,-1.163543E0,8.2E1,-1.6388436E-1,-7.5375724E-1,-4.6400443E-1,-1.9974509E-1,8.34783E-2,5.389671E-1],"split_indices":[0,0,16,1,3,0,10,0,0,0,0,0,0],"split_type":[0,0,0,0,0,0,0,0,0,0,0,0,0],"sum_hessian":[8.8E1,3E1,5.8E1,9E0,2.1E1,1E0,5.7E1,1E0,8E0,6E0,1.5E1,3.3E1,2.4E1],"tree_param":{"num_deleted":"0","num_feature":"47","num_nodes":"13","size_leaf_vector":"1"}},{"base_weights":[1.0458792E-1,-3.334555E0,2.5592508E0,-4.5345445E0,-1.4443018E0,-1.1053658E0,3.0077338E0,-2.9940152E-1,-6.0829866E-1,2.3458863E-2,-1.6837932E-1,1.6264938E-1,5.539216E-1],"categories":[],"categories_nodes":[],"categories_segments":[],"categories_sizes":[],"default_left":[0,0,0,0,0,0,0,0,0,0,0,0,0],"id":10,"left_children":[1,3,5,7,9,-1,11,-1,-1,-1,-1,-1,-1],"loss_changes":[8.1051794E2,8.418207E1,3.7513535E2,3.9037567E1,7.2303543E0,0E0,1.8330261E2,0E0,0E0,0E0,0E0,0E0,0E0],"parents":[2147483647,0,0,1,1,2,2,3,3,4,4,6,6],"right_children":[2,4,6,8,10,-1,12,-1,-1,-1,-1,-1,-1],"split_conditions":[8.47E1,7.96E1,1.6603222E8,1.0037323E3,1.15554E6,-1.1053658E0,9.1E1,-2.9940152E-1,-6.0829866E-1,2.3458863E-2,-1.6837932E-1,1.6264938E-1,5.539216E-1],"split_indices":[0,0,23,17,42,0,10,0,0,0,0,0,0],"split_type":[0,0,0,0,0,0,0,0,0,0,0,0,0],"sum_hessian":[9.4E1,3.9E1,5.5E1,2.3E1,1.6E1,1E0,5.4E1,1.3E1,1E1,2E0,1.4E1,3.6E1,1.8E1],"tree_param":{"num_deleted":"0","num_feature":"47","num_nodes":"13","size_leaf_vector":"1"}},{"base_weights":[1.6078706E-1,-2.0524182E0,2.791727E0,-3.647404E0,-1.0412574E0,4.2652178E-1,4.089933E0,-1.7517532E-1,-4.036127E-1,-6.807935E-2,-6.1078185E-1,-8.718844E-2,1.5332693E-1,3.1159076E-1,6.427732E-1],"categories":[],"categories_nodes":[],"categories_segments":[],"categories_sizes":[],"default_left":[0,0,0,0,0,0,0,0,0,0,0,0,0,0,0],"id":11,"left_children":[1,3,5,7,9,11,13,-1,-1,-1,-1,-1,-1,-1,-1],"loss_changes":[5.356055E2,7.684146E1,1.272175E2,6.930481E0,5.4283825E1,2.4328957E1,4.145285E1,0E0,0E0,0E0,0E0,0E0,0E0,0E0,0E0],"parents":[2147483647,0,0,1,1,2,2,3,3,4,4,5,5,6,6],"right_children":[2,4,6,8,10,12,14,-1,-1,-1,-1,-1,-1,-1,-1],"split_conditions":[8.805E1,2.8E1,1.4132E2,8E0,8.85E1,8.86E1,9.95E1,-1.7517532E-1,-4.036127E-1,-6.807935E-2,-6.1078185E-1,-8.718844E-2,1.5332693E-1,3.1159076E-1,6.427732E-1],"split_indices":[4,10,21,10,1,3,3,0,0,0,0,0,0,0,0],"split_type":[0,0,0,0,0,0,0,0,0,0,0,0,0,0,0],"sum_hessian":[9E1,4.9E1,4.1E1,1.8E1,3.1E1,1.5E1,2.6E1,4E0,1.4E1,3E1,1E0,7E0,8E0,2E1,6E0],"tree_param":{"num_deleted":"0","num_feature":"47","num_nodes":"15","size_leaf_vector":"1"}},{"base_weights":[2.5933981E-2,-1.32314E0,4.128287E0,-8.990013E-1,-1.0920044E0,4.902521E0,1.5476445E0,-3.174275E-1,5.6933194E-2,2.7618888E-1,5.74268E-1,2.0645574E-1,-7.769165E-2],"categories":[],"categories_nodes":[],"categories_segments":[],"categories_sizes":[],"default_left":[0,0,0,0,0,0,0,0,0,0,0,0,0],"id":12,"left_children":[1,3,5,7,-1,9,11,-1,-1,-1,-1,-1,-1],"loss_changes":[5.367626E2,2.8732343E2,4.0365143E1,2.3900827E2,0E0,1.651184E1,1.001516E1,0E0,0E0,0E0,0E0,0E0,0E0],"parents":[2147483647,0,0,1,1,2,2,3,3,5,5,6,6],"right_children":[2,4,6,8,-1,10,12,-1,-1,-1,-1,-1,-1],"split_conditions":[7.170995E5,9.7E1,1E0,8.04E1,-1.0920044E0,9.71E1,1.02E2,-3.174275E-1,5.6933194E-2,2.7618888E-1,5.74268E-1,2.0645574E-1,-7.769165E-2],"split_indices":[40,1,7,0,0,0,1,0,0,0,0,0,0],"split_type":[0,0,0,0,0,0,0,0,0,0,0,0,0],"sum_hessian":[9.5E1,7.2E1,2.3E1,7E1,2E0,1.7E1,6E0,2.7E1,4.3E1,6E0,1.1E1,5E0,1E0],"tree_param":{"num_deleted":"0","num_feature":"47","num_nodes":"13","size_leaf_vector":"1"}},{"base_weights":[-1.2389637E-1,-1.3139166E0,4.2042766E0,-3.3397033E0,-1.1354668E-2,4.83956E0,1.4575714E-1,-4.5952734E-1,-2.4566253E-1,4.6607193E-2,-1.0031636E0,5.293336E-1,1.2600099E-1],"categories":[],"categories_nodes":[],"categories_segments":[],"categories_sizes":[],"default_left":[0,0,0,0,0,0,0,0,0,0,0,0,0],"id":13,"left_children":[1,3,5,7,9,11,-1,-1,-1,-1,-1,-1,-1],"loss_changes":[4.536274E2,1.8203326E2,2.6099792E1,1.8647827E1,2.1038524E2,1.7695038E1,0E0,0E0,0E0,0E0,0E0,0E0,0E0],"parents":[2147483647,0,0,1,1,2,2,3,3,4,4,5,5],"right_children":[2,4,6,8,10,12,-1,-1,-1,-1,-1,-1,-1],"split_conditions":[7.170995E5,3.9E1,1.483124E6,7.34E1,9.7E1,1.2552335E8,1.4575714E-1,-4.5952734E-1,-2.4566253E-1,4.6607193E-2,-1.0031636E0,5.293336E-1,1.2600099E-1],"split_indices":[40,10,42,3,1,32,0,0,0,0,0,0,0],"split_type":[0,0,0,0,0,0,0,0,0,0,0,0,0],"sum_hessian":[8.6E1,6.8E1,1.8E1,2.6E1,4.2E1,1.4E1,4E0,9E0,1.7E1,4.1E1,1E0,1.2E1,2E0],"tree_param":{"num_deleted":"0","num_feature":"47","num_nodes":"13","size_leaf_vector":"1"}},{"base_weights":[6.769281E-4,-2.3103971E0,1.7981665E0,-4.6879597E0,-1.700943E0,-9.5300525E-1,2.1917188E0,-5.004025E-1,-1.237751E-1,1.7802392E-1,-1.8556908E-1,1.6410387E-1,4.701595E-1],"categories":[],"categories_nodes":[],"categories_segments":[],"categories_sizes":[],"default_left":[0,0,0,0,0,0,0,0,0,0,0,0,0],"id":14,"left_children":[1,3,5,7,9,-1,11,-1,-1,-1,-1,-1,-1],"loss_changes":[3.98797E2,5.288469E1,2.616325E2,2.5301971E0,2.2158241E1,0E0,6.553786E1,0E0,0E0,0E0,0E0,0E0,0E0],"parents":[2147483647,0,0,1,1,2,2,3,3,4,4,6,6],"right_children":[2,4,6,8,10,-1,12,-1,-1,-1,-1,-1,-1],"split_conditions":[8.5E1,7.14E1,1.6603222E8,9.89E1,6.66E1,-9.5300525E-1,9.95E1,-5.004025E-1,-1.237751E-1,1.7802392E-1,-1.8556908E-1,1.6410387E-1,4.701595E-1],"split_indices":[0,0,23,3,3,0,3,0,0,0,0,0,0],"split_type":[0,0,0,0,0,0,0,0,0,0,0,0,0],"sum_hessian":[9.4E1,4.1E1,5.3E1,7E0,3.4E1,1E0,5.2E1,6E0,1E0,1E0,3.3E1,4.4E1,8E0],"tree_param":{"num_deleted":"0","num_feature":"47","num_nodes":"13","size_leaf_vector":"1"}},{"base_weights":[-2.1118045E-1,-2.0215971E0,1.4258852E0,-3.495962E0,-1.3348485E0,1.816545E0,-9.053551E-1,-1.1747189E-1,-4.0222356E-1,-9.920142E-2,-2.13885E-1,1.1106098E-1,3.7403136E-1],"categories":[],"categories_nodes":[],"categories_segments":[],"categories_sizes":[],"default_left":[0,0,0,0,0,0,0,0,0,0,0,0,0],"id":15,"left_children":[1,3,5,7,9,11,-1,-1,-1,-1,-1,-1,-1],"loss_changes":[2.8740457E2,4.190924E1,2.2523477E2,1.2377533E1,6.974331E0,6.3748764E1,0E0,0E0,0E0,0E0,0E0,0E0,0E0],"parents":[2147483647,0,0,1,1,2,2,3,3,4,4,5,5],"right_children":[2,4,6,8,10,12,-1,-1,-1,-1,-1,-1,-1],"split_conditions":[8.655E1,1.9E1,1.09E2,7E0,1E0,9.795E1,-9.053551E-1,-1.1747189E-1,-4.0222356E-1,-9.920142E-2,-2.13885E-1,1.1106098E-1,3.7403136E-1],"split_indices":[5,10,10,10,7,4,0,0,0,0,0,0,0],"split_type":[0,0,0,0,0,0,0,0,0,0,0,0,0],"sum_hessian":[9.5E1,4.5E1,5E1,1.3E1,3.2E1,4.9E1,1E0,3E0,1E1,2.4E1,8E0,3.7E1,1.2E1],"tree_param":{"num_deleted":"0","num_feature":"47","num_nodes":"13","size_leaf_vector":"1"}},{"base_weights":[-1.8333693E-1,-1.125451E0,3.0554988E0,-7.960971E-1,-8.4352237E-1,1.1774902E0,3.5687833E0,-1.6532318E-1,1.2826091E-1,1.4250565E-1,4.549052E-2,3.879509E-1,9.291356E-2],"categories":[],"categories_nodes":[],"categories_segments":[],"categories_sizes":[],"default_left":[0,0,0,0,0,0,0,0,0,0,0,0,0],"id":16,"left_children":[1,3,5,7,-1,9,11,-1,-1,-1,-1,-1,-1],"loss_changes":[2.8416327E2,1.6662486E2,1.6040787E1,1.2684162E2,0E0,4.2505932E-1,9.518707E0,0E0,0E0,0E0,0E0,0E0,0E0],"parents":[2147483647,0,0,1,1,2,2,3,3,5,5,6,6],"right_children":[2,4,6,8,-1,10,12,-1,-1,-1,-1,-1,-1],"split_conditions":[7.170995E5,9.7E1,1.4139E2,8.85E1,-8.4352237E-1,2.6800507E2,3.8284848E8,-1.6532318E-1,1.2826091E-1,1.4250565E-1,4.549052E-2,3.879509E-1,9.291356E-2],"split_indices":[40,1,21,2,0,20,30,0,0,0,0,0,0],"split_type":[0,0,0,0,0,0,0,0,0,0,0,0,0],"sum_hessian":[9.1E1,7.1E1,2E1,6.9E1,2E0,5E0,1.5E1,4.9E1,2E1,3E0,2E0,1.3E1,2E0],"tree_param":{"num_deleted":"0","num_feature":"47","num_nodes":"13","size_leaf_vector":"1"}},{"base_weights":[-1.23709284E-1,-1.4685255E0,1.4330497E0,-2.8167288E0,-7.9108155E-1,1.8373967E0,-8.1791115E-1,-3.0985138E-1,-4.6889495E-2,-1.0686612E-1,5.1155746E-2,2.5725433E-1,-1.1353302E-2],"categories":[],"categories_nodes":[],"categories_segments":[],"categories_sizes":[],"default_left":[0,0,0,0,0,0,0,0,0,0,0,0,0],"id":17,"left_children":[1,3,5,7,9,11,-1,-1,-1,-1,-1,-1,-1],"loss_changes":[2.0308572E2,4.5265015E1,1.8992749E2,9.794052E0,1.3563782E1,6.3397736E1,0E0,0E0,0E0,0E0,0E0,0E0,0E0],"parents":[2147483647,0,0,1,1,2,2,3,3,4,4,5,5],"right_children":[2,4,6,8,10,12,-1,-1,-1,-1,-1,-1,-1],"split_conditions":[8.76E1,7.71E1,1.038E2,2.5983892E3,1E0,1E0,-8.1791115E-1,-3.0985138E-1,-4.6889495E-2,-1.0686612E-1,5.1155746E-2,2.5725433E-1,-1.1353302E-2],"split_indices":[0,0,0,16,6,7,0,0,0,0,0,0,0],"split_type":[0,0,0,0,0,0,0,0,0,0,0,0,0],"sum_hessian":[9.5E1,5.1E1,4.4E1,1.6E1,3.5E1,4.3E1,1E0,1.4E1,2E0,2.9E1,6E0,3.1E1,1.2E1],"tree_param":{"num_deleted":"0","num_feature":"47","num_nodes":"13","size_leaf_vector":"1"}},{"base_weights":[-2.222033E-1,-9.6943706E-1,2.5163102E0,-6.7997235E-1,-7.496956E-1,2.8024428E0,-1.460106E-1,-2.5805348E-1,1.4190961E-3,3.331658E-1,1.1005338E-1],"categories":[],"categories_nodes":[],"categories_segments":[],"categories_sizes":[],"default_left":[0,0,0,0,0,0,0,0,0,0,0],"id":18,"left_children":[1,3,5,7,-1,9,-1,-1,-1,-1,-1],"loss_changes":[1.9069989E2,1.3283478E2,2.6847527E1,9.370697E1,0E0,1.3446228E1,0E0,0E0,0E0,0E0,0E0],"parents":[2147483647,0,0,1,1,2,2,3,3,5,5],"right_children":[2,4,6,8,-1,10,-1,-1,-1,-1,-1],"split_conditions":[7.170995E5,9.7E1,1.038E2,7.73E1,-7.496956E-1,1.483124E6,-1.460106E-1,-2.5805348E-1,1.4190961E-3,3.331658E-1,1.1005338E-1],"split_indices":[40,1,1,0,0,42,0,0,0,0,0],"split_type":[0,0,0,0,0,0,0,0,0,0,0],"sum_hessian":[9.1E1,7.2E1,1.9E1,7E1,2E0,1.8E1,1E0,1.8E1,5.2E1,1.3E1,5E0],"tree_param":{"num_deleted":"0","num_feature":"47","num_nodes":"11","size_leaf_vector":"1"}},{"base_weights":[-1.8680608E-1,-1.295117E-2,-7.39531E-1,-1.185095E0,1.3699094E0,-2.7784702E-1,-7.765298E-2,9.6087694E-2,3.1025043E-1],"categories":[],"categories_nodes":[],"categories_segments":[],"categories_sizes":[],"default_left":[0,0,0,0,0,0,0,0,0],"id":19,"left_children":[1,3,-1,5,7,-1,-1,-1,-1],"loss_changes":[1.0642909E2,1.3778004E2,0E0,2.778833E1,2.46577E1,0E0,0E0,0E0,0E0],"parents":[2147483647,0,0,1,1,3,3,4,4],"right_children":[2,4,-1,6,8,-1,-1,-1,-1],"split_conditions":[7.9676E2,8.8075E1,-7.39531E-1,7.18E1,4.888321E6,-2.7784702E-1,-7.765298E-2,9.6087694E-2,3.1025043E-1],"split_indices":[18,5,0,1,39,0,0,0,0],"split_type":[0,0,0,0,0,0,0,0,0],"sum_hessian":[8.4E1,8.3E1,1E0,4.5E1,3.8E1,8E0,3.7E1,3.2E1,6E0],"tree_param":{"num_deleted":"0","num_feature":"47","num_nodes":"9","size_leaf_vector":"1"}},{"base_weights":[-6.761049E-2,-7.246159E-1,2.020607E0,-4.7020486E-1,-6.5041375E-1,3.9658356E0,1.2599416E0,-1.2085624E-1,7.7780604E-2,1.6041666E-1,4.7456285E-1,1.6690466E-1,-5.8918763E-2],"categories":[],"categories_nodes":[],"categories_segments":[],"categories_sizes":[],"default_left":[0,0,0,0,0,0,0,0,0,0,0,0,0],"id":20,"left_children":[1,3,5,7,-1,9,11,-1,-1,-1,-1,-1,-1],"loss_changes":[1.3180133E2,1.0427902E2,2.9035637E1,6.6364975E1,0E0,3.436905E0,1.4600168E1,0E0,0E0,0E0,0E0,0E0,0E0],"parents":[2147483647,0,0,1,1,2,2,3,3,5,5,6,6],"right_children":[2,4,6,8,-1,10,12,-1,-1,-1,-1,-1,-1],"split_conditions":[7.170995E5,9.7E1,7.4937E5,8.67E1,-6.5041375E-1,1.1485499E2,1.00075E2,-1.2085624E-1,7.7780604E-2,1.6041666E-1,4.7456285E-1,1.6690466E-1,-5.8918763E-2],"split_indices":[40,1,41,3,0,14,5,0,0,0,0,0,0],"split_type":[0,0,0,0,0,0,0,0,0,0,0,0,0],"sum_hessian":[9.4E1,7.2E1,2.2E1,7E1,2E0,5E0,1.7E1,4.4E1,2.6E1,2E0,3E0,1.4E1,3E0],"tree_param":{"num_deleted":"0","num_feature":"47","num_nodes":"13","size_leaf_vector":"1"}},{"base_weights":[-3.398718E-2,-6.0705286E-1,1.8200819E-1,-9.721926E-1,1.4162235E0,-2.7378312E-1,-6.2135935E-2,5.174764E-3,1.9148064E-1],"categories":[],"categories_nodes":[],"categories_segments":[],"categories_sizes":[],"default_left":[0,0,0,0,0,0,0,0,0],"id":21,"left_children":[1,-1,3,5,7,-1,-1,-1,-1],"loss_changes":[1.1323728E2,0E0,1.2103755E2,2.5554386E1,2.7793388E1,0E0,0E0,0E0,0E0],"parents":[2147483647,0,0,2,2,3,3,4,4],"right_children":[2,-1,4,6,8,-1,-1,-1,-1],"split_conditions":[1.6603222E8,-6.0705286E-1,8.76E1,7.18E1,1.9241112E8,-2.7378312E-1,-6.2135935E-2,5.174764E-3,1.9148064E-1],"split_indices":[23,0,0,0,23,0,0,0,0],"split_type":[0,0,0,0,0,0,0,0,0],"sum_hessian":[8.5E1,2E0,8.3E1,4.3E1,4E1,6E0,3.7E1,1.1E1,2.9E1],"tree_param":{"num_deleted":"0","num_feature":"47","num_nodes":"9","size_leaf_vector":"1"}},{"base_weights":[1.6123858E-1,-9.895603E-1,1.6691103E0,-2.0838363E0,-6.670652E-1,1.8614497E0,-1.0029932E0,-3.1042188E-1,2.2279168E-2,-8.0258764E-2,6.5164186E-2,1.1372619E-1,3.034007E-1,-3.0670167E-4,-1.501423E-1],"categories":[],"categories_nodes":[],"categories_segments":[],"categories_sizes":[],"default_left":[0,0,0,0,0,0,0,0,0,0,0,0,0,0,0],"id":22,"left_children":[1,3,5,7,9,11,13,-1,-1,-1,-1,-1,-1,-1,-1],"loss_changes":[1.4047226E2,1.4843281E1,1.98553E1,2.4228016E1,7.135433E0,2.457154E1,1.4905732E0,0E0,0E0,0E0,0E0,0E0,0E0,0E0,0E0],"parents":[2147483647,0,0,1,1,2,2,3,3,4,4,5,5,6,6],"right_children":[2,4,6,8,10,12,14,-1,-1,-1,-1,-1,-1,-1,-1],"split_conditions":[8.86E1,7.34E1,3.8059034E8,1.9E1,9.2E1,1.4906422E2,9.33E1,-3.1042188E-1,2.2279168E-2,-8.0258764E-2,6.5164186E-2,1.1372619E-1,3.034007E-1,-3.0670167E-4,-1.501423E-1],"split_indices":[0,3,31,10,2,21,0,0,0,0,0,0,0,0,0],"split_type":[0,0,0,0,0,0,0,0,0,0,0,0,0,0,0],"sum_hessian":[7.9E1,4.5E1,3.4E1,9E0,3.6E1,3.2E1,2E0,6E0,3E0,3.3E1,3E0,2.1E1,1.1E1,1E0,1E0],"tree_param":{"num_deleted":"0","num_feature":"47","num_nodes":"15","size_leaf_vector":"1"}},{"base_weights":[-7.5318836E-2,-6.06081E-1,1.9044805E0,-4.196983E-1,-6.453671E-1,2.7050247E0,2.600501E-1,-1.2530719E-1,2.2734191E-2,1.5827288E-1,3.5635325E-1,7.7884294E-2,-1.4263535E-1],"categories":[],"categories_nodes":[],"categories_segments":[],"categories_sizes":[],"default_left":[0,0,0,0,0,0,0,0,0,0,0,0,0],"id":23,"left_children":[1,3,5,7,-1,9,11,-1,-1,-1,-1,-1,-1],"loss_changes":[8.9421684E1,7.031401E1,2.299247E1,3.5873802E1,0E0,5.9218903E0,7.2351637E0,0E0,0E0,0E0,0E0,0E0,0E0],"parents":[2147483647,0,0,1,1,2,2,3,3,5,5,6,6],"right_children":[2,4,6,8,-1,10,12,-1,-1,-1,-1,-1,-1],"split_conditions":[3.1138266E9,9.7E1,2.9146643E8,8.04E1,-6.453671E-1,4.213939E6,1.038E2,-1.2530719E-1,2.2734191E-2,1.5827288E-1,3.5635325E-1,7.7884294E-2,-1.4263535E-1],"split_indices":[27,0,29,0,0,39,1,0,0,0,0,0,0],"split_type":[0,0,0,0,0,0,0,0,0,0,0,0,0],"sum_hessian":[8.3E1,6.6E1,1.7E1,6.5E1,1E0,1.1E1,6E0,2.8E1,3.7E1,6E0,5E0,5E0,1E0],"tree_param":{"num_deleted":"0","num_feature":"47","num_nodes":"13","size_leaf_vector":"1"}},{"base_weights":[-1.04030244E-1,-8.6557174E-1,8.7757146E-1,1.543396E-1,-9.879051E-1,9.634761E-2,1.4594749E0,-1.9934277E-1,-7.0103236E-2,-1.1285096E-1,7.4847475E-2,1.6407594E-1,-1.355034E-1],"categories":[],"categories_nodes":[],"categories_segments":[],"categories_sizes":[],"default_left":[0,0,0,0,0,0,0,0,0,0,0,0,0],"id":24,"left_children":[1,3,5,-1,7,9,11,-1,-1,-1,-1,-1,-1],"loss_changes":[7.1775E1,1.7438362E1,1.895245E1,0E0,1.3602303E1,1.6021149E1,1.4468723E1,0E0,0E0,0E0,0E0,0E0,0E0],"parents":[2147483647,0,0,1,1,2,2,4,4,5,5,6,6],"right_children":[2,4,6,-1,8,10,12,-1,-1,-1,-1,-1,-1],"split_conditions":[8.805E1,6.9E1,1.4139E2,1.543396E-1,7.34E1,7E1,1.038E2,-1.9934277E-1,-7.0103236E-2,-1.1285096E-1,7.4847475E-2,1.6407594E-1,-1.355034E-1],"split_indices":[4,3,21,0,3,10,1,0,0,0,0,0,0],"split_type":[0,0,0,0,0,0,0,0,0,0,0,0,0],"sum_hessian":[9.4E1,5.3E1,4.1E1,2E0,5.1E1,1.8E1,2.3E1,1E1,4.1E1,6E0,1.2E1,2.2E1,1E0],"tree_param":{"num_deleted":"0","num_feature":"47","num_nodes":"13","size_leaf_vector":"1"}},{"base_weights":[-1.8213336E-1,2.305217E-3,-5.470141E-1,-6.1395854E-1,1.1936717E0,-2.0710862E-1,-3.0405581E-2,7.806062E-2,3.102878E-1],"categories":[],"categories_nodes":[],"categories_segments":[],"categories_sizes":[],"default_left":[0,0,0,0,0,0,0,0,0],"id":25,"left_children":[1,3,-1,5,7,-1,-1,-1,-1],"loss_changes":[8.6815445E1,6.460791E1,0E0,2.5561207E1,2.1236694E1,0E0,0E0,0E0,0E0],"parents":[2147483647,0,0,1,1,3,3,4,4],"right_children":[2,4,-1,6,8,-1,-1,-1,-1],"split_conditions":[7.9676E2,7.7E1,-5.470141E-1,7.25E1,1.016E2,-2.0710862E-1,-3.0405581E-2,7.806062E-2,3.102878E-1],"split_indices":[18,10,0,0,0,0,0,0,0],"split_type":[0,0,0,0,0,0,0,0,0],"sum_hessian":[8.8E1,8.6E1,2E0,5.7E1,2.9E1,9E0,4.8E1,2.5E1,4E0],"tree_param":{"num_deleted":"0","num_feature":"47","num_nodes":"9","size_leaf_vector":"1"}},{"base_weights":[-1.23026974E-1,-5.5196095E-1,1.790181E0,-3.697497E-1,-5.105466E-1,2.3747325E0,-2.04599E-1,-8.8206835E-2,5.2630823E-2,6.6143037E-3,2.5472283E-1,6.518275E-2,-9.9282585E-2],"categories":[],"categories_nodes":[],"categories_segments":[],"categories_sizes":[],"default_left":[0,0,0,0,0,0,0,0,0,0,0,0,0],"id":26,"left_children":[1,3,5,7,-1,9,11,-1,-1,-1,-1,-1,-1],"loss_changes":[8.059018E1,6.448824E1,2.1474789E1,3.627148E1,0E0,5.406639E0,4.022443E0,0E0,0E0,0E0,0E0,0E0,0E0],"parents":[2147483647,0,0,1,1,2,2,3,3,5,5,6,6],"right_children":[2,4,6,8,-1,10,12,-1,-1,-1,-1,-1,-1],"split_conditions":[3.1825577E9,1.267E2,1.015E2,8.85E1,-5.105466E-1,1.1219114E2,1.007E2,-8.8206835E-2,5.2630823E-2,6.6143037E-3,2.5472283E-1,6.518275E-2,-9.9282585E-2],"split_indices":[27,14,2,0,0,14,1,0,0,0,0,0,0],"split_type":[0,0,0,0,0,0,0,0,0,0,0,0,0],"sum_hessian":[9.6E1,7.9E1,1.7E1,7.7E1,2E0,1.3E1,4E0,4.9E1,2.8E1,1E0,1.2E1,2E0,2E0],"tree_param":{"num_deleted":"0","num_feature":"47","num_nodes":"13","size_leaf_vector":"1"}},{"base_weights":[5.3721737E-2,-6.1033505E-1,1.0483146E0,-1.8927062E0,-3.461682E-1,1.3701668E0,-1.2212021E0,-1.3700867E-2,-2.7477202E-1,-6.2506604E-3,-1.3610993E-1,2.2415702E-1,8.0697596E-2,-2.4092229E-1,3.738861E-2],"categories":[],"categories_nodes":[],"categories_segments":[],"categories_sizes":[],"default_left":[0,0,0,0,0,0,0,0,0,0,0,0,0,0,0],"id":27,"left_children":[1,3,5,7,9,11,13,-1,-1,-1,-1,-1,-1,-1,-1],"loss_changes":[5.942131E1,1.763784E1,2.796941E1,1.313385E1,1.3158182E1,1.389563E1,1.0375765E1,0E0,0E0,0E0,0E0,0E0,0E0,0E0,0E0],"parents":[2147483647,0,0,1,1,2,2,3,3,4,4,5,5,6,6],"right_children":[2,4,6,8,10,12,14,-1,-1,-1,-1,-1,-1,-1,-1],"split_conditions":[8.86E1,1.4E1,2.5924333E3,7E0,1.3156665E8,7.4937E5,9.31E1,-1.3700867E-2,-2.7477202E-1,-6.2506604E-3,-1.3610993E-1,2.2415702E-1,8.0697596E-2,-2.4092229E-1,3.738861E-2],"split_indices":[0,10,16,10,32,41,0,0,0,0,0,0,0,0,0],"split_type":[0,0,0,0,0,0,0,0,0,0,0,0,0,0,0],"sum_hessian":[8.8E1,5.3E1,3.5E1,8E0,4.5E1,3.1E1,4E0,3E0,5E0,3.6E1,9E0,1.1E1,2E1,2E0,2E0],"tree_param":{"num_deleted":"0","num_feature":"47","num_nodes":"15","size_leaf_vector":"1"}},{"base_weights":[-1.13246635E-1,-4.8377404E0,4.03741E-2,-1.504902E-1,-5.7517093E-1,-7.7857715E-1,7.9164827E-1,-2.2099686E-1,-3.593413E-2,2.783993E-1,6.011912E-2],"categories":[],"categories_nodes":[],"categories_segments":[],"categories_sizes":[],"default_left":[0,0,0,0,0,0,0,0,0,0,0],"id":28,"left_children":[1,3,5,-1,-1,7,9,-1,-1,-1,-1],"loss_changes":[6.914445E1,4.8256683E-1,5.7835255E1,0E0,0E0,2.6209942E1,1.691964E1,0E0,0E0,0E0,0E0],"parents":[2147483647,0,0,1,1,2,2,5,5,6,6],"right_children":[2,4,6,-1,-1,8,10,-1,-1,-1,-1],"split_conditions":[5.525515E7,6.66E1,5.5E1,-1.504902E-1,-5.7517093E-1,1.5E1,1.4796E2,-2.2099686E-1,-3.593413E-2,2.783993E-1,6.011912E-2],"split_indices":[26,0,10,0,0,10,19,0,0,0,0],"split_type":[0,0,0,0,0,0,0,0,0,0,0],"sum_hessian":[9.4E1,2E0,9.2E1,1E0,1E0,4.4E1,4.8E1,9E0,3.5E1,3E0,4.5E1],"tree_param":{"num_deleted":"0","num_feature":"47","num_nodes":"11","size_leaf_vector":"1"}},{"base_weights":[-1.9027956E-1,-5.464123E-1,-6.962825E-2,-6.599531E-1,7.0412034E-1,-1.8080072E-1,-4.0431496E-2,1.1307509E-1,-3.500277E-2],"categories":[],"categories_nodes":[],"categories_segments":[],"categories_sizes":[],"default_left":[0,0,0,0,0,0,0,0,0],"id":29,"left_children":[1,-1,3,5,7,-1,-1,-1,-1],"loss_changes":[5.688619E1,0E0,4.1116592E1,1.4236799E1,1.7935337E1,0E0,0E0,0E0,0E0],"parents":[2147483647,0,0,2,2,3,3,4,4],"right_children":[2,-1,4,6,8,-1,-1,-1,-1],"split_conditions":[5.010553E7,-5.464123E-1,8.86E1,1.5E1,1E0,-1.8080072E-1,-4.0431496E-2,1.1307509E-1,-3.500277E-2],"split_indices":[26,0,0,10,7,0,0,0,0],"split_type":[0,0,0,0,0,0,0,0,0],"sum_hessian":[8.9E1,1E0,8.8E1,5E1,3.8E1,8E0,4.2E1,2.7E1,1.1E1],"tree_param":{"num_deleted":"0","num_feature":"47","num_nodes":"9","size_leaf_vector":"1"}},{"base_weights":[-1.2608823E-1,-4.4002405E-1,2.447625E-2,-4.4536734E-1,7.561596E-1,-1.421173E-1,-2.1347133E-2,1.3921522E-1,-4.634142E-3],"categories":[],"categories_nodes":[],"categories_segments":[],"categories_sizes":[],"default_left":[0,0,0,0,0,0,0,0,0],"id":30,"left_children":[1,-1,3,5,7,-1,-1,-1,-1],"loss_changes":[5.6738827E1,0E0,2.990157E1,1.1689752E1,1.7417587E1,0E0,0E0,0E0,0E0],"parents":[2147483647,0,0,2,2,3,3,4,4],"right_children":[2,-1,4,6,8,-1,-1,-1,-1],"split_conditions":[1.6603222E8,-4.4002405E-1,8.86E1,1.4E1,3.4415382E8,-1.421173E-1,-2.1347133E-2,1.3921522E-1,-4.634142E-3],"split_indices":[23,0,0,10,30,0,0,0,0],"split_type":[0,0,0,0,0,0,0,0,0],"sum_hessian":[8.7E1,2E0,8.5E1,5.2E1,3.3E1,9E0,4.3E1,1.8E1,1.5E1],"tree_param":{"num_deleted":"0","num_feature":"47","num_nodes":"9","size_leaf_vector":"1"}},{"base_weights":[-1.6797595E-1,-4.246727E-1,-2.5398605E-2,-1.1484011E0,2.4384706E-1,-2.2349004E-2,-1.6325809E-1,4.855928E-3,1.5837674E-1],"categories":[],"categories_nodes":[],"categories_segments":[],"categories_sizes":[],"default_left":[0,0,0,0,0,0,0,0,0],"id":31,"left_children":[1,-1,3,5,7,-1,-1,-1,-1],"loss_changes":[5.1648975E1,0E0,2.6585665E1,7.248129E0,1.8501667E1,0E0,0E0,0E0,0E0],"parents":[2147483647,0,0,2,2,3,3,4,4],"right_children":[2,-1,4,6,8,-1,-1,-1,-1],"split_conditions":[2.6701423E3,-4.246727E-1,7.73E1,9.226713E1,1.1608626E2,-2.2349004E-2,-1.6325809E-1,4.855928E-3,1.5837674E-1],"split_indices":[15,0,0,14,11,0,0,0,0],"split_type":[0,0,0,0,0,0,0,0,0],"sum_hessian":[8.8E1,2E0,8.6E1,1.6E1,7E1,6E0,1E1,6.2E1,8E0],"tree_param":{"num_deleted":"0","num_feature":"47","num_nodes":"9","size_leaf_vector":"1"}},{"base_weights":[-9.8975495E-2,-3.9109116E0,2.505444E-2,-1.10779956E-1,-4.7585678E-1,-8.947669E-2,2.5957415E-1,-1.0044761E-1,1.532242E-2],"categories":[],"categories_nodes":[],"categories_segments":[],"categories_sizes":[],"default_left":[0,0,0,0,0,0,0,0,0],"id":32,"left_children":[1,3,5,-1,-1,7,-1,-1,-1],"loss_changes":[4.501343E1,1.8566895E0,2.7613659E1,0E0,0E0,2.0140314E1,0E0,0E0,0E0],"parents":[2147483647,0,0,1,1,2,2,5,5],"right_children":[2,4,6,-1,-1,8,-1,-1,-1],"split_conditions":[1.6603222E8,6.66E1,1.016E2,-1.10779956E-1,-4.7585678E-1,2.8E1,2.5957415E-1,-1.0044761E-1,1.532242E-2],"split_indices":[23,0,0,0,0,10,0,0,0],"split_type":[0,0,0,0,0,0,0,0,0],"sum_hessian":[9.4E1,2E0,9.2E1,1E0,1E0,8.9E1,3E0,1.8E1,7.1E1],"tree_param":{"num_deleted":"0","num_feature":"47","num_nodes":"9","size_leaf_vector":"1"}},{"base_weights":[-1.383441E-1,-5.487416E-1,4.4016504E-1,-1.4601814E0,-3.3528545E-1,-1.689352E0,6.9259953E-1,-2.0095825E-2,-1.7912512E-1,-5.3406425E-2,2.5538981E-2,-2.5881347E-1,-5.270462E-2,9.5358245E-2,-3.7570845E-2],"categories":[],"categories_nodes":[],"categories_segments":[],"categories_sizes":[],"default_left":[0,0,0,0,0,0,0,0,0,0,0,0,0,0,0],"id":33,"left_children":[1,3,5,7,9,11,13,-1,-1,-1,-1,-1,-1,-1,-1],"loss_changes":[1.9947287E1,9.043489E0,1.998477E1,3.392048E0,4.950356E0,2.8145752E0,9.280193E0,0E0,0E0,0E0,0E0,0E0,0E0,0E0,0E0],"parents":[2147483647,0,0,1,1,2,2,3,3,4,4,5,5,6,6],"right_children":[2,4,6,8,10,12,14,-1,-1,-1,-1,-1,-1,-1,-1],"split_conditions":[8.86E1,7.25E1,1.7149578E8,7.02E1,2.2888637E8,9.28E1,3.6787306E8,-2.0095825E-2,-1.7912512E-1,-5.3406425E-2,2.5538981E-2,-2.5881347E-1,-5.270462E-2,9.5358245E-2,-3.7570845E-2],"split_indices":[0,0,23,2,23,1,30,0,0,0,0,0,0,0,0],"split_type":[0,0,0,0,0,0,0,0,0,0,0,0,0,0,0],"sum_hessian":[8.2E1,4.8E1,3.4E1,8E0,4E1,3E0,3.1E1,2E0,6E0,3E1,1E1,1E0,2E0,2.5E1,6E0],"tree_param":{"num_deleted":"0","num_feature":"47","num_nodes":"15","size_leaf_vector":"1"}},{"base_weights":[9.028877E-2,-7.0162743E-1,3.6846083E-1,-8.637103E-1,3.2471466E-1,8.184918E-1,-3.4523407E-1,-1.1114655E-2,-1.0342461E-1,8.0597304E-2,-1.0436249E-2,1.2119057E-1,3.673681E-2,4.4641342E-2,-7.658585E-2],"categories":[],"categories_nodes":[],"categories_segments":[],"categories_sizes":[],"default_left":[0,0,0,0,0,0,0,0,0,0,0,0,0,0,0],"id":34,"left_children":[1,3,5,7,9,11,13,-1,-1,-1,-1,-1,-1,-1,-1],"loss_changes":[2.0304815E1,4.2729197E0,2.2123135E1,2.5801678E0,9.101013E-1,7.008877E0,9.33252E0,0E0,0E0,0E0,0E0,0E0,0E0,0E0,0E0],"parents":[2147483647,0,0,1,1,2,2,3,3,4,4,5,5,6,6],"right_children":[2,4,6,8,10,12,14,-1,-1,-1,-1,-1,-1,-1,-1],"split_conditions":[7.77E1,2.5983892E3,1.2552335E8,1.386E2,7.34E1,8.212177E7,2.8904608E8,-1.1114655E-2,-1.0342461E-1,8.0597304E-2,-1.0436249E-2,1.2119057E-1,3.673681E-2,4.4641342E-2,-7.658585E-2],"split_indices":[0,16,32,22,0,26,30,0,0,0,0,0,0,0,0],"split_type":[0,0,0,0,0,0,0,0,0,0,0,0,0,0,0],"sum_hessian":[9E1,2.3E1,6.7E1,2E1,3E0,4.1E1,2.6E1,4E0,1.6E1,1E0,2E0,2.1E1,2E1,9E0,1.7E1],"tree_param":{"num_deleted":"0","num_feature":"47","num_nodes":"15","size_leaf_vector":"1"}},{"base_weights":[-5.4132063E-2,-4.554886E-1,4.119046E-2,2.5368625E-1,-6.754404E-1,-4.4621337E-2,6.1988425E-2,6.1402895E-2,-9.113581E-2],"categories":[],"categories_nodes":[],"categories_segments":[],"categories_sizes":[],"default_left":[0,0,0,0,0,0,0,0,0],"id":35,"left_children":[1,-1,3,5,7,-1,-1,-1,-1],"loss_changes":[4.1373844E1,0E0,1.4638046E1,1.9242937E1,7.2521915E0,0E0,0E0,0E0,0E0],"parents":[2147483647,0,0,2,2,3,3,4,4],"right_children":[2,-1,4,6,8,-1,-1,-1,-1],"split_conditions":[1.7710845E8,-4.554886E-1,2.7330676E2,8.04E1,8.5882074E2,-4.4621337E-2,6.1988425E-2,6.1402895E-2,-9.113581E-2],"split_indices":[24,0,20,0,17,0,0,0,0],"split_type":[0,0,0,0,0,0,0,0,0],"sum_hessian":[9.5E1,1E0,9.4E1,7.3E1,2.1E1,2.5E1,4.8E1,3E0,1.8E1],"tree_param":{"num_deleted":"0","num_feature":"47","num_nodes":"9","size_leaf_vector":"1"}},{"base_weights":[4.2065803E-2,3.4972677E-1,-6.956253E-1,-4.4296193E-1,6.9646585E-1,-1.3987936E-1,-1.2413799E0,-5.623409E-4,-1.15293406E-1,2.5479075E-1,5.575594E-2,9.473216E-2,-3.800119E-2,-1.8516779E-1,-3.6655646E-2],"categories":[],"categories_nodes":[],"categories_segments":[],"categories_sizes":[],"default_left":[0,0,0,0,0,0,0,0,0,0,0,0,0,0,0],"id":36,"left_children":[1,3,5,7,9,11,13,-1,-1,-1,-1,-1,-1,-1,-1],"loss_changes":[2.1577404E1,1.872387E1,8.318782E0,6.513978E0,1.0666721E1,4.276079E0,6.7958965E0,0E0,0E0,0E0,0E0,0E0,0E0,0E0,0E0],"parents":[2147483647,0,0,1,1,2,2,3,3,4,4,5,5,6,6],"right_children":[2,4,6,8,10,12,14,-1,-1,-1,-1,-1,-1,-1,-1],"split_conditions":[1E0,8.04E1,9.7460455E2,7.77E1,1.24499535E2,2.17005E3,3.0541616E8,-5.623409E-4,-1.15293406E-1,2.5479075E-1,5.575594E-2,9.473216E-2,-3.800119E-2,-1.8516779E-1,-3.6655646E-2],"split_indices":[7,0,17,2,22,16,30,0,0,0,0,0,0,0,0],"split_type":[0,0,0,0,0,0,0,0,0,0,0,0,0,0,0],"sum_hessian":[9.3E1,6.6E1,2.7E1,2E1,4.6E1,1.4E1,1.3E1,1.3E1,7E0,2E0,4.4E1,2E0,1.2E1,7E0,6E0],"tree_param":{"num_deleted":"0","num_feature":"47","num_nodes":"15","size_leaf_vector":"1"}},{"base_weights":[-3.3898942E-2,-4.4545364E-1,6.1533038E-2,-6.404259E-1,2.751659E-1,-8.1831686E-2,3.646622E-2,6.357552E-2,-3.8725194E-2],"categories":[],"categories_nodes":[],"categories_segments":[],"categories_sizes":[],"default_left":[0,0,0,0,0,0,0,0,0],"id":37,"left_children":[1,-1,3,5,7,-1,-1,-1,-1],"loss_changes":[3.9929897E1,0E0,1.4122642E1,4.231921E0,1.7444172E1,0E0,0E0,0E0,0E0],"parents":[2147483647,0,0,2,2,3,3,4,4],"right_children":[2,-1,4,6,8,-1,-1,-1,-1],"split_conditions":[1.7710845E8,-4.4545364E-1,7.77E1,2.5983892E3,1.3497078E6,-8.1831686E-2,3.646622E-2,6.357552E-2,-3.8725194E-2],"split_indices":[24,0,0,16,42,0,0,0,0],"split_type":[0,0,0,0,0,0,0,0,0],"sum_hessian":[9.3E1,1E0,9.2E1,2.1E1,7.1E1,1.8E1,3E0,4.6E1,2.5E1],"tree_param":{"num_deleted":"0","num_feature":"47","num_nodes":"9","size_leaf_vector":"1"}},{"base_weights":[-3.597528E-2,-2.569678E-1,1.0566528E0,-1.1704423E0,-1.2850964E-1,1.9873244E0,2.1539137E-1,3.5196178E-2,-1.6556953E-1,1.472184E-2,-6.1716776E-2,2.1822178E-1,4.0898133E-2,4.81589E-2,-2.3775293E-2],"categories":[],"categories_nodes":[],"categories_segments":[],"categories_sizes":[],"default_left":[0,0,0,0,0,0,0,0,0,0,0,0,0,0,0],"id":38,"left_children":[1,3,5,7,9,11,13,-1,-1,-1,-1,-1,-1,-1,-1],"loss_changes":[2.1520237E1,8.532989E0,1.1316019E1,7.2315006E0,8.983484E0,1.2607765E0,1.2001326E0,0E0,0E0,0E0,0E0,0E0,0E0,0E0,0E0],"parents":[2147483647,0,0,1,1,2,2,3,3,4,4,5,5,6,6],"right_children":[2,4,6,8,10,12,14,-1,-1,-1,-1,-1,-1,-1,-1],"split_conditions":[2.9309342E6,7.34E1,3.2398192E8,6.97E1,1.343783E6,1.009E2,9.8039496E2,3.5196178E-2,-1.6556953E-1,1.472184E-2,-6.1716776E-2,2.1822178E-1,4.0898133E-2,4.81589E-2,-2.3775293E-2],"split_indices":[39,3,30,2,42,2,17,0,0,0,0,0,0,0,0],"split_type":[0,0,0,0,0,0,0,0,0,0,0,0,0,0,0],"sum_hessian":[8.7E1,7.3E1,1.4E1,8E0,6.5E1,6E0,8E0,2E0,6E0,4.2E1,2.3E1,5E0,1E0,5E0,3E0],"tree_param":{"num_deleted":"0","num_feature":"47","num_nodes":"15","size_leaf_vector":"1"}},{"base_weights":[-5.334251E-2,-4.2391703E-1,4.577511E-2,-1.6583377E-1,7.895656E-1,2.0941636E-2,-4.4061378E-2,2.0368627E-1,5.2300937E-2],"categories":[],"categories_nodes":[],"categories_segments":[],"categories_sizes":[],"default_left":[0,0,0,0,0,0,0,0,0],"id":39,"left_children":[1,-1,3,5,7,-1,-1,-1,-1],"loss_changes":[3.5874523E1,0E0,1.3509315E1,7.000725E0,5.2517242E0,0E0,0E0,0E0,0E0],"parents":[2147483647,0,0,2,2,3,3,4,4],"right_children":[2,-1,4,6,8,-1,-1,-1,-1],"split_conditions":[1.7710845E8,-4.2391703E-1,3.1825577E9,9.7460455E2,1.386E2,2.0941636E-2,-4.4061378E-2,2.0368627E-1,5.2300937E-2],"split_indices":[24,0,27,17,22,0,0,0,0],"split_type":[0,0,0,0,0,0,0,0,0],"sum_hessian":[8.5E1,1E0,8.4E1,6.6E1,1.8E1,2.8E1,3.8E1,2E0,1.6E1],"tree_param":{"num_deleted":"0","num_feature":"47","num_nodes":"9","size_leaf_vector":"1"}},{"base_weights":[-4.206333E-2,-4.0272123E-1,4.1398764E-2,2.4003883E-1,-5.6452304E-1,-4.1490596E-2,4.462704E-2,1.5471239E-3,-1.1458067E-1],"categories":[],"categories_nodes":[],"categories_segments":[],"categories_sizes":[],"default_left":[0,0,0,0,0,0,0,0,0],"id":40,"left_children":[1,-1,3,5,7,-1,-1,-1,-1],"loss_changes":[3.2429783E1,0E0,1.1690101E1,1.0045292E1,8.109116E0,0E0,0E0,0E0,0E0],"parents":[2147483647,0,0,2,2,3,3,4,4],"right_children":[2,-1,4,6,8,-1,-1,-1,-1],"split_conditions":[2.421311E3,-4.0272123E-1,1E0,2.6E1,9.7460455E2,-4.1490596E-2,4.462704E-2,1.5471239E-3,-1.1458067E-1],"split_indices":[15,0,7,10,17,0,0,0,0],"split_type":[0,0,0,0,0,0,0,0,0],"sum_hessian":[9.6E1,1E0,9.5E1,7.2E1,2.3E1,1.7E1,5.5E1,1.2E1,1.1E1],"tree_param":{"num_deleted":"0","num_feature":"47","num_nodes":"9","size_leaf_vector":"1"}},{"base_weights":[-6.9353655E-2,-1.7496425E-1,7.930275E-1,-9.1656536E-2,-1.2010345E0,1.1720276E0,-6.847954E-2,-4.5918506E-2,1.8607296E-2,-1.617185E-1,-5.886631E-2,1.3643478E-1,4.6081796E-2,-1.240031E-2,4.9045566E-3],"categories":[],"categories_nodes":[],"categories_segments":[],"categories_sizes":[],"default_left":[0,0,0,0,0,0,0,0,0,0,0,0,0,0,0],"id":41,"left_children":[1,3,5,7,9,11,13,-1,-1,-1,-1,-1,-1,-1,-1],"loss_changes":[8.335644E0,6.8137627E0,3.3453722E0,7.843029E0,5.77054E-1,3.2874393E-1,3.2183446E-2,0E0,0E0,0E0,0E0,0E0,0E0,0E0,0E0],"parents":[2147483647,0,0,1,1,2,2,3,3,4,4,5,5,6,6],"right_children":[2,4,6,8,10,12,14,-1,-1,-1,-1,-1,-1,-1,-1],"split_conditions":[2.8455405E6,8.565448E7,9.89E1,6.026483E5,5.9057484E7,1.009E2,9.95E1,-4.5918506E-2,1.8607296E-2,-1.617185E-1,-5.886631E-2,1.3643478E-1,4.6081796E-2,-1.240031E-2,4.9045566E-3],"split_indices":[43,26,1,45,25,2,2,0,0,0,0,0,0,0,0],"split_type":[0,0,0,0,0,0,0,0,0,0,0,0,0,0,0],"sum_hessian":[8.9E1,8E1,9E0,7.5E1,5E0,6E0,3E0,3.2E1,4.3E1,2E0,3E0,4E0,2E0,2E0,1E0],"tree_param":{"num_deleted":"0","num_feature":"47","num_nodes":"15","size_leaf_vector":"1"}},{"base_weights":[2.0149708E-2,-3.802893E-1,1.07804134E-1,1.7434616E-1,7.971706E-3,1.8809676E-2,-5.6882706E-2],"categories":[],"categories_nodes":[],"categories_segments":[],"categories_sizes":[],"default_left":[0,0,0,0,0,0,0],"id":42,"left_children":[1,-1,3,-1,5,-1,-1],"loss_changes":[2.989935E1,0E0,1.4192477E1,0E0,8.730355E0,0E0,0E0],"parents":[2147483647,0,0,2,2,4,4],"right_children":[2,-1,4,-1,6,-1,-1],"split_conditions":[1.6603222E8,-3.802893E-1,2.6331766E8,1.7434616E-1,2.7330676E2,1.8809676E-2,-5.6882706E-2],"split_indices":[23,0,29,0,20,0,0],"split_type":[0,0,0,0,0,0,0],"sum_hessian":[8.7E1,1E0,8.6E1,4E0,8.2E1,6.3E1,1.9E1],"tree_param":{"num_deleted":"0","num_feature":"47","num_nodes":"7","size_leaf_vector":"1"}},{"base_weights":[-1.1665812E-1,-3.6127472E-1,-3.9388157E-2,-5.013793E-1,2.8052187E-1,-1.23416446E-1,-2.3140585E-2,-1.9791795E-2,5.8184993E-2],"categories":[],"categories_nodes":[],"categories_segments":[],"categories_sizes":[],"default_left":[0,0,0,0,0,0,0,0,0],"id":43,"left_children":[1,-1,3,5,7,-1,-1,-1,-1],"loss_changes":[2.4980967E1,0E0,1.37378435E1,7.2320423E0,8.044362E0,0E0,0E0,0E0,0E0],"parents":[2147483647,0,0,2,2,3,3,4,4],"right_children":[2,-1,4,6,8,-1,-1,-1,-1],"split_conditions":[2.421311E3,-3.6127472E-1,2.1087118E8,9.226713E1,5.309558E2,-1.23416446E-1,-2.3140585E-2,-1.9791795E-2,5.8184993E-2],"split_indices":[15,0,23,14,18,0,0,0,0],"split_type":[0,0,0,0,0,0,0,0,0],"sum_hessian":[9.2E1,1E0,9.1E1,3.7E1,5.4E1,9E0,2.8E1,2.1E1,3.3E1],"tree_param":{"num_deleted":"0","num_feature":"47","num_nodes":"9","size_leaf_vector":"1"}},{"base_weights":[3.1246964E-2,-2.7827225E0,1.23671815E-1,-7.419739E-2,-3.43211E-1,-3.523358E-1,4.274683E-1,-1.1889597E-1,-7.0837564E-3,-8.2168326E-2,5.660456E-2],"categories":[],"categories_nodes":[],"categories_segments":[],"categories_sizes":[],"default_left":[0,0,0,0,0,0,0,0,0,0,0],"id":44,"left_children":[1,3,5,-1,-1,7,9,-1,-1,-1,-1],"loss_changes":[2.453165E1,1.4291725E0,1.3310073E1,0E0,0E0,8.394072E0,1.0158933E1,0E0,0E0,0E0,0E0],"parents":[2147483647,0,0,1,1,2,2,5,5,6,6],"right_children":[2,4,6,-1,-1,8,10,-1,-1,-1,-1],"split_conditions":[1.17586056E8,9.63E1,2.1087118E8,-7.419739E-2,-3.43211E-1,9.226713E1,7.25E1,-1.1889597E-1,-7.0837564E-3,-8.2168326E-2,5.660456E-2],"split_indices":[31,0,23,0,0,14,1,0,0,0,0],"split_type":[0,0,0,0,0,0,0,0,0,0,0],"sum_hessian":[9.2E1,2E0,9E1,1E0,1E0,3.5E1,5.5E1,8E0,2.7E1,5E0,5E1],"tree_param":{"num_deleted":"0","num_feature":"47","num_nodes":"11","size_leaf_vector":"1"}},{"base_weights":[-5.8294337E-2,-3.2605037E-1,9.734224E-3,1.8271466E-1,-6.938951E-2,8.58575E-3,-4.888858E-2],"categories":[],"categories_nodes":[],"categories_segments":[],"categories_sizes":[],"default_left":[0,0,0,0,0,0,0],"id":45,"left_children":[1,-1,3,-1,5,-1,-1],"loss_changes":[2.0944542E1,0E0,1.37878275E1,0E0,6.0335245E0,0E0,0E0],"parents":[2147483647,0,0,2,2,4,4],"right_children":[2,-1,4,-1,6,-1,-1],"split_conditions":[1.7710845E8,-3.2605037E-1,1.24499535E2,1.8271466E-1,1E0,8.58575E-3,-4.888858E-2],"split_indices":[24,0,22,0,7,0,0],"split_type":[0,0,0,0,0,0,0],"sum_hessian":[9.5E1,1E0,9.4E1,3E0,9.1E1,6.7E1,2.4E1],"tree_param":{"num_deleted":"0","num_feature":"47","num_nodes":"7","size_leaf_vector":"1"}},{"base_weights":[-1.6625047E-1,-9.774243E-2,-3.097479E-1,-1.173377E0,9.699786E-3,-1.5480936E-1,7.248192E-2,1.8302375E-2,-4.353356E-2],"categories":[],"categories_nodes":[],"categories_segments":[],"categories_sizes":[],"default_left":[0,0,0,0,0,0,0,0,0],"id":46,"left_children":[1,3,-1,5,7,-1,-1,-1,-1],"loss_changes":[1.7569576E1,1.0181415E1,0E0,6.812372E0,6.3276353E0,0E0,0E0,0E0,0E0],"parents":[2147483647,0,0,1,1,3,3,4,4],"right_children":[2,4,-1,6,8,-1,-1,-1,-1],"split_conditions":[1.038E2,1.5E1,-3.097479E-1,2.5750728E3,2.5561335E3,-1.5480936E-1,7.248192E-2,1.8302375E-2,-4.353356E-2],"split_indices":[0,10,0,16,16,0,0,0,0],"split_type":[0,0,0,0,0,0,0,0,0],"sum_hessian":[8.8E1,8.7E1,1E0,7E0,8E1,6E0,1E0,5.8E1,2.2E1],"tree_param":{"num_deleted":"0","num_feature":"47","num_nodes":"9","size_leaf_vector":"1"}},{"base_weights":[-3.7082175E-3,-2.4406154E0,7.756322E-2,-7.18319E-2,-2.942604E-1,1.7583942E-1,-6.0789613E-4,-1.994491E-2,2.8662408E-2],"categories":[],"categories_nodes":[],"categories_segments":[],"categories_sizes":[],"default_left":[0,0,0,0,0,0,0,0,0],"id":47,"left_children":[1,3,5,-1,-1,-1,7,-1,-1],"loss_changes":[1.840999E1,4.7999E-1,1.1826389E1,0E0,0E0,0E0,5.0260453E0,0E0,0E0],"parents":[2147483647,0,0,1,1,2,2,6,6],"right_children":[2,4,6,-1,-1,-1,8,-1,-1],"split_conditions":[1.17586056E8,9.63E1,1.24499535E2,-7.18319E-2,-2.942604E-1,1.7583942E-1,8.76E1,-1.994491E-2,2.8662408E-2],"split_indices":[31,0,22,0,0,0,0,0,0],"split_type":[0,0,0,0,0,0,0,0,0],"sum_hessian":[9.1E1,2E0,8.9E1,1E0,1E0,3E0,8.6E1,5.1E1,3.5E1],"tree_param":{"num_deleted":"0","num_feature":"47","num_nodes":"9","size_leaf_vector":"1"}},{"base_weights":[2.3381423E-2,-2.284654E0,1.0179875E-1,-6.3150786E-2,-2.795473E-1,1.6265126E-1,2.8849883E-2,1.8857798E-2,-4.669204E-2],"categories":[],"categories_nodes":[],"categories_segments":[],"categories_sizes":[],"default_left":[0,0,0,0,0,0,0,0,0],"id":48,"left_children":[1,3,5,-1,-1,-1,7,-1,-1],"loss_changes":[1.6521673E1,7.680111E-1,9.740976E0,0E0,0E0,0E0,6.8190684E0,0E0,0E0],"parents":[2147483647,0,0,1,1,2,2,6,6],"right_children":[2,4,6,-1,-1,-1,8,-1,-1],"split_conditions":[1.8592288E8,7.71E1,1.24499535E2,-6.3150786E-2,-2.795473E-1,1.6265126E-1,1.483124E6,1.8857798E-2,-4.669204E-2],"split_indices":[29,0,22,0,0,0,42,0,0],"split_type":[0,0,0,0,0,0,0,0,0],"sum_hessian":[8.9E1,2E0,8.7E1,1E0,1E0,3E0,8.4E1,6.4E1,2E1],"tree_param":{"num_deleted":"0","num_feature":"47","num_nodes":"9","size_leaf_vector":"1"}},{"base_weights":[2.1561068E-2,-2.1704216E0,9.958948E-2,-5.9993364E-2,-2.655699E-1,1.5045242E-1,2.898049E-2,-1.4584287E-2,4.761804E-2],"categories":[],"categories_nodes":[],"categories_segments":[],"categories_sizes":[],"default_left":[0,0,0,0,0,0,0,0,0],"id":49,"left_children":[1,3,5,-1,-1,-1,7,-1,-1],"loss_changes":[1.4925327E1,6.9312286E-1,8.289285E0,0E0,0E0,0E0,6.402107E0,0E0,0E0],"parents":[2147483647,0,0,1,1,2,2,6,6],"right_children":[2,4,6,-1,-1,-1,8,-1,-1],"split_conditions":[1.8592288E8,7.71E1,1.24499535E2,-5.9993364E-2,-2.655699E-1,1.5045242E-1,6.3794606E5,-1.4584287E-2,4.761804E-2],"split_indices":[29,0,22,0,0,0,45,0,0],"split_type":[0,0,0,0,0,0,0,0,0],"sum_hessian":[8.5E1,2E0,8.3E1,1E0,1E0,3E0,8E1,5.8E1,2.2E1],"tree_param":{"num_deleted":"0","num_feature":"47","num_nodes":"9","size_leaf_vector":"1"}},{"base_weights":[-1.6455315E-1,-2.1383019E-1,-9.6933156E-2,-1.5034269E-1,1.5020575E-1,4.342251E-4,-4.819655E-2],"categories":[],"categories_nodes":[],"categories_segments":[],"categories_sizes":[],"default_left":[0,0,0,0,0,0,0],"id":50,"left_children":[1,-1,3,5,-1,-1,-1],"loss_changes":[1.2071495E1,0E0,7.9119434E0,4.516233E0,0E0,0E0,0E0],"parents":[2147483647,0,0,2,2,3,3],"right_children":[2,-1,4,6,-1,-1,-1],"split_conditions":[1.17586056E8,-2.1383019E-1,1.025E2,2.5561335E3,1.5020575E-1,4.342251E-4,-4.819655E-2],"split_indices":[31,0,0,16,0,0,0],"split_type":[0,0,0,0,0,0,0],"sum_hessian":[9.1E1,2E0,8.9E1,8.7E1,2E0,6E1,2.7E1],"tree_param":{"num_deleted":"0","num_feature":"47","num_nodes":"7","size_leaf_vector":"1"}},{"base_weights":[-1.5012355E-1,-1.9957491E0,-8.693466E-2,-5.776253E-2,-2.4159984E-1,-8.947029E-1,1.3863081E-2,-1.1542282E-1,7.205124E-2,-3.902339E-3,1.401919E-1],"categories":[],"categories_nodes":[],"categories_segments":[],"categories_sizes":[],"default_left":[0,0,0,0,0,0,0,0,0,0,0],"id":51,"left_children":[1,3,5,-1,-1,7,9,-1,-1,-1,-1],"loss_changes":[1.055582E1,3.9235497E-1,7.340313E0,0E0,0E0,5.023528E0,6.0008674E0,0E0,0E0,0E0,0E0],"parents":[2147483647,0,0,1,1,2,2,5,5,6,6],"right_children":[2,4,6,-1,-1,8,10,-1,-1,-1,-1],"split_conditions":[1.17586056E8,9.63E1,1.5E1,-5.776253E-2,-2.4159984E-1,2.5983892E3,1.025E2,-1.1542282E-1,7.205124E-2,-3.902339E-3,1.401919E-1],"split_indices":[31,0,10,0,0,16,0,0,0,0,0],"split_type":[0,0,0,0,0,0,0,0,0,0,0],"sum_hessian":[9.1E1,2E0,8.9E1,1E0,1E0,9E0,8E1,8E0,1E0,7.8E1,2E0],"tree_param":{"num_deleted":"0","num_feature":"47","num_nodes":"11","size_leaf_vector":"1"}},{"base_weights":[-4.1945986E-3,-5.374964E-1,2.7141458E-1,5.7445303E-2,-1.1759305E0,-2.1996017E-1,5.2260095E-1,-1.6608078E-2,6.27124E-2,-1.8372457E-1,1.222496E-2,-4.9412157E-2,5.477969E-2,9.1111E-2,-5.662357E-3],"categories":[],"categories_nodes":[],"categories_segments":[],"categories_sizes":[],"default_left":[0,0,0,0,0,0,0,0,0,0,0,0,0,0,0],"id":52,"left_children":[1,3,5,7,9,11,13,-1,-1,-1,-1,-1,-1,-1,-1],"loss_changes":[1.3374342E1,1.1842316E1,7.5205503E0,2.2689E0,1.310219E1,4.690954E0,9.052947E0,0E0,0E0,0E0,0E0,0E0,0E0,0E0,0E0],"parents":[2147483647,0,0,1,1,2,2,3,3,4,4,5,5,6,6],"right_children":[2,4,6,8,10,12,14,-1,-1,-1,-1,-1,-1,-1,-1],"split_conditions":[1.9241112E8,1.00139E3,6.026483E5,6.3794606E5,1.1299227E3,9.25E1,8.230559E7,-1.6608078E-2,6.27124E-2,-1.8372457E-1,1.222496E-2,-4.9412157E-2,5.477969E-2,9.1111E-2,-5.662357E-3],"split_indices":[23,17,45,45,17,3,26,0,0,0,0,0,0,0,0],"split_type":[0,0,0,0,0,0,0,0,0,0,0,0,0,0,0],"sum_hessian":[8.9E1,3E1,5.9E1,1.6E1,1.4E1,2E1,3.9E1,1.2E1,4E0,9E0,5E0,1.5E1,5E0,2.3E1,1.6E1],"tree_param":{"num_deleted":"0","num_feature":"47","num_nodes":"15","size_leaf_vector":"1"}},{"base_weights":[-5.919201E-2,1.0223633E0,-1.1862072E-1,3.448003E-2,1.3591385E-1,9.2885894E-1,-1.781414E-1,-3.1233598E-2,1.3172416E-1,-1.0703106E-1,-8.554019E-3],"categories":[],"categories_nodes":[],"categories_segments":[],"categories_sizes":[],"default_left":[0,0,0,0,0,0,0,0,0,0,0],"id":53,"left_children":[1,3,5,-1,-1,7,9,-1,-1,-1,-1],"loss_changes":[6.163165E0,6.723008E-1,5.776671E0,0E0,0E0,2.8217154E0,7.0134163E0,0E0,0E0,0E0,0E0],"parents":[2147483647,0,0,1,1,2,2,5,5,6,6],"right_children":[2,4,6,-1,-1,8,10,-1,-1,-1,-1],"split_conditions":[1.4796E2,1.6095E2,8E0,3.448003E-2,1.3591385E-1,6.97E1,1.5E1,-3.1233598E-2,1.3172416E-1,-1.0703106E-1,-8.554019E-3],"split_indices":[19,12,10,0,0,3,10,0,0,0,0],"split_type":[0,0,0,0,0,0,0,0,0,0,0],"sum_hessian":[9.3E1,4E0,8.9E1,2E0,2E0,4E0,8.5E1,1E0,3E0,7E0,7.8E1],"tree_param":{"num_deleted":"0","num_feature":"47","num_nodes":"11","size_leaf_vector":"1"}},{"base_weights":[-8.220832E-2,-1.8867086E-1,-2.0458778E-2,2.5213662E-1,-2.2851293E-1,9.410464E-2,1.2314852E-2,-4.667806E-2,3.7444815E-2],"categories":[],"categories_nodes":[],"categories_segments":[],"categories_sizes":[],"default_left":[0,0,0,0,0,0,0,0,0],"id":54,"left_children":[1,-1,3,5,7,-1,-1,-1,-1],"loss_changes":[1.0101263E1,0E0,5.1052165E0,3.3496964E0,7.5017576E0,0E0,0E0,0E0,0E0],"parents":[2147483647,0,0,2,2,3,3,4,4],"right_children":[2,-1,4,6,8,-1,-1,-1,-1],"split_conditions":[1.8592288E8,-1.8867086E-1,9.7460455E2,2.8753312E8,1.1703093E3,9.410464E-2,1.2314852E-2,-4.667806E-2,3.7444815E-2],"split_indices":[29,0,17,30,17,0,0,0,0],"split_type":[0,0,0,0,0,0,0,0,0],"sum_hessian":[9E1,2E0,8.8E1,3.8E1,5E1,5E0,3.3E1,3.6E1,1.4E1],"tree_param":{"num_deleted":"0","num_feature":"47","num_nodes":"9","size_leaf_vector":"1"}},{"base_weights":[-1.0345459E-2,1.4816187E-1,-4.0937012E-1,-2.0847155E-2,5.718426E-1,4.649571E-1,-7.099449E-1,-5.1411163E-2,1.8904831E-2,7.706805E-2,-9.927216E-3,7.8485616E-2,1.8002626E-2,7.85141E-3,-9.9714555E-2],"categories":[],"categories_nodes":[],"categories_segments":[],"categories_sizes":[],"default_left":[0,0,0,0,0,0,0,0,0,0,0,0,0,0,0],"id":55,"left_children":[1,3,5,7,9,11,13,-1,-1,-1,-1,-1,-1,-1,-1],"loss_changes":[5.563258E0,4.5230913E0,6.9001117E0,4.859755E0,2.4784818E0,4.9674904E-1,4.380762E0,0E0,0E0,0E0,0E0,0E0,0E0,0E0,0E0],"parents":[2147483647,0,0,1,1,2,2,3,3,4,4,5,5,6,6],"right_children":[2,4,6,8,10,12,14,-1,-1,-1,-1,-1,-1,-1,-1],"split_conditions":[2.5561335E3,2.536708E3,6.287827E5,1.1152757E7,1.1716842E3,5.8336604E7,1.1152757E7,-5.1411163E-2,1.8904831E-2,7.706805E-2,-9.927216E-3,7.8485616E-2,1.8002626E-2,7.85141E-3,-9.9714555E-2],"split_indices":[16,16,41,34,17,25,34,0,0,0,0,0,0,0,0],"split_type":[0,0,0,0,0,0,0,0,0,0,0,0,0,0,0],"sum_hessian":[8.6E1,6.2E1,2.4E1,4.5E1,1.7E1,6E0,1.8E1,1.3E1,3.2E1,1.3E1,4E0,2E0,4E0,5E0,1.3E1],"tree_param":{"num_deleted":"0","num_feature":"47","num_nodes":"15","size_leaf_vector":"1"}},{"base_weights":[-5.834687E-2,-1.7338308E0,-1.8491109E-3,-5.002098E-2,-2.1005364E-1,-1.1961458E-1,5.108858E-1,4.6193823E-2,-2.284879E-2,8.039376E-2,-6.425171E-2],"categories":[],"categories_nodes":[],"categories_segments":[],"categories_sizes":[],"default_left":[0,0,0,0,0,0,0,0,0,0,0],"id":56,"left_children":[1,3,5,-1,-1,7,9,-1,-1,-1,-1],"loss_changes":[8.705615E0,3.0641747E-1,5.4955316E0,0E0,0E0,4.7909E0,6.2626595E0,0E0,0E0,0E0,0E0],"parents":[2147483647,0,0,1,1,2,2,5,5,6,6],"right_children":[2,4,6,-1,-1,8,10,-1,-1,-1,-1],"split_conditions":[1.17586056E8,9.63E1,2.9309342E6,-5.002098E-2,-2.1005364E-1,8.6190936E2,3.547771E8,4.6193823E-2,-2.284879E-2,8.039376E-2,-6.425171E-2],"split_indices":[31,0,39,0,0,17,31,0,0,0,0],"split_type":[0,0,0,0,0,0,0,0,0,0,0],"sum_hessian":[9.1E1,2E0,8.9E1,1E0,1E0,7.3E1,1.6E1,1.1E1,6.2E1,1.3E1,3E0],"tree_param":{"num_deleted":"0","num_feature":"47","num_nodes":"11","size_leaf_vector":"1"}},{"base_weights":[9.420219E-2,2.245218E-1,-3.3847663E-1,-3.8933146E-1,3.3516356E-1,5.938446E-1,-5.927784E-1,-7.937012E-3,-1.7444725E-1,1.3916245E-1,2.736803E-2,2.6393637E-2,7.2580464E-2,1.8316956E-2,-8.456215E-2],"categories":[],"categories_nodes":[],"categories_segments":[],"categories_sizes":[],"default_left":[0,0,0,0,0,0,0,0,0,0,0,0,0,0,0],"id":57,"left_children":[1,3,5,7,9,11,13,-1,-1,-1,-1,-1,-1,-1,-1],"loss_changes":[5.094397E0,4.816819E0,5.330928E0,4.481996E0,3.4514651E0,2.6107311E-2,3.4901748E0,0E0,0E0,0E0,0E0,0E0,0E0,0E0,0E0],"parents":[2147483647,0,0,1,1,2,2,3,3,4,4,5,5,6,6],"right_children":[2,4,6,8,10,12,14,-1,-1,-1,-1,-1,-1,-1,-1],"split_conditions":[1E0,7.42E1,9.286209E2,7.71E1,2.6125458E8,2.1199506E8,1.1810632E9,-7.937012E-3,-1.7444725E-1,1.3916245E-1,2.736803E-2,2.6393637E-2,7.2580464E-2,1.8316956E-2,-8.456215E-2],"split_indices":[7,3,17,1,29,23,28,0,0,0,0,0,0,0,0],"split_type":[0,0,0,0,0,0,0,0,0,0,0,0,0,0,0],"sum_hessian":[8.8E1,6.8E1,2E1,1E1,5.8E1,4E0,1.6E1,9E0,1E0,2E0,5.6E1,2E0,2E0,4E0,1.2E1],"tree_param":{"num_deleted":"0","num_feature":"47","num_nodes":"15","size_leaf_vector":"1"}},{"base_weights":[-5.4585855E-3,-1.7417946E0,5.1843245E-2,-5.475998E-2,-2.0650922E-1,-2.5265613E-1,2.37907E-1,1.2524796E-2,-8.284585E-2,-2.4562867E-2,5.7222903E-2],"categories":[],"categories_nodes":[],"categories_segments":[],"categories_sizes":[],"default_left":[0,0,0,0,0,0,0,0,0,0,0],"id":58,"left_children":[1,3,5,-1,-1,7,9,-1,-1,-1,-1],"loss_changes":[9.343357E0,2.7397156E-2,5.2158313E0,0E0,0E0,7.719695E0,9.354984E0,0E0,0E0,0E0,0E0],"parents":[2147483647,0,0,1,1,2,2,5,5,6,6],"right_children":[2,4,6,-1,-1,8,10,-1,-1,-1,-1],"split_conditions":[1.8592288E8,7.71E1,1.1759229E7,-5.475998E-2,-2.0650922E-1,5.366441E2,5.309558E2,1.2524796E-2,-8.284585E-2,-2.4562867E-2,5.7222903E-2],"split_indices":[29,0,34,0,0,18,18,0,0,0,0],"split_type":[0,0,0,0,0,0,0,0,0,0,0],"sum_hessian":[9.2E1,2E0,9E1,1E0,1E0,3.4E1,5.6E1,2.1E1,1.3E1,2.3E1,3.3E1],"tree_param":{"num_deleted":"0","num_feature":"47","num_nodes":"11","size_leaf_vector":"1"}},{"base_weights":[-7.122171E-3,-1.9115703E-1,6.0177434E-2,1.8887974E-1,-3.4105247E-1,8.581771E-4,6.2493898E-2,-5.800885E-2,1.1989213E-2],"categories":[],"categories_nodes":[],"categories_segments":[],"categories_sizes":[],"default_left":[0,0,0,0,0,0,0,0,0],"id":59,"left_children":[1,-1,3,5,7,-1,-1,-1,-1],"loss_changes":[1.1265702E1,0E0,4.453751E0,5.1049757E0,2.3833778E0,0E0,0E0,0E0,0E0],"parents":[2147483647,0,0,2,2,3,3,4,4],"right_children":[2,-1,4,6,8,-1,-1,-1,-1],"split_conditions":[2.6701423E3,-1.9115703E-1,1.483124E6,8.11677E5,7.1E1,8.581771E-4,6.2493898E-2,-5.800885E-2,1.1989213E-2],"split_indices":[15,0,42,41,10,0,0,0,0],"split_type":[0,0,0,0,0,0,0,0,0],"sum_hessian":[8.6E1,2E0,8.4E1,6.4E1,2E1,4.6E1,1.8E1,1.3E1,7E0],"tree_param":{"num_deleted":"0","num_feature":"47","num_nodes":"9","size_leaf_vector":"1"}},{"base_weights":[-9.4954215E-2,-1.56331E0,-4.3817606E-2,-4.7870636E-2,-1.8662587E-1,1.1636036E-1,-2.78418E-1,3.1127129E-2,-4.4883948E-2,-4.811065E-3,-6.821841E-2],"categories":[],"categories_nodes":[],"categories_segments":[],"categories_sizes":[],"default_left":[0,0,0,0,0,0,0,0,0,0,0],"id":60,"left_children":[1,3,5,-1,-1,7,9,-1,-1,-1,-1],"loss_changes":[6.689306E0,9.234762E-2,3.3392446E0,0E0,0E0,5.9783826E0,3.31483E0,0E0,0E0,0E0,0E0],"parents":[2147483647,0,0,1,1,2,2,5,5,6,6],"right_children":[2,4,6,-1,-1,8,10,-1,-1,-1,-1],"split_conditions":[1.17586056E8,9.63E1,3.402059E8,-4.7870636E-2,-1.8662587E-1,1E0,9.9814624E2,3.1127129E-2,-4.4883948E-2,-4.811065E-3,-6.821841E-2],"split_indices":[31,0,30,0,0,7,17,0,0,0,0],"split_type":[0,0,0,0,0,0,0,0,0,0,0],"sum_hessian":[8.9E1,2E0,8.7E1,1E0,1E0,5.2E1,3.5E1,3.9E1,1.3E1,2.3E1,1.2E1],"tree_param":{"num_deleted":"0","num_feature":"47","num_nodes":"11","size_leaf_vector":"1"}},{"base_weights":[-8.9582875E-2,-1.5394364E-1,-4.0801078E-2,1.0245514E0,-8.8762544E-2,4.2605843E-2,1.4100151E-1,-1.3454737E-2,6.9817506E-2],"categories":[],"categories_nodes":[],"categories_segments":[],"categories_sizes":[],"default_left":[0,0,0,0,0,0,0,0,0],"id":61,"left_children":[1,-1,3,5,7,-1,-1,-1,-1],"loss_changes":[6.514749E0,0E0,4.7406654E0,3.2204056E-1,3.2645602E0,0E0,0E0,0E0,0E0],"parents":[2147483647,0,0,2,2,3,3,4,4],"right_children":[2,-1,4,6,8,-1,-1,-1,-1],"split_conditions":[1.8592288E8,-1.5394364E-1,1.24499535E2,1.038E2,3.08701E3,4.2605843E-2,1.4100151E-1,-1.3454737E-2,6.9817506E-2],"split_indices":[29,0,22,0,15,0,0,0,0],"split_type":[0,0,0,0,0,0,0,0,0],"sum_hessian":[9.2E1,2E0,9E1,3E0,8.7E1,2E0,1E0,8.3E1,4E0],"tree_param":{"num_deleted":"0","num_feature":"47","num_nodes":"9","size_leaf_vector":"1"}},{"base_weights":[1.5698563E-2,-1.4293455E0,6.592453E-2,-4.4804383E-2,-1.6959743E-1,2.3713532E-1,-1.6722313E-1,2.3162053E-3,5.0841212E-2,-9.045418E-2,6.7366236E-3],"categories":[],"categories_nodes":[],"categories_segments":[],"categories_sizes":[],"default_left":[0,0,0,0,0,0,0,0,0,0,0],"id":62,"left_children":[1,3,5,-1,-1,7,9,-1,-1,-1,-1],"loss_changes":[6.4811583E0,2.5058746E-2,3.4725504E0,0E0,0E0,2.890523E0,6.4607196E0,0E0,0E0,0E0,0E0],"parents":[2147483647,0,0,1,1,2,2,5,5,6,6],"right_children":[2,4,6,-1,-1,8,10,-1,-1,-1,-1],"split_conditions":[1.17586056E8,9.63E1,3.4415382E8,-4.4804383E-2,-1.6959743E-1,8.9825E1,9.226713E1,2.3162053E-3,5.0841212E-2,-9.045418E-2,6.7366236E-3],"split_indices":[31,0,30,0,0,5,14,0,0,0,0],"split_type":[0,0,0,0,0,0,0,0,0,0,0],"sum_hessian":[8.7E1,2E0,8.5E1,1E0,1E0,4.9E1,3.6E1,2.8E1,2.1E1,8E0,2.8E1],"tree_param":{"num_deleted":"0","num_feature":"47","num_nodes":"11","size_leaf_vector":"1"}},{"base_weights":[5.5949006E-2,1.2429171E-2,9.7763824E-1,7.957169E-1,-3.548385E-2,4.2745464E-2,1.3140945E-1,-2.9102707E-2,1.1401596E-1,-9.11147E-2,4.5636226E-3],"categories":[],"categories_nodes":[],"categories_segments":[],"categories_sizes":[],"default_left":[0,0,0,0,0,0,0,0,0,0,0],"id":63,"left_children":[1,3,5,7,9,-1,-1,-1,-1,-1,-1],"loss_changes":[3.5577958E0,3.2557874E0,1.7873502E-1,2.2034228E0,5.866358E0,0E0,0E0,0E0,0E0,0E0,0E0],"parents":[2147483647,0,0,1,1,2,2,3,3,4,4],"right_children":[2,4,6,8,10,-1,-1,-1,-1,-1,-1],"split_conditions":[1.0135E2,8E0,1.038E2,6.97E1,1.4E1,4.2745464E-2,1.3140945E-1,-2.9102707E-2,1.1401596E-1,-9.11147E-2,4.5636226E-3],"split_indices":[4,10,0,3,10,0,0,0,0,0,0],"split_type":[0,0,0,0,0,0,0,0,0,0,0],"sum_hessian":[8.8E1,8.5E1,3E0,4E0,8.1E1,2E0,1E0,1E0,3E0,6E0,7.5E1],"tree_param":{"num_deleted":"0","num_feature":"47","num_nodes":"11","size_leaf_vector":"1"}},{"base_weights":[3.7137296E-3,-1.1094528E0,6.551505E-2,-5.483761E-2,-1.67688E-1,7.8367287E-1,4.8886253E-3,3.7308503E-2,1.20676175E-1,7.331299E-2,-4.068756E-3],"categories":[],"categories_nodes":[],"categories_segments":[],"categories_sizes":[],"default_left":[0,0,0,0,0,0,0,0,0,0,0],"id":64,"left_children":[1,3,5,-1,-1,7,9,-1,-1,-1,-1],"loss_changes":[6.539431E0,6.7228985E-1,3.9147096E0,0E0,0E0,7.657809E-1,2.817828E0,0E0,0E0,0E0,0E0],"parents":[2147483647,0,0,1,1,2,2,5,5,6,6],"right_children":[2,4,6,-1,-1,8,10,-1,-1,-1,-1],"split_conditions":[7.2294285E8,8.03E1,1.8704077E2,-5.483761E-2,-1.67688E-1,1.4929317E2,8E0,3.7308503E-2,1.20676175E-1,7.331299E-2,-4.068756E-3],"split_indices":[28,4,19,0,0,21,10,0,0,0,0],"split_type":[0,0,0,0,0,0,0,0,0,0,0],"sum_hessian":[9.3E1,4E0,8.9E1,3E0,1E0,6E0,8.3E1,4E0,2E0,4E0,7.9E1],"tree_param":{"num_deleted":"0","num_feature":"47","num_nodes":"11","size_leaf_vector":"1"}},{"base_weights":[4.1990858E-2,8.6442566E-1,-8.66969E-3,3.256836E-2,1.1150259E-1,6.744812E-1,-5.2350264E-2,-3.1312943E-2,9.996662E-2,-2.3987977E-2,2.1064088E-2],"categories":[],"categories_nodes":[],"categories_segments":[],"categories_sizes":[],"default_left":[0,0,0,0,0,0,0,0,0,0,0],"id":65,"left_children":[1,3,5,-1,-1,7,9,-1,-1,-1,-1],"loss_changes":[3.5906842E0,3.118987E-1,2.482224E0,0E0,0E0,1.9188061E0,3.8973792E0,0E0,0E0,0E0,0E0],"parents":[2147483647,0,0,1,1,2,2,5,5,6,6],"right_children":[2,4,6,-1,-1,8,10,-1,-1,-1,-1],"split_conditions":[2.6331766E8,9.33E1,8E0,3.256836E-2,1.1150259E-1,6.97E1,1.0096571E3,-3.1312943E-2,9.996662E-2,-2.3987977E-2,2.1064088E-2],"split_indices":[29,3,10,0,0,3,17,0,0,0,0],"split_type":[0,0,0,0,0,0,0,0,0,0,0],"sum_hessian":[8.5E1,4E0,8.1E1,2E0,2E0,4E0,7.7E1,1E0,3E0,4.5E1,3.2E1],"tree_param":{"num_deleted":"0","num_feature":"47","num_nodes":"11","size_leaf_vector":"1"}},{"base_weights":[-2.7087703E-3,-1.1051162E0,6.067912E-2,-5.5700112E-2,-1.6487885E-1,1.0864436E-1,2.3761794E-2,1.8404007E-2,-1.9950697E-2],"categories":[],"categories_nodes":[],"categories_segments":[],"categories_sizes":[],"default_left":[0,0,0,0,0,0,0,0,0],"id":66,"left_children":[1,3,5,-1,-1,-1,7,-1,-1],"loss_changes":[6.4260726E0,5.7159805E-1,3.2687416E0,0E0,0E0,0E0,3.0784533E0,0E0,0E0],"parents":[2147483647,0,0,1,1,2,2,6,6],"right_children":[2,4,6,-1,-1,-1,8,-1,-1],"split_conditions":[7.2294285E8,7.71E1,2.736708E6,-5.5700112E-2,-1.6487885E-1,1.0864436E-1,6.5E1,1.8404007E-2,-1.9950697E-2],"split_indices":[28,0,43,0,0,0,10,0,0],"split_type":[0,0,0,0,0,0,0,0,0],"sum_hessian":[9E1,4E0,8.6E1,3E0,1E0,2E0,8.4E1,4.9E1,3.5E1],"tree_param":{"num_deleted":"0","num_feature":"47","num_nodes":"9","size_leaf_vector":"1"}},{"base_weights":[1.8008899E-2,-1.172039E0,7.069982E-2,-5.18486E-2,-1.5663491E-1,6.671095E-1,1.2362745E-2,9.961688E-2,-2.1337891E-2,-9.941511E-3,4.521718E-2],"categories":[],"categories_nodes":[],"categories_segments":[],"categories_sizes":[],"default_left":[0,0,0,0,0,0,0,0,0,0,0],"id":67,"left_children":[1,3,5,-1,-1,7,9,-1,-1,-1,-1],"loss_changes":[5.914402E0,2.186799E-1,3.1231043E0,0E0,0E0,2.5304244E0,4.1253085E0,0E0,0E0,0E0,0E0],"parents":[2147483647,0,0,1,1,2,2,5,5,6,6],"right_children":[2,4,6,-1,-1,8,10,-1,-1,-1,-1],"split_conditions":[2.4132547E9,8.03E1,5.5660416E7,-5.18486E-2,-1.5663491E-1,6.3201356E7,1.1784581E2,9.961688E-2,-2.1337891E-2,-9.941511E-3,4.521718E-2],"split_indices":[27,4,26,0,0,25,14,0,0,0,0],"split_type":[0,0,0,0,0,0,0,0,0,0,0],"sum_hessian":[9.2E1,3E0,8.9E1,2E0,1E0,7E0,8.2E1,5E0,2E0,6.6E1,1.6E1],"tree_param":{"num_deleted":"0","num_feature":"47","num_nodes":"11","size_leaf_vector":"1"}},{"base_weights":[-9.3245596E-2,-4.037126E-1,1.0992151E-1,3.527832E-2,-7.786188E-1,-4.7550142E-1,2.76601E-1,-1.5201333E-2,4.351972E-2,-2.0237167E-1,-3.4086205E-2,1.3837307E-2,-8.764696E-2,4.5771472E-2,-1.1614075E-2],"categories":[],"categories_nodes":[],"categories_segments":[],"categories_sizes":[],"default_left":[0,0,0,0,0,0,0,0,0,0,0,0,0,0,0],"id":68,"left_children":[1,3,5,7,9,11,13,-1,-1,-1,-1,-1,-1,-1,-1],"loss_changes":[5.910508E0,6.1169434E0,5.6934695E0,1.4143822E0,1.0211193E1,3.3211534E0,3.2540505E0,0E0,0E0,0E0,0E0,0E0,0E0,0E0,0E0],"parents":[2147483647,0,0,1,1,2,2,3,3,4,4,5,5,6,6],"right_children":[2,4,6,8,10,12,14,-1,-1,-1,-1,-1,-1,-1,-1],"split_conditions":[2.1087118E8,9.9495E2,1.1152757E7,3.607812E8,9.226713E1,5.190744E2,8.369855E7,-1.5201333E-2,4.351972E-2,-2.0237167E-1,-3.4086205E-2,1.3837307E-2,-8.764696E-2,4.5771472E-2,-1.1614075E-2],"split_indices":[23,17,34,30,14,18,26,0,0,0,0,0,0,0,0],"split_type":[0,0,0,0,0,0,0,0,0,0,0,0,0,0,0],"sum_hessian":[9.2E1,3.6E1,5.6E1,1.7E1,1.9E1,1.2E1,4.4E1,1.2E1,5E0,4E0,1.5E1,5E0,7E0,3E1,1.4E1],"tree_param":{"num_deleted":"0","num_feature":"47","num_nodes":"15","size_leaf_vector":"1"}},{"base_weights":[2.5286816E-2,-1.2607855E-1,6.69491E-2,-3.2423225E-1,1.296792E-1,-1.1369959E-2,-1.425312E-1,4.12873E-2,2.1883561E-3],"categories":[],"categories_nodes":[],"categories_segments":[],"categories_sizes":[],"default_left":[0,0,0,0,0,0,0,0,0],"id":69,"left_children":[1,-1,3,5,7,-1,-1,-1,-1],"loss_changes":[5.1209946E0,0E0,2.2996202E0,2.8515148E0,2.4331293E0,0E0,0E0,0E0,0E0],"parents":[2147483647,0,0,2,2,3,3,4,4],"right_children":[2,-1,4,6,8,-1,-1,-1,-1],"split_conditions":[1.8592288E8,-1.2607855E-1,7.34E1,7.79E1,6.287827E5,-1.1369959E-2,-1.425312E-1,4.12873E-2,2.1883561E-3],"split_indices":[29,0,3,1,41,0,0,0,0],"split_type":[0,0,0,0,0,0,0,0,0],"sum_hessian":[9.3E1,2E0,9.1E1,1.2E1,7.9E1,1.1E1,1E0,2.1E1,5.8E1],"tree_param":{"num_deleted":"0","num_feature":"47","num_nodes":"9","size_leaf_vector":"1"}},{"base_weights":[-5.531333E-2,-1.1761131E0,-1.5104945E-2,-3.5622027E-2,-1.4079495E-1,1.17723964E-1,-2.756616E-1,-1.0089377E-3,5.978648E-2,-5.394367E-2,2.794548E-2],"categories":[],"categories_nodes":[],"categories_segments":[],"categories_sizes":[],"default_left":[0,0,0,0,0,0,0,0,0,0,0],"id":70,"left_children":[1,3,5,-1,-1,7,9,-1,-1,-1,-1],"loss_changes":[3.9029377E0,6.87027E-2,2.974256E0,0E0,0E0,3.504031E0,4.3970995E0,0E0,0E0,0E0,0E0],"parents":[2147483647,0,0,1,1,2,2,5,5,6,6],"right_children":[2,4,6,-1,-1,8,10,-1,-1,-1,-1],"split_conditions":[1.17586056E8,9.63E1,1.3497078E6,-3.5622027E-2,-1.4079495E-1,1E0,7.4E1,-1.0089377E-3,5.978648E-2,-5.394367E-2,2.794548E-2],"split_indices":[31,0,42,0,0,6,10,0,0,0,0],"split_type":[0,0,0,0,0,0,0,0,0,0,0],"sum_hessian":[8.6E1,2E0,8.4E1,1E0,1E0,5.6E1,2.8E1,4.5E1,1.1E1,1.9E1,9E0],"tree_param":{"num_deleted":"0","num_feature":"47","num_nodes":"11","size_leaf_vector":"1"}},{"base_weights":[2.172183E-2,-8.8229215E-1,7.0091166E-2,-4.3408968E-2,-1.3375512E-1,2.4850805E-1,-1.0981702E-1,1.7477813E-3,5.337132E-2,-2.2468185E-2,4.782343E-2],"categories":[],"categories_nodes":[],"categories_segments":[],"categories_sizes":[],"default_left":[0,0,0,0,0,0,0,0,0,0,0],"id":71,"left_children":[1,3,5,-1,-1,7,9,-1,-1,-1,-1],"loss_changes":[4.303317E0,4.3962407E-1,3.0124655E0,0E0,0E0,3.0875494E0,3.2821321E0,0E0,0E0,0E0,0E0],"parents":[2147483647,0,0,1,1,2,2,5,5,6,6],"right_children":[2,4,6,-1,-1,8,10,-1,-1,-1,-1],"split_conditions":[7.2294285E8,7.71E1,3.2398192E8,-4.3408968E-2,-1.3375512E-1,8.9475E1,1.08927E3,1.7477813E-3,5.337132E-2,-2.2468185E-2,4.782343E-2],"split_indices":[28,0,30,0,0,5,17,0,0,0,0],"split_type":[0,0,0,0,0,0,0,0,0,0,0],"sum_hessian":[9.6E1,4E0,9.2E1,3E0,1E0,4.6E1,4.6E1,2.6E1,2E1,3.9E1,7E0],"tree_param":{"num_deleted":"0","num_feature":"47","num_nodes":"11","size_leaf_vector":"1"}},{"base_weights":[-7.743466E-3,-1.0905113E-1,2.803727E-2,-1.5921126E-1,1.4791067E-1,1.5227608E-2,-6.595682E-2,3.0682072E-2,-3.5073526E-2],"categories":[],"categories_nodes":[],"categories_segments":[],"categories_sizes":[],"default_left":[0,0,0,0,0,0,0,0,0],"id":72,"left_children":[1,-1,3,5,7,-1,-1,-1,-1],"loss_changes":[3.6336026E0,0E0,2.0661457E0,5.7112117E0,4.545045E0,0E0,0E0,0E0,0E0],"parents":[2147483647,0,0,2,2,3,3,4,4],"right_children":[2,-1,4,6,8,-1,-1,-1,-1],"split_conditions":[1.17586056E8,-1.0905113E-1,6.026483E5,1.343783E6,8.369855E7,1.5227608E-2,-6.595682E-2,3.0682072E-2,-3.5073526E-2],"split_indices":[31,0,45,42,26,0,0,0,0],"split_type":[0,0,0,0,0,0,0,0,0],"sum_hessian":[9.2E1,2E0,9E1,3.5E1,5.5E1,2.2E1,1.3E1,4.2E1,1.3E1],"tree_param":{"num_deleted":"0","num_feature":"47","num_nodes":"9","size_leaf_vector":"1"}},{"base_weights":[1.7529184E-2,-8.230041E-1,6.4030714E-2,-4.20681E-2,-1.21614836E-1,-7.409941E-2,2.8320944E-1,9.650334E-3,-3.421447E-2,5.9701215E-2,-8.417062E-3],"categories":[],"categories_nodes":[],"categories_segments":[],"categories_sizes":[],"default_left":[0,0,0,0,0,0,0,0,0,0,0],"id":73,"left_children":[1,3,5,-1,-1,7,9,-1,-1,-1,-1],"loss_changes":[3.7267892E0,2.7924466E-1,2.7457519E0,0E0,0E0,2.593857E0,4.0852222E0,0E0,0E0,0E0,0E0],"parents":[2147483647,0,0,1,1,2,2,5,5,6,6],"right_children":[2,4,6,-1,-1,8,10,-1,-1,-1,-1],"split_conditions":[7.2294285E8,7.71E1,8.97E1,-4.20681E-2,-1.21614836E-1,8.28E1,7.6416944E5,9.650334E-3,-3.421447E-2,5.9701215E-2,-8.417062E-3],"split_indices":[28,0,3,0,0,1,41,0,0,0,0],"split_type":[0,0,0,0,0,0,0,0,0,0,0],"sum_hessian":[9.3E1,4E0,8.9E1,3E0,1E0,5.5E1,3.4E1,3.4E1,2.1E1,1.8E1,1.6E1],"tree_param":{"num_deleted":"0","num_feature":"47","num_nodes":"11","size_leaf_vector":"1"}},{"base_weights":[3.0018806E-2,1.9092497E-1,-1.6784172E-1,-7.184474E-2,2.4490778E-1,7.277114E-2,-6.198921E-1,5.8361214E-2,9.82381E-3,-2.2392273E-2,4.095125E-2,-1.1595154E-1,-7.0235254E-3],"categories":[],"categories_nodes":[],"categories_segments":[],"categories_sizes":[],"default_left":[0,0,0,0,0,0,0,0,0,0,0,0,0],"id":74,"left_children":[1,3,5,-1,7,9,11,-1,-1,-1,-1,-1,-1],"loss_changes":[2.8336992E0,2.5813866E0,4.395876E0,0E0,2.277517E0,2.7892444E0,4.071068E0,0E0,0E0,0E0,0E0,0E0,0E0],"parents":[2147483647,0,0,1,1,2,2,4,4,5,5,6,6],"right_children":[2,4,6,-1,8,10,12,-1,-1,-1,-1,-1,-1],"split_conditions":[7.6416944E5,7.01E1,9.2E1,-7.184474E-2,5.7962884E7,8.12E1,1.4297926E6,5.8361214E-2,9.82381E-3,-2.2392273E-2,4.095125E-2,-1.1595154E-1,-7.0235254E-3],"split_indices":[41,1,3,0,26,3,42,0,0,0,0,0,0],"split_type":[0,0,0,0,0,0,0,0,0,0,0,0,0],"sum_hessian":[8.7E1,4.8E1,3.9E1,2E0,4.6E1,2.6E1,1.3E1,1.3E1,3.3E1,1.4E1,1.2E1,6E0,7E0],"tree_param":{"num_deleted":"0","num_feature":"47","num_nodes":"13","size_leaf_vector":"1"}},{"base_weights":[5.28436E-4,1.1791104E-1,-2.0406778E-1,1.5762743E-1,-7.024816E-2,3.1453282E-1,-3.6937657E-1,5.739737E-3,5.4541208E-2,-2.5695039E-2,5.1452097E-2,-6.1895635E-2,1.9855585E-2],"categories":[],"categories_nodes":[],"categories_segments":[],"categories_sizes":[],"default_left":[0,0,0,0,0,0,0,0,0,0,0,0,0],"id":75,"left_children":[1,3,5,7,-1,9,11,-1,-1,-1,-1,-1,-1],"loss_changes":[2.3055854E0,2.0982955E0,3.116704E0,2.261888E0,0E0,1.160815E0,3.9499972E0,0E0,0E0,0E0,0E0,0E0,0E0],"parents":[2147483647,0,0,1,1,2,2,3,3,5,5,6,6],"right_children":[2,4,6,8,-1,10,12,-1,-1,-1,-1,-1,-1],"split_conditions":[1.3497078E6,1.02E2,7.81E1,1.1299227E3,-7.024816E-2,4.8762334E5,9.31E1,5.739737E-3,5.4541208E-2,-2.5695039E-2,5.1452097E-2,-6.1895635E-2,1.9855585E-2],"split_indices":[42,1,3,17,0,41,0,0,0,0,0,0,0],"split_type":[0,0,0,0,0,0,0,0,0,0,0,0,0],"sum_hessian":[9.4E1,6E1,3.4E1,5.8E1,2E0,8E0,2.6E1,4.7E1,1.1E1,2E0,6E0,1.8E1,8E0],"tree_param":{"num_deleted":"0","num_feature":"47","num_nodes":"13","size_leaf_vector":"1"}},{"base_weights":[-6.7450483E-3,-2.6113406E-2,8.7788776E-2,5.251624E-2,-2.9071298E-1,-6.2625255E-3,6.2384732E-2,-1.6147995E-1,-6.634602E-3],"categories":[],"categories_nodes":[],"categories_segments":[],"categories_sizes":[],"default_left":[0,0,0,0,0,0,0,0,0],"id":76,"left_children":[1,3,-1,5,7,-1,-1,-1,-1],"loss_changes":[1.599242E0,1.908556E0,0E0,4.7097263E0,6.1315713E0,0E0,0E0,0E0,0E0],"parents":[2147483647,0,0,1,1,3,3,4,4],"right_children":[2,4,-1,6,8,-1,-1,-1,-1],"split_conditions":[1.025E2,9.275E1,8.7788776E-2,8.9825E1,9.31E1,-6.2625255E-3,6.2384732E-2,-1.6147995E-1,-6.634602E-3],"split_indices":[0,4,0,5,0,0,0,0,0],"split_type":[0,0,0,0,0,0,0,0,0],"sum_hessian":[9.1E1,9E1,1E0,7E1,2E1,5.9E1,1.1E1,2E0,1.8E1],"tree_param":{"num_deleted":"0","num_feature":"47","num_nodes":"9","size_leaf_vector":"1"}},{"base_weights":[-9.310975E-5,-9.2217064E-1,3.8732186E-2,1.1642075E-2,-1.3071747E-1,4.389585E-1,-1.8904096E-2,6.933337E-2,-5.5833436E-3,5.203705E-2,-6.705817E-3],"categories":[],"categories_nodes":[],"categories_segments":[],"categories_sizes":[],"default_left":[0,0,0,0,0,0,0,0,0,0,0],"id":77,"left_children":[1,3,5,-1,-1,7,9,-1,-1,-1,-1],"loss_changes":[3.544111E0,1.7516303E0,2.1997159E0,0E0,0E0,1.5490644E0,2.21623E0,0E0,0E0,0E0,0E0],"parents":[2147483647,0,0,1,1,2,2,5,5,6,6],"right_children":[2,4,6,-1,-1,8,10,-1,-1,-1,-1],"split_conditions":[2.6701423E3,9.76E1,2.8753312E8,1.1642075E-2,-1.3071747E-1,8.91E1,5.5660416E7,6.933337E-2,-5.5833436E-3,5.203705E-2,-6.705817E-3],"split_indices":[15,2,30,0,0,2,26,0,0,0,0],"split_type":[0,0,0,0,0,0,0,0,0,0,0],"sum_hessian":[9.7E1,3E0,9.4E1,1E0,2E0,1.1E1,8.3E1,7E0,4E0,6E0,7.7E1],"tree_param":{"num_deleted":"0","num_feature":"47","num_nodes":"11","size_leaf_vector":"1"}},{"base_weights":[-5.3902045E-2,-8.692045E-1,-1.6653597E-2,-3.8165536E-2,-1.165926E-1,4.4938307E-2,-4.1561317E-1,-1.4229867E-2,1.928555E-2,4.1321374E-2,-7.378014E-2],"categories":[],"categories_nodes":[],"categories_segments":[],"categories_sizes":[],"default_left":[0,0,0,0,0,0,0,0,0,0,0],"id":78,"left_children":[1,3,5,-1,-1,7,9,-1,-1,-1,-1],"loss_changes":[2.77945E0,1.3368297E-1,2.2056456E0,0E0,0E0,2.1876972E0,3.5093296E0,0E0,0E0,0E0,0E0],"parents":[2147483647,0,0,1,1,2,2,5,5,6,6],"right_children":[2,4,6,-1,-1,8,10,-1,-1,-1,-1],"split_conditions":[2.4616072E8,8.03E1,2.5983892E3,-3.8165536E-2,-1.165926E-1,5.309558E2,6.287827E5,-1.4229867E-2,1.928555E-2,4.1321374E-2,-7.378014E-2],"split_indices":[29,4,16,0,0,18,41,0,0,0,0],"split_type":[0,0,0,0,0,0,0,0,0,0,0],"sum_hessian":[9.1E1,3E0,8.8E1,2E0,1E0,7.7E1,1.1E1,3.4E1,4.3E1,3E0,8E0],"tree_param":{"num_deleted":"0","num_feature":"47","num_nodes":"11","size_leaf_vector":"1"}},{"base_weights":[-3.966949E-2,-6.378354E-1,9.479701E-3,1.8595377E-2,-9.0412676E-1,-1.1133742E-1,3.4525433E-1,-1.4100266E-2,1.6889572E-2,-1.150664E-1,-3.562139E-2,-4.5533623E-3,-8.787155E-2,6.930173E-2,-3.1279882E-3],"categories":[],"categories_nodes":[],"categories_segments":[],"categories_sizes":[],"default_left":[0,0,0,0,0,0,0,0,0,0,0,0,0,0,0],"id":79,"left_children":[1,3,5,7,9,11,13,-1,-1,-1,-1,-1,-1,-1,-1],"loss_changes":[2.7107885E0,1.2404258E0,3.5272295E0,9.577766E-2,2.65522E-1,3.1917582E0,3.0334053E0,0E0,0E0,0E0,0E0,0E0,0E0,0E0,0E0],"parents":[2147483647,0,0,1,1,2,2,3,3,4,4,5,5,6,6],"right_children":[2,4,6,8,10,12,14,-1,-1,-1,-1,-1,-1,-1,-1],"split_conditions":[2.9177416E9,9.5365485E2,9.28E1,6.66E1,1.2398E2,9.2E1,2.6806413E8,-1.4100266E-2,1.6889572E-2,-1.150664E-1,-3.562139E-2,-4.5533623E-3,-8.787155E-2,6.930173E-2,-3.1279882E-3],"split_indices":[27,17,3,1,11,3,29,0,0,0,0,0,0,0,0],"split_type":[0,0,0,0,0,0,0,0,0,0,0,0,0,0,0],"sum_hessian":[9.1E1,6E0,8.5E1,2E0,4E0,6.3E1,2.2E1,1E0,1E0,2E0,2E0,5.9E1,4E0,1.1E1,1.1E1],"tree_param":{"num_deleted":"0","num_feature":"47","num_nodes":"15","size_leaf_vector":"1"}},{"base_weights":[-4.2970553E-2,-8.9395784E-2,-1.3802775E-2,-1.1869946E-1,1.6780066E-1,-5.721186E-3,-1.2064057E-1,2.28255E-2,-5.128276E-2],"categories":[],"categories_nodes":[],"categories_segments":[],"categories_sizes":[],"default_left":[0,0,0,0,0,0,0,0,0],"id":80,"left_children":[1,-1,3,5,7,-1,-1,-1,-1],"loss_changes":[2.246409E0,0E0,1.7153322E0,3.743165E0,1.4749037E0,0E0,0E0,0E0,0E0],"parents":[2147483647,0,0,2,2,3,3,4,4],"right_children":[2,-1,4,6,8,-1,-1,-1,-1],"split_conditions":[1.8592288E8,-8.9395784E-2,7.7E1,9.275E1,6.212504E9,-5.721186E-3,-1.2064057E-1,2.28255E-2,-5.128276E-2],"split_indices":[29,0,10,4,27,0,0,0,0],"split_type":[0,0,0,0,0,0,0,0,0],"sum_hessian":[9E1,2E0,8.8E1,5.6E1,3.2E1,5.4E1,2E0,3E1,2E0],"tree_param":{"num_deleted":"0","num_feature":"47","num_nodes":"9","size_leaf_vector":"1"}},{"base_weights":[3.80882E-2,-7.231865E-1,7.6639615E-2,-2.9398346E-2,-1.0053978E-1,2.1807082E-1,-1.448229E-1,3.656681E-2,-9.997797E-3,-6.147019E-2,7.5341314E-3],"categories":[],"categories_nodes":[],"categories_segments":[],"categories_sizes":[],"default_left":[0,0,0,0,0,0,0,0,0,0,0],"id":81,"left_children":[1,3,5,-1,-1,7,9,-1,-1,-1,-1],"loss_changes":[2.4326303E0,1.8893337E-1,2.4746752E0,0E0,0E0,2.2898295E0,3.2532787E0,0E0,0E0,0E0,0E0],"parents":[2147483647,0,0,1,1,2,2,5,5,6,6],"right_children":[2,4,6,-1,-1,8,10,-1,-1,-1,-1],"split_conditions":[1.3663933E8,9.63E1,3.4415382E8,-2.9398346E-2,-1.0053978E-1,8.230559E7,8.04E1,3.656681E-2,-9.997797E-3,-6.147019E-2,7.5341314E-3],"split_indices":[31,0,30,0,0,26,0,0,0,0,0],"split_type":[0,0,0,0,0,0,0,0,0,0,0],"sum_hessian":[8E1,3E0,7.7E1,2E0,1E0,4.7E1,3E1,3.2E1,1.5E1,9E0,2.1E1],"tree_param":{"num_deleted":"0","num_feature":"47","num_nodes":"11","size_leaf_vector":"1"}},{"base_weights":[8.931841E-3,-9.217252E-2,1.9399211E-1,3.776567E-2,-6.806709E-1,3.5521525E-1,-2.2166358E-1,6.4977266E-2,-4.8203903E-4,-1.300377E-1,-3.6319733E-2,1.4878896E-2,6.9786265E-2,-6.377182E-2,2.3872375E-2],"categories":[],"categories_nodes":[],"categories_segments":[],"categories_sizes":[],"default_left":[0,0,0,0,0,0,0,0,0,0,0,0,0,0,0],"id":82,"left_children":[1,3,5,7,9,11,13,-1,-1,-1,-1,-1,-1,-1,-1],"loss_changes":[1.5895543E0,4.2314687E0,2.0891376E0,1.2020285E0,1.4951096E0,1.4522572E0,1.876155E0,0E0,0E0,0E0,0E0,0E0,0E0,0E0,0E0],"parents":[2147483647,0,0,1,1,2,2,3,3,4,4,5,5,6,6],"right_children":[2,4,6,8,10,12,14,-1,-1,-1,-1,-1,-1,-1,-1],"split_conditions":[1.0096571E3,9.95193E2,8.315349E7,8E0,6.026483E5,8.805E1,1.1212577E8,6.4977266E-2,-4.8203903E-4,-1.300377E-1,-3.6319733E-2,1.4878896E-2,6.9786265E-2,-6.377182E-2,2.3872375E-2],"split_indices":[17,17,26,10,45,4,32,0,0,0,0,0,0,0,0],"split_type":[0,0,0,0,0,0,0,0,0,0,0,0,0,0,0],"sum_hessian":[8.3E1,5.4E1,2.9E1,4.5E1,9E0,2.1E1,8E0,2E0,4.3E1,2E0,7E0,1.4E1,7E0,4E0,4E0],"tree_param":{"num_deleted":"0","num_feature":"47","num_nodes":"15","size_leaf_vector":"1"}},{"base_weights":[-1.6143199E-2,-9.900208E-2,6.173827E-3,-9.4388746E-2,2.2503607E-1,8.573816E-3,-3.9571743E-2,3.2163482E-2,-4.3496516E-2],"categories":[],"categories_nodes":[],"categories_segments":[],"categories_sizes":[],"default_left":[0,0,0,0,0,0,0,0,0],"id":83,"left_children":[1,-1,3,5,7,-1,-1,-1,-1],"loss_changes":[1.9404428E0,0E0,1.9580637E0,3.3448496E0,1.9250482E0,0E0,0E0,0E0,0E0],"parents":[2147483647,0,0,2,2,3,3,4,4],"right_children":[2,-1,4,6,8,-1,-1,-1,-1],"split_conditions":[1.7710845E8,-9.900208E-2,9.2E1,8.3E1,1.289E2,8.573816E-3,-3.9571743E-2,3.2163482E-2,-4.3496516E-2],"split_indices":[24,0,2,2,14,0,0,0,0],"split_type":[0,0,0,0,0,0,0,0,0],"sum_hessian":[8.8E1,1E0,8.7E1,6E1,2.7E1,3.8E1,2.2E1,2.4E1,3E0],"tree_param":{"num_deleted":"0","num_feature":"47","num_nodes":"9","size_leaf_vector":"1"}},{"base_weights":[-1.4860297E-2,-5.220724E-1,2.612068E-2,7.0355736E-2,-7.731148E-1,-7.850542E-2,2.2752711E-1,1.092186E-2,-3.6849975E-4,-2.9388174E-2,-9.946429E-2,-3.0517713E-3,-1.4069024E-1,4.2102695E-2,-9.78082E-3],"categories":[],"categories_nodes":[],"categories_segments":[],"categories_sizes":[],"default_left":[0,0,0,0,0,0,0,0,0,0,0,0,0,0,0],"id":84,"left_children":[1,3,5,7,9,11,13,-1,-1,-1,-1,-1,-1,-1,-1],"loss_changes":[1.9467392E0,1.0954652E0,1.8511581E0,9.034774E-3,2.3851061E-1,3.6543744E0,1.9297496E0,0E0,0E0,0E0,0E0,0E0,0E0,0E0,0E0],"parents":[2147483647,0,0,1,1,2,2,3,3,4,4,5,5,6,6],"right_children":[2,4,6,8,10,12,14,-1,-1,-1,-1,-1,-1,-1,-1],"split_conditions":[2.9177416E9,9.62E1,8.97E1,9.3E1,7.71E1,9.1425E1,2.6893667E8,1.092186E-2,-3.6849975E-4,-2.9388174E-2,-9.946429E-2,-3.0517713E-3,-1.4069024E-1,4.2102695E-2,-9.78082E-3],"split_indices":[27,3,2,2,0,5,29,0,0,0,0,0,0,0,0],"split_type":[0,0,0,0,0,0,0,0,0,0,0,0,0,0,0],"sum_hessian":[9.2E1,6E0,8.6E1,2E0,4E0,5.7E1,2.9E1,1E0,1E0,2E0,2E0,5.6E1,1E0,1.8E1,1.1E1],"tree_param":{"num_deleted":"0","num_feature":"47","num_nodes":"15","size_leaf_vector":"1"}},{"base_weights":[-2.8794674E-2,-7.197522E-2,3.8701883E-1,1.5398294E-1,-1.724568E-1,6.316635E-2,6.49704E-2,3.1474005E-2,-6.162964E-2,-8.14294E-2,-8.606205E-3,1.8741863E-2,-7.913462E-3],"categories":[],"categories_nodes":[],"categories_segments":[],"categories_sizes":[],"default_left":[0,0,0,0,0,0,0,0,0,0,0,0,0],"id":85,"left_children":[1,3,5,7,9,-1,11,-1,-1,-1,-1,-1,-1],"loss_changes":[1.7156309E0,1.979154E0,6.680474E-1,3.5373259E0,3.2570024E0,0E0,1.0305832E-1,0E0,0E0,0E0,0E0,0E0,0E0],"parents":[2147483647,0,0,1,1,2,2,3,3,4,4,6,6],"right_children":[2,4,6,8,10,-1,12,-1,-1,-1,-1,-1,-1],"split_conditions":[4.648279E6,7.93E1,5.023359E6,8.268851E7,8.04E1,6.316635E-2,9.71E1,3.1474005E-2,-6.162964E-2,-8.14294E-2,-8.606205E-3,1.8741863E-2,-7.913462E-3],"split_indices":[39,1,39,26,0,0,1,0,0,0,0,0,0],"split_type":[0,0,0,0,0,0,0,0,0,0,0,0,0],"sum_hessian":[9.3E1,8.5E1,8E0,2.6E1,5.9E1,4E0,4E0,2.2E1,4E0,6E0,5.3E1,2E0,2E0],"tree_param":{"num_deleted":"0","num_feature":"47","num_nodes":"13","size_leaf_vector":"1"}},{"base_weights":[-1.565556E-2,-7.507184E-2,9.871384E-3,6.84784E-2,-1.4065193E-2,3.7915803E-2,-4.8729717E-3],"categories":[],"categories_nodes":[],"categories_segments":[],"categories_sizes":[],"default_left":[0,0,0,0,0,0,0],"id":86,"left_children":[1,-1,3,-1,5,-1,-1],"loss_changes":[1.6773986E0,0E0,1.4151249E0,0E0,1.1771023E0,0E0,0E0],"parents":[2147483647,0,0,2,2,4,4],"right_children":[2,-1,4,-1,6,-1,-1],"split_conditions":[1.17586056E8,-7.507184E-2,2.736708E6,6.84784E-2,8.5882074E2,3.7915803E-2,-4.8729717E-3],"split_indices":[31,0,43,0,17,0,0],"split_type":[0,0,0,0,0,0,0],"sum_hessian":[8.8E1,2E0,8.6E1,2E0,8.4E1,6E0,7.8E1],"tree_param":{"num_deleted":"0","num_feature":"47","num_nodes":"7","size_leaf_vector":"1"}},{"base_weights":[1.4035571E-2,-1.9848289E-1,1.2738103E-1,-2.1283468E-2,-7.0527077E-1,5.074821E-1,1.7192012E-2,-4.0513534E-2,2.3603668E-2,-1.2834454E-1,-1.0167695E-2,5.8510017E-2,-2.1196747E-2,-3.1798746E-2,1.8963328E-2],"categories":[],"categories_nodes":[],"categories_segments":[],"categories_sizes":[],"default_left":[0,0,0,0,0,0,0,0,0,0,0,0,0,0,0],"id":87,"left_children":[1,3,5,7,9,11,13,-1,-1,-1,-1,-1,-1,-1,-1],"loss_changes":[2.1450272E0,2.7688673E0,2.4204872E0,2.4661746E0,2.661364E0,8.4997225E-1,2.7190442E0,0E0,0E0,0E0,0E0,0E0,0E0,0E0,0E0],"parents":[2147483647,0,0,1,1,2,2,3,3,4,4,5,5,6,6],"right_children":[2,4,6,8,10,12,14,-1,-1,-1,-1,-1,-1,-1,-1],"split_conditions":[8.04E1,7.775E1,8.5E1,1.1152757E7,3.6E1,1.1903181E9,8.97E1,-4.0513534E-2,2.3603668E-2,-1.2834454E-1,-1.0167695E-2,5.8510017E-2,-2.1196747E-2,-3.1798746E-2,1.8963328E-2],"split_indices":[0,4,1,34,10,28,3,0,0,0,0,0,0,0,0],"split_type":[0,0,0,0,0,0,0,0,0,0,0,0,0,0,0],"sum_hessian":[8.7E1,3E1,5.7E1,2.3E1,7E0,1.2E1,4.5E1,9E0,1.4E1,3E0,4E0,1.1E1,1E0,1.5E1,3E1],"tree_param":{"num_deleted":"0","num_feature":"47","num_nodes":"15","size_leaf_vector":"1"}},{"base_weights":[-5.620507E-2,-1.4263551E-1,2.5343323E-1,-4.318582E-1,1.4241158E-2,-1.6738892E-1,5.479304E-1,-2.2237258E-2,-1.4760648E-1,4.3407537E-2,-7.008171E-3,-4.7208786E-2,6.3641868E-3,7.731688E-2,-9.583855E-3],"categories":[],"categories_nodes":[],"categories_segments":[],"categories_sizes":[],"default_left":[0,0,0,0,0,0,0,0,0,0,0,0,0,0,0],"id":88,"left_children":[1,3,5,7,9,11,13,-1,-1,-1,-1,-1,-1,-1,-1],"loss_changes":[2.444744E0,3.227583E0,2.570336E0,5.1404204E0,1.6942971E0,6.6359806E-1,1.8141174E0,0E0,0E0,0E0,0E0,0E0,0E0,0E0,0E0],"parents":[2147483647,0,0,1,1,2,2,3,3,4,4,5,5,6,6],"right_children":[2,4,6,8,10,12,14,-1,-1,-1,-1,-1,-1,-1,-1],"split_conditions":[1.1349292E3,5.8647852E7,7.81E1,1.0615886E3,2.8753312E8,2.5418079E3,2.7326593E2,-2.2237258E-2,-1.4760648E-1,4.3407537E-2,-7.008171E-3,-4.7208786E-2,6.3641868E-3,7.731688E-2,-9.583855E-3],"split_indices":[17,26,0,17,30,16,20,0,0,0,0,0,0,0,0],"split_type":[0,0,0,0,0,0,0,0,0,0,0,0,0,0,0],"sum_hessian":[8.9E1,7E1,1.9E1,2.4E1,4.6E1,8E0,1.1E1,2.1E1,3E0,7E0,3.9E1,3E0,5E0,8E0,3E0],"tree_param":{"num_deleted":"0","num_feature":"47","num_nodes":"15","size_leaf_vector":"1"}},{"base_weights":[2.2937816E-2,-5.3048706E-1,5.3771373E-2,-1.9141896E-2,-6.9272615E-2,-5.524518E-3,3.0523187E-1,3.3717345E-2,-1.0763577E-2,-2.4094542E-2,4.918207E-2],"categories":[],"categories_nodes":[],"categories_segments":[],"categories_sizes":[],"default_left":[0,0,0,0,0,0,0,0,0,0,0],"id":89,"left_children":[1,3,5,-1,-1,7,9,-1,-1,-1,-1],"loss_changes":[1.6154823E0,1.424495E-1,1.3287275E0,0E0,0E0,2.5908039E0,1.8509817E0,0E0,0E0,0E0,0E0],"parents":[2147483647,0,0,1,1,2,2,5,5,6,6],"right_children":[2,4,6,-1,-1,8,10,-1,-1,-1,-1],"split_conditions":[2.039102E8,6.9E1,1.1349292E3,-1.9141896E-2,-6.9272615E-2,7.81E1,7.59E1,3.3717345E-2,-1.0763577E-2,-2.4094542E-2,4.918207E-2],"split_indices":[30,0,17,0,0,2,0,0,0,0,0],"split_type":[0,0,0,0,0,0,0,0,0,0,0],"sum_hessian":[9.2E1,4E0,8.8E1,2E0,2E0,7.2E1,1.6E1,1.6E1,5.6E1,4E0,1.2E1],"tree_param":{"num_deleted":"0","num_feature":"47","num_nodes":"11","size_leaf_vector":"1"}},{"base_weights":[-2.3883557E-2,-5.0169647E-1,1.7703775E-2,-8.4717944E-2,-1.9406739E-1,-3.018271E-1,7.222759E-2,-2.4390602E-2,2.6435853E-4,-9.8582156E-2,1.6339779E-2,2.083397E-2,-1.2739089E-2],"categories":[],"categories_nodes":[],"categories_segments":[],"categories_sizes":[],"default_left":[0,0,0,0,0,0,0,0,0,0,0,0,0],"id":90,"left_children":[1,3,5,-1,7,9,11,-1,-1,-1,-1,-1,-1],"loss_changes":[1.7376556E0,5.7955444E-1,1.4329858E0,0E0,4.9663827E-2,3.9796157E0,1.9284751E0,0E0,0E0,0E0,0E0,0E0,0E0],"parents":[2147483647,0,0,1,1,2,2,4,4,5,5,6,6],"right_children":[2,4,6,-1,8,10,12,-1,-1,-1,-1,-1,-1],"split_conditions":[2.9177416E9,1.386E2,7.34E1,-8.4717944E-2,7.71E1,1.4E1,1.343783E6,-2.4390602E-2,2.6435853E-4,-9.8582156E-2,1.6339779E-2,2.083397E-2,-1.2739089E-2],"split_indices":[27,22,3,0,0,10,42,0,0,0,0,0,0],"split_type":[0,0,0,0,0,0,0,0,0,0,0,0,0],"sum_hessian":[8.6E1,6E0,8E1,2E0,4E0,1.1E1,6.9E1,3E0,1E0,4E0,7E0,4.1E1,2.8E1],"tree_param":{"num_deleted":"0","num_feature":"47","num_nodes":"13","size_leaf_vector":"1"}},{"base_weights":[-4.1731346E-2,4.375473E-1,-6.678094E-2,-2.150383E-2,6.5445326E-2,-1.11945726E-1,-4.342467E-2,-3.1192709E-2,1.2209477E-3],"categories":[],"categories_nodes":[],"categories_segments":[],"categories_sizes":[],"default_left":[0,0,0,0,0,0,0,0,0],"id":91,"left_children":[1,3,5,-1,-1,-1,7,-1,-1],"loss_changes":[1.2057819E0,8.4848106E-1,2.2625282E0,0E0,0E0,0E0,1.3930334E0,0E0,0E0],"parents":[2147483647,0,0,1,1,2,2,6,6],"right_children":[2,4,6,-1,-1,-1,8,-1,-1],"split_conditions":[8E0,6.97E1,9E0,-2.150383E-2,6.5445326E-2,-1.11945726E-1,4.9601132E7,-3.1192709E-2,1.2209477E-3],"split_indices":[10,3,10,0,0,0,25,0,0],"split_type":[0,0,0,0,0,0,0,0,0],"sum_hessian":[9.7E1,4E0,9.3E1,1E0,3E0,1E0,9.2E1,1.5E1,7.7E1],"tree_param":{"num_deleted":"0","num_feature":"47","num_nodes":"9","size_leaf_vector":"1"}},{"base_weights":[-4.7440667E-2,-2.5753427E-1,6.539993E-2,4.8220318E-2,-6.0727084E-1,-1.1955643E-1,2.2035079E-1,4.200859E-2,-2.2661105E-2,-1.0505509E-1,-3.5057347E-2,4.638854E-3,-5.4021742E-2,3.4687467E-2,-2.9914856E-2],"categories":[],"categories_nodes":[],"categories_segments":[],"categories_sizes":[],"default_left":[0,0,0,0,0,0,0,0,0,0,0,0,0,0,0],"id":92,"left_children":[1,3,5,7,9,11,13,-1,-1,-1,-1,-1,-1,-1,-1],"loss_changes":[2.1741877E0,3.4511564E0,1.7458929E0,1.934802E0,1.3385367E0,1.9796438E0,2.2728267E0,0E0,0E0,0E0,0E0,0E0,0E0,0E0,0E0],"parents":[2147483647,0,0,1,1,2,2,3,3,4,4,5,5,6,6],"right_children":[2,4,6,8,10,12,14,-1,-1,-1,-1,-1,-1,-1,-1],"split_conditions":[2.1087118E8,8.74E1,8.47E1,6.026483E5,9.226713E1,8.24E1,2.7947437E8,4.200859E-2,-2.2661105E-2,-1.0505509E-1,-3.5057347E-2,4.638854E-3,-5.4021742E-2,3.4687467E-2,-2.9914856E-2],"split_indices":[23,1,3,45,14,1,29,0,0,0,0,0,0,0,0],"split_type":[0,0,0,0,0,0,0,0,0,0,0,0,0,0,0],"sum_hessian":[9E1,3.1E1,5.9E1,1.7E1,1.4E1,2.7E1,3.2E1,7E0,1E1,4E0,1E1,2E1,7E0,2.6E1,6E0],"tree_param":{"num_deleted":"0","num_feature":"47","num_nodes":"15","size_leaf_vector":"1"}},{"base_weights":[-8.4807195E-2,-8.427455E-2,-5.6728363E-2,2.493515E-1,-1.0146012E-1,5.1169332E-2,-5.45489E-3,1.2427487E-2,-1.993533E-2],"categories":[],"categories_nodes":[],"categories_segments":[],"categories_sizes":[],"default_left":[0,0,0,0,0,0,0,0,0],"id":93,"left_children":[1,-1,3,5,7,-1,-1,-1,-1],"loss_changes":[1.7824466E0,0E0,1.1753844E0,9.04896E-1,1.6600204E0,0E0,0E0,0E0,0E0],"parents":[2147483647,0,0,2,2,3,3,4,4],"right_children":[2,-1,4,6,8,-1,-1,-1,-1],"split_conditions":[2.6701423E3,-8.427455E-2,2.43725E3,8.04E1,5.7962884E7,5.1169332E-2,-5.45489E-3,1.2427487E-2,-1.993533E-2],"split_indices":[15,0,16,2,26,0,0,0,0],"split_type":[0,0,0,0,0,0,0,0,0],"sum_hessian":[8.5E1,2E0,8.3E1,1E1,7.3E1,5E0,5E0,2.2E1,5.1E1],"tree_param":{"num_deleted":"0","num_feature":"47","num_nodes":"9","size_leaf_vector":"1"}},{"base_weights":[-3.7101668E-3,-2.236434E-1,4.582119E-2,-1.1228494E-1,-1.0583687E-1,1.4139634E-1,-2.1257678E-1,-4.5115333E-2,1.1356631E-2,2.3553224E-2,-2.0981774E-2,-5.0413337E-2,1.8770447E-2],"categories":[],"categories_nodes":[],"categories_segments":[],"categories_sizes":[],"default_left":[0,0,0,0,0,0,0,0,0,0,0,0,0],"id":94,"left_children":[1,3,5,7,-1,9,11,-1,-1,-1,-1,-1,-1],"loss_changes":[1.066926E0,1.5543282E0,2.0057714E0,1.3523114E0,0E0,2.000068E0,2.6621304E0,0E0,0E0,0E0,0E0,0E0,0E0],"parents":[2147483647,0,0,1,1,2,2,3,3,5,5,6,6],"right_children":[2,4,6,8,-1,10,12,-1,-1,-1,-1,-1,-1],"split_conditions":[7.49E1,7.79E1,2.5662515E3,1.1152757E7,-1.0583687E-1,8.8421234E1,2.6019749E3,-4.5115333E-2,1.1356631E-2,2.3553224E-2,-2.0981774E-2,-5.0413337E-2,1.8770447E-2],"split_indices":[3,1,16,34,0,13,16,0,0,0,0,0,0],"split_type":[0,0,0,0,0,0,0,0,0,0,0,0,0],"sum_hessian":[9.6E1,1.7E1,7.9E1,1.6E1,1E0,5.8E1,2.1E1,6E0,1E1,4.6E1,1.2E1,1.2E1,9E0],"tree_param":{"num_deleted":"0","num_feature":"47","num_nodes":"13","size_leaf_vector":"1"}},{"base_weights":[-3.0563354E-2,-1.0838049E-1,1.8232177E-1,-1.6590895E-1,2.0480417E-1,4.481234E-1,-1.4297359E-1,-2.7976131E-2,8.25123E-3,-2.4093628E-2,3.3062827E-2,-7.980601E-3,5.427621E-2,-3.1958263E-2,2.9014016E-2],"categories":[],"categories_nodes":[],"categories_segments":[],"categories_sizes":[],"default_left":[0,0,0,0,0,0,0,0,0,0,0,0,0,0,0],"id":95,"left_children":[1,3,5,7,9,11,13,-1,-1,-1,-1,-1,-1,-1,-1],"loss_changes":[1.5438422E0,1.2591369E0,2.2256708E0,1.663518E0,6.9659424E-1,7.4279165E-1,1.0106255E0,0E0,0E0,0E0,0E0,0E0,0E0,0E0,0E0],"parents":[2147483647,0,0,1,1,2,2,3,3,4,4,5,5,6,6],"right_children":[2,4,6,8,10,12,14,-1,-1,-1,-1,-1,-1,-1,-1],"split_conditions":[6.3509844E5,1.1703093E3,8.230559E7,1.5247865E7,1E1,1.7699034E8,1.08927E3,-2.7976131E-2,8.25123E-3,-2.4093628E-2,3.3062827E-2,-7.980601E-3,5.427621E-2,-3.1958263E-2,2.9014016E-2],"split_indices":[45,17,26,34,10,31,17,0,0,0,0,0,0,0,0],"split_type":[0,0,0,0,0,0,0,0,0,0,0,0,0,0,0],"sum_hessian":[9.1E1,6.7E1,2.4E1,5.7E1,1E1,1.3E1,1.1E1,3.9E1,1.8E1,2E0,8E0,2E0,1.1E1,8E0,3E0],"tree_param":{"num_deleted":"0","num_feature":"47","num_nodes":"15","size_leaf_vector":"1"}},{"base_weights":[2.8804518E-2,-1.9791031E-1,9.41015E-2,1.434467E-1,-7.2787666E-1,-2.1665828E-1,1.567742E-1,-4.0955607E-2,2.8122503E-2,-1.1385784E-1,-2.5373993E-2,1.1148072E-2,-3.384247E-2,-2.973709E-3,2.4840115E-2],"categories":[],"categories_nodes":[],"categories_segments":[],"categories_sizes":[],"default_left":[0,0,0,0,0,0,0,0,0,0,0,0,0,0,0],"id":96,"left_children":[1,3,5,7,9,11,13,-1,-1,-1,-1,-1,-1,-1,-1],"loss_changes":[1.3213576E0,3.722566E0,1.3778207E0,1.1056708E0,1.268928E0,5.172035E-1,9.9857557E-1,0E0,0E0,0E0,0E0,0E0,0E0,0E0,0E0],"parents":[2147483647,0,0,1,1,2,2,3,3,4,4,5,5,6,6],"right_children":[2,4,6,8,10,12,14,-1,-1,-1,-1,-1,-1,-1,-1],"split_conditions":[5.7752E5,9.01E1,7.52E1,4.719097E7,5.8465216E7,9.226713E1,9.435615E2,-4.0955607E-2,2.8122503E-2,-1.1385784E-1,-2.5373993E-2,1.1148072E-2,-3.384247E-2,-2.973709E-3,2.4840115E-2],"split_indices":[45,4,4,25,26,14,17,0,0,0,0,0,0,0,0],"split_type":[0,0,0,0,0,0,0,0,0,0,0,0,0,0,0],"sum_hessian":[8.7E1,1.9E1,6.8E1,1.2E1,7E0,1.1E1,5.7E1,2E0,1E1,3E0,4E0,3E0,8E0,1.9E1,3.8E1],"tree_param":{"num_deleted":"0","num_feature":"47","num_nodes":"15","size_leaf_vector":"1"}},{"base_weights":[3.8954623E-2,-4.653778E-2,1.8467736E-1,1.9496307E-2,-5.8906555E-1,5.708397E-1,8.751247E-3,1.7208863E-2,-9.693567E-3,-7.915974E-2,-1.2266795E-2,6.354158E-2,-5.17273E-4,2.8675366E-2,-1.3079691E-2],"categories":[],"categories_nodes":[],"categories_segments":[],"categories_sizes":[],"default_left":[0,0,0,0,0,0,0,0,0,0,0,0,0,0,0],"id":97,"left_children":[1,3,5,7,9,11,13,-1,-1,-1,-1,-1,-1,-1,-1],"loss_changes":[1.0799987E0,1.9818776E0,2.1689577E0,9.050127E-1,4.6965837E-1,3.7525296E-1,9.2978513E-1,0E0,0E0,0E0,0E0,0E0,0E0,0E0,0E0],"parents":[2147483647,0,0,1,1,2,2,3,3,4,4,5,5,6,6],"right_children":[2,4,6,8,10,12,14,-1,-1,-1,-1,-1,-1,-1,-1],"split_conditions":[8.9825E1,8.8975E1,9.2475E1,7.81E1,9.2E1,9.32E1,1.8704077E2,1.7208863E-2,-9.693567E-3,-7.915974E-2,-1.2266795E-2,6.354158E-2,-5.17273E-4,2.8675366E-2,-1.3079691E-2],"split_indices":[5,5,5,2,2,1,19,0,0,0,0,0,0,0,0],"split_type":[0,0,0,0,0,0,0,0,0,0,0,0,0,0,0],"sum_hessian":[8.5E1,5.4E1,3.1E1,4.9E1,5E0,9E0,2.2E1,2.1E1,2.8E1,3E0,2E0,8E0,1E0,7E0,1.5E1],"tree_param":{"num_deleted":"0","num_feature":"47","num_nodes":"15","size_leaf_vector":"1"}},{"base_weights":[6.468698E-3,-1.3001992E-1,9.320748E-2,-6.7404175E-1,-3.808028E-2,2.0894492E-1,-3.4555223E-2,-8.407847E-3,-1.0393244E-1,3.4753997E-3,-7.294515E-2,-1.6117541E-2,4.4408377E-2,-2.3271497E-2,1.1622429E-2],"categories":[],"categories_nodes":[],"categories_segments":[],"categories_sizes":[],"default_left":[0,0,0,0,0,0,0,0,0,0,0,0,0,0,0],"id":98,"left_children":[1,3,5,7,9,11,13,-1,-1,-1,-1,-1,-1,-1,-1],"loss_changes":[1.0657772E0,1.7249333E0,8.205011E-1,9.9013233E-1,1.5863726E0,2.5954354E0,8.3376473E-1,0E0,0E0,0E0,0E0,0E0,0E0,0E0,0E0],"parents":[2147483647,0,0,1,1,2,2,3,3,4,4,5,5,6,6],"right_children":[2,4,6,8,10,12,14,-1,-1,-1,-1,-1,-1,-1,-1],"split_conditions":[1.2007051E6,1.3E1,1.3574083E7,2.5224065E3,9.89E1,2.536708E3,9.065E1,-8.407847E-3,-1.0393244E-1,3.4753997E-3,-7.294515E-2,-1.6117541E-2,4.4408377E-2,-2.3271497E-2,1.1622429E-2],"split_indices":[42,10,34,16,1,16,4,0,0,0,0,0,0,0,0],"split_type":[0,0,0,0,0,0,0,0,0,0,0,0,0,0,0],"sum_hessian":[8.8E1,3.4E1,5.4E1,4E0,3E1,2.8E1,2.6E1,2E0,2E0,2.8E1,2E0,1.1E1,1.7E1,1.1E1,1.5E1],"tree_param":{"num_deleted":"0","num_feature":"47","num_nodes":"15","size_leaf_vector":"1"}},{"base_weights":[1.3952637E-2,-3.1277162E-1,5.4116707E-2,-7.106266E-1,-4.0744238E-2,2.0263386E-1,-8.861669E-2,-3.0404663E-2,-9.651833E-2,1.3175964E-2,-2.0306205E-2,2.8935317E-2,-8.645936E-3,-6.3177966E-2,3.8066756E-3],"categories":[],"categories_nodes":[],"categories_segments":[],"categories_sizes":[],"default_left":[0,0,0,0,0,0,0,0,0,0,0,0,0,0,0],"id":99,"left_children":[1,3,5,7,9,11,13,-1,-1,-1,-1,-1,-1,-1,-1],"loss_changes":[1.197958E0,1.0533206E0,1.7350237E0,1.2052989E-1,2.2275855E-1,1.0278155E0,2.9140596E0,0E0,0E0,0E0,0E0,0E0,0E0,0E0,0E0],"parents":[2147483647,0,0,1,1,2,2,3,3,4,4,5,5,6,6],"right_children":[2,4,6,8,10,12,14,-1,-1,-1,-1,-1,-1,-1,-1],"split_conditions":[7.42E1,1.4E1,6.4E1,7.59E1,1.2692521E7,1E0,7.2E1,-3.0404663E-2,-9.651833E-2,1.3175964E-2,-2.0306205E-2,2.8935317E-2,-8.645936E-3,-6.3177966E-2,3.8066756E-3],"split_indices":[3,10,10,0,34,7,10,0,0,0,0,0,0,0,0],"split_type":[0,0,0,0,0,0,0,0,0,0,0,0,0,0,0],"sum_hessian":[8.9E1,9E0,8E1,3E0,6E0,3.9E1,4.1E1,2E0,1E0,3E0,3E0,3E1,9E0,7E0,3.4E1],"tree_param":{"num_deleted":"0","num_feature":"47","num_nodes":"15","size_leaf_vector":"1"}}]},"name":"gbtree"},"learner_model_param":{"base_score":"8.648125E1","boost_from_average":"1","num_class":"0","num_feature":"47","num_target":"1"},"objective":{"name":"reg:squarederror","reg_loss_param":{"scale_pos_weight":"1"}}},"version":[2,1,4]}