{"learner":{"attributes":{"scikit_learn":"{\"_estimator_type\": \"regressor\"}"},"feature_names":["lag_1","lag_2","lag_3","lag_4","roll_mean_2","roll_mean_4","q2","q3","q4","trend","gasto_medio__excursionistas_fronterizos__en_automoviles__entrada","gasto_medio__excursionistas_fronterizos__en_automoviles__salida","gasto_medio__excursionistas_fronterizos__peatones__entrada","gasto_medio__excursionistas_fronterizos__peatones__salida","gasto_medio__turistas_de_internacion__via_aerea__entrada","gasto_medio__turistas_de_internacion__via_aerea__salida","gasto_medio__turistas_de_internacion__via_terrestre__entrada","gasto_medio__turistas_de_internacion__via_terrestre__salida","gasto_medio__turistas_fronterizos__en_automoviles__entrada","gasto_medio__turistas_fronterizos__en_automoviles__salida","gasto_medio__turistas_fronterizos__peatones__entrada","gasto_medio__turistas_fronterizos__peatones__salida","gasto_total__excursionistas_fronterizos__en_automoviles__entrada","gasto_total__excursionistas_fronterizos__en_automoviles__salida","gasto_total__excursionistas_fronterizos__peatones__entrada","gasto_total__excursionistas_fronterizos__peatones__salida","gasto_total__turistas_de_internacion__via_aerea__entrada","gasto_total__turistas_de_internacion__via_aerea__salida","gasto_total__turistas_de_internacion__via_terrestre__entrada","gasto_total__turistas_de_internacion__via_terrestre__salida","gasto_total__turistas_fronterizos__en_automoviles__entrada","gasto_total__turistas_fronterizos__en_automoviles__salida","gasto_total__turistas_fronterizos__peatones__entrada","gasto_total__turistas_fronterizos__peatones__salida","num_visitantes__excursionistas_fronterizos__en_automoviles__entrada","num_visitantes__excursionistas_fronterizos__en_automoviles__salida","num_visitantes__excursionistas_fronterizos__peatones__entrada","num_visitantes__excursionistas_fronterizos__peatones__salida","num_visitantes__turistas_de_internacion__via_aerea__entrada","num_visitantes__turistas_de_internacion__via_aerea__salida","num_visitantes__turistas_de_internacion__via_terrestre__entrada","num_visitantes__turistas_de_internacion__via_terrestre__salida","num_visitantes__turistas_fronterizos__en_automoviles__entrada","num_visitantes__turistas_fronterizos__en_automoviles__salida","num_visitantes__turistas_fronterizos__peatones__entrada","num_visitantes__turistas_fronterizos__peatones__salida"],"feature_types":["float","float","float","float","float","float","int","int","int","int","float","float","float","float","float","float","float","float","float","float","float","float","float","float","float","float","float","float","float","float","float","float","float","float","float","float","float","float","float","float","float","float","float","float","float","float"],"gradient_booster":{"model":{"gbtree_model_param":{"num_parallel_tree":"1","num_trees":"100"},"iteration_indptr":[0,1,2,3,4,5,6,7,8,9,10,11,12,13,14,15,16,17,18,19,20,21,22,23,24,25,26,27,28,29,30,31,32,33,34,35,36,37,38,39,40,41,42,43,44,45,46,47,48,49,50,51,52,53,54,55,56,57,58,59,60,61,62,63,64,65,66,67,68,69,70,71,72,73,74,75,76,77,78,79,80,81,82,83,84,85,86,87,88,89,90,91,92,93,94,95,96,97,98,99,100],"tree_info":[0,0,0,0,0,0,0,0,0,0,0,0,0,0,0,0,0,0,0,0,0,0,0,0,0,0,0,0,0,0,0,0,0,0,0,0,0,0,0,0,0,0,0,0,0,0,0,0,0,0,0,0,0,0,0,0,0,0,0,0,0,0,0,0,0,0,0,0,0,0,0,0,0,0,0,0,0,0,0,0,0,0,0,0,0,0,0,0,0,0,0,0,0,0,0,0,0,0,0,0],"trees":[{"base_weights":[-1.4495604E-1,-8.356288E0,7.1572266E0,-1.1611408E0,-3.7327292E0,4.1065006E0,1.2430012E0,-4.6550655E-1,-1.1122119E-1,9.988676E-2,4.84179E-1],"categories":[],"categories_nodes":[],"categories_segments":[],"categories_sizes":[],"default_left":[0,0,0,0,0,0,0,0,0,0,0],"id":0,"left_children":[1,3,5,-1,7,9,-1,-1,-1,-1,-1],"loss_changes":[5.096502E3,5.586675E2,6.728179E2,0E0,3.8328552E1,6.3713867E1,0E0,0E0,0E0,0E0,0E0],"parents":[2147483647,0,0,1,1,2,2,4,4,5,5],"right_children":[2,4,6,-1,8,10,-1,-1,-1,-1,-1],"split_conditions":[8.4E1,2.8E1,9.435E1,-1.1611408E0,4.2E1,8.67E1,1.2430012E0,-4.6550655E-1,-1.1122119E-1,9.988676E-2,4.84179E-1],"split_indices":[3,9,5,0,9,3,0,0,0,0,0],"split_type":[0,0,0,0,0,0,0,0,0,0,0],"sum_hessian":[8.3E1,3.9E1,4.4E1,2.2E1,1.7E1,2.9E1,1.5E1,1.2E1,5E0,6E0,2.3E1],"tree_param":{"num_deleted":"0","num_feature":"46","num_nodes":"11","size_leaf_vector":"1"}},{"base_weights":[-3.2295468E-1,-8.302415E0,5.5819283E0,-1.1212669E1,-5.4147058E0,2.6501236E0,9.995284E0,-2.9367563E-1,-1.1568613E0,-5.7227546E-1,-1.8641943E-1,1.1221949E-1,4.0013775E-1,1.0258398E0,2.7611694E-1],"categories":[],"categories_nodes":[],"categories_segments":[],"categories_sizes":[],"default_left":[0,0,0,0,0,0,0,0,0,0,0,0,0,0,0],"id":1,"left_children":[1,3,5,7,9,11,13,-1,-1,-1,-1,-1,-1,-1,-1],"loss_changes":[3.7686477E3,2.2502173E2,5.687096E2,1.3157837E1,1.0112549E1,5.5383636E1,5.936157E0,0E0,0E0,0E0,0E0,0E0,0E0,0E0,0E0],"parents":[2147483647,0,0,1,1,2,2,3,3,4,4,5,5,6,6],"right_children":[2,4,6,8,10,12,14,-1,-1,-1,-1,-1,-1,-1,-1],"split_conditions":[8.37E1,2.2E1,8.3E1,2.444879E3,8.36E1,8.85E1,1.051E2,-2.9367563E-1,-1.1568613E0,-5.7227546E-1,-1.8641943E-1,1.1221949E-1,4.0013775E-1,1.0258398E0,2.7611694E-1],"split_indices":[2,9,9,15,0,2,1,0,0,0,0,0,0,0,0],"split_type":[0,0,0,0,0,0,0,0,0,0,0,0,0,0,0],"sum_hessian":[7.8E1,3.3E1,4.5E1,1.5E1,1.8E1,2.8E1,1.7E1,1E0,1.4E1,1.6E1,2E0,1.4E1,1.4E1,1.6E1,1E0],"tree_param":{"num_deleted":"0","num_feature":"46","num_nodes":"15","size_leaf_vector":"1"}},{"base_weights":[-1.7808886E-1,-6.924569E0,5.223053E0,-9.204941E0,-3.498796E0,2.34353E0,8.40234E0,-1.1314987E0,-6.679491E-1,1.31492615E-2,-3.7495813E-1,3.1125382E-1,-6.10419E-2,5.049771E-1,9.406716E-1],"categories":[],"categories_nodes":[],"categories_segments":[],"categories_sizes":[],"default_left":[0,0,0,0,0,0,0,0,0,0,0,0,0,0,0],"id":2,"left_children":[1,3,5,7,9,11,13,-1,-1,-1,-1,-1,-1,-1,-1],"loss_changes":[2.951263E3,2.490271E2,3.9227625E2,3.632666E1,1.5059814E1,5.869023E1,2.3210327E1,0E0,0E0,0E0,0E0,0E0,0E0,0E0,0E0],"parents":[2147483647,0,0,1,1,2,2,3,3,4,4,5,5,6,6],"right_children":[2,4,6,8,10,12,14,-1,-1,-1,-1,-1,-1,-1,-1],"split_conditions":[8.4E1,7.83E1,9.28E1,7.34E1,5.0650583E2,2.5924333E3,9.28E1,-1.1314987E0,-6.679491E-1,1.31492615E-2,-3.7495813E-1,3.1125382E-1,-6.10419E-2,5.049771E-1,9.406716E-1],"split_indices":[3,5,3,3,17,15,2,0,0,0,0,0,0,0,0],"split_type":[0,0,0,0,0,0,0,0,0,0,0,0,0,0,0],"sum_hessian":[7.9E1,3.5E1,4.4E1,2E1,1.5E1,2.4E1,2E1,9E0,1.1E1,1E0,1.4E1,1.9E1,5E0,6E0,1.4E1],"tree_param":{"num_deleted":"0","num_feature":"46","num_nodes":"15","size_leaf_vector":"1"}},{"base_weights":[-3.8121253E-1,-6.1870136E0,4.5680056E0,-8.844052E0,-3.0877724E0,1.6922706E0,7.253407E0,-1.0948342E0,-7.009883E-1,-3.5941464E-1,-8.498215E-2,2.6539052E-1,8.059158E-3,5.2481276E-1,9.14618E-1],"categories":[],"categories_nodes":[],"categories_segments":[],"categories_sizes":[],"default_left":[0,0,0,0,0,0,0,0,0,0,0,0,0,0,0],"id":3,"left_children":[1,3,5,7,9,11,13,-1,-1,-1,-1,-1,-1,-1,-1],"loss_changes":[2.4994016E3,3.0208374E2,3.5068286E2,4.305542E0,1.9610413E1,3.698243E1,4.309265E1,0E0,0E0,0E0,0E0,0E0,0E0,0E0,0E0],"parents":[2147483647,0,0,1,1,2,2,3,3,4,4,5,5,6,6],"right_children":[2,4,6,8,10,12,14,-1,-1,-1,-1,-1,-1,-1,-1],"split_conditions":[8.4E1,7.76E1,7.5E1,7.25E1,4.4E1,1.3497078E6,9.63E1,-1.0948342E0,-7.009883E-1,-3.5941464E-1,-8.498215E-2,2.6539052E-1,8.059158E-3,5.2481276E-1,9.14618E-1],"split_indices":[3,5,9,0,9,41,4,0,0,0,0,0,0,0,0],"split_type":[0,0,0,0,0,0,0,0,0,0,0,0,0,0,0],"sum_hessian":[8.5E1,3.9E1,4.6E1,2E1,1.9E1,2.3E1,2.3E1,7E0,1.3E1,1.5E1,4E0,1.4E1,9E0,1.3E1,1E1],"tree_param":{"num_deleted":"0","num_feature":"46","num_nodes":"15","size_leaf_vector":"1"}},{"base_weights":[-1.7867997E-1,-5.955629E0,4.4958463E0,-8.180769E0,-3.0287638E0,2.3955412E0,8.415466E0,-1.0079248E0,-6.2371475E-1,-3.4501764E-1,-6.912746E-2,1.06301025E-1,3.5087737E-1,8.750435E-1,1.6954651E-1],"categories":[],"categories_nodes":[],"categories_segments":[],"categories_sizes":[],"default_left":[0,0,0,0,0,0,0,0,0,0,0,0,0,0,0],"id":4,"left_children":[1,3,5,7,9,11,13,-1,-1,-1,-1,-1,-1,-1,-1],"loss_changes":[2.2951533E3,2.2270435E2,3.6676306E2,1.4622681E1,1.5345825E1,4.3739487E1,2.1179688E1,0E0,0E0,0E0,0E0,0E0,0E0,0E0,0E0],"parents":[2147483647,0,0,1,1,2,2,3,3,4,4,5,5,6,6],"right_children":[2,4,6,8,10,12,14,-1,-1,-1,-1,-1,-1,-1,-1],"split_conditions":[8.47E1,2.8E1,9.435E1,7.25E1,8.37E1,8.9475E1,1.051E2,-1.0079248E0,-6.2371475E-1,-3.4501764E-1,-6.912746E-2,1.06301025E-1,3.5087737E-1,8.750435E-1,1.6954651E-1],"split_indices":[0,9,5,0,0,5,1,0,0,0,0,0,0,0,0],"split_type":[0,0,0,0,0,0,0,0,0,0,0,0,0,0,0],"sum_hessian":[8.3E1,3.7E1,4.6E1,2E1,1.7E1,3.1E1,1.5E1,8E0,1.2E1,1.4E1,3E0,1.5E1,1.6E1,1.4E1,1E0],"tree_param":{"num_deleted":"0","num_feature":"46","num_nodes":"15","size_leaf_vector":"1"}},{"base_weights":[4.276728E-2,-5.554106E0,3.623911E0,-7.9853076E-1,-3.900367E0,1.6530032E0,6.2669263E0,-4.1722497E-1,-8.783214E-2,2.0973349E-1,-9.881226E-2,4.526238E-1,7.437894E-1],"categories":[],"categories_nodes":[],"categories_segments":[],"categories_sizes":[],"default_left":[0,0,0,0,0,0,0,0,0,0,0,0,0],"id":5,"left_children":[1,3,5,-1,7,9,11,-1,-1,-1,-1,-1,-1],"loss_changes":[1.6436274E3,9.7512634E1,2.5009778E2,0E0,1.3589905E1,3.7278503E1,9.138367E0,0E0,0E0,0E0,0E0,0E0,0E0],"parents":[2147483647,0,0,1,1,2,2,4,4,5,5,6,6],"right_children":[2,4,6,-1,8,10,12,-1,-1,-1,-1,-1,-1],"split_conditions":[4.4E1,7.435E1,8.1E1,-7.9853076E-1,3.6787306E8,2.5924333E3,1.0499188E6,-4.1722497E-1,-8.783214E-2,2.0973349E-1,-9.881226E-2,4.526238E-1,7.437894E-1],"split_indices":[9,5,9,0,29,15,39,0,0,0,0,0,0],"split_type":[0,0,0,0,0,0,0,0,0,0,0,0,0],"sum_hessian":[8E1,3.1E1,4.9E1,1.1E1,2E1,2.9E1,2E1,1.8E1,2E0,2.5E1,4E0,1E1,1E1],"tree_param":{"num_deleted":"0","num_feature":"46","num_nodes":"13","size_leaf_vector":"1"}},{"base_weights":[-1.3702113E-2,-4.7770963E0,4.4176807E0,-6.565679E0,-2.2262907E0,2.360637E0,6.66525E0,-8.305952E-1,-5.0838035E-1,-2.5661108E-1,-3.9539337E-2,1.9061534E-2,2.9216632E-1,6.8856525E-1,1.2387963E-1],"categories":[],"categories_nodes":[],"categories_segments":[],"categories_sizes":[],"default_left":[0,0,0,0,0,0,0,0,0,0,0,0,0,0,0],"id":6,"left_children":[1,3,5,7,9,11,13,-1,-1,-1,-1,-1,-1,-1,-1],"loss_changes":[1.7519946E3,1.6787592E2,1.8306964E2,1.7088196E1,1.018454E1,2.8661606E1,1.5390198E1,0E0,0E0,0E0,0E0,0E0,0E0,0E0,0E0],"parents":[2147483647,0,0,1,1,2,2,3,3,4,4,5,5,6,6],"right_children":[2,4,6,8,10,12,14,-1,-1,-1,-1,-1,-1,-1,-1],"split_conditions":[5.2E1,2.8E1,9.32E1,7.25E1,8.64E1,8.785E1,1.051E2,-8.305952E-1,-5.0838035E-1,-2.5661108E-1,-3.9539337E-2,1.9061534E-2,2.9216632E-1,6.8856525E-1,1.2387963E-1],"split_indices":[9,9,3,0,1,4,1,0,0,0,0,0,0,0,0],"split_type":[0,0,0,0,0,0,0,0,0,0,0,0,0,0,0],"sum_hessian":[8.1E1,3.9E1,4.2E1,2.2E1,1.7E1,2.3E1,1.9E1,8E0,1.4E1,1.4E1,3E0,5E0,1.8E1,1.8E1,1E0],"tree_param":{"num_deleted":"0","num_feature":"46","num_nodes":"15","size_leaf_vector":"1"}},{"base_weights":[5.1176405E-1,-3.9526916E0,3.8004537E0,-6.6086526E0,-2.3951163E0,1.8280029E0,5.693426E0,-1.5491982E-1,-6.927767E-1,-2.7795246E-1,-8.4270604E-2,9.873605E-2,3.119367E-1,4.376398E-1,7.615804E-1],"categories":[],"categories_nodes":[],"categories_segments":[],"categories_sizes":[],"default_left":[0,0,0,0,0,0,0,0,0,0,0,0,0,0,0],"id":7,"left_children":[1,3,5,7,9,11,13,-1,-1,-1,-1,-1,-1,-1,-1],"loss_changes":[1.1749165E3,1.2482471E2,1.6134698E2,8.64209E0,1.1383148E1,2.297387E1,2.490216E1,0E0,0E0,0E0,0E0,0E0,0E0,0E0,0E0],"parents":[2147483647,0,0,1,1,2,2,3,3,4,4,5,5,6,6],"right_children":[2,4,6,8,10,12,14,-1,-1,-1,-1,-1,-1,-1,-1],"split_conditions":[8.4E1,7.59E1,9.28E1,5.6399936E7,4E1,7.4E1,1.007E2,-1.5491982E-1,-6.927767E-1,-2.7795246E-1,-8.4270604E-2,9.873605E-2,3.119367E-1,4.376398E-1,7.615804E-1],"split_indices":[3,0,3,25,9,9,3,0,0,0,0,0,0,0,0],"split_type":[0,0,0,0,0,0,0,0,0,0,0,0,0,0,0],"sum_hessian":[7.8E1,3.3E1,4.5E1,1.1E1,2.2E1,2.3E1,2.2E1,1E0,1E1,1.7E1,5E0,1.5E1,8E0,1.5E1,7E0],"tree_param":{"num_deleted":"0","num_feature":"46","num_nodes":"15","size_leaf_vector":"1"}},{"base_weights":[-2.2812793E-1,-4.5202155E0,2.7547112E0,-7.2003335E-1,-3.4186282E0,7.73566E-1,4.786172E0,-5.042558E-1,-2.6793215E-1,2.1034738E-2,2.2722529E-1,3.2716855E-1,6.2785935E-1],"categories":[],"categories_nodes":[],"categories_segments":[],"categories_sizes":[],"default_left":[0,0,0,0,0,0,0,0,0,0,0,0,0],"id":8,"left_children":[1,3,5,-1,7,9,11,-1,-1,-1,-1,-1,-1],"loss_changes":[1.0622656E3,7.576581E1,1.9350394E2,0E0,1.7704498E1,2.1468338E1,3.3704468E1,0E0,0E0,0E0,0E0,0E0,0E0],"parents":[2147483647,0,0,1,1,2,2,4,4,5,5,6,6],"right_children":[2,4,6,-1,8,10,12,-1,-1,-1,-1,-1,-1],"split_conditions":[4.4E1,7.25E1,7.5E1,-7.2003335E-1,7.42E1,8.97E1,9.7E1,-5.042558E-1,-2.6793215E-1,2.1034738E-2,2.2722529E-1,3.2716855E-1,6.2785935E-1],"split_indices":[9,0,9,0,3,3,0,0,0,0,0,0,0],"split_type":[0,0,0,0,0,0,0,0,0,0,0,0,0],"sum_hessian":[8.1E1,3.3E1,4.8E1,8E0,2.5E1,2.5E1,2.3E1,6E0,1.9E1,1.9E1,6E0,1.3E1,1E1],"tree_param":{"num_deleted":"0","num_feature":"46","num_nodes":"13","size_leaf_vector":"1"}},{"base_weights":[1.5037574E-1,-4.147874E0,2.6272433E0,-6.0011187E0,-2.3776798E0,7.640344E-1,4.769152E0,-1.0578461E-1,-6.299998E-1,-3.963501E-2,-2.9568312E-1,3.4231696E-2,2.3235653E-1,3.2005024E-1,5.850279E-1],"categories":[],"categories_nodes":[],"categories_segments":[],"categories_sizes":[],"default_left":[0,0,0,0,0,0,0,0,0,0,0,0,0,0,0],"id":9,"left_children":[1,3,5,7,9,11,13,-1,-1,-1,-1,-1,-1,-1,-1],"loss_changes":[8.7323926E2,8.414935E1,2.0387909E2,1.4019775E1,1.8335396E1,1.827736E1,2.1977966E1,0E0,0E0,0E0,0E0,0E0,0E0,0E0,0E0],"parents":[2147483647,0,0,1,1,2,2,3,3,4,4,5,5,6,6],"right_children":[2,4,6,8,10,12,14,-1,-1,-1,-1,-1,-1,-1,-1],"split_conditions":[4.4E1,2.1E1,9.28E1,2.444879E3,6.304296E5,7.5E1,9.62E1,-1.0578461E-1,-6.299998E-1,-3.963501E-2,-2.9568312E-1,3.4231696E-2,2.3235653E-1,3.2005024E-1,5.850279E-1],"split_indices":[9,9,3,15,40,9,3,0,0,0,0,0,0,0,0],"split_type":[0,0,0,0,0,0,0,0,0,0,0,0,0,0,0],"sum_hessian":[8E1,2.9E1,5.1E1,1.3E1,1.6E1,2.8E1,2.3E1,1E0,1.2E1,4E0,1.2E1,2.3E1,5E0,1.1E1,1.2E1],"tree_param":{"num_deleted":"0","num_feature":"46","num_nodes":"15","size_leaf_vector":"1"}},{"base_weights":[2.1339993E-1,-2.7095447E0,3.199357E0,-4.599353E0,-1.2243177E0,2.2198431E0,5.2890167E0,-5.232617E-1,-2.3551777E-1,-1.9123693E-1,-2.6222674E-2,2.8112388E-1,6.967888E-2,6.503051E-1,2.045952E-1],"categories":[],"categories_nodes":[],"categories_segments":[],"categories_sizes":[],"default_left":[0,0,0,0,0,0,0,0,0,0,0,0,0,0,0],"id":10,"left_children":[1,3,5,7,9,11,13,-1,-1,-1,-1,-1,-1,-1,-1],"loss_changes":[7.5925854E2,1.1786789E2,7.627374E1,1.4678223E1,1.6709698E1,2.5963715E1,3.787857E1,0E0,0E0,0E0,0E0,0E0,0E0,0E0,0E0],"parents":[2147483647,0,0,1,1,2,2,3,3,4,4,5,5,6,6],"right_children":[2,4,6,8,10,12,14,-1,-1,-1,-1,-1,-1,-1,-1],"split_conditions":[8.76E1,2.8E1,9.63E1,2.2888637E8,4.4E1,2.7326593E2,1.016E2,-5.232617E-1,-2.3551777E-1,-1.9123693E-1,-2.6222674E-2,2.8112388E-1,6.967888E-2,6.503051E-1,2.045952E-1],"split_indices":[4,9,3,22,9,19,2,0,0,0,0,0,0,0,0],"split_type":[0,0,0,0,0,0,0,0,0,0,0,0,0,0,0],"sum_hessian":[8.5E1,4.3E1,4.2E1,1.8E1,2.5E1,3E1,1.2E1,1.3E1,5E0,1.4E1,1.1E1,2.1E1,9E0,8E0,4E0],"tree_param":{"num_deleted":"0","num_feature":"46","num_nodes":"15","size_leaf_vector":"1"}},{"base_weights":[7.9248175E-2,-2.5616708E0,2.259154E0,-3.7469945E0,-1.3075298E0,9.021827E-1,4.1399984E0,-4.4268855E-1,-2.2587834E-1,-3.5552897E-2,-1.9125697E-1,1.3559814E-1,-6.529247E-2,4.4591743E-1,9.5133714E-2],"categories":[],"categories_nodes":[],"categories_segments":[],"categories_sizes":[],"default_left":[0,0,0,0,0,0,0,0,0,0,0,0,0,0,0],"id":11,"left_children":[1,3,5,7,9,11,13,-1,-1,-1,-1,-1,-1,-1,-1],"loss_changes":[4.8361447E2,5.1590088E1,1.13668564E2,9.22525E0,1.084E1,2.0645107E1,1.509491E1,0E0,0E0,0E0,0E0,0E0,0E0,0E0,0E0],"parents":[2147483647,0,0,1,1,2,2,3,3,4,4,5,5,6,6],"right_children":[2,4,6,8,10,12,14,-1,-1,-1,-1,-1,-1,-1,-1],"split_conditions":[8.46E1,2.8E1,8.2E1,2.1199506E8,2.726827E2,2.5924333E3,3.8059034E8,-4.4268855E-1,-2.2587834E-1,-3.5552897E-2,-1.9125697E-1,1.3559814E-1,-6.529247E-2,4.4591743E-1,9.5133714E-2],"split_indices":[3,9,9,22,19,15,30,0,0,0,0,0,0,0,0],"split_type":[0,0,0,0,0,0,0,0,0,0,0,0,0,0,0],"sum_hessian":[8.2E1,3.7E1,4.5E1,1.8E1,1.9E1,2.7E1,1.8E1,1.1E1,7E0,8E0,1.1E1,2.1E1,6E0,1.6E1,2E0],"tree_param":{"num_deleted":"0","num_feature":"46","num_nodes":"15","size_leaf_vector":"1"}},{"base_weights":[1.5740683E-2,-2.8531666E0,1.9464333E0,-4.032375E0,-1.7671417E0,5.972023E-1,3.6216722E0,-4.377739E-1,-1.07655086E-1,-1.0130977E-1,-2.4198762E-1,9.62131E-2,-1.0228678E-1,2.64525E-1,5.121808E-1],"categories":[],"categories_nodes":[],"categories_segments":[],"categories_sizes":[],"default_left":[0,0,0,0,0,0,0,0,0,0,0,0,0,0,0],"id":12,"left_children":[1,3,5,7,9,11,13,-1,-1,-1,-1,-1,-1,-1,-1],"loss_changes":[4.819056E2,3.769699E1,1.1537192E2,1.1620514E1,7.3922386E0,1.8720438E1,2.0141174E1,0E0,0E0,0E0,0E0,0E0,0E0,0E0,0E0],"parents":[2147483647,0,0,1,1,2,2,3,3,4,4,5,5,6,6],"right_children":[2,4,6,8,10,12,14,-1,-1,-1,-1,-1,-1,-1,-1],"split_conditions":[8.32E1,7.65E1,9.31E1,1.5245286E6,2.726827E2,2.5924333E3,1.007E2,-4.377739E-1,-1.07655086E-1,-1.0130977E-1,-2.4198762E-1,9.62131E-2,-1.0228678E-1,2.64525E-1,5.121808E-1],"split_indices":[4,4,3,41,19,15,3,0,0,0,0,0,0,0,0],"split_type":[0,0,0,0,0,0,0,0,0,0,0,0,0,0,0],"sum_hessian":[8.5E1,3.4E1,5.1E1,1.5E1,1.9E1,2.9E1,2.2E1,1.3E1,2E0,1E1,9E0,2.4E1,5E0,1.5E1,7E0],"tree_param":{"num_deleted":"0","num_feature":"46","num_nodes":"15","size_leaf_vector":"1"}},{"base_weights":[-5.3653814E-2,-2.3838723E0,2.457188E0,-3.5570493E0,-6.220224E-1,1.4902171E0,4.2764974E0,-4.965841E-1,-2.6019803E-1,-1.8182021E-3,-1.826673E-1,2.3260728E-1,6.2966086E-3,1.6600266E-1,4.8954365E-1],"categories":[],"categories_nodes":[],"categories_segments":[],"categories_sizes":[],"default_left":[0,0,0,0,0,0,0,0,0,0,0,0,0,0,0],"id":13,"left_children":[1,3,5,7,9,11,13,-1,-1,-1,-1,-1,-1,-1,-1],"loss_changes":[4.7392242E2,8.459982E1,6.223665E1,2.0716309E1,1.3060286E1,3.2063873E1,1.2926102E1,0E0,0E0,0E0,0E0,0E0,0E0,0E0,0E0],"parents":[2147483647,0,0,1,1,2,2,3,3,4,4,5,5,6,6],"right_children":[2,4,6,8,10,12,14,-1,-1,-1,-1,-1,-1,-1,-1],"split_conditions":[8.76E1,8.04E1,9.7E1,7.25E1,2.7326593E2,1.3497078E6,1.3878323E2,-4.965841E-1,-2.6019803E-1,-1.8182021E-3,-1.826673E-1,2.3260728E-1,6.2966086E-3,1.6600266E-1,4.8954365E-1],"split_indices":[0,0,0,0,19,41,20,0,0,0,0,0,0,0,0],"split_type":[0,0,0,0,0,0,0,0,0,0,0,0,0,0,0],"sum_hessian":[7.9E1,4.1E1,3.8E1,2.4E1,1.7E1,2.6E1,1.2E1,8E0,1.6E1,1.2E1,5E0,1.6E1,1E1,3E0,9E0],"tree_param":{"num_deleted":"0","num_feature":"46","num_nodes":"15","size_leaf_vector":"1"}},{"base_weights":[9.427355E-2,-2.36613E0,1.9502054E0,-3.1797168E0,-1.2219269E0,6.252092E-1,2.69939E0,-6.357371E-2,-3.4140444E-1,-5.1793672E-2,-1.6629265E-1,1.6049173E-1,4.958109E-3,2.1918736E-1,4.1263223E-1],"categories":[],"categories_nodes":[],"categories_segments":[],"categories_sizes":[],"default_left":[0,0,0,0,0,0,0,0,0,0,0,0,0,0,0],"id":14,"left_children":[1,3,5,7,9,11,13,-1,-1,-1,-1,-1,-1,-1,-1],"loss_changes":[3.9275348E2,3.0558228E1,4.6952972E1,1.034819E1,4.4165154E0,1.0635428E1,1.3405579E1,0E0,0E0,0E0,0E0,0E0,0E0,0E0,0E0],"parents":[2147483647,0,0,1,1,2,2,3,3,4,4,5,5,6,6],"right_children":[2,4,6,8,10,12,14,-1,-1,-1,-1,-1,-1,-1,-1],"split_conditions":[8.47E1,2.8E1,9.055E1,8.5882074E2,2.726827E2,5.190744E2,1.007E2,-6.357371E-2,-3.4140444E-1,-5.1793672E-2,-1.6629265E-1,1.6049173E-1,4.958109E-3,2.1918736E-1,4.1263223E-1],"split_indices":[0,9,5,16,19,17,3,0,0,0,0,0,0,0,0],"split_type":[0,0,0,0,0,0,0,0,0,0,0,0,0,0,0],"sum_hessian":[8.4E1,3.6E1,4.8E1,2E1,1.6E1,1.8E1,3E1,2E0,1.8E1,7E0,9E0,6E0,1.2E1,2.4E1,6E0],"tree_param":{"num_deleted":"0","num_feature":"46","num_nodes":"15","size_leaf_vector":"1"}},{"base_weights":[-8.1115976E-2,-2.1273248E0,1.5983975E0,-4.3066582E-1,-1.6306773E0,1.0567777E0,3.422615E0,-2.8313524E-1,-1.170057E-1,1.8819835E-2,1.5172361E-1,3.6429342E-2,4.0617654E-1],"categories":[],"categories_nodes":[],"categories_segments":[],"categories_sizes":[],"default_left":[0,0,0,0,0,0,0,0,0,0,0,0,0],"id":15,"left_children":[1,3,5,-1,7,9,11,-1,-1,-1,-1,-1,-1],"loss_changes":[3.1269748E2,3.7354004E1,4.5784683E1,0E0,1.604409E1,1.5712242E1,2.0022308E1,0E0,0E0,0E0,0E0,0E0,0E0],"parents":[2147483647,0,0,1,1,2,2,4,4,5,5,6,6],"right_children":[2,4,6,-1,8,10,12,-1,-1,-1,-1,-1,-1],"split_conditions":[8.47E1,7.18E1,9.7E1,-4.3066582E-1,7.37E1,8.86E1,1.703475E6,-2.8313524E-1,-1.170057E-1,1.8819835E-2,1.5172361E-1,3.6429342E-2,4.0617654E-1],"split_indices":[3,0,0,0,3,0,36,0,0,0,0,0,0],"split_type":[0,0,0,0,0,0,0,0,0,0,0,0,0],"sum_hessian":[8.9E1,4E1,4.9E1,6E0,3.4E1,3.9E1,1E1,8E0,2.6E1,1.4E1,2.5E1,2E0,8E0],"tree_param":{"num_deleted":"0","num_feature":"46","num_nodes":"13","size_leaf_vector":"1"}},{"base_weights":[-6.0932346E-2,-1.2488389E0,2.545668E0,-2.5867531E0,-5.118093E-1,1.6794114E-1,3.5742528E0,-1.4724267E-1,-3.553837E-1,1.0384771E-2,-1.071093E-1,6.847763E-2,4.140272E-1],"categories":[],"categories_nodes":[],"categories_segments":[],"categories_sizes":[],"default_left":[0,0,0,0,0,0,0,0,0,0,0,0,0],"id":16,"left_children":[1,3,5,7,9,-1,11,-1,-1,-1,-1,-1,-1],"loss_changes":[2.570837E2,5.4882774E1,1.7163834E1,1.6320175E1,1.3195655E1,0E0,1.5155334E1,0E0,0E0,0E0,0E0,0E0,0E0],"parents":[2147483647,0,0,1,1,2,2,3,3,4,4,6,6],"right_children":[2,4,6,8,10,-1,12,-1,-1,-1,-1,-1,-1],"split_conditions":[7.5E1,2.8E1,9.62E1,9.9708417E2,2.726827E2,1.6794114E-1,5.7332594E5,-1.4724267E-1,-3.553837E-1,1.0384771E-2,-1.071093E-1,6.847763E-2,4.140272E-1],"split_indices":[9,9,3,16,19,0,44,0,0,0,0,0,0],"split_type":[0,0,0,0,0,0,0,0,0,0,0,0,0],"sum_hessian":[8.1E1,5.6E1,2.5E1,1.9E1,3.7E1,1.5E1,1E1,1E1,9E0,1.8E1,1.9E1,2E0,8E0],"tree_param":{"num_deleted":"0","num_feature":"46","num_nodes":"13","size_leaf_vector":"1"}},{"base_weights":[-2.4861801E-2,-1.3238455E0,1.7311935E0,-2.2827423E0,-5.507568E-1,2.1162913E0,2.9796854E-1,-1.7958201E-1,-4.024937E-1,1.658353E-4,-8.415889E-2,-7.3947147E-3,2.4696873E-1,1.0362949E-1,-2.4391048E-2],"categories":[],"categories_nodes":[],"categories_segments":[],"categories_sizes":[],"default_left":[0,0,0,0,0,0,0,0,0,0,0,0,0,0,0],"id":17,"left_children":[1,3,5,7,9,11,13,-1,-1,-1,-1,-1,-1,-1,-1],"loss_changes":[1.9846533E2,3.580838E1,1.9790878E1,1.1434822E1,4.660537E0,2.2629257E1,3.8535159E0,0E0,0E0,0E0,0E0,0E0,0E0,0E0,0E0],"parents":[2147483647,0,0,1,1,2,2,3,3,4,4,5,5,6,6],"right_children":[2,4,6,8,10,12,14,-1,-1,-1,-1,-1,-1,-1,-1],"split_conditions":[8.67E1,7.83E1,1E0,7.79E1,5.7962884E7,8.76E1,1.1810632E9,-1.7958201E-1,-4.024937E-1,1.658353E-4,-8.415889E-2,-7.3947147E-3,2.4696873E-1,1.0362949E-1,-2.4391048E-2],"split_indices":[3,5,7,2,25,4,27,0,0,0,0,0,0,0,0],"split_type":[0,0,0,0,0,0,0,0,0,0,0,0,0,0,0],"sum_hessian":[8.5E1,4.9E1,3.6E1,2.1E1,2.8E1,2.8E1,8E0,1.8E1,3E0,1E1,1.8E1,4E0,2.4E1,3E0,5E0],"tree_param":{"num_deleted":"0","num_feature":"46","num_nodes":"15","size_leaf_vector":"1"}},{"base_weights":[-1.5049578E-1,-1.8134668E0,1.0998678E0,-3.319606E0,-1.188472E0,4.9640372E-1,2.529966E0,-4.0119314E-1,-1.2781353E-1,-2.797699E-2,-1.3822785E-1,-4.2111587E-2,7.4082345E-2,3.236683E-1,6.1053928E-2],"categories":[],"categories_nodes":[],"categories_segments":[],"categories_sizes":[],"default_left":[0,0,0,0,0,0,0,0,0,0,0,0,0,0,0],"id":18,"left_children":[1,3,5,7,9,11,13,-1,-1,-1,-1,-1,-1,-1,-1],"loss_changes":[1.74578E2,2.9942581E1,4.0168728E1,9.005821E0,4.368313E0,8.161069E0,1.7014755E1,0E0,0E0,0E0,0E0,0E0,0E0,0E0,0E0],"parents":[2147483647,0,0,1,1,2,2,3,3,4,4,5,5,6,6],"right_children":[2,4,6,8,10,12,14,-1,-1,-1,-1,-1,-1,-1,-1],"split_conditions":[4.4E1,7.25E1,9.7E1,1.5E1,2.6800507E2,9.226713E1,1E0,-4.0119314E-1,-1.2781353E-1,-2.797699E-2,-1.3822785E-1,-4.2111587E-2,7.4082345E-2,3.236683E-1,6.1053928E-2],"split_indices":[9,0,0,9,19,13,7,0,0,0,0,0,0,0,0],"split_type":[0,0,0,0,0,0,0,0,0,0,0,0,0,0,0],"sum_hessian":[8.2E1,3.5E1,4.7E1,9E0,2.6E1,3.4E1,1.3E1,6E0,3E0,5E0,2.1E1,7E0,2.7E1,9E0,4E0],"tree_param":{"num_deleted":"0","num_feature":"46","num_nodes":"15","size_leaf_vector":"1"}},{"base_weights":[-3.4406416E-2,-1.3399444E0,1.0594023E0,-3.0438003E-1,-8.9771324E-1,5.2715605E-1,1.7039683E0,-1.969546E-1,-6.0456485E-2,8.455836E-2,-9.156708E-2,1.8573503E-1,-5.2845385E-2],"categories":[],"categories_nodes":[],"categories_segments":[],"categories_sizes":[],"default_left":[0,0,0,0,0,0,0,0,0,0,0,0,0],"id":19,"left_children":[1,3,5,-1,7,9,11,-1,-1,-1,-1,-1,-1],"loss_changes":[1.1280422E2,2.439347E1,1.3853657E1,0E0,8.235462E0,1.2260172E1,7.487381E0,0E0,0E0,0E0,0E0,0E0,0E0],"parents":[2147483647,0,0,1,1,2,2,4,4,5,5,6,6],"right_children":[2,4,6,-1,8,10,12,-1,-1,-1,-1,-1,-1],"split_conditions":[8.47E1,7.18E1,9.33E1,-3.0438003E-1,7.34E1,1.048644E6,1.051E2,-1.969546E-1,-6.0456485E-2,8.455836E-2,-9.156708E-2,1.8573503E-1,-5.2845385E-2],"split_indices":[3,1,0,0,3,40,1,0,0,0,0,0,0],"split_type":[0,0,0,0,0,0,0,0,0,0,0,0,0],"sum_hessian":[7.7E1,3.5E1,4.2E1,6E0,2.9E1,2.4E1,1.8E1,5E0,2.4E1,2E1,4E0,1.7E1,1E0],"tree_param":{"num_deleted":"0","num_feature":"46","num_nodes":"13","size_leaf_vector":"1"}},{"base_weights":[2.8978659E-2,-1.2505989E0,1.1173643E0,-2.0498793E0,-5.0346583E-1,6.450803E-1,2.3029468E0,-2.8830203E-1,-1.3236289E-1,-7.59679E-2,3.0638251E-2,-8.664971E-2,8.138688E-2,3.070464E-1,4.6082612E-2],"categories":[],"categories_nodes":[],"categories_segments":[],"categories_sizes":[],"default_left":[0,0,0,0,0,0,0,0,0,0,0,0,0,0,0],"id":20,"left_children":[1,3,5,7,9,11,13,-1,-1,-1,-1,-1,-1,-1,-1],"loss_changes":[1.2116732E2,2.2854713E1,2.48312E1,7.6802673E0,4.797616E0,9.635002E0,1.6965233E1,0E0,0E0,0E0,0E0,0E0,0E0,0E0,0E0],"parents":[2147483647,0,0,1,1,2,2,3,3,4,4,5,5,6,6],"right_children":[2,4,6,8,10,12,14,-1,-1,-1,-1,-1,-1,-1,-1],"split_conditions":[5.1E1,7.81E1,9.71E1,1.5E1,2.2888637E8,1.882396E8,1E0,-2.8830203E-1,-1.3236289E-1,-7.59679E-2,3.0638251E-2,-8.664971E-2,8.138688E-2,3.070464E-1,4.6082612E-2],"split_indices":[9,0,0,9,22,22,7,0,0,0,0,0,0,0,0],"split_type":[0,0,0,0,0,0,0,0,0,0,0,0,0,0,0],"sum_hessian":[8.5E1,3.9E1,4.6E1,1.8E1,2.1E1,3.4E1,1.2E1,7E0,1.1E1,1.6E1,5E0,3E0,3.1E1,8E0,4E0],"tree_param":{"num_deleted":"0","num_feature":"46","num_nodes":"15","size_leaf_vector":"1"}},{"base_weights":[-5.592977E-2,-1.0889577E0,8.751936E-1,-2.5402248E0,-7.729396E-1,-1.5975475E-2,1.410534E0,-1.1082102E-1,-2.9791793E-1,-1.0973507E-1,-8.334212E-3,-1.396923E-1,4.101604E-2,1.8891303E-1,7.346275E-2],"categories":[],"categories_nodes":[],"categories_segments":[],"categories_sizes":[],"default_left":[0,0,0,0,0,0,0,0,0,0,0,0,0,0,0],"id":21,"left_children":[1,3,5,7,9,11,13,-1,-1,-1,-1,-1,-1,-1,-1],"loss_changes":[7.309377E1,1.4547119E1,1.9105686E1,4.6998215E-1,6.843647E0,9.9885025E0,6.6993484E0,0E0,0E0,0E0,0E0,0E0,0E0,0E0,0E0],"parents":[2147483647,0,0,1,1,2,2,3,3,4,4,5,5,6,6],"right_children":[2,4,6,8,10,12,14,-1,-1,-1,-1,-1,-1,-1,-1],"split_conditions":[5.2E1,7.085E1,1.9241112E8,7.02E1,2.2888637E8,9.226713E1,1.14987256E8,-1.1082102E-1,-2.9791793E-1,-1.0973507E-1,-8.334212E-3,-1.396923E-1,4.101604E-2,1.8891303E-1,7.346275E-2],"split_indices":[9,4,22,5,22,13,31,0,0,0,0,0,0,0,0],"split_type":[0,0,0,0,0,0,0,0,0,0,0,0,0,0,0],"sum_hessian":[7.4E1,3.5E1,3.9E1,5E0,3E1,1.5E1,2.4E1,2E0,3E0,2E1,1E1,3E0,1.2E1,1.3E1,1.1E1],"tree_param":{"num_deleted":"0","num_feature":"46","num_nodes":"15","size_leaf_vector":"1"}},{"base_weights":[-2.1218915E-2,-1.1033083E0,1.2524515E0,-2.4525561E0,-6.8935394E-1,1.54386E0,2.714437E-1,-9.717178E-2,-2.736836E-1,-2.7081707E-2,-9.998372E-2,1.0503067E-1,2.7334607E-1,-6.6589355E-2,6.34382E-2],"categories":[],"categories_nodes":[],"categories_segments":[],"categories_sizes":[],"default_left":[0,0,0,0,0,0,0,0,0,0,0,0,0,0,0],"id":22,"left_children":[1,3,5,7,9,11,13,-1,-1,-1,-1,-1,-1,-1,-1],"loss_changes":[1.0199228E2,2.0650406E1,9.30064E0,1.1293144E0,3.8875856E0,1.23944435E1,3.484191E0,0E0,0E0,0E0,0E0,0E0,0E0,0E0,0E0],"parents":[2147483647,0,0,1,1,2,2,3,3,4,4,5,5,6,6],"right_children":[2,4,6,8,10,12,14,-1,-1,-1,-1,-1,-1,-1,-1],"split_conditions":[8.805E1,7.34E1,2.7330676E2,2.4928481E3,2.726827E2,1.498282E2,4.9601132E7,-9.717178E-2,-2.736836E-1,-2.7081707E-2,-9.998372E-2,1.0503067E-1,2.7334607E-1,-6.6589355E-2,6.34382E-2],"split_indices":[4,3,19,15,19,11,24,0,0,0,0,0,0,0,0],"split_type":[0,0,0,0,0,0,0,0,0,0,0,0,0,0,0],"sum_hessian":[7.2E1,3.9E1,3.3E1,8E0,3.1E1,2.5E1,8E0,2E0,6E0,1.4E1,1.7E1,1.9E1,6E0,2E0,6E0],"tree_param":{"num_deleted":"0","num_feature":"46","num_nodes":"15","size_leaf_vector":"1"}},{"base_weights":[-4.2079624E-2,-8.725151E-1,1.0664427E0,-1.3525534E0,-3.309971E-1,6.845785E-1,2.386999E-1,-7.858629E-2,-1.8993191E-1,3.6204606E-2,-8.386459E-2,9.209194E-2,-9.046116E-2],"categories":[],"categories_nodes":[],"categories_segments":[],"categories_sizes":[],"default_left":[0,0,0,0,0,0,0,0,0,0,0,0,0],"id":23,"left_children":[1,3,5,7,9,11,-1,-1,-1,-1,-1,-1,-1],"loss_changes":[7.089277E1,1.0990078E1,1.5006924E1,5.633877E0,8.043725E0,1.0974021E1,0E0,0E0,0E0,0E0,0E0,0E0,0E0],"parents":[2147483647,0,0,1,1,2,2,3,3,4,4,5,5],"right_children":[2,4,6,8,10,12,-1,-1,-1,-1,-1,-1,-1],"split_conditions":[8.74E1,7.96E1,1.007E2,9.9708417E2,2.726827E2,2.5949802E3,2.386999E-1,-7.858629E-2,-1.8993191E-1,3.6204606E-2,-8.386459E-2,9.209194E-2,-9.046116E-2],"split_indices":[0,0,3,16,19,15,0,0,0,0,0,0,0],"split_type":[0,0,0,0,0,0,0,0,0,0,0,0,0],"sum_hessian":[7.5E1,4.3E1,3.2E1,2.2E1,2.1E1,2.6E1,6E0,1.2E1,1E1,9E0,1.2E1,2.3E1,3E0],"tree_param":{"num_deleted":"0","num_feature":"46","num_nodes":"13","size_leaf_vector":"1"}},{"base_weights":[-1.398979E-1,-9.447985E-1,7.665735E-1,-2.1278858E0,-6.7788833E-1,-2.8968963E-1,1.0727003E0,-7.2285466E-2,-2.4757539E-1,-4.018582E-2,-1.092746E-1,4.6674095E-2,-1.1394685E-1,8.130169E-2,2.3123871E-1],"categories":[],"categories_nodes":[],"categories_segments":[],"categories_sizes":[],"default_left":[0,0,0,0,0,0,0,0,0,0,0,0,0,0,0],"id":24,"left_children":[1,3,5,7,9,11,13,-1,-1,-1,-1,-1,-1,-1,-1],"loss_changes":[6.347152E1,1.3083321E1,1.3568119E1,2.120514E0,4.026884E0,6.9598227E0,8.421619E0,0E0,0E0,0E0,0E0,0E0,0E0,0E0,0E0],"parents":[2147483647,0,0,1,1,2,2,3,3,4,4,5,5,6,6],"right_children":[2,4,6,8,10,12,14,-1,-1,-1,-1,-1,-1,-1,-1],"split_conditions":[8.76E1,7.19E1,8.84E1,7.01E1,1.0370583E3,9.5957697E2,1.007E2,-7.2285466E-2,-2.4757539E-1,-4.018582E-2,-1.092746E-1,4.6674095E-2,-1.1394685E-1,8.130169E-2,2.3123871E-1],"split_indices":[0,1,2,0,16,16,3,0,0,0,0,0,0,0,0],"split_type":[0,0,0,0,0,0,0,0,0,0,0,0,0,0,0],"sum_hessian":[8.5E1,4.5E1,4E1,7E0,3.8E1,9E0,3.1E1,2E0,5E0,2.4E1,1.4E1,5E0,4E0,2.7E1,4E0],"tree_param":{"num_deleted":"0","num_feature":"46","num_nodes":"15","size_leaf_vector":"1"}},{"base_weights":[-1.0127314E-1,-1.1070743E0,5.318035E-1,-2.1009607E0,-7.4474764E-1,8.0725305E-2,1.0774324E0,-2.4639499E-1,-6.746623E-2,-2.7858242E-2,-1.22654475E-1,-1.0513805E-2,1.2686558E-1,1.606988E-2,1.5556437E-1],"categories":[],"categories_nodes":[],"categories_segments":[],"categories_sizes":[],"default_left":[0,0,0,0,0,0,0,0,0,0,0,0,0,0,0],"id":25,"left_children":[1,3,5,7,9,11,13,-1,-1,-1,-1,-1,-1,-1,-1],"loss_changes":[5.2802185E1,9.958881E0,1.2465209E1,2.479515E0,5.2732306E0,6.5363736E0,9.833036E0,0E0,0E0,0E0,0E0,0E0,0E0,0E0,0E0],"parents":[2147483647,0,0,1,1,2,2,3,3,4,4,5,5,6,6],"right_children":[2,4,6,8,10,12,14,-1,-1,-1,-1,-1,-1,-1,-1],"split_conditions":[8.12E1,7.185E1,9.28E1,1E0,3.5319283E8,1.1349292E3,5.309558E2,-2.4639499E-1,-6.746623E-2,-2.7858242E-2,-1.22654475E-1,-1.0513805E-2,1.2686558E-1,1.606988E-2,1.5556437E-1],"split_indices":[3,4,3,8,29,16,17,0,0,0,0,0,0,0,0],"split_type":[0,0,0,0,0,0,0,0,0,0,0,0,0,0,0],"sum_hessian":[8.1E1,3.1E1,5E1,7E0,2.4E1,2.8E1,2.2E1,5E0,2E0,1.3E1,1.1E1,2.5E1,3E0,8E0,1.4E1],"tree_param":{"num_deleted":"0","num_feature":"46","num_nodes":"15","size_leaf_vector":"1"}},{"base_weights":[-9.134314E-2,-8.4177893E-1,7.327376E-1,-1.8558242E0,-5.4496187E-1,-6.892141E-2,1.1360285E0,-2.4525833E-1,-3.475399E-2,-1.7032059E-1,-3.5295635E-2,6.1486818E-2,-9.382335E-2,1.2811984E-1,-5.0078582E-2],"categories":[],"categories_nodes":[],"categories_segments":[],"categories_sizes":[],"default_left":[0,0,0,0,0,0,0,0,0,0,0,0,0,0,0],"id":26,"left_children":[1,3,5,7,9,11,13,-1,-1,-1,-1,-1,-1,-1,-1],"loss_changes":[5.4419315E1,1.2834003E1,1.3656971E1,8.148449E0,7.627243E0,9.493288E0,7.294853E0,0E0,0E0,0E0,0E0,0E0,0E0,0E0,0E0],"parents":[2147483647,0,0,1,1,2,2,3,3,4,4,5,5,6,6],"right_children":[2,4,6,8,10,12,14,-1,-1,-1,-1,-1,-1,-1,-1],"split_conditions":[8.67E1,7.25E1,1.9241112E8,1.5E1,7.34E1,5.366441E2,3.8059034E8,-2.4525833E-1,-3.475399E-2,-1.7032059E-1,-3.5295635E-2,6.1486818E-2,-9.382335E-2,1.2811984E-1,-5.0078582E-2],"split_indices":[3,0,22,9,3,17,30,0,0,0,0,0,0,0,0],"split_type":[0,0,0,0,0,0,0,0,0,0,0,0,0,0,0],"sum_hessian":[8.6E1,4.5E1,4.1E1,9E0,3.6E1,1.4E1,2.7E1,6E0,3E0,4E0,3.2E1,8E0,6E0,2.5E1,2E0],"tree_param":{"num_deleted":"0","num_feature":"46","num_nodes":"15","size_leaf_vector":"1"}},{"base_weights":[-6.960712E-2,-1.0425535E0,3.4861293E-1,-1.5779402E0,-6.76239E-1,6.092694E-1,-6.5789986E-1,-9.613037E-4,-2.3605016E-1,-8.5979275E-2,-1.0046234E-2,3.1731501E-3,9.5878415E-2,3.4998578E-3,-7.999794E-2],"categories":[],"categories_nodes":[],"categories_segments":[],"categories_sizes":[],"default_left":[0,0,0,0,0,0,0,0,0,0,0,0,0,0,0],"id":27,"left_children":[1,3,5,7,9,11,13,-1,-1,-1,-1,-1,-1,-1,-1],"loss_changes":[3.2509E1,3.6398144E0,1.5092665E1,1.1023117E1,1.6045985E0,9.053186E0,1.2093587E0,0E0,0E0,0E0,0E0,0E0,0E0,0E0,0E0],"parents":[2147483647,0,0,1,1,2,2,3,3,4,4,5,5,6,6],"right_children":[2,4,6,8,10,12,14,-1,-1,-1,-1,-1,-1,-1,-1],"split_conditions":[8.04E1,1.4E1,1.5233865E6,7E0,1E0,2.1087118E8,1.882396E8,-9.613037E-4,-2.3605016E-1,-8.5979275E-2,-1.0046234E-2,3.1731501E-3,9.5878415E-2,3.4998578E-3,-7.999794E-2],"split_indices":[0,9,41,9,6,22,22,0,0,0,0,0,0,0,0],"split_type":[0,0,0,0,0,0,0,0,0,0,0,0,0,0,0],"sum_hessian":[7.8E1,2.3E1,5.5E1,8E0,1.5E1,4.4E1,1.1E1,3E0,5E0,1.1E1,4E0,1.7E1,2.7E1,2E0,9E0],"tree_param":{"num_deleted":"0","num_feature":"46","num_nodes":"15","size_leaf_vector":"1"}},{"base_weights":[-9.3410216E-2,-8.1095666E-1,6.0962147E-1,-1.9129188E0,-4.524543E-1,1.7751738E0,3.726353E-1,-2.1908967E-1,2.9444123E-2,-9.873289E-3,-7.795607E-2,2.2606003E-1,3.744049E-2,2.215997E-2,9.882736E-2],"categories":[],"categories_nodes":[],"categories_segments":[],"categories_sizes":[],"default_left":[0,0,0,0,0,0,0,0,0,0,0,0,0,0,0],"id":28,"left_children":[1,3,5,7,9,11,13,-1,-1,-1,-1,-1,-1,-1,-1],"loss_changes":[4.286884E1,1.5726843E1,1.1215956E1,6.781067E0,3.741281E0,3.913416E0,3.2213812E0,0E0,0E0,0E0,0E0,0E0,0E0,0E0,0E0],"parents":[2147483647,0,0,1,1,2,2,3,3,4,4,5,5,6,6],"right_children":[2,4,6,8,10,12,14,-1,-1,-1,-1,-1,-1,-1,-1],"split_conditions":[8.47E1,1.5E1,1.8704077E2,2.5983892E3,2.726827E2,1.0205E2,1.1349292E3,-2.1908967E-1,2.9444123E-2,-9.873289E-3,-7.795607E-2,2.2606003E-1,3.744049E-2,2.215997E-2,9.882736E-2],"split_indices":[3,9,18,15,19,4,16,0,0,0,0,0,0,0,0],"split_type":[0,0,0,0,0,0,0,0,0,0,0,0,0,0,0],"sum_hessian":[8.3E1,4.1E1,4.2E1,9E0,3.2E1,6E0,3.6E1,8E0,1E0,1.6E1,1.6E1,4E0,2E0,3E1,6E0],"tree_param":{"num_deleted":"0","num_feature":"46","num_nodes":"15","size_leaf_vector":"1"}},{"base_weights":[-1.4356683E-1,-8.9523536E-1,3.1614476E-1,-1.517434E0,-6.1284304E-1,5.511882E-1,-4.1330427E-1,9.329415E-3,-2.3383473E-1,-7.8114994E-2,-1.1654882E-2,3.6334228E-2,1.2336731E-1,5.3339005E-3,-9.666112E-2],"categories":[],"categories_nodes":[],"categories_segments":[],"categories_sizes":[],"default_left":[0,0,0,0,0,0,0,0,0,0,0,0,0,0,0],"id":29,"left_children":[1,3,5,7,9,11,13,-1,-1,-1,-1,-1,-1,-1,-1],"loss_changes":[2.8272633E1,4.516878E0,8.9718685E0,1.2118565E1,1.8301411E0,4.551632E0,3.408119E0,0E0,0E0,0E0,0E0,0E0,0E0,0E0,0E0],"parents":[2147483647,0,0,1,1,2,2,3,3,4,4,5,5,6,6],"right_children":[2,4,6,8,10,12,14,-1,-1,-1,-1,-1,-1,-1,-1],"split_conditions":[8.18E1,1.5E1,1E0,7E0,1E0,9.71E1,9.9814624E2,9.329415E-3,-2.3383473E-1,-7.8114994E-2,-1.1654882E-2,3.6334228E-2,1.2336731E-1,5.3339005E-3,-9.666112E-2],"split_indices":[2,9,7,9,6,0,16,0,0,0,0,0,0,0,0],"split_type":[0,0,0,0,0,0,0,0,0,0,0,0,0,0,0],"sum_hessian":[8E1,3E1,5E1,8E0,2.2E1,3.8E1,1.2E1,3E0,5E0,1.6E1,6E0,3.1E1,7E0,7E0,5E0],"tree_param":{"num_deleted":"0","num_feature":"46","num_nodes":"15","size_leaf_vector":"1"}},{"base_weights":[-1.436884E-1,-5.243331E-1,4.828209E-1,-1.3491344E0,-3.5474396E-1,7.601617E-1,-3.748865E-1,-1.9128266E-1,-3.0723572E-2,6.2365722E-2,-4.741456E-2,3.444481E-2,1.2661445E-1,3.290431E-2,-6.643703E-2],"categories":[],"categories_nodes":[],"categories_segments":[],"categories_sizes":[],"default_left":[0,0,0,0,0,0,0,0,0,0,0,0,0,0,0],"id":30,"left_children":[1,3,5,7,9,11,13,-1,-1,-1,-1,-1,-1,-1,-1],"loss_changes":[1.8854399E1,6.375393E0,7.421292E0,4.110792E0,5.202257E0,4.4017906E0,1.8488156E0,0E0,0E0,0E0,0E0,0E0,0E0,0E0,0E0],"parents":[2147483647,0,0,1,1,2,2,3,3,4,4,5,5,6,6],"right_children":[2,4,6,8,10,12,14,-1,-1,-1,-1,-1,-1,-1,-1],"split_conditions":[8.85E1,7.34E1,2.7330676E2,1.4E1,5.6399936E7,2.2510347E8,2.5510527E3,-1.9128266E-1,-3.0723572E-2,6.2365722E-2,-4.741456E-2,3.444481E-2,1.2661445E-1,3.290431E-2,-6.643703E-2],"split_indices":[2,3,19,9,25,22,15,0,0,0,0,0,0,0,0],"split_type":[0,0,0,0,0,0,0,0,0,0,0,0,0,0,0],"sum_hessian":[7.7E1,4.8E1,2.9E1,7E0,4.1E1,2.2E1,7E0,4E0,3E0,4E0,3.7E1,1.3E1,9E0,2E0,5E0],"tree_param":{"num_deleted":"0","num_feature":"46","num_nodes":"15","size_leaf_vector":"1"}},{"base_weights":[-1.3060035E-2,-4.1309083E-1,5.93443E-1,-1.2651672E0,-2.2066753E-1,4.0926716E-1,1.8264008E-1,-1.5938853E-1,-7.6436363E-3,7.3905185E-2,-3.4113936E-2,1.2743913E-1,3.0195862E-2],"categories":[],"categories_nodes":[],"categories_segments":[],"categories_sizes":[],"default_left":[0,0,0,0,0,0,0,0,0,0,0,0,0],"id":31,"left_children":[1,3,5,7,9,11,-1,-1,-1,-1,-1,-1,-1],"loss_changes":[2.0139975E1,7.918787E0,6.7461863E0,3.3949823E0,5.1081233E0,2.4002428E0,0E0,0E0,0E0,0E0,0E0,0E0,0E0],"parents":[2147483647,0,0,1,1,2,2,3,3,4,4,5,5],"right_children":[2,4,6,8,10,12,-1,-1,-1,-1,-1,-1,-1],"split_conditions":[8.85E1,7.25E1,1.016E2,1.5E1,8.5882074E2,1.0903561E8,1.8264008E-1,-1.5938853E-1,-7.6436363E-3,7.3905185E-2,-3.4113936E-2,1.2743913E-1,3.0195862E-2],"split_indices":[2,0,0,9,16,31,0,0,0,0,0,0,0],"split_type":[0,0,0,0,0,0,0,0,0,0,0,0,0],"sum_hessian":[8.1E1,4.9E1,3.2E1,8E0,4.1E1,2.9E1,3E0,6E0,2E0,4E0,3.7E1,2E0,2.7E1],"tree_param":{"num_deleted":"0","num_feature":"46","num_nodes":"13","size_leaf_vector":"1"}},{"base_weights":[-5.172321E-2,-1.3977187E0,1.0835156E-1,-1.1094284E-2,-1.5446978E0,-2.226629E-1,4.4522557E-1,-3.235474E-2,-1.6729268E-1,-1.3781196E-2,-1.7234993E-1,6.862041E-2,-1.3407834E-2],"categories":[],"categories_nodes":[],"categories_segments":[],"categories_sizes":[],"default_left":[0,0,0,0,0,0,0,0,0,0,0,0,0],"id":32,"left_children":[1,3,5,-1,7,9,11,-1,-1,-1,-1,-1,-1],"loss_changes":[1.8250078E1,1.5307884E0,8.573908E0,0E0,7.114239E-1,4.729029E0,5.3967977E0,0E0,0E0,0E0,0E0,0E0,0E0],"parents":[2147483647,0,0,1,1,2,2,4,4,5,5,6,6],"right_children":[2,4,6,-1,8,10,12,-1,-1,-1,-1,-1,-1],"split_conditions":[7.34E1,5.7752E5,8.85E1,-1.1094284E-2,6.93E1,9.05E1,1E0,-3.235474E-2,-1.6729268E-1,-1.3781196E-2,-1.7234993E-1,6.862041E-2,-1.3407834E-2],"split_indices":[3,44,2,0,3,1,7,0,0,0,0,0,0],"split_type":[0,0,0,0,0,0,0,0,0,0,0,0,0],"sum_hessian":[8.3E1,8E0,7.5E1,1E0,7E0,3.8E1,3.7E1,1E0,6E0,3.7E1,1E0,2.6E1,1.1E1],"tree_param":{"num_deleted":"0","num_feature":"46","num_nodes":"13","size_leaf_vector":"1"}},{"base_weights":[-1.7308137E-1,-4.2803308E-1,7.7787066E-1,-1.36003E0,-2.9686305E-1,1.1191059E0,2.2627512E-2,-3.709437E-2,-1.681476E-1,-3.966547E-2,3.1404685E-2,1.6889343E-2,1.637957E-1,2.6077881E-2,-5.840645E-2],"categories":[],"categories_nodes":[],"categories_segments":[],"categories_sizes":[],"default_left":[0,0,0,0,0,0,0,0,0,0,0,0,0,0,0],"id":33,"left_children":[1,3,5,7,9,11,13,-1,-1,-1,-1,-1,-1,-1,-1],"loss_changes":[1.8274021E1,6.8090115E0,4.0981274E0,1.6018305E0,3.3556457E0,5.1465654E0,1.0192186E0,0E0,0E0,0E0,0E0,0E0,0E0,0E0,0E0],"parents":[2147483647,0,0,1,1,2,2,3,3,4,4,5,5,6,6],"right_children":[2,4,6,8,10,12,14,-1,-1,-1,-1,-1,-1,-1,-1],"split_conditions":[9.33E1,7.25E1,1E0,7.02E1,9.28E1,6.0549594E5,1.02E2,-3.709437E-2,-1.681476E-1,-3.966547E-2,3.1404685E-2,1.6889343E-2,1.637957E-1,2.6077881E-2,-5.840645E-2],"split_indices":[0,0,7,5,3,44,1,0,0,0,0,0,0,0,0],"split_type":[0,0,0,0,0,0,0,0,0,0,0,0,0,0,0],"sum_hessian":[7.3E1,5.8E1,1.5E1,6E0,5.2E1,1E1,5E0,2E0,4E0,4.5E1,7E0,4E0,6E0,4E0,1E0],"tree_param":{"num_deleted":"0","num_feature":"46","num_nodes":"15","size_leaf_vector":"1"}},{"base_weights":[3.305147E-2,-1.5354767E-1,1.0352737E0,-6.480116E-1,7.159019E-2,2.2854157E-1,1.3684278E0,-7.699694E-3,-8.573299E-2,3.3192422E-2,-3.569332E-2,4.4295754E-2,-6.205495E-3,1.9768372E-1,9.121911E-2],"categories":[],"categories_nodes":[],"categories_segments":[],"categories_sizes":[],"default_left":[0,0,0,0,0,0,0,0,0,0,0,0,0,0,0],"id":34,"left_children":[1,3,5,7,9,11,13,-1,-1,-1,-1,-1,-1,-1,-1],"loss_changes":[1.5494095E1,7.838971E0,3.1812162E0,2.563511E0,5.584876E0,3.390304E-1,6.949558E-1,0E0,0E0,0E0,0E0,0E0,0E0,0E0,0E0],"parents":[2147483647,0,0,1,1,2,2,3,3,4,4,5,5,6,6],"right_children":[2,4,6,8,10,12,14,-1,-1,-1,-1,-1,-1,-1,-1],"split_conditions":[9.7E1,7.81E1,5.7752E5,9.226713E1,1.3497078E6,9.89E1,1.3878735E2,-7.699694E-3,-8.573299E-2,3.3192422E-2,-3.569332E-2,4.4295754E-2,-6.205495E-3,1.9768372E-1,9.121911E-2],"split_indices":[0,0,44,13,41,0,21,0,0,0,0,0,0,0,0],"split_type":[0,0,0,0,0,0,0,0,0,0,0,0,0,0,0],"sum_hessian":[8.1E1,6.9E1,1.2E1,2.1E1,4.8E1,4E0,8E0,6E0,1.5E1,3E1,1.8E1,2E0,2E0,2E0,6E0],"tree_param":{"num_deleted":"0","num_feature":"46","num_nodes":"15","size_leaf_vector":"1"}},{"base_weights":[-2.2868764E-2,-5.023378E-1,2.6008388E-1,4.884979E-1,-6.558496E-1,8.1902605E-1,8.903087E-2,-4.8499297E-2,8.531189E-2,-1.4202587E-1,-3.9468817E-2,9.134375E-2,-1.5695572E-2,-1.0577472E-3,7.216466E-2],"categories":[],"categories_nodes":[],"categories_segments":[],"categories_sizes":[],"default_left":[0,0,0,0,0,0,0,0,0,0,0,0,0,0,0],"id":35,"left_children":[1,3,5,7,9,11,13,-1,-1,-1,-1,-1,-1,-1,-1],"loss_changes":[1.2069349E1,5.3398447E0,5.28117E0,2.1885328E0,5.2288322E0,1.3412409E0,2.7802408E0,0E0,0E0,0E0,0E0,0E0,0E0,0E0,0E0],"parents":[2147483647,0,0,1,1,2,2,3,3,4,4,5,5,6,6],"right_children":[2,4,6,8,10,12,14,-1,-1,-1,-1,-1,-1,-1,-1],"split_conditions":[4.3E1,8E0,5.7792904E7,6.97E1,1.5E1,6.6195344E7,1.7425052E6,-4.8499297E-2,8.531189E-2,-1.4202587E-1,-3.9468817E-2,9.134375E-2,-1.5695572E-2,-1.0577472E-3,7.216466E-2],"split_indices":[9,9,25,3,9,24,36,0,0,0,0,0,0,0,0],"split_type":[0,0,0,0,0,0,0,0,0,0,0,0,0,0,0],"sum_hessian":[8.7E1,3.2E1,5.5E1,4E0,2.8E1,1.2E1,4.3E1,1E0,3E0,6E0,2.2E1,1.1E1,1E0,3.8E1,5E0],"tree_param":{"num_deleted":"0","num_feature":"46","num_nodes":"15","size_leaf_vector":"1"}},{"base_weights":[1.1037782E-2,-2.5352043E-1,5.397736E-1,-1.0025495E0,-1.639413E-1,7.175875E-1,-2.614441E-1,-1.6790008E-2,-1.13589935E-1,4.599457E-2,-2.2425748E-2,4.0066052E-2,1.2012812E-1,1.02345785E-2,-4.689255E-2],"categories":[],"categories_nodes":[],"categories_segments":[],"categories_sizes":[],"default_left":[0,0,0,0,0,0,0,0,0,0,0,0,0,0,0],"id":36,"left_children":[1,3,5,7,9,11,13,-1,-1,-1,-1,-1,-1,-1,-1],"loss_changes":[1.2166645E1,3.7272885E0,4.31917E0,4.770851E-1,2.0975623E0,3.1977882E0,5.0087035E-1,0E0,0E0,0E0,0E0,0E0,0E0,0E0,0E0],"parents":[2147483647,0,0,1,1,2,2,3,3,4,4,5,5,6,6],"right_children":[2,4,6,8,10,12,14,-1,-1,-1,-1,-1,-1,-1,-1],"split_conditions":[8.97E1,7.18E1,1.00175E2,6.93E1,2.8753312E8,9.63E1,1.012E2,-1.6790008E-2,-1.13589935E-1,4.599457E-2,-2.2425748E-2,4.0066052E-2,1.2012812E-1,1.02345785E-2,-4.689255E-2],"split_indices":[3,0,5,2,29,3,2,0,0,0,0,0,0,0,0],"split_type":[0,0,0,0,0,0,0,0,0,0,0,0,0,0,0],"sum_hessian":[8.5E1,5.7E1,2.8E1,5E0,5.2E1,2.3E1,5E0,1E0,4E0,4E0,4.8E1,1.5E1,8E0,2E0,3E0],"tree_param":{"num_deleted":"0","num_feature":"46","num_nodes":"15","size_leaf_vector":"1"}},{"base_weights":[-2.9751914E-2,-5.6803703E-1,1.36332E-1,-9.685612E-1,-2.7786547E-1,7.489624E-1,6.1336324E-2,2.6005555E-2,-1.1812287E-1,-3.6516063E-2,3.848381E-2,1.9822692E-2,9.2961125E-2,-6.016892E-2,1.9271469E-2],"categories":[],"categories_nodes":[],"categories_segments":[],"categories_sizes":[],"default_left":[0,0,0,0,0,0,0,0,0,0,0,0,0,0,0],"id":37,"left_children":[1,3,5,7,9,11,13,-1,-1,-1,-1,-1,-1,-1,-1],"loss_changes":[7.5870833E0,2.055285E0,2.9404626E0,2.3974786E0,8.9258814E-1,5.121541E-1,5.2552795E0,0E0,0E0,0E0,0E0,0E0,0E0,0E0,0E0],"parents":[2147483647,0,0,1,1,2,2,3,3,4,4,5,5,6,6],"right_children":[2,4,6,8,10,12,14,-1,-1,-1,-1,-1,-1,-1,-1],"split_conditions":[7.81E1,1.5E1,3.3E1,5.6399936E7,6.6982356E7,5.7792904E7,4.3E1,2.6005555E-2,-1.1812287E-1,-3.6516063E-2,3.848381E-2,1.9822692E-2,9.2961125E-2,-6.016892E-2,1.9271469E-2],"split_indices":[0,9,9,25,24,25,9,0,0,0,0,0,0,0,0],"split_type":[0,0,0,0,0,0,0,0,0,0,0,0,0,0,0],"sum_hessian":[8.3E1,1.9E1,6.4E1,7E0,1.2E1,6E0,5.8E1,1E0,6E0,1.1E1,1E0,2E0,4E0,9E0,4.9E1],"tree_param":{"num_deleted":"0","num_feature":"46","num_nodes":"15","size_leaf_vector":"1"}},{"base_weights":[-6.476469E-2,-2.7592045E-1,4.1081482E-1,-2.2170854E-1,-1.628788E-1,1.7208481E-1,2.845281E-1,-6.7295986E-3,-6.691099E-2,-5.6782193E-3,4.5873214E-2],"categories":[],"categories_nodes":[],"categories_segments":[],"categories_sizes":[],"default_left":[0,0,0,0,0,0,0,0,0,0,0],"id":38,"left_children":[1,3,5,7,-1,-1,9,-1,-1,-1,-1],"loss_changes":[8.147061E0,3.7460103E0,3.6463656E0,3.7546132E0,0E0,0E0,1.4530308E0,0E0,0E0,0E0,0E0],"parents":[2147483647,0,0,1,1,2,2,3,3,6,6],"right_children":[2,4,6,8,-1,-1,10,-1,-1,-1,-1],"split_conditions":[7.4E1,9.275E1,2.5692116E7,1E0,-1.628788E-1,1.7208481E-1,2.5239146E3,-6.7295986E-3,-6.691099E-2,-5.6782193E-3,4.5873214E-2],"split_indices":[9,4,32,7,0,0,15,0,0,0,0],"split_type":[0,0,0,0,0,0,0,0,0,0,0],"sum_hessian":[7.9E1,5.5E1,2.4E1,5.4E1,1E0,1E0,2.3E1,4.1E1,1.3E1,8E0,1.5E1],"tree_param":{"num_deleted":"0","num_feature":"46","num_nodes":"11","size_leaf_vector":"1"}},{"base_weights":[2.7093988E-2,-1.7308594E-1,3.9679408E-1,1.2696011E-1,-4.3338296E-1,8.054799E-1,2.4167052E-1,6.968852E-2,-1.0173078E-2,-1.3107987E-1,-2.6908938E-2,1.1279679E-2,9.0212755E-2,1.3045206E-2,6.81736E-2],"categories":[],"categories_nodes":[],"categories_segments":[],"categories_sizes":[],"default_left":[0,0,0,0,0,0,0,0,0,0,0,0,0,0,0],"id":39,"left_children":[1,3,5,7,9,11,13,-1,-1,-1,-1,-1,-1,-1,-1],"loss_changes":[5.693176E0,3.960077E0,1.5170531E0,3.198975E0,3.5394287E0,3.668666E-1,9.388778E-1,0E0,0E0,0E0,0E0,0E0,0E0,0E0,0E0],"parents":[2147483647,0,0,1,1,2,2,3,3,4,4,5,5,6,6],"right_children":[2,4,6,8,10,12,14,-1,-1,-1,-1,-1,-1,-1,-1],"split_conditions":[8.97E1,6.304296E5,5.7792904E7,5.7962884E7,1.1E1,9.226713E1,2.8954229E3,6.968852E-2,-1.0173078E-2,-1.3107987E-1,-2.6908938E-2,1.1279679E-2,9.0212755E-2,1.3045206E-2,6.81736E-2],"split_indices":[3,40,25,25,9,13,14,0,0,0,0,0,0,0,0],"split_type":[0,0,0,0,0,0,0,0,0,0,0,0,0,0,0],"sum_hessian":[7.5E1,4.9E1,2.6E1,2.3E1,2.6E1,6E0,2E1,6E0,1.7E1,3E0,2.3E1,1E0,5E0,1.7E1,3E0],"tree_param":{"num_deleted":"0","num_feature":"46","num_nodes":"15","size_leaf_vector":"1"}},{"base_weights":[-3.0855578E-3,-3.4726158E-1,1.43663E-1,-1.6389763E-1,-1.3147889E-1,2.9157808E-1,-3.2938182E-1,-3.025727E-2,8.614604E-2,5.117146E-2,9.40942E-3,2.0839997E-2,-5.438843E-2],"categories":[],"categories_nodes":[],"categories_segments":[],"categories_sizes":[],"default_left":[0,0,0,0,0,0,0,0,0,0,0,0,0],"id":40,"left_children":[1,3,5,7,-1,9,11,-1,-1,-1,-1,-1,-1],"loss_changes":[4.3935194E0,4.3971586E0,4.3642387E0,3.5310612E0,0E0,1.9951012E0,1.8436779E0,0E0,0E0,0E0,0E0,0E0,0E0],"parents":[2147483647,0,0,1,1,2,2,3,3,5,5,6,6],"right_children":[2,4,6,8,-1,10,12,-1,-1,-1,-1,-1,-1],"split_conditions":[7.96E1,7.9E1,1E0,7.79E1,-1.3147889E-1,6.4E1,9.286209E2,-3.025727E-2,8.614604E-2,5.117146E-2,9.40942E-3,2.0839997E-2,-5.438843E-2],"split_indices":[0,1,7,0,0,9,16,0,0,0,0,0,0],"split_type":[0,0,0,0,0,0,0,0,0,0,0,0,0],"sum_hessian":[8.5E1,2.5E1,6E1,2.2E1,3E0,4.6E1,1.4E1,2E1,2E0,2.1E1,2.5E1,4E0,1E1],"tree_param":{"num_deleted":"0","num_feature":"46","num_nodes":"13","size_leaf_vector":"1"}},{"base_weights":[-4.679362E-3,-6.703724E-2,1.2124691E0,-8.73539E-1,-2.3129985E-2,5.342382E-2,1.6235809E-1,-1.6480638E-2,-1.05484776E-1,-2.1796418E-2,1.1909329E-2],"categories":[],"categories_nodes":[],"categories_segments":[],"categories_sizes":[],"default_left":[0,0,0,0,0,0,0,0,0,0,0],"id":41,"left_children":[1,3,5,7,9,-1,-1,-1,-1,-1,-1],"loss_changes":[6.229083E0,2.7418747E0,2.4793577E-1,3.4015203E-1,2.104205E0,0E0,0E0,0E0,0E0,0E0,0E0],"parents":[2147483647,0,0,1,1,2,2,3,3,4,4],"right_children":[2,4,6,8,10,-1,-1,-1,-1,-1,-1],"split_conditions":[2.8455405E6,7.01E1,1.007E2,7.02E1,6.026483E5,5.342382E-2,1.6235809E-1,-1.6480638E-2,-1.05484776E-1,-2.1796418E-2,1.1909329E-2],"split_indices":[42,1,0,2,44,0,0,0,0,0,0],"split_type":[0,0,0,0,0,0,0,0,0,0,0],"sum_hessian":[8E1,7.7E1,3E0,3E0,7.4E1,2E0,1E0,1E0,2E0,3.1E1,4.3E1],"tree_param":{"num_deleted":"0","num_feature":"46","num_nodes":"11","size_leaf_vector":"1"}},{"base_weights":[1.6127396E-2,-2.6761237E-1,2.7921605E-1,4.318985E-1,-3.5989642E-1,1.5424004E-1,2.1078715E-1,-3.559914E-2,7.178688E-2,-9.3515396E-2,-1.8268367E-2,2.609609E-2,-5.11734E-2],"categories":[],"categories_nodes":[],"categories_segments":[],"categories_sizes":[],"default_left":[0,0,0,0,0,0,0,0,0,0,0,0,0],"id":42,"left_children":[1,3,5,7,9,-1,11,-1,-1,-1,-1,-1,-1],"loss_changes":[6.0466185E0,2.673033E0,3.3052905E0,1.3821206E0,3.3971663E0,0E0,1.619858E0,0E0,0E0,0E0,0E0,0E0,0E0],"parents":[2147483647,0,0,1,1,2,2,3,3,4,4,6,6],"right_children":[2,4,6,8,10,-1,12,-1,-1,-1,-1,-1,-1],"split_conditions":[8.46E1,8E0,2.5692116E7,6.97E1,1.5E1,1.5424004E-1,1.0315E2,-3.559914E-2,7.178688E-2,-9.3515396E-2,-1.8268367E-2,2.609609E-2,-5.11734E-2],"split_indices":[3,9,32,3,9,0,4,0,0,0,0,0,0],"split_type":[0,0,0,0,0,0,0,0,0,0,0,0,0],"sum_hessian":[7.9E1,3.8E1,4.1E1,4E0,3.4E1,1E0,4E1,1E0,3E0,7E0,2.7E1,3.8E1,2E0],"tree_param":{"num_deleted":"0","num_feature":"46","num_nodes":"13","size_leaf_vector":"1"}},{"base_weights":[-3.660413E-2,5.267986E-1,-1.1874847E-1,6.314087E-1,-2.5965119E-2,-4.302475E-1,8.698455E-2,1.9107563E-2,7.176075E-2,1.8828202E-2,-5.614847E-2,-8.05394E-2,1.9114902E-2],"categories":[],"categories_nodes":[],"categories_segments":[],"categories_sizes":[],"default_left":[0,0,0,0,0,0,0,0,0,0,0,0,0],"id":43,"left_children":[1,3,5,7,-1,9,11,-1,-1,-1,-1,-1,-1],"loss_changes":[3.996386E0,1.0689223E0,4.8438478E0,2.4244428E-1,0E0,2.5409393E0,4.429841E0,0E0,0E0,0E0,0E0,0E0,0E0],"parents":[2147483647,0,0,1,1,2,2,3,3,5,5,6,6],"right_children":[2,4,6,8,-1,10,12,-1,-1,-1,-1,-1,-1],"split_conditions":[5.696669E7,1E0,2.1087118E8,8.14E1,-2.5965119E-2,8.6190936E2,7.18E1,1.9107563E-2,7.176075E-2,1.8828202E-2,-5.614847E-2,-8.05394E-2,1.9114902E-2],"split_indices":[25,7,22,0,0,16,3,0,0,0,0,0,0],"split_type":[0,0,0,0,0,0,0,0,0,0,0,0,0],"sum_hessian":[8.4E1,1E1,7.4E1,9E0,1E0,2.9E1,4.5E1,2E0,7E0,5E0,2.4E1,4E0,4.1E1],"tree_param":{"num_deleted":"0","num_feature":"46","num_nodes":"13","size_leaf_vector":"1"}},{"base_weights":[5.101498E-2,-5.759534E-1,1.4229015E-1,-9.81837E-1,-7.4077606E-2,-1.8726112E-1,3.4260282E-1,-1.197918E-1,-3.6645E-2,-2.4541626E-2,3.9130785E-2,1.1052026E-2,-6.183281E-2,2.3667186E-3,5.3974677E-2],"categories":[],"categories_nodes":[],"categories_segments":[],"categories_sizes":[],"default_left":[0,0,0,0,0,0,0,0,0,0,0,0,0,0,0],"id":44,"left_children":[1,3,5,7,9,11,13,-1,-1,-1,-1,-1,-1,-1,-1],"loss_changes":[4.946217E0,2.1680024E0,5.0151534E0,3.5886335E-1,5.744644E-1,3.7908852E0,2.942409E0,0E0,0E0,0E0,0E0,0E0,0E0,0E0,0E0],"parents":[2147483647,0,0,1,1,2,2,3,3,4,4,5,5,6,6],"right_children":[2,4,6,8,10,12,14,-1,-1,-1,-1,-1,-1,-1,-1],"split_conditions":[7.34E1,1.5E1,1.9241112E8,9.492168E1,1E0,2.5510527E3,6.026483E5,-1.197918E-1,-3.6645E-2,-2.4541626E-2,3.9130785E-2,1.1052026E-2,-6.183281E-2,2.3667186E-3,5.3974677E-2],"split_indices":[3,9,22,13,6,15,44,0,0,0,0,0,0,0,0],"split_type":[0,0,0,0,0,0,0,0,0,0,0,0,0,0,0],"sum_hessian":[8.4E1,1E1,7.4E1,5E0,5E0,2.8E1,4.6E1,3E0,2E0,4E0,1E0,1.7E1,1.1E1,1.8E1,2.8E1],"tree_param":{"num_deleted":"0","num_feature":"46","num_nodes":"15","size_leaf_vector":"1"}},{"base_weights":[-7.4624456E-4,1.4287339E-1,-3.47726E-2,3.245428E-2,-4.0443128E-1,1.3795935E-2,-3.170009E-2,-1.3880895E-1,-9.939437E-3],"categories":[],"categories_nodes":[],"categories_segments":[],"categories_sizes":[],"default_left":[0,0,0,0,0,0,0,0,0],"id":45,"left_children":[1,-1,3,5,7,-1,-1,-1,-1],"loss_changes":[4.1840806E0,0E0,2.1006093E0,2.6983223E0,3.7627082E0,0E0,0E0,0E0,0E0],"parents":[2147483647,0,0,2,2,3,3,4,4],"right_children":[2,-1,4,6,8,-1,-1,-1,-1],"split_conditions":[2.5692116E7,1.4287339E-1,1.048644E6,1.5233865E6,2.6800507E2,1.3795935E-2,-3.170009E-2,-1.3880895E-1,-9.939437E-3],"split_indices":[32,0,40,41,19,0,0,0,0],"split_type":[0,0,0,0,0,0,0,0,0],"sum_hessian":[8.4E1,1E0,8.3E1,7.1E1,1.2E1,5.5E1,1.6E1,2E0,1E1],"tree_param":{"num_deleted":"0","num_feature":"46","num_nodes":"9","size_leaf_vector":"1"}},{"base_weights":[-6.5687925E-2,-2.2840895E-1,2.9492584E-1,-1.162262E-1,-7.8887343E-1,-2.3621368E-1,5.146031E-1,-4.335022E-2,2.0589257E-2,-1.4719416E-1,-3.8343377E-2,7.937165E-3,-5.7164192E-2,9.670977E-2,2.0776432E-2],"categories":[],"categories_nodes":[],"categories_segments":[],"categories_sizes":[],"default_left":[0,0,0,0,0,0,0,0,0,0,0,0,0,0,0],"id":46,"left_children":[1,3,5,7,9,11,13,-1,-1,-1,-1,-1,-1,-1,-1],"loss_changes":[4.703039E0,3.3664076E0,3.0385382E0,4.892681E0,1.9280944E0,8.922219E-1,2.298244E0,0E0,0E0,0E0,0E0,0E0,0E0,0E0,0E0],"parents":[2147483647,0,0,1,1,2,2,3,3,4,4,5,5,6,6],"right_children":[2,4,6,8,10,12,14,-1,-1,-1,-1,-1,-1,-1,-1],"split_conditions":[7.4E1,6.5E1,1.1756464E6,3.7E1,9.226713E1,2.9521725E8,1.2552335E8,-4.335022E-2,2.0589257E-2,-1.4719416E-1,-3.8343377E-2,7.937165E-3,-5.7164192E-2,9.670977E-2,2.0776432E-2],"split_indices":[9,9,41,9,13,29,31,0,0,0,0,0,0,0,0],"split_type":[0,0,0,0,0,0,0,0,0,0,0,0,0,0,0],"sum_hessian":[7.8E1,5.4E1,2.4E1,4.6E1,8E0,7E0,1.7E1,2.3E1,2.3E1,2E0,6E0,4E0,3E0,6E0,1.1E1],"tree_param":{"num_deleted":"0","num_feature":"46","num_nodes":"15","size_leaf_vector":"1"}},{"base_weights":[1.24331815E-2,-1.6047668E-1,2.5617555E-1,4.185974E-1,-2.2263336E-1,3.4992564E-1,-5.3443145E-2,-2.6482392E-2,6.556588E-2,-1.01921536E-1,-1.1749478E-2,8.452035E-3,5.9346057E-2],"categories":[],"categories_nodes":[],"categories_segments":[],"categories_sizes":[],"default_left":[0,0,0,0,0,0,0,0,0,0,0,0,0],"id":47,"left_children":[1,3,5,7,9,11,-1,-1,-1,-1,-1,-1,-1],"loss_changes":[3.4548926E0,1.8208731E0,2.707073E0,9.8369795E-1,3.565314E0,1.9535398E0,0E0,0E0,0E0,0E0,0E0,0E0,0E0],"parents":[2147483647,0,0,1,1,2,2,3,3,4,4,5,5],"right_children":[2,4,6,8,10,12,-1,-1,-1,-1,-1,-1,-1],"split_conditions":[8.76E1,8E0,1.00275E2,6.97E1,1.3E1,2.2510347E8,-5.3443145E-2,-2.6482392E-2,6.556588E-2,-1.01921536E-1,-1.1749478E-2,8.452035E-3,5.9346057E-2],"split_indices":[0,9,5,3,9,22,0,0,0,0,0,0,0],"split_type":[0,0,0,0,0,0,0,0,0,0,0,0,0],"sum_hessian":[8E1,4.7E1,3.3E1,4E0,4.3E1,3E1,3E0,1E0,3E0,4E0,3.9E1,1.5E1,1.5E1],"tree_param":{"num_deleted":"0","num_feature":"46","num_nodes":"13","size_leaf_vector":"1"}},{"base_weights":[3.0702401E-2,-1.1401678E-1,3.1900364E-1,4.071668E-1,-1.755083E-1,1.2792663E-1,2.328679E-1,-1.7816925E-2,5.5986788E-2,-2.7879706E-2,2.0665256E-2,6.1419573E-2,8.775978E-3],"categories":[],"categories_nodes":[],"categories_segments":[],"categories_sizes":[],"default_left":[0,0,0,0,0,0,0,0,0,0,0,0,0],"id":48,"left_children":[1,3,5,7,9,-1,11,-1,-1,-1,-1,-1,-1],"loss_changes":[3.3741894E0,1.8020732E0,1.9353487E0,6.3603985E-1,1.991787E0,0E0,1.3847759E0,0E0,0E0,0E0,0E0,0E0,0E0],"parents":[2147483647,0,0,1,1,2,2,3,3,4,4,6,6],"right_children":[2,4,6,8,10,-1,12,-1,-1,-1,-1,-1,-1],"split_conditions":[8.9825E1,8.5882074E2,2.5692116E7,7.76E1,2.5712402E3,1.2792663E-1,5.7792904E7,-1.7816925E-2,5.5986788E-2,-2.7879706E-2,2.0665256E-2,6.1419573E-2,8.775978E-3],"split_indices":[5,16,32,0,15,0,25,0,0,0,0,0,0],"split_type":[0,0,0,0,0,0,0,0,0,0,0,0,0],"sum_hessian":[7.9E1,5.3E1,2.6E1,5E0,4.8E1,1E0,2.5E1,1E0,4E0,3.8E1,1E1,6E0,1.9E1],"tree_param":{"num_deleted":"0","num_feature":"46","num_nodes":"13","size_leaf_vector":"1"}},{"base_weights":[4.8757873E-2,-1.0510098E-1,2.4643528E-1,-1.8935412E-2,-9.620228E-1,1.2153015E-1,1.8024838E-1,-6.324368E-2,1.2597478E-2,1.6663361E-2,-1.393786E-1,7.4225776E-2,7.7134757E-3],"categories":[],"categories_nodes":[],"categories_segments":[],"categories_sizes":[],"default_left":[0,0,0,0,0,0,0,0,0,0,0,0,0],"id":49,"left_children":[1,3,5,7,9,-1,11,-1,-1,-1,-1,-1,-1],"loss_changes":[2.3678107E0,3.2306185E0,1.9612365E0,3.7246773E0,2.1815012E0,0E0,1.8551229E0,0E0,0E0,0E0,0E0,0E0,0E0],"parents":[2147483647,0,0,1,1,2,2,3,3,4,4,6,6],"right_children":[2,4,6,8,10,-1,12,-1,-1,-1,-1,-1,-1],"split_conditions":[6.0549594E5,2.5983892E3,1.4198367E2,1.9E1,7.34E1,1.2153015E-1,1.8E1,-6.324368E-2,1.2597478E-2,1.6663361E-2,-1.393786E-1,7.4225776E-2,7.7134757E-3],"split_indices":[44,15,18,9,0,0,9,0,0,0,0,0,0],"split_type":[0,0,0,0,0,0,0,0,0,0,0,0,0],"sum_hessian":[7.6E1,4.3E1,3.3E1,4E1,3E0,1E0,3.2E1,7E0,3.3E1,1E0,2E0,4E0,2.8E1],"tree_param":{"num_deleted":"0","num_feature":"46","num_nodes":"13","size_leaf_vector":"1"}},{"base_weights":[-9.84597E-2,1.6102571E-2,-2.7599844E-1,6.276428E-2,-4.793501E-2,-4.5651862E-1,3.6841758E-2,-1.5722256E-2,4.4311356E-2,2.4548124E-3,-6.5058194E-2,-1.6977215E-2,3.0618668E-2],"categories":[],"categories_nodes":[],"categories_segments":[],"categories_sizes":[],"default_left":[0,0,0,0,0,0,0,0,0,0,0,0,0],"id":50,"left_children":[1,3,5,-1,7,9,11,-1,-1,-1,-1,-1,-1],"loss_changes":[1.7129405E0,2.066487E0,1.88046E0,0E0,2.645611E0,1.9764752E0,7.7543724E-1,0E0,0E0,0E0,0E0,0E0,0E0],"parents":[2147483647,0,0,1,1,2,2,4,4,5,5,6,6],"right_children":[2,4,6,-1,8,10,12,-1,-1,-1,-1,-1,-1],"split_conditions":[8.212177E7,2.8753312E8,1.5247865E7,6.276428E-2,1.1703093E3,2.6800507E2,8.559888E7,-1.5722256E-2,4.4311356E-2,2.4548124E-3,-6.5058194E-2,-1.6977215E-2,3.0618668E-2],"split_indices":[25,29,33,0,16,19,25,0,0,0,0,0,0],"split_type":[0,0,0,0,0,0,0,0,0,0,0,0,0],"sum_hessian":[8.3E1,5.1E1,3.2E1,4E0,4.7E1,2E1,1.2E1,3.9E1,8E0,6E0,1.4E1,7E0,5E0],"tree_param":{"num_deleted":"0","num_feature":"46","num_nodes":"13","size_leaf_vector":"1"}},{"base_weights":[-9.9588625E-2,2.9983217E-1,-1.5293957E-1,-6.542587E-2,4.6571785E-1,-3.7262854E-1,-7.95942E-2,-6.439209E-4,-8.294169E-3,6.986618E-3,5.200488E-2,1.9909231E-2,-6.7508005E-2,7.785654E-3,-2.779474E-2],"categories":[],"categories_nodes":[],"categories_segments":[],"categories_sizes":[],"default_left":[0,0,0,0,0,0,0,0,0,0,0,0,0,0,0],"id":51,"left_children":[1,3,5,7,9,11,13,-1,-1,-1,-1,-1,-1,-1,-1],"loss_changes":[1.7932334E0,6.3638073E-1,1.1466023E0,3.5987198E-3,1.14215136E-1,3.2469237E0,1.7705679E0,0E0,0E0,0E0,0E0,0E0,0E0,0E0,0E0],"parents":[2147483647,0,0,1,1,2,2,3,3,4,4,5,5,6,6],"right_children":[2,4,6,8,10,12,14,-1,-1,-1,-1,-1,-1,-1,-1],"split_conditions":[1.8062072E8,1.162336E9,1.9052534E8,9.28E1,9.21E1,2.5188977E3,8.212177E7,-6.439209E-4,-8.294169E-3,6.986618E-3,5.200488E-2,1.9909231E-2,-6.7508005E-2,7.785654E-3,-2.779474E-2],"split_indices":[30,27,22,1,1,15,25,0,0,0,0,0,0,0,0],"split_type":[0,0,0,0,0,0,0,0,0,0,0,0,0,0,0],"sum_hessian":[8.1E1,9E0,7.2E1,3E0,6E0,1.7E1,5.5E1,1E0,2E0,1E0,5E0,6E0,1.1E1,3.1E1,2.4E1],"tree_param":{"num_deleted":"0","num_feature":"46","num_nodes":"15","size_leaf_vector":"1"}},{"base_weights":[1.1569691E-2,-4.078369E-1,7.731116E-2,-7.5281906E-1,5.118052E-3,-1.804107E-1,2.072689E-1,-3.3863258E-2,-1.054128E-1,-2.701594E-2,2.1029664E-2,-3.7269976E-2,8.072177E-3,-1.1518606E-2,3.938329E-2],"categories":[],"categories_nodes":[],"categories_segments":[],"categories_sizes":[],"default_left":[0,0,0,0,0,0,0,0,0,0,0,0,0,0,0],"id":52,"left_children":[1,3,5,7,9,11,13,-1,-1,-1,-1,-1,-1,-1,-1],"loss_changes":[2.237323E0,1.5709358E0,2.3819E0,3.9182615E-1,3.9569983E-1,1.2351949E0,2.872813E0,0E0,0E0,0E0,0E0,0E0,0E0,0E0,0E0],"parents":[2147483647,0,0,1,1,2,2,3,3,4,4,5,5,6,6],"right_children":[2,4,6,8,10,12,14,-1,-1,-1,-1,-1,-1,-1,-1],"split_conditions":[7.34E1,1.5E1,6.026483E5,7.14E1,7.19E1,8.84E1,1.9241112E8,-3.3863258E-2,-1.054128E-1,-2.701594E-2,2.1029664E-2,-3.7269976E-2,8.072177E-3,-1.1518606E-2,3.938329E-2],"split_indices":[3,9,44,3,1,2,22,0,0,0,0,0,0,0,0],"split_type":[0,0,0,0,0,0,0,0,0,0,0,0,0,0,0],"sum_hessian":[7.9E1,1E1,6.9E1,5E0,5E0,2.3E1,4.6E1,3E0,2E0,2E0,3E0,1.3E1,1E1,1.7E1,2.9E1],"tree_param":{"num_deleted":"0","num_feature":"46","num_nodes":"15","size_leaf_vector":"1"}},{"base_weights":[-1.7817793E-2,4.2614493E-1,-6.817028E-2,9.1340256E-1,3.028234E-2,3.444765E-1,-1.19517475E-1,1.12604015E-1,1.3774491E-2,-1.6152192E-2,2.7592722E-2,-4.304886E-2,6.273934E-2,-1.9097358E-2,2.1397693E-2],"categories":[],"categories_nodes":[],"categories_segments":[],"categories_sizes":[],"default_left":[0,0,0,0,0,0,0,0,0,0,0,0,0,0,0],"id":53,"left_children":[1,3,5,7,9,11,13,-1,-1,-1,-1,-1,-1,-1,-1],"loss_changes":[1.9739031E0,1.7083237E0,1.7150432E0,5.046296E-1,3.2726267E-1,2.2433424E0,1.7328087E0,0E0,0E0,0E0,0E0,0E0,0E0,0E0,0E0],"parents":[2147483647,0,0,1,1,2,2,3,3,4,4,5,5,6,6],"right_children":[2,4,6,8,10,12,14,-1,-1,-1,-1,-1,-1,-1,-1],"split_conditions":[1.8704077E2,1.007E2,2.8753312E8,1.02E2,2.9805293E8,1.2007051E6,1.1703093E3,1.12604015E-1,1.3774491E-2,-1.6152192E-2,2.7592722E-2,-4.304886E-2,6.273934E-2,-1.9097358E-2,2.1397693E-2],"split_indices":[18,1,29,0,29,41,16,0,0,0,0,0,0,0,0],"split_type":[0,0,0,0,0,0,0,0,0,0,0,0,0,0,0],"sum_hessian":[8.6E1,8E0,7.8E1,3E0,5E0,8E0,7E1,2E0,1E0,3E0,2E0,2E0,6E0,5.8E1,1.2E1],"tree_param":{"num_deleted":"0","num_feature":"46","num_nodes":"15","size_leaf_vector":"1"}},{"base_weights":[9.079715E-3,1.0825157E-1,-1.721238E-2,4.247265E-1,-6.412303E-2,5.567311E-2,-2.4965286E-2,9.157068E-3,-1.8863406E-2],"categories":[],"categories_nodes":[],"categories_segments":[],"categories_sizes":[],"default_left":[0,0,0,0,0,0,0,0,0],"id":54,"left_children":[1,-1,3,5,7,-1,-1,-1,-1],"loss_changes":[2.361132E0,0E0,1.7272291E0,8.5115886E-1,1.4711922E0,0E0,0E0,0E0,0E0],"parents":[2147483647,0,0,2,2,3,3,4,4],"right_children":[2,-1,4,6,8,-1,-1,-1,-1],"split_conditions":[2.5692116E7,1.0825157E-1,5.696669E7,1E0,9.8039496E2,5.567311E-2,-2.4965286E-2,9.157068E-3,-1.8863406E-2],"split_indices":[32,0,25,7,16,0,0,0,0],"split_type":[0,0,0,0,0,0,0,0,0],"sum_hessian":[8.2E1,1E0,8.1E1,7E0,7.4E1,6E0,1E0,3.3E1,4.1E1],"tree_param":{"num_deleted":"0","num_feature":"46","num_nodes":"9","size_leaf_vector":"1"}},{"base_weights":[-1.6043663E-3,1.1720616E-1,-2.676758E-1,5.726301E-2,7.1717376E-1,-4.8797607E-1,5.706787E-2,-8.836948E-3,3.148547E-2,3.822727E-2,1.02838896E-1,1.1367035E-2,-7.170903E-2,2.0330157E-2,-1.5907288E-2],"categories":[],"categories_nodes":[],"categories_segments":[],"categories_sizes":[],"default_left":[0,0,0,0,0,0,0,0,0,0,0,0,0,0,0],"id":55,"left_children":[1,3,5,7,9,11,13,-1,-1,-1,-1,-1,-1,-1,-1],"loss_changes":[2.5603402E0,1.9729137E0,1.8163755E0,1.9785366E0,1.2800646E-1,2.1491983E0,3.8001743E-1,0E0,0E0,0E0,0E0,0E0,0E0,0E0,0E0],"parents":[2147483647,0,0,1,1,2,2,3,3,4,4,5,5,6,6],"right_children":[2,4,6,8,10,12,14,-1,-1,-1,-1,-1,-1,-1,-1],"split_conditions":[2.5561335E3,1.1608626E2,1.1463691E2,2.5334014E3,9.955E1,5.7792904E7,1.3497078E6,-8.836948E-3,3.148547E-2,3.822727E-2,1.02838896E-1,1.1367035E-2,-7.170903E-2,2.0330157E-2,-1.5907288E-2],"split_indices":[15,10,13,15,5,25,41,0,0,0,0,0,0,0,0],"split_type":[0,0,0,0,0,0,0,0,0,0,0,0,0,0,0],"sum_hessian":[7.9E1,5.5E1,2.4E1,5.1E1,4E0,1.4E1,1E1,3.3E1,1.8E1,3E0,1E0,4E0,1E1,6E0,4E0],"tree_param":{"num_deleted":"0","num_feature":"46","num_nodes":"15","size_leaf_vector":"1"}},{"base_weights":[-1.1070438E-2,9.769707E-2,-3.532984E-2,1.0267029E-1,-1.373442E-1,-6.388054E-2,1.43266795E-2,3.533495E-2,-2.4705956E-2],"categories":[],"categories_nodes":[],"categories_segments":[],"categories_sizes":[],"default_left":[0,0,0,0,0,0,0,0,0],"id":56,"left_children":[1,-1,3,5,7,-1,-1,-1,-1],"loss_changes":[1.999998E0,0E0,1.1544187E0,1.1450658E0,2.6176198E0,0E0,0E0,0E0,0E0],"parents":[2147483647,0,0,2,2,3,3,4,4],"right_children":[2,-1,4,6,8,-1,-1,-1,-1],"split_conditions":[2.5692116E7,9.769707E-2,9.7460455E2,7.01E1,1.0192908E7,-6.388054E-2,1.43266795E-2,3.533495E-2,-2.4705956E-2],"split_indices":[32,0,16,1,33,0,0,0,0],"split_type":[0,0,0,0,0,0,0,0,0],"sum_hessian":[8.1E1,1E0,8E1,3.4E1,4.6E1,1E0,3.3E1,8E0,3.8E1],"tree_param":{"num_deleted":"0","num_feature":"46","num_nodes":"9","size_leaf_vector":"1"}},{"base_weights":[4.3050766E-2,9.281235E-2,2.0098915E-2,-3.017784E-1,6.579427E-2,-6.602224E-2,1.8871002E-2,4.7727775E-2,1.2498038E-3],"categories":[],"categories_nodes":[],"categories_segments":[],"categories_sizes":[],"default_left":[0,0,0,0,0,0,0,0,0],"id":57,"left_children":[1,-1,3,5,7,-1,-1,-1,-1],"loss_changes":[1.6064703E0,0E0,1.1818106E0,1.8827168E0,1.5291711E0,0E0,0E0,0E0,0E0],"parents":[2147483647,0,0,2,2,3,3,4,4],"right_children":[2,-1,4,6,8,-1,-1,-1,-1],"split_conditions":[1.4198367E2,9.281235E-2,7.34E1,1.5E1,7.76E1,-6.602224E-2,1.8871002E-2,4.7727775E-2,1.2498038E-3],"split_indices":[18,0,3,9,2,0,0,0,0],"split_type":[0,0,0,0,0,0,0,0,0],"sum_hessian":[7.9E1,1E0,7.8E1,9E0,6.9E1,5E0,4E0,7E0,6.2E1],"tree_param":{"num_deleted":"0","num_feature":"46","num_nodes":"9","size_leaf_vector":"1"}},{"base_weights":[1.3836633E-2,1.3265717E-1,-1.8339229E-1,2.4515808E-1,-1.6868897E-1,-8.037221E-3,-5.1743037E-1,1.7390532E-2,6.08064E-2,8.393436E-3,-4.6939198E-2,-4.091158E-2,2.0640716E-2,-8.8536836E-2,-6.3254037E-3],"categories":[],"categories_nodes":[],"categories_segments":[],"categories_sizes":[],"default_left":[0,0,0,0,0,0,0,0,0,0,0,0,0,0,0],"id":58,"left_children":[1,3,5,7,9,11,13,-1,-1,-1,-1,-1,-1,-1,-1],"loss_changes":[1.9928553E0,1.8381462E0,1.8702501E0,9.027183E-1,1.1788671E0,1.9766434E0,1.782193E0,0E0,0E0,0E0,0E0,0E0,0E0,0E0,0E0],"parents":[2147483647,0,0,1,1,2,2,3,3,4,4,5,5,6,6],"right_children":[2,4,6,8,10,12,14,-1,-1,-1,-1,-1,-1,-1,-1],"split_conditions":[3.5319283E8,1E0,1.3497078E6,2.6806413E8,8.212177E7,8.04E1,9.492168E1,1.7390532E-2,6.08064E-2,8.393436E-3,-4.6939198E-2,-4.091158E-2,2.0640716E-2,-8.8536836E-2,-6.3254037E-3],"split_indices":[29,7,41,28,25,0,13,0,0,0,0,0,0,0,0],"split_type":[0,0,0,0,0,0,0,0,0,0,0,0,0,0,0],"sum_hessian":[8.3E1,5.2E1,3.1E1,3.8E1,1.4E1,2.1E1,1E1,3.3E1,5E0,8E0,6E0,7E0,1.4E1,5E0,5E0],"tree_param":{"num_deleted":"0","num_feature":"46","num_nodes":"15","size_leaf_vector":"1"}},{"base_weights":[7.558155E-3,5.5710477E-1,-3.6506347E-2,8.765132E-2,1.7827226E-2,2.9972076E-2,-2.835188E-1,-5.255E-3,3.3236343E-2,-5.010773E-2,6.7781727E-3],"categories":[],"categories_nodes":[],"categories_segments":[],"categories_sizes":[],"default_left":[0,0,0,0,0,0,0,0,0,0,0],"id":59,"left_children":[1,3,5,-1,-1,7,9,-1,-1,-1,-1],"loss_changes":[1.9575777E0,5.697559E-1,1.2400725E0,0E0,0E0,1.5147033E0,1.2568184E0,0E0,0E0,0E0,0E0],"parents":[2147483647,0,0,1,1,2,2,5,5,6,6],"right_children":[2,4,6,-1,-1,8,10,-1,-1,-1,-1],"split_conditions":[1.8704077E2,1.3878735E2,8.369855E7,8.765132E-2,1.7827226E-2,6.3509844E5,1.4428049E2,-5.255E-3,3.3236343E-2,-5.010773E-2,6.7781727E-3],"split_indices":[18,21,25,0,0,44,21,0,0,0,0],"split_type":[0,0,0,0,0,0,0,0,0,0,0],"sum_hessian":[7.9E1,5E0,7.4E1,2E0,3E0,5.9E1,1.5E1,4.7E1,1.2E1,9E0,6E0],"tree_param":{"num_deleted":"0","num_feature":"46","num_nodes":"11","size_leaf_vector":"1"}},{"base_weights":[-2.9248064E-2,5.201903E-2,-2.7165657E-1,1.1674267E-3,6.4166415E-1,-6.176137E-1,-9.209951E-2,7.0654526E-3,-5.25116E-2,8.180771E-2,2.5136312E-2,-8.407917E-2,-2.400322E-2,-2.0736618E-2,1.1536154E-2],"categories":[],"categories_nodes":[],"categories_segments":[],"categories_sizes":[],"default_left":[0,0,0,0,0,0,0,0,0,0,0,0,0,0,0],"id":60,"left_children":[1,3,5,7,9,11,13,-1,-1,-1,-1,-1,-1,-1,-1],"loss_changes":[1.6492177E0,1.888268E0,1.2476178E0,2.1947262E0,1.3863611E-1,3.880582E-1,3.826222E-1,0E0,0E0,0E0,0E0,0E0,0E0,0E0,0E0],"parents":[2147483647,0,0,1,1,2,2,3,3,4,4,5,5,6,6],"right_children":[2,4,6,8,10,12,14,-1,-1,-1,-1,-1,-1,-1,-1],"split_conditions":[2.7326593E2,1.4652594E2,5.006583E7,2.5983892E3,1.012E2,2.5576982E3,6.7E1,7.0654526E-3,-5.25116E-2,8.180771E-2,2.5136312E-2,-8.407917E-2,-2.400322E-2,-2.0736618E-2,1.1536154E-2],"split_indices":[19,11,24,15,3,15,9,0,0,0,0,0,0,0,0],"split_type":[0,0,0,0,0,0,0,0,0,0,0,0,0,0,0],"sum_hessian":[8.2E1,6.2E1,2E1,5.8E1,4E0,6E0,1.4E1,5.2E1,6E0,2E0,2E0,3E0,3E0,9E0,5E0],"tree_param":{"num_deleted":"0","num_feature":"46","num_nodes":"15","size_leaf_vector":"1"}},{"base_weights":[-4.3945678E-2,2.2851266E-1,-1.1648753E-1,-2.5809938E-1,3.8598034E-1,-3.695764E-1,-2.9840507E-2,-3.0191803E-2,-4.1412353E-3,5.4870438E-2,7.756424E-3,-4.094587E-3,-5.451071E-2,-2.3130035E-2,6.8864003E-3],"categories":[],"categories_nodes":[],"categories_segments":[],"categories_sizes":[],"default_left":[0,0,0,0,0,0,0,0,0,0,0,0,0,0,0],"id":61,"left_children":[1,3,5,7,9,11,13,-1,-1,-1,-1,-1,-1,-1,-1],"loss_changes":[1.6868482E0,1.4788833E0,1.4582412E0,3.4971535E-2,6.6005397E-1,9.583206E-1,1.0300632E0,0E0,0E0,0E0,0E0,0E0,0E0,0E0,0E0],"parents":[2147483647,0,0,1,1,2,2,3,3,4,4,5,5,6,6],"right_children":[2,4,6,8,10,12,14,-1,-1,-1,-1,-1,-1,-1,-1],"split_conditions":[2.5106914E3,1.190652E7,2.536708E3,9.32E1,3.2398192E8,2.516875E3,8.04E1,-3.0191803E-2,-4.1412353E-3,5.4870438E-2,7.756424E-3,-4.094587E-3,-5.451071E-2,-2.3130035E-2,6.8864003E-3],"split_indices":[15,33,15,0,29,15,0,0,0,0,0,0,0,0,0],"split_type":[0,0,0,0,0,0,0,0,0,0,0,0,0,0,0],"sum_hessian":[8.3E1,1.7E1,6.6E1,4E0,1.3E1,1.6E1,5E1,3E0,1E0,8E0,5E0,6E0,1E1,1.6E1,3.4E1],"tree_param":{"num_deleted":"0","num_feature":"46","num_nodes":"15","size_leaf_vector":"1"}},{"base_weights":[4.380329E-2,1.2433624E-1,-1.2204479E-1,9.394279E-2,8.523979E-2,7.413842E-2,-4.4335175E-1,1.93013E-2,-2.18115E-2,-3.2293398E-2,2.2115562E-2,5.380859E-3,-7.837601E-2],"categories":[],"categories_nodes":[],"categories_segments":[],"categories_sizes":[],"default_left":[0,0,0,0,0,0,0,0,0,0,0,0,0],"id":62,"left_children":[1,3,5,7,-1,9,11,-1,-1,-1,-1,-1,-1],"loss_changes":[1.0569608E0,1.0927237E0,1.6717801E0,1.6497118E0,0E0,1.0638187E0,1.7345483E0,0E0,0E0,0E0,0E0,0E0,0E0],"parents":[2147483647,0,0,1,1,2,2,3,3,5,5,6,6],"right_children":[2,4,6,8,-1,10,12,-1,-1,-1,-1,-1,-1],"split_conditions":[2.5561335E3,2.55343E3,9.0615794E5,1.0455254E3,8.523979E-2,2.5712402E3,5.190744E2,1.93013E-2,-2.18115E-2,-3.2293398E-2,2.2115562E-2,5.380859E-3,-7.837601E-2],"split_indices":[15,15,40,16,0,15,17,0,0,0,0,0,0],"split_type":[0,0,0,0,0,0,0,0,0,0,0,0,0],"sum_hessian":[7.7E1,5.2E1,2.5E1,5.1E1,1E0,1.6E1,9E0,3.9E1,1.2E1,4E0,1.2E1,4E0,5E0],"tree_param":{"num_deleted":"0","num_feature":"46","num_nodes":"13","size_leaf_vector":"1"}},{"base_weights":[2.0311356E-2,9.566273E-2,-2.105259E-1,-2.2169419E-1,1.5485324E-1,3.1851196E-1,-3.2262152E-1,-6.946468E-2,8.023507E-3,-1.1037763E-2,2.2870487E-2,4.4713847E-2,-3.3683777E-3,-4.1096877E-2,6.72493E-3],"categories":[],"categories_nodes":[],"categories_segments":[],"categories_sizes":[],"default_left":[0,0,0,0,0,0,0,0,0,0,0,0,0,0,0],"id":63,"left_children":[1,3,5,7,9,11,13,-1,-1,-1,-1,-1,-1,-1,-1],"loss_changes":[1.4116517E0,1.1801854E0,1.2888154E0,1.4837174E0,1.0438063E0,1.9626817E-1,6.131855E-1,0E0,0E0,0E0,0E0,0E0,0E0,0E0,0E0],"parents":[2147483647,0,0,1,1,2,2,3,3,4,4,5,5,6,6],"right_children":[2,4,6,8,10,12,14,-1,-1,-1,-1,-1,-1,-1,-1],"split_conditions":[1.5233865E6,7.34E1,8.5882074E2,1.3E1,9.130993E2,8.25E1,7.1E1,-6.946468E-2,8.023507E-3,-1.1037763E-2,2.2870487E-2,4.4713847E-2,-3.3683777E-3,-4.1096877E-2,6.72493E-3],"split_indices":[41,3,16,9,16,0,9,0,0,0,0,0,0,0,0],"split_type":[0,0,0,0,0,0,0,0,0,0,0,0,0,0,0],"sum_hessian":[7.9E1,6E1,1.9E1,9E0,5.1E1,3E0,1.6E1,3E0,6E0,1.1E1,4E1,2E0,1E0,1.3E1,3E0],"tree_param":{"num_deleted":"0","num_feature":"46","num_nodes":"15","size_leaf_vector":"1"}},{"base_weights":[-4.679271E-3,1.0810748E-1,-1.2560458E-1,9.747188E-3,4.895367E-1,8.312788E-2,-2.9257467E-1,8.612263E-3,-8.590902E-2,1.1147003E-2,7.696961E-2,-7.652664E-3,3.1221867E-2,-6.2345352E-2,-3.533445E-3],"categories":[],"categories_nodes":[],"categories_segments":[],"categories_sizes":[],"default_left":[0,0,0,0,0,0,0,0,0,0,0,0,0,0,0],"id":64,"left_children":[1,3,5,7,9,11,13,-1,-1,-1,-1,-1,-1,-1,-1],"loss_changes":[1.1592356E0,1.6459979E0,1.4532564E0,2.462869E0,8.674722E-1,7.188253E-1,1.9356239E0,0E0,0E0,0E0,0E0,0E0,0E0,0E0,0E0],"parents":[2147483647,0,0,1,1,2,2,3,3,4,4,5,5,6,6],"right_children":[2,4,6,8,10,12,14,-1,-1,-1,-1,-1,-1,-1,-1],"split_conditions":[1.1748186E8,1.1299227E3,8.18E1,1.0795399E3,7.98E1,7.79E1,7E1,8.612263E-3,-8.590902E-2,1.1147003E-2,7.696961E-2,-7.652664E-3,3.1221867E-2,-6.2345352E-2,-3.533445E-3],"split_indices":[31,16,1,16,0,0,9,0,0,0,0,0,0,0,0],"split_type":[0,0,0,0,0,0,0,0,0,0,0,0,0,0,0],"sum_hessian":[8.3E1,4.3E1,4E1,3.5E1,8E0,1.8E1,2.2E1,3.3E1,2E0,4E0,4E0,1.1E1,7E0,9E0,1.3E1],"tree_param":{"num_deleted":"0","num_feature":"46","num_nodes":"15","size_leaf_vector":"1"}},{"base_weights":[-1.5933072E-2,7.137527E-2,-3.4438696E-2,3.248855E-2,-1.9589466E-1,2.1079622E-2,-1.290713E-2,-5.076294E-2,-5.601008E-3],"categories":[],"categories_nodes":[],"categories_segments":[],"categories_sizes":[],"default_left":[0,0,0,0,0,0,0,0,0],"id":65,"left_children":[1,-1,3,5,7,-1,-1,-1,-1],"loss_changes":[1.0913407E0,0E0,8.492169E-1,1.6404198E0,9.745259E-1,0E0,0E0,0E0,0E0],"parents":[2147483647,0,0,2,2,3,3,4,4],"right_children":[2,-1,4,6,8,-1,-1,-1,-1],"split_conditions":[2.5692116E7,7.137527E-2,8.230559E7,1.14477704E8,1.3878735E2,2.1079622E-2,-1.290713E-2,-5.076294E-2,-5.601008E-3],"split_indices":[32,0,25,31,21,0,0,0,0],"split_type":[0,0,0,0,0,0,0,0,0],"sum_hessian":[7.8E1,1E0,7.7E1,5.5E1,2.2E1,2.6E1,2.9E1,6E0,1.6E1],"tree_param":{"num_deleted":"0","num_feature":"46","num_nodes":"9","size_leaf_vector":"1"}},{"base_weights":[1.2529538E-2,4.8814546E-2,-1.8517334E-2,-4.77134E-2,4.1144866E-1,5.2784295E-3,-1.3668022E-2,8.479691E-3,4.719124E-2],"categories":[],"categories_nodes":[],"categories_segments":[],"categories_sizes":[],"default_left":[0,0,0,0,0,0,0,0,0],"id":66,"left_children":[1,-1,3,5,7,-1,-1,-1,-1],"loss_changes":[1.2051164E0,0E0,9.862369E-1,6.599046E-1,5.8736205E-2,0E0,0E0,0E0,0E0],"parents":[2147483647,0,0,2,2,3,3,4,4],"right_children":[2,-1,4,6,8,-1,-1,-1,-1],"split_conditions":[5.6399936E7,4.8814546E-2,1.2242976E3,8.67E1,7.99E1,5.2784295E-3,-1.3668022E-2,8.479691E-3,4.719124E-2],"split_indices":[25,0,16,1,1,0,0,0,0],"split_type":[0,0,0,0,0,0,0,0,0],"sum_hessian":[8E1,4E0,7.6E1,7.2E1,4E0,3.4E1,3.8E1,1E0,3E0],"tree_param":{"num_deleted":"0","num_feature":"46","num_nodes":"9","size_leaf_vector":"1"}},{"base_weights":[3.3468223E-4,-2.2841327E-1,3.8454693E-2,-6.3911057E-1,-2.0501878E-2,2.3274612E-1,-3.558839E-2,-1.2208176E-2,-7.707596E-2,2.4667105E-2,-1.3207572E-2,3.7794366E-2,1.328871E-3,-1.516741E-2,1.2242227E-2],"categories":[],"categories_nodes":[],"categories_segments":[],"categories_sizes":[],"default_left":[0,0,0,0,0,0,0,0,0,0,0,0,0,0,0],"id":67,"left_children":[1,3,5,7,9,11,13,-1,-1,-1,-1,-1,-1,-1,-1],"loss_changes":[7.3253304E-1,1.0115609E0,1.0440705E0,1.7816961E-1,3.0086482E-1,6.322712E-1,9.907354E-1,0E0,0E0,0E0,0E0,0E0,0E0,0E0,0E0],"parents":[2147483647,0,0,1,1,2,2,3,3,4,4,5,5,6,6],"right_children":[2,4,6,8,10,12,14,-1,-1,-1,-1,-1,-1,-1,-1],"split_conditions":[7.34E1,1.3E1,5.7962884E7,6.97E1,6.97E1,7.6416944E5,7E1,-1.2208176E-2,-7.707596E-2,2.4667105E-2,-1.3207572E-2,3.7794366E-2,1.328871E-3,-1.516741E-2,1.2242227E-2],"split_indices":[3,9,25,3,2,40,9,0,0,0,0,0,0,0,0],"split_type":[0,0,0,0,0,0,0,0,0,0,0,0,0,0,0],"sum_hessian":[8.2E1,1.1E1,7.1E1,3E0,8E0,1.9E1,5.2E1,1E0,2E0,2E0,6E0,1.1E1,8E0,3E1,2.2E1],"tree_param":{"num_deleted":"0","num_feature":"46","num_nodes":"15","size_leaf_vector":"1"}},{"base_weights":[-3.451384E-2,6.787758E-2,-5.128571E-2,3.154846E-1,-7.3849835E-2,-1.1597824E-2,4.523449E-2,-5.767339E-2,-5.329786E-3],"categories":[],"categories_nodes":[],"categories_segments":[],"categories_sizes":[],"default_left":[0,0,0,0,0,0,0,0,0],"id":68,"left_children":[1,-1,3,5,7,-1,-1,-1,-1],"loss_changes":[1.0397205E0,0E0,7.1019423E-1,3.477128E-1,7.8574693E-1,0E0,0E0,0E0,0E0],"parents":[2147483647,0,0,2,2,3,3,4,4],"right_children":[2,-1,4,6,8,-1,-1,-1,-1],"split_conditions":[1.4198367E2,6.787758E-2,8E0,6.97E1,1E1,-1.1597824E-2,4.523449E-2,-5.767339E-2,-5.329786E-3],"split_indices":[18,0,9,3,9,0,0,0,0],"split_type":[0,0,0,0,0,0,0,0,0],"sum_hessian":[8.3E1,1E0,8.2E1,4E0,7.8E1,1E0,3E0,2E0,7.6E1],"tree_param":{"num_deleted":"0","num_feature":"46","num_nodes":"9","size_leaf_vector":"1"}},{"base_weights":[4.4237655E-2,9.9510305E-2,-1.6702779E-1,-1.5156937E-2,2.5424063E-1,-4.5603657E-1,5.8344755E-2,-9.417956E-3,3.12706E-2,7.043915E-2,1.7520817E-2,-3.189087E-3,-5.921033E-2,-1.780065E-2,1.3064575E-2],"categories":[],"categories_nodes":[],"categories_segments":[],"categories_sizes":[],"default_left":[0,0,0,0,0,0,0,0,0,0,0,0,0,0,0],"id":69,"left_children":[1,3,5,7,9,11,13,-1,-1,-1,-1,-1,-1,-1,-1],"loss_changes":[1.0091832E0,1.2103436E0,1.1990309E0,1.065794E0,9.0830433E-1,4.4281423E-1,2.1122852E-1,0E0,0E0,0E0,0E0,0E0,0E0,0E0,0E0],"parents":[2147483647,0,0,1,1,2,2,3,3,4,4,5,5,6,6],"right_children":[2,4,6,8,10,12,14,-1,-1,-1,-1,-1,-1,-1,-1],"split_conditions":[8.268851E7,8.805E1,1.2007051E6,6.3509844E5,5.8E1,8.4482E2,2.8904608E8,-9.417956E-3,3.12706E-2,7.043915E-2,1.7520817E-2,-3.189087E-3,-5.921033E-2,-1.780065E-2,1.3064575E-2],"split_indices":[25,4,41,44,9,16,29,0,0,0,0,0,0,0,0],"split_type":[0,0,0,0,0,0,0,0,0,0,0,0,0,0,0],"sum_hessian":[8.4E1,6.7E1,1.7E1,3.9E1,2.8E1,7E0,1E1,3.2E1,7E0,3E0,2.5E1,2E0,5E0,2E0,8E0],"tree_param":{"num_deleted":"0","num_feature":"46","num_nodes":"15","size_leaf_vector":"1"}},{"base_weights":[-5.9528113E-3,-3.9178975E-2,3.5089222E-1,2.9271084E-4,-5.918411E-1,5.2767026E-1,-6.070201E-3,6.360779E-2,-1.7876761E-3,-9.8659776E-2,1.9582112E-5,-1.9428254E-3,6.69302E-2],"categories":[],"categories_nodes":[],"categories_segments":[],"categories_sizes":[],"default_left":[0,0,0,0,0,0,0,0,0,0,0,0,0],"id":70,"left_children":[1,3,5,7,9,11,-1,-1,-1,-1,-1,-1,-1],"loss_changes":[9.7413146E-1,1.6362612E0,5.413565E-1,8.315546E-1,1.1687454E0,4.004358E-1,0E0,0E0,0E0,0E0,0E0,0E0,0E0],"parents":[2147483647,0,0,1,1,2,2,3,3,4,4,5,5],"right_children":[2,4,6,8,10,12,-1,-1,-1,-1,-1,-1,-1],"split_conditions":[2.6145852E3,2.5983892E3,2.324318E8,2.5692116E7,2.2888637E8,1.9241112E8,-6.070201E-3,6.360779E-2,-1.7876761E-3,-9.8659776E-2,1.9582112E-5,-1.9428254E-3,6.69302E-2],"split_indices":[15,15,22,32,22,22,0,0,0,0,0,0,0],"split_type":[0,0,0,0,0,0,0,0,0,0,0,0,0],"sum_hessian":[8E1,7.4E1,6E0,7E1,4E0,4E0,2E0,1E0,6.9E1,2E0,2E0,1E0,3E0],"tree_param":{"num_deleted":"0","num_feature":"46","num_nodes":"13","size_leaf_vector":"1"}},{"base_weights":[1.7444478E-2,-4.4374935E-2,1.5646447E-1,-3.9975396E-3,-6.1875343E-1,2.593544E-1,-1.2031841E-1,2.7238274E-2,-4.7272923E-3,7.6828006E-4,-8.301265E-2,-2.1198697E-3,4.4815637E-2,1.9002533E-2,-1.9179972E-2],"categories":[],"categories_nodes":[],"categories_segments":[],"categories_sizes":[],"default_left":[0,0,0,0,0,0,0,0,0,0,0,0,0,0,0],"id":71,"left_children":[1,3,5,7,9,11,13,-1,-1,-1,-1,-1,-1,-1,-1],"loss_changes":[7.5463283E-1,1.4122329E0,8.0011576E-1,7.0658314E-1,5.3602445E-1,1.0688797E0,2.1391699E-1,0E0,0E0,0E0,0E0,0E0,0E0,0E0,0E0],"parents":[2147483647,0,0,1,1,2,2,3,3,4,4,5,5,6,6],"right_children":[2,4,6,8,10,12,14,-1,-1,-1,-1,-1,-1,-1,-1],"split_conditions":[9.2E1,9.25E1,1.007E2,2.8753312E8,8.97E1,1.2007051E6,9.4E1,2.7238274E-2,-4.7272923E-3,7.6828006E-4,-8.301265E-2,-2.1198697E-3,4.4815637E-2,1.9002533E-2,-1.9179972E-2],"split_indices":[2,3,1,29,0,41,9,0,0,0,0,0,0,0,0],"split_type":[0,0,0,0,0,0,0,0,0,0,0,0,0,0,0],"sum_hessian":[8.6E1,6E1,2.6E1,5.7E1,3E0,1.9E1,7E0,7E0,5E1,1E0,2E0,8E0,1.1E1,1E0,6E0],"tree_param":{"num_deleted":"0","num_feature":"46","num_nodes":"15","size_leaf_vector":"1"}},{"base_weights":[1.9989103E-2,-3.4427643E-1,4.222785E-2,-1.0351181E-2,-3.7858963E-2,-2.0770844E-2,2.4889575E-1,9.10679E-4,-9.3659215E-2,-2.616024E-3,4.115251E-2],"categories":[],"categories_nodes":[],"categories_segments":[],"categories_sizes":[],"default_left":[0,0,0,0,0,0,0,0,0,0,0],"id":72,"left_children":[1,3,5,-1,-1,7,9,-1,-1,-1,-1],"loss_changes":[7.031068E-1,2.118528E-3,1.0597743E0,0E0,0E0,1.7323714E0,8.606769E-1,0E0,0E0,0E0,0E0],"parents":[2147483647,0,0,1,1,2,2,5,5,6,6],"right_children":[2,4,6,-1,-1,8,10,-1,-1,-1,-1],"split_conditions":[1.7089584E6,9.33E1,9.31E1,-1.0351181E-2,-3.7858963E-2,9.28E1,6.0549594E5,9.10679E-4,-9.3659215E-2,-2.616024E-3,4.115251E-2],"split_indices":[36,0,0,0,0,0,44,0,0,0,0],"split_type":[0,0,0,0,0,0,0,0,0,0,0],"sum_hessian":[8.4E1,4E0,8E1,1E0,3E0,6.2E1,1.8E1,6.1E1,1E0,7E0,1.1E1],"tree_param":{"num_deleted":"0","num_feature":"46","num_nodes":"11","size_leaf_vector":"1"}},{"base_weights":[3.4537192E-2,-3.1949157E-1,5.5964436E-2,-1.4639027E-2,-3.8609568E-2,-3.331786E-2,2.0885493E-1,6.712804E-3,-1.973877E-2,6.994884E-2,1.48827955E-2],"categories":[],"categories_nodes":[],"categories_segments":[],"categories_sizes":[],"default_left":[0,0,0,0,0,0,0,0,0,0,0],"id":73,"left_children":[1,3,5,-1,-1,7,9,-1,-1,-1,-1],"loss_changes":[6.626783E-1,1.1255741E-3,1.112642E0,0E0,0E0,8.702177E-1,7.794337E-1,0E0,0E0,0E0,0E0],"parents":[2147483647,0,0,1,1,2,2,5,5,6,6],"right_children":[2,4,6,-1,-1,8,10,-1,-1,-1,-1],"split_conditions":[1.7089584E6,1.0315E2,8.86E1,-1.4639027E-2,-3.8609568E-2,8.28E1,5.8E1,6.712804E-3,-1.973877E-2,6.994884E-2,1.48827955E-2],"split_indices":[36,4,0,0,0,1,9,0,0,0,0],"split_type":[0,0,0,0,0,0,0,0,0,0,0],"sum_hessian":[8.4E1,4E0,8E1,2E0,2E0,5.1E1,2.9E1,3.2E1,1.9E1,2E0,2.7E1],"tree_param":{"num_deleted":"0","num_feature":"46","num_nodes":"11","size_leaf_vector":"1"}},{"base_weights":[1.8115044E-3,5.498225E-2,-1.5019117E-1,1.4694636E-1,-9.934898E-2,-4.255829E-1,-3.753233E-2,-1.9800505E-3,4.0394492E-2,1.9789506E-2,-2.417617E-2,-1.815389E-2,-5.0222017E-2,2.0737363E-2,-2.5105625E-2],"categories":[],"categories_nodes":[],"categories_segments":[],"categories_sizes":[],"default_left":[0,0,0,0,0,0,0,0,0,0,0,0,0,0,0],"id":74,"left_children":[1,3,5,7,9,11,13,-1,-1,-1,-1,-1,-1,-1,-1],"loss_changes":[6.548255E-1,8.6617494E-1,6.3555837E-1,1.6364388E0,1.021464E0,2.1044612E-2,8.887549E-1,0E0,0E0,0E0,0E0,0E0,0E0,0E0,0E0],"parents":[2147483647,0,0,1,1,2,2,3,3,4,4,5,5,6,6],"right_children":[2,4,6,8,10,12,14,-1,-1,-1,-1,-1,-1,-1,-1],"split_conditions":[8.268851E7,2.5561335E3,1.3878735E2,8.5E1,1.1464888E7,2.5218088E3,3.1760176E8,-1.9800505E-3,4.0394492E-2,1.9789506E-2,-2.417617E-2,-1.815389E-2,-5.0222017E-2,2.0737363E-2,-2.5105625E-2],"split_indices":[25,15,21,2,33,15,29,0,0,0,0,0,0,0,0],"split_type":[0,0,0,0,0,0,0,0,0,0,0,0,0,0,0],"sum_hessian":[7.9E1,5.9E1,2E1,3.7E1,2.2E1,5E0,1.5E1,2.3E1,1.4E1,7E0,1.5E1,2E0,3E0,7E0,8E0],"tree_param":{"num_deleted":"0","num_feature":"46","num_nodes":"15","size_leaf_vector":"1"}},{"base_weights":[-2.0830996E-2,6.967587E-2,-1.17306665E-1,-1.6793887E-1,1.514906E-1,3.0887756E-2,-1.7029652E-1,2.0113068E-2,-3.77615E-2,3.0705167E-2,1.2518632E-3,2.7432555E-2,-2.306734E-2],"categories":[],"categories_nodes":[],"categories_segments":[],"categories_sizes":[],"default_left":[0,0,0,0,0,0,0,0,0,0,0,0,0],"id":75,"left_children":[1,3,5,7,9,-1,11,-1,-1,-1,-1,-1,-1],"loss_changes":[7.5910056E-1,9.0025854E-1,1.0011052E0,1.0045707E0,7.311894E-1,0E0,1.0833857E0,0E0,0E0,0E0,0E0,0E0,0E0],"parents":[2147483647,0,0,1,1,2,2,3,3,4,4,6,6],"right_children":[2,4,6,8,10,-1,12,-1,-1,-1,-1,-1,-1],"split_conditions":[1.1748186E8,8.984818E2,2.8753312E8,2.8904608E8,5.9057484E7,3.0887756E-2,8.5882074E2,2.0113068E-2,-3.77615E-2,3.0705167E-2,1.2518632E-3,2.7432555E-2,-2.306734E-2],"split_indices":[31,16,29,29,24,0,16,0,0,0,0,0,0],"split_type":[0,0,0,0,0,0,0,0,0,0,0,0,0],"sum_hessian":[8.5E1,4.4E1,4.1E1,1.1E1,3.3E1,4E0,3.7E1,4E0,7E0,1.5E1,1.8E1,4E0,3.3E1],"tree_param":{"num_deleted":"0","num_feature":"46","num_nodes":"13","size_leaf_vector":"1"}},{"base_weights":[-1.0045866E-2,-1.498007E-1,7.346271E-2,-4.1104272E-2,-3.4369382E-1,-1.2904167E-1,1.3094051E-1,-2.2007752E-2,2.2197979E-2,-7.776775E-2,-8.374023E-3,3.198395E-2,-2.5080187E-2,1.7071754E-2,-2.7967645E-2],"categories":[],"categories_nodes":[],"categories_segments":[],"categories_sizes":[],"default_left":[0,0,0,0,0,0,0,0,0,0,0,0,0,0,0],"id":76,"left_children":[1,3,5,7,9,11,13,-1,-1,-1,-1,-1,-1,-1,-1],"loss_changes":[9.6800435E-1,6.392128E-1,6.2215114E-1,1.037638E0,1.175849E0,7.3608655E-1,7.174037E-1,0E0,0E0,0E0,0E0,0E0,0E0,0E0,0E0],"parents":[2147483647,0,0,1,1,2,2,3,3,4,4,5,5,6,6],"right_children":[2,4,6,8,10,12,14,-1,-1,-1,-1,-1,-1,-1,-1],"split_conditions":[5.8647852E7,8.78E1,7.81E1,8.14E1,9.226713E1,7.01E1,1.009E2,-2.2007752E-2,2.2197979E-2,-7.776775E-2,-8.374023E-3,3.198395E-2,-2.5080187E-2,1.7071754E-2,-2.7967645E-2],"split_indices":[25,2,0,3,13,0,1,0,0,0,0,0,0,0,0],"split_type":[0,0,0,0,0,0,0,0,0,0,0,0,0,0,0],"sum_hessian":[8.1E1,3E1,5.1E1,2E1,1E1,1.1E1,4E1,1.2E1,8E0,3E0,7E0,2E0,9E0,3.7E1,3E0],"tree_param":{"num_deleted":"0","num_feature":"46","num_nodes":"15","size_leaf_vector":"1"}},{"base_weights":[-6.9374605E-3,5.843466E-2,-1.07599095E-1,-1.3665277E-2,2.0339373E-1,1.7417625E-3,-4.236662E-1,-5.944622E-3,3.788891E-2,3.4590736E-2,-1.3928478E-2,-3.4753673E-2,9.692037E-3,-9.430822E-2,-1.4053563E-2],"categories":[],"categories_nodes":[],"categories_segments":[],"categories_sizes":[],"default_left":[0,0,0,0,0,0,0,0,0,0,0,0,0,0,0],"id":77,"left_children":[1,3,5,7,9,11,13,-1,-1,-1,-1,-1,-1,-1,-1],"loss_changes":[5.8536845E-1,5.671626E-1,1.2103046E0,6.8746936E-1,9.2723393E-1,9.31267E-1,1.1910262E0,0E0,0E0,0E0,0E0,0E0,0E0,0E0,0E0],"parents":[2147483647,0,0,1,1,2,2,3,3,4,4,5,5,6,6],"right_children":[2,4,6,8,10,12,14,-1,-1,-1,-1,-1,-1,-1,-1],"split_conditions":[3.5319283E8,9.0615794E5,9.0615794E5,1.007E2,8.230559E7,7.34E1,5.8465216E7,-5.944622E-3,3.788891E-2,3.4590736E-2,-1.3928478E-2,-3.4753673E-2,9.692037E-3,-9.430822E-2,-1.4053563E-2],"split_indices":[29,40,40,3,25,3,25,0,0,0,0,0,0,0,0],"split_type":[0,0,0,0,0,0,0,0,0,0,0,0,0,0,0],"sum_hessian":[8.7E1,5.3E1,3.4E1,3.6E1,1.7E1,2.6E1,8E0,3.3E1,3E0,1.2E1,5E0,5E0,2.1E1,2E0,6E0],"tree_param":{"num_deleted":"0","num_feature":"46","num_nodes":"15","size_leaf_vector":"1"}},{"base_weights":[-3.401862E-2,8.887693E-2,-1.2945822E-1,4.5677185E-2,2.8615952E-2,-2.3539892E-1,4.8416138E-2,-2.4392128E-2,1.1468323E-2,-7.8376465E-2,-1.1630981E-2,3.0477602E-2,-4.659925E-3],"categories":[],"categories_nodes":[],"categories_segments":[],"categories_sizes":[],"default_left":[0,0,0,0,0,0,0,0,0,0,0,0,0],"id":78,"left_children":[1,3,5,-1,7,9,11,-1,-1,-1,-1,-1,-1],"loss_changes":[9.6156317E-1,7.850386E-1,8.782273E-1,0E0,7.785829E-1,1.8026677E0,4.5264876E-1,0E0,0E0,0E0,0E0,0E0,0E0],"parents":[2147483647,0,0,1,1,2,2,4,4,5,5,6,6],"right_children":[2,4,6,-1,8,10,12,-1,-1,-1,-1,-1,-1],"split_conditions":[9.8039496E2,1.2E1,1.1478552E3,4.5677185E-2,8.04E1,9.226713E1,5.7962884E7,-2.4392128E-2,1.1468323E-2,-7.8376465E-2,-1.1630981E-2,3.0477602E-2,-4.659925E-3],"split_indices":[16,9,16,0,0,13,25,0,0,0,0,0,0],"split_type":[0,0,0,0,0,0,0,0,0,0,0,0,0],"sum_hessian":[8E1,3.5E1,4.5E1,4E0,3.1E1,2.8E1,1.7E1,7E0,2.4E1,4E0,2.4E1,4E0,1.3E1],"tree_param":{"num_deleted":"0","num_feature":"46","num_nodes":"13","size_leaf_vector":"1"}},{"base_weights":[-1.0579764E-2,-5.249852E-2,1.997697E-1,-1.4309394E-1,1.16297E-1,-6.0094196E-2,3.5081565E-1,3.6984444E-2,-1.8748138E-2,1.986934E-2,-2.5302736E-2,7.841492E-3,-1.4895248E-2,-8.781815E-3,4.1662216E-2],"categories":[],"categories_nodes":[],"categories_segments":[],"categories_sizes":[],"default_left":[0,0,0,0,0,0,0,0,0,0,0,0,0,0,0],"id":79,"left_children":[1,3,5,7,9,11,13,-1,-1,-1,-1,-1,-1,-1,-1],"loss_changes":[7.423474E-1,1.0870883E0,5.706014E-1,1.1166677E0,8.1104994E-1,8.552619E-2,2.9637158E-1,0E0,0E0,0E0,0E0,0E0,0E0,0E0,0E0],"parents":[2147483647,0,0,1,1,2,2,3,3,4,4,5,5,6,6],"right_children":[2,4,6,8,10,12,14,-1,-1,-1,-1,-1,-1,-1,-1],"split_conditions":[1.1703093E3,9.2E1,1.4220886E2,8E0,1.0455254E3,9.0615794E5,6.97E1,3.6984444E-2,-1.8748138E-2,1.986934E-2,-2.5302736E-2,7.841492E-3,-1.4895248E-2,-8.781815E-3,4.1662216E-2],"split_indices":[16,2,20,9,16,40,3,0,0,0,0,0,0,0,0],"split_type":[0,0,0,0,0,0,0,0,0,0,0,0,0,0,0],"sum_hessian":[8.2E1,6.9E1,1.3E1,4.5E1,2.4E1,5E0,8E0,3E0,4.2E1,2E1,4E0,2E0,3E0,1E0,7E0],"tree_param":{"num_deleted":"0","num_feature":"46","num_nodes":"15","size_leaf_vector":"1"}},{"base_weights":[-1.130991E-2,-9.071114E-2,7.44891E-2,2.1237183E-1,-1.573955E-1,-4.527505E-2,2.4947977E-1,-1.5448253E-2,3.604037E-2,7.019043E-3,-2.6463032E-2,-2.6561737E-2,2.668963E-3,4.3005373E-2,-4.4122967E-3],"categories":[],"categories_nodes":[],"categories_segments":[],"categories_sizes":[],"default_left":[0,0,0,0,0,0,0,0,0,0,0,0,0,0,0],"id":80,"left_children":[1,3,5,7,9,11,13,-1,-1,-1,-1,-1,-1,-1,-1],"loss_changes":[5.517608E-1,8.82284E-1,8.28642E-1,4.9012518E-1,8.7275416E-1,3.87654E-1,8.672473E-1,0E0,0E0,0E0,0E0,0E0,0E0,0E0,0E0],"parents":[2147483647,0,0,1,1,2,2,3,3,4,4,5,5,6,6],"right_children":[2,4,6,8,10,12,14,-1,-1,-1,-1,-1,-1,-1,-1],"split_conditions":[2.2510347E8,7.81E1,8.97E1,1.1152757E7,1.1464888E7,1.1152757E7,8.212177E7,-1.5448253E-2,3.604037E-2,7.019043E-3,-2.6463032E-2,-2.6561737E-2,2.668963E-3,4.3005373E-2,-4.4122967E-3],"split_indices":[22,2,2,33,33,33,25,0,0,0,0,0,0,0,0],"split_type":[0,0,0,0,0,0,0,0,0,0,0,0,0,0,0],"sum_hessian":[7.9E1,4.1E1,3.8E1,7E0,3.4E1,2.3E1,1.5E1,2E0,5E0,1.1E1,2.3E1,5E0,1.8E1,9E0,6E0],"tree_param":{"num_deleted":"0","num_feature":"46","num_nodes":"15","size_leaf_vector":"1"}},{"base_weights":[-3.8703282E-3,6.2003944E-2,-1.6680327E-1,-3.6666106E-2,1.8800819E-1,-2.9362606E-2,-3.4679496E-1,7.2056293E-3,-1.5019226E-2,6.555497E-3,6.1572876E-2,-1.1973763E-2,9.603119E-3,-4.5316968E-2,1.7011007E-3],"categories":[],"categories_nodes":[],"categories_segments":[],"categories_sizes":[],"default_left":[0,0,0,0,0,0,0,0,0,0,0,0,0,0,0],"id":81,"left_children":[1,3,5,7,9,11,13,-1,-1,-1,-1,-1,-1,-1,-1],"loss_changes":[7.8312486E-1,6.5340143E-1,5.093189E-1,3.8110736E-1,1.1642783E0,1.5882061E-1,3.5600662E-1,0E0,0E0,0E0,0E0,0E0,0E0,0E0,0E0],"parents":[2147483647,0,0,1,1,2,2,3,3,4,4,5,5,6,6],"right_children":[2,4,6,8,10,12,14,-1,-1,-1,-1,-1,-1,-1,-1],"split_conditions":[8.230559E7,6.0549594E5,6.0549594E5,6.304296E5,7.957321E7,2.536708E3,9.9E1,7.2056293E-3,-1.5019226E-2,6.555497E-3,6.1572876E-2,-1.1973763E-2,9.603119E-3,-4.5316968E-2,1.7011007E-3],"split_indices":[25,44,44,40,25,15,9,0,0,0,0,0,0,0,0],"split_type":[0,0,0,0,0,0,0,0,0,0,0,0,0,0,0],"sum_hessian":[7.1E1,5.1E1,2E1,2.9E1,2.2E1,1.2E1,8E0,1.5E1,1.4E1,1.8E1,4E0,7E0,5E0,6E0,2E0],"tree_param":{"num_deleted":"0","num_feature":"46","num_nodes":"15","size_leaf_vector":"1"}},{"base_weights":[2.5960451E-2,-5.7212606E-2,8.964053E-2,-3.1899738E-1,2.247224E-2,1.8336734E-1,-2.0820965E-1,-7.182427E-2,-1.5935626E-2,2.9078865E-2,-2.3183504E-3,7.214488E-3,3.8126312E-2,-4.3730926E-2,-1.4822824E-3],"categories":[],"categories_nodes":[],"categories_segments":[],"categories_sizes":[],"default_left":[0,0,0,0,0,0,0,0,0,0,0,0,0,0,0],"id":82,"left_children":[1,3,5,7,9,11,13,-1,-1,-1,-1,-1,-1,-1,-1],"loss_changes":[4.129565E-1,7.164181E-1,1.2665069E0,3.9543128E-1,3.3749652E-1,7.2084916E-1,4.8087117E-1,0E0,0E0,0E0,0E0,0E0,0E0,0E0,0E0],"parents":[2147483647,0,0,1,1,2,2,3,3,4,4,5,5,6,6],"right_children":[2,4,6,8,10,12,14,-1,-1,-1,-1,-1,-1,-1,-1],"split_conditions":[6.026483E5,2.702209E2,8.268851E7,1.882396E8,1.882396E8,8.785E1,1.2007051E6,-7.182427E-2,-1.5935626E-2,2.9078865E-2,-2.3183504E-3,7.214488E-3,3.8126312E-2,-4.3730926E-2,-1.4822824E-3],"split_indices":[44,19,25,22,22,4,41,0,0,0,0,0,0,0,0],"split_type":[0,0,0,0,0,0,0,0,0,0,0,0,0,0,0],"sum_hessian":[7.6E1,3.3E1,4.3E1,7E0,2.6E1,3.3E1,1E1,1E0,6E0,3E0,2.3E1,2.2E1,1.1E1,4E0,6E0],"tree_param":{"num_deleted":"0","num_feature":"46","num_nodes":"15","size_leaf_vector":"1"}},{"base_weights":[-4.0764227E-3,-4.9020704E-2,1.2881033E-1,2.4260457E-1,-7.885809E-2,2.5995381E-2,3.3072662E-1,5.5179596E-3,2.6905363E-2,-7.0056914E-5,-2.4816047E-2,3.1411745E-2,-4.2493967E-3,4.9244117E-2,8.633042E-3],"categories":[],"categories_nodes":[],"categories_segments":[],"categories_sizes":[],"default_left":[0,0,0,0,0,0,0,0,0,0,0,0,0,0,0],"id":83,"left_children":[1,3,5,7,9,11,13,-1,-1,-1,-1,-1,-1,-1,-1],"loss_changes":[4.960594E-1,5.586142E-1,4.2736295E-1,1.4897019E-2,7.540647E-1,3.0934745E-1,2.3414427E-1,0E0,0E0,0E0,0E0,0E0,0E0,0E0,0E0],"parents":[2147483647,0,0,1,1,2,2,3,3,4,4,5,5,6,6],"right_children":[2,4,6,8,10,12,14,-1,-1,-1,-1,-1,-1,-1,-1],"split_conditions":[1.4297926E6,5.6399936E7,9.32E1,2.5224065E3,9.03E1,8.5882074E2,7.4937E5,5.5179596E-3,2.6905363E-2,-7.0056914E-5,-2.4816047E-2,3.1411745E-2,-4.2493967E-3,4.9244117E-2,8.633042E-3],"split_indices":[41,25,2,15,4,16,40,0,0,0,0,0,0,0,0],"split_type":[0,0,0,0,0,0,0,0,0,0,0,0,0,0,0],"sum_hessian":[8.1E1,6.1E1,2E1,5E0,5.6E1,1.4E1,6E0,1E0,4E0,3.9E1,1.7E1,2E0,1.2E1,3E0,3E0],"tree_param":{"num_deleted":"0","num_feature":"46","num_nodes":"15","size_leaf_vector":"1"}},{"base_weights":[1.2664613E-2,-3.856437E-2,1.06162265E-1,6.536686E-2,-1.9743243E-1,1.7751496E-1,-2.0883434E-1,-3.183524E-3,2.7150173E-2,-5.736656E-2,-1.0783426E-2,3.0512128E-2,1.3847988E-3,-2.7807046E-2,-4.6908064E-3],"categories":[],"categories_nodes":[],"categories_segments":[],"categories_sizes":[],"default_left":[0,0,0,0,0,0,0,0,0,0,0,0,0,0,0],"id":84,"left_children":[1,3,5,7,9,11,13,-1,-1,-1,-1,-1,-1,-1,-1],"loss_changes":[4.0643638E-1,9.2103E-1,7.113469E-1,6.8989253E-1,6.797548E-1,5.178982E-1,5.422312E-2,0E0,0E0,0E0,0E0,0E0,0E0,0E0,0E0],"parents":[2147483647,0,0,1,1,2,2,3,3,4,4,5,5,6,6],"right_children":[2,4,6,8,10,12,14,-1,-1,-1,-1,-1,-1,-1,-1],"split_conditions":[8.97E1,8.28E1,1.00175E2,8.03E1,8.37E1,8.212177E7,1.009E2,-3.183524E-3,2.7150173E-2,-5.736656E-2,-1.0783426E-2,3.0512128E-2,1.3847988E-3,-2.7807046E-2,-4.6908064E-3],"split_indices":[2,1,5,4,1,25,3,0,0,0,0,0,0,0,0],"split_type":[0,0,0,0,0,0,0,0,0,0,0,0,0,0,0],"sum_hessian":[8.3E1,5.4E1,2.9E1,3.3E1,2.1E1,2.4E1,5E0,2.3E1,1E1,3E0,1.8E1,1.3E1,1.1E1,3E0,2E0],"tree_param":{"num_deleted":"0","num_feature":"46","num_nodes":"15","size_leaf_vector":"1"}},{"base_weights":[-3.279482E-2,2.2295933E-2,-1.12132914E-1,-3.27592E-2,2.828598E-1,-4.708557E-1,-5.635943E-3,-3.0667974E-2,2.9022004E-3,3.9273288E-2,-6.779734E-3,-7.6655075E-2,-2.4453228E-2,-1.3319172E-2,1.7553775E-2],"categories":[],"categories_nodes":[],"categories_segments":[],"categories_sizes":[],"default_left":[0,0,0,0,0,0,0,0,0,0,0,0,0,0,0],"id":85,"left_children":[1,3,5,7,9,11,13,-1,-1,-1,-1,-1,-1,-1,-1],"loss_changes":[3.7401772E-1,7.4088055E-1,1.3344476E0,7.365955E-1,3.733763E-1,3.479352E-1,6.7045325E-1,0E0,0E0,0E0,0E0,0E0,0E0,0E0,0E0],"parents":[2147483647,0,0,1,1,2,2,3,3,4,4,5,5,6,6],"right_children":[2,4,6,8,10,12,14,-1,-1,-1,-1,-1,-1,-1,-1],"split_conditions":[6.4E1,5.3E1,7.2E1,5.7792904E7,1.5255034E7,1.9052534E8,2.726827E2,-3.0667974E-2,2.9022004E-3,3.9273288E-2,-6.779734E-3,-7.6655075E-2,-2.4453228E-2,-1.3319172E-2,1.7553775E-2],"split_indices":[9,9,9,25,33,22,19,0,0,0,0,0,0,0,0],"split_type":[0,0,0,0,0,0,0,0,0,0,0,0,0,0,0],"sum_hessian":[8.4E1,5E1,3.4E1,4.2E1,8E0,7E0,2.7E1,7E0,3.5E1,6E0,2E0,2E0,5E0,1.6E1,1.1E1],"tree_param":{"num_deleted":"0","num_feature":"46","num_nodes":"15","size_leaf_vector":"1"}},{"base_weights":[-6.8585468E-3,-2.5400896E-2,2.837738E-1,6.2469702E-2,-9.472067E-2,9.676616E-3,3.761902E-2,-3.894329E-3,2.6008988E-2,-3.903567E-2,-4.6809465E-3],"categories":[],"categories_nodes":[],"categories_segments":[],"categories_sizes":[],"default_left":[0,0,0,0,0,0,0,0,0,0,0],"id":86,"left_children":[1,3,5,7,9,-1,-1,-1,-1,-1,-1],"loss_changes":[4.4910663E-1,4.810284E-1,5.0010383E-2,7.1157265E-1,6.049558E-1,0E0,0E0,0E0,0E0,0E0,0E0],"parents":[2147483647,0,0,1,1,2,2,3,3,4,4],"right_children":[2,4,6,8,10,-1,-1,-1,-1,-1,-1],"split_conditions":[2.8455405E6,8.28E1,1.007E2,7.93E1,8.47E1,9.676616E-3,3.761902E-2,-3.894329E-3,2.6008988E-2,-3.903567E-2,-4.6809465E-3],"split_indices":[42,1,0,0,3,0,0,0,0,0,0],"split_type":[0,0,0,0,0,0,0,0,0,0,0],"sum_hessian":[8.1E1,7.7E1,4E0,3.4E1,4.3E1,2E0,2E0,2.3E1,1.1E1,5E0,3.8E1],"tree_param":{"num_deleted":"0","num_feature":"46","num_nodes":"11","size_leaf_vector":"1"}},{"base_weights":[1.6522758E-2,-1.5858807E-1,4.4199515E-2,1.7246246E-2,-2.5131735E-1,2.409668E-1,2.1634905E-2,-2.3937225E-3,-3.6101785E-2,3.7376914E-2,1.1309205E-2,5.690216E-3,-1.0586494E-2],"categories":[],"categories_nodes":[],"categories_segments":[],"categories_sizes":[],"default_left":[0,0,0,0,0,0,0,0,0,0,0,0,0],"id":87,"left_children":[1,3,5,-1,7,9,11,-1,-1,-1,-1,-1,-1],"loss_changes":[3.8988298E-1,3.8102165E-1,3.0114514E-1,0E0,2.1585172E-1,7.660413E-2,2.8930783E-1,0E0,0E0,0E0,0E0,0E0,0E0],"parents":[2147483647,0,0,1,1,2,2,4,4,5,5,6,6],"right_children":[2,4,6,-1,8,10,12,-1,-1,-1,-1,-1,-1],"split_conditions":[7.34E1,6.97E1,7.59E1,1.7246246E-2,5.8336604E7,7.34E1,2.3546678E8,-2.3937225E-3,-3.6101785E-2,3.7376914E-2,1.1309205E-2,5.690216E-3,-1.0586494E-2],"split_indices":[3,2,2,0,24,1,22,0,0,0,0,0,0],"split_type":[0,0,0,0,0,0,0,0,0,0,0,0,0],"sum_hessian":[7.8E1,1E1,6.8E1,2E0,8E0,6E0,6.2E1,3E0,5E0,2E0,4E0,4.9E1,1.3E1],"tree_param":{"num_deleted":"0","num_feature":"46","num_nodes":"13","size_leaf_vector":"1"}},{"base_weights":[-3.4018904E-2,-1.8725713E-1,9.610891E-3,-3.0012948E-2,-5.9008944E-1,1.745347E-1,-5.37559E-2,-1.7848207E-2,1.0364914E-2,1.4331818E-3,-7.447777E-2,2.786086E-2,-1.5177918E-2,4.647506E-4,-2.7031327E-2],"categories":[],"categories_nodes":[],"categories_segments":[],"categories_sizes":[],"default_left":[0,0,0,0,0,0,0,0,0,0,0,0,0,0,0],"id":88,"left_children":[1,3,5,7,9,11,13,-1,-1,-1,-1,-1,-1,-1,-1],"loss_changes":[5.433457E-1,1.1224643E0,6.7822653E-1,2.9632518E-1,4.7815847E-1,6.5358055E-1,5.9569764E-1,0E0,0E0,0E0,0E0,0E0,0E0,0E0,0E0],"parents":[2147483647,0,0,1,1,2,2,3,3,4,4,5,5,6,6],"right_children":[2,4,6,8,10,12,14,-1,-1,-1,-1,-1,-1,-1,-1],"split_conditions":[1.9052534E8,5.366441E2,9.226713E1,9.492168E1,7.73E1,8.86E1,1.3156665E8,-1.7848207E-2,1.0364914E-2,1.4331818E-3,-7.447777E-2,2.786086E-2,-1.5177918E-2,4.647506E-4,-2.7031327E-2],"split_indices":[22,17,13,13,0,1,31,0,0,0,0,0,0,0,0],"split_type":[0,0,0,0,0,0,0,0,0,0,0,0,0,0,0],"sum_hessian":[8E1,1.7E1,6.3E1,1.3E1,4E0,1.7E1,4.6E1,6E0,7E0,1E0,3E0,1.3E1,4E0,3.7E1,9E0],"tree_param":{"num_deleted":"0","num_feature":"46","num_nodes":"15","size_leaf_vector":"1"}},{"base_weights":[3.198678E-2,-3.8414173E-2,1.1038818E-1,5.31529E-2,-1.7871772E-1,1.4944373E-1,-1.928894E-1,1.2927282E-2,-1.5330601E-2,-4.634796E-2,-6.4251493E-3,2.1817109E-2,-6.1918894E-4,-2.5448356E-2,-6.69988E-3],"categories":[],"categories_nodes":[],"categories_segments":[],"categories_sizes":[],"default_left":[0,0,0,0,0,0,0,0,0,0,0,0,0,0,0],"id":89,"left_children":[1,3,5,7,9,11,13,-1,-1,-1,-1,-1,-1,-1,-1],"loss_changes":[4.6788126E-1,5.876227E-1,5.02613E-1,4.5985615E-1,5.5694187E-1,3.8642204E-1,2.1720529E-2,0E0,0E0,0E0,0E0,0E0,0E0,0E0,0E0],"parents":[2147483647,0,0,1,1,2,2,3,3,4,4,5,5,6,6],"right_children":[2,4,6,8,10,12,14,-1,-1,-1,-1,-1,-1,-1,-1],"split_conditions":[6.923673E7,6.4E1,1.007E2,1.3156665E8,9.226713E1,6.3806452E7,9.9E1,1.2927282E-2,-1.5330601E-2,-4.634796E-2,-6.4251493E-3,2.1817109E-2,-6.1918894E-4,-2.5448356E-2,-6.69988E-3],"split_indices":[25,9,1,31,13,24,9,0,0,0,0,0,0,0,0],"split_type":[0,0,0,0,0,0,0,0,0,0,0,0,0,0,0],"sum_hessian":[8.3E1,4.4E1,3.9E1,2.7E1,1.7E1,3.5E1,4E0,2E1,7E0,4E0,1.3E1,2.4E1,1.1E1,2E0,2E0],"tree_param":{"num_deleted":"0","num_feature":"46","num_nodes":"15","size_leaf_vector":"1"}},{"base_weights":[-8.733548E-3,1.6368866E-2,-1.3164285E-1,8.451959E-2,-5.4423094E-2,-3.8260016E-1,7.303047E-2,2.1330617E-2,-2.160243E-3,8.565827E-3,-2.6574647E-2,-4.271744E-2,-7.986451E-3,2.2072984E-2,-5.973511E-3],"categories":[],"categories_nodes":[],"categories_segments":[],"categories_sizes":[],"default_left":[0,0,0,0,0,0,0,0,0,0,0,0,0,0,0],"id":90,"left_children":[1,3,5,7,9,11,13,-1,-1,-1,-1,-1,-1,-1,-1],"loss_changes":[2.3663919E-1,3.1336933E-1,6.956769E-1,4.5562196E-1,9.7004235E-1,4.684919E-2,1.7006044E-1,0E0,0E0,0E0,0E0,0E0,0E0,0E0,0E0],"parents":[2147483647,0,0,1,1,2,2,3,3,4,4,5,5,6,6],"right_children":[2,4,6,8,10,12,14,-1,-1,-1,-1,-1,-1,-1,-1],"split_conditions":[2.324318E8,3.1760176E8,5.309558E2,9.5365485E2,5.366441E2,8.86E1,1.224804E6,2.1330617E-2,-2.160243E-3,8.565827E-3,-2.6574647E-2,-4.271744E-2,-7.986451E-3,2.2072984E-2,-5.973511E-3],"split_indices":[22,29,17,16,17,2,41,0,0,0,0,0,0,0,0],"split_type":[0,0,0,0,0,0,0,0,0,0,0,0,0,0,0],"sum_hessian":[7.5E1,