{"learner":{"attributes":{"scikit_learn":"{\"_estimator_type\": \"regressor\"}"},"feature_names":["lag_1","lag_2","lag_3","lag_4","roll_mean_2","roll_mean_4","q2","q3","q4","trend","gasto_medio__excursionistas_fronterizos__en_automoviles__entrada","gasto_medio__excursionistas_fronterizos__en_automoviles__salida","gasto_medio__excursionistas_fronterizos__peatones__entrada","gasto_medio__excursionistas_fronterizos__peatones__salida","gasto_medio__turistas_de_internacion__via_aerea__entrada","gasto_medio__turistas_de_internacion__via_aerea__salida","gasto_medio__turistas_de_internacion__via_terrestre__entrada","gasto_medio__turistas_de_internacion__via_terrestre__salida","gasto_medio__turistas_fronterizos__en_automoviles__entrada","gasto_medio__turistas_fronterizos__en_automoviles__salida","gasto_medio__turistas_fronterizos__peatones__entrada","gasto_medio__turistas_fronterizos__peatones__salida","gasto_total__excursionistas_fronterizos__en_automoviles__entrada","gasto_total__excursionistas_fronterizos__en_automoviles__salida","gasto_total__excursionistas_fronterizos__peatones__entrada","gasto_total__excursionistas_fronterizos__peatones__salida","gasto_total__turistas_de_internacion__via_aerea__entrada","gasto_total__turistas_de_internacion__via_aerea__salida","gasto_total__turistas_de_internacion__via_terrestre__entrada","gasto_total__turistas_de_internacion__via_terrestre__salida","gasto_total__turistas_fronterizos__en_automoviles__entrada","gasto_total__turistas_fronterizos__en_automoviles__salida","gasto_total__turistas_fronterizos__peatones__entrada","gasto_total__turistas_fronterizos__peatones__salida","num_visitantes__excursionistas_fronterizos__en_automoviles__entrada","num_visitantes__excursionistas_fronterizos__en_automoviles__salida","num_visitantes__excursionistas_fronterizos__peatones__entrada","num_visitantes__excursionistas_fronterizos__peatones__salida","num_visitantes__turistas_de_internacion__via_aerea__entrada","num_visitantes__turistas_de_internacion__via_aerea__salida","num_visitantes__turistas_de_internacion__via_terrestre__entrada","num_visitantes__turistas_de_internacion__via_terrestre__salida","num_visitantes__turistas_fronterizos__en_automoviles__entrada","num_visitantes__turistas_fronterizos__en_automoviles__salida","num_visitantes__turistas_fronterizos__peatones__entrada","num_visitantes__turistas_fronterizos__peatones__salida"],"feature_types":["float","float","float","float","float","float","int","int","int","int","float","float","float","float","float","float","float","float","float","float","float","float","float","float","float","float","float","float","float","float","float","float","float","float","float","float","float","float","float","float","float","float","float","float","float","float"],"gradient_booster":{"model":{"gbtree_model_param":{"num_parallel_tree":"1","num_trees":"100"},"iteration_indptr":[0,1,2,3,4,5,6,7,8,9,10,11,12,13,14,15,16,17,18,19,20,21,22,23,24,25,26,27,28,29,30,31,32,33,34,35,36,37,38,39,40,41,42,43,44,45,46,47,48,49,50,51,52,53,54,55,56,57,58,59,60,61,62,63,64,65,66,67,68,69,70,71,72,73,74,75,76,77,78,79,80,81,82,83,84,85,86,87,88,89,90,91,92,93,94,95,96,97,98,99,100],"tree_info":[0,0,0,0,0,0,0,0,0,0,0,0,0,0,0,0,0,0,0,0,0,0,0,0,0,0,0,0,0,0,0,0,0,0,0,0,0,0,0,0,0,0,0,0,0,0,0,0,0,0,0,0,0,0,0,0,0,0,0,0,0,0,0,0,0,0,0,0,0,0,0,0,0,0,0,0,0,0,0,0,0,0,0,0,0,0,0,0,0,0,0,0,0,0,0,0,0,0,0,0],"trees":[{"base_weights":[7.3369366E-1,-1.8087517E0,2.4973195E0,-2.2444458E0,1.0562477E-1,6.964264E-1,3.7609358E0,-2.9900023E-1,-1.05E-1,8.93748E-2,-2.4375154E-2,1.375E-1,4.327081E-1],"categories":[],"categories_nodes":[],"categories_segments":[],"categories_sizes":[],"default_left":[0,0,0,0,0,0,0,0,0,0,0,0,0],"id":0,"left_children":[1,3,5,7,-1,9,11,-1,-1,-1,-1,-1,-1],"loss_changes":[1.0764723E2,1.4853325E1,2.9239716E1,4.8752403E0,0E0,1.5164745E0,4.8565598E0,0E0,0E0,0E0,0E0,0E0,0E0],"parents":[2147483647,0,0,1,1,2,2,3,3,5,5,6,6],"right_children":[2,4,6,8,-1,10,12,-1,-1,-1,-1,-1,-1],"split_conditions":[9.713287E8,9.96E1,4.5224244E7,1.7555E2,1.0562477E-1,1.01E2,2.43725E3,-2.9900023E-1,-1.05E-1,8.93748E-2,-2.4375154E-2,1.375E-1,4.327081E-1],"split_indices":[27,1,32,19,0,0,15,0,0,0,0,0,0],"split_type":[0,0,0,0,0,0,0,0,0,0,0,0,0],"sum_hessian":[2.2E1,9E0,1.3E1,8E0,1E0,6E0,7E0,4E0,4E0,5E0,1E0,2E0,5E0],"tree_param":{"num_deleted":"0","num_feature":"46","num_nodes":"13","size_leaf_vector":"1"}},{"base_weights":[1.0265767E-1,1.5751889E0,-6.91753E0,6.139623E-1,4.1438308E-1,-8.460541E-1,-1.144249E-1,-1.4569983E-1,1.04464844E-1],"categories":[],"categories_nodes":[],"categories_segments":[],"categories_sizes":[],"default_left":[0,0,0,0,0,0,0,0,0],"id":1,"left_children":[1,3,5,7,-1,-1,-1,-1,-1],"loss_changes":[2.3832022E2,4.4367737E1,2.5951965E1,1.4901058E1,0E0,0E0,0E0,0E0,0E0],"parents":[2147483647,0,0,1,1,2,2,3,3],"right_children":[2,4,6,8,-1,-1,-1,-1,-1],"split_conditions":[7.9676E2,1.3729E2,9.72E1,9.46E1,4.1438308E-1,-8.460541E-1,-1.144249E-1,-1.4569983E-1,1.04464844E-1],"split_indices":[17,12,0,1,0,0,0,0,0],"split_type":[0,0,0,0,0,0,0,0,0],"sum_hessian":[2.1E1,1.8E1,3E0,1.4E1,4E0,2E0,1E0,2E0,1.2E1],"tree_param":{"num_deleted":"0","num_feature":"46","num_nodes":"9","size_leaf_vector":"1"}},{"base_weights":[-1.8497904E-1,1.221057E0,-6.4658966E0,-4.4555664E-3,3.6728248E-1,-7.896505E-1,-1.0870361E-1,-9.777232E-2,9.694486E-2],"categories":[],"categories_nodes":[],"categories_segments":[],"categories_sizes":[],"default_left":[0,0,0,0,0,0,0,0,0],"id":2,"left_children":[1,3,5,7,-1,-1,-1,-1,-1],"loss_changes":[1.9335036E2,5.410047E1,2.2196365E1,1.3270156E1,0E0,0E0,0E0,0E0,0E0],"parents":[2147483647,0,0,1,1,2,2,3,3],"right_children":[2,4,6,8,-1,-1,-1,-1,-1],"split_conditions":[7.9676E2,1.3298523E9,9.72E1,9.713287E8,3.6728248E-1,-7.896505E-1,-1.0870361E-1,-9.777232E-2,9.694486E-2],"split_indices":[17,27,0,27,0,0,0,0,0],"split_type":[0,0,0,0,0,0,0,0,0],"sum_hessian":[2E1,1.7E1,3E0,1.2E1,5E0,2E0,1E0,6E0,6E0],"tree_param":{"num_deleted":"0","num_feature":"46","num_nodes":"9","size_leaf_vector":"1"}},{"base_weights":[-3.0412328E-1,6.7032623E-1,-6.3742623E0,-3.8378844E-1,2.1677074E0,-8.5287094E-1,-1.0326844E-1,-1.3787888E-1,2.8606033E-2,9.434223E-2,2.713594E-1],"categories":[],"categories_nodes":[],"categories_segments":[],"categories_sizes":[],"default_left":[0,0,0,0,0,0,0,0,0,0,0],"id":3,"left_children":[1,3,5,7,9,-1,-1,-1,-1,-1,-1],"loss_changes":[1.2848877E2,3.0821758E1,2.5716972E1,8.392414E0,2.786499E0,0E0,0E0,0E0,0E0,0E0,0E0],"parents":[2147483647,0,0,1,1,2,2,3,3,4,4],"right_children":[2,4,6,8,10,-1,-1,-1,-1,-1,-1],"split_conditions":[7.8031E2,1.6287E2,9.72E1,9.73E1,9.78E1,-8.5287094E-1,-1.0326844E-1,-1.3787888E-1,2.8606033E-2,9.434223E-2,2.713594E-1],"split_indices":[17,11,0,3,3,0,0,0,0,0,0],"split_type":[0,0,0,0,0,0,0,0,0,0,0],"sum_hessian":[2E1,1.8E1,2E0,1.1E1,7E0,1E0,1E0,4E0,7E0,3E0,4E0],"tree_param":{"num_deleted":"0","num_feature":"46","num_nodes":"11","size_leaf_vector":"1"}},{"base_weights":[-3.3709827E-1,7.0133734E-1,-6.801491E0,-2.7849287E-1,2.420831E0,-2.0999642E-1,-8.102272E-1,-1.6194865E-1,1.1255021E-2,1.01638034E-1,3.220074E-1],"categories":[],"categories_nodes":[],"categories_segments":[],"categories_sizes":[],"default_left":[0,0,0,0,0,0,0,0,0,0,0],"id":4,"left_children":[1,3,5,7,9,-1,-1,-1,-1,-1,-1],"loss_changes":[1.4574011E2,3.2685604E1,1.332489E0,6.9992948E0,4.5846596E0,0E0,0E0,0E0,0E0,0E0,0E0],"parents":[2147483647,0,0,1,1,2,2,3,3,4,4],"right_children":[2,4,6,8,10,-1,-1,-1,-1,-1,-1],"split_conditions":[7.8031E2,4.5718748E7,9.16E1,9.68E1,1.6226E2,-2.0999642E-1,-8.102272E-1,-1.6194865E-1,1.1255021E-2,1.01638034E-1,3.220074E-1],"split_indices":[17,32,0,1,13,0,0,0,0,0,0],"split_type":[0,0,0,0,0,0,0,0,0,0,0],"sum_hessian":[2E1,1.8E1,2E0,1.2E1,6E0,1E0,1E0,2E0,1E1,3E0,3E0],"tree_param":{"num_deleted":"0","num_feature":"46","num_nodes":"11","size_leaf_vector":"1"}},{"base_weights":[5.756785E-1,-5.714859E-1,2.9516482E0,7.2789E-1,-1.2939628E0,8.50296E-2,3.1601575E-1,-4.8428345E-2,1.0671814E-1,-2.0307069E-1,-4.6434913E-2],"categories":[],"categories_nodes":[],"categories_segments":[],"categories_sizes":[],"default_left":[0,0,0,0,0,0,0,0,0,0,0],"id":5,"left_children":[1,3,5,7,9,-1,-1,-1,-1,-1,-1],"loss_changes":[5.8925007E1,1.50234E1,3.7998962E-1,2.9844983E0,5.1691723E0,0E0,0E0,0E0,0E0,0E0,0E0],"parents":[2147483647,0,0,1,1,2,2,3,3,4,4],"right_children":[2,4,6,8,10,-1,-1,-1,-1,-1,-1],"split_conditions":[1.426121E6,5.8947E2,9.96E1,1.01E2,2.6125458E8,8.50296E-2,3.1601575E-1,-4.8428345E-2,1.0671814E-1,-2.0307069E-1,-4.6434913E-2],"split_indices":[39,17,0,9,28,0,0,0,0,0,0],"split_type":[0,0,0,0,0,0,0,0,0,0,0],"sum_hessian":[2E1,1.4E1,6E0,5E0,9E0,1E0,5E0,1E0,4E0,4E0,5E0],"tree_param":{"num_deleted":"0","num_feature":"46","num_nodes":"11","size_leaf_vector":"1"}},{"base_weights":[1.8094601E-2,-2.2202904E0,1.6156485E0,-6.982107E-1,-5.5390725E0,1.7519836E-1,2.1743088E0,-1.0627562E-1,9.268036E-2,-7.595623E-1,-7.12986E-2,4.90654E-2,-1.9865673E-2,8.724457E-2,2.89681E-1],"categories":[],"categories_nodes":[],"categories_segments":[],"categories_sizes":[],"default_left":[0,0,0,0,0,0,0,0,0,0,0,0,0,0,0],"id":6,"left_children":[1,3,5,7,9,11,13,-1,-1,-1,-1,-1,-1,-1,-1],"loss_changes":[8.583385E1,4.6647068E1,1.0885178E1,5.724099E0,2.4359703E1,6.871451E-1,6.878666E0,0E0,0E0,0E0,0E0,0E0,0E0,0E0,0E0],"parents":[2147483647,0,0,1,1,2,2,3,3,4,4,5,5,6,6],"right_children":[2,4,6,8,10,12,14,-1,-1,-1,-1,-1,-1,-1,-1],"split_conditions":[9.713287E8,9.81E1,1.539E2,9.81E1,9.72E1,1.1207E2,2.60769E3,-1.0627562E-1,9.268036E-2,-7.595623E-1,-7.12986E-2,4.90654E-2,-1.9865673E-2,8.724457E-2,2.89681E-1],"split_indices":[27,2,11,1,0,13,15,0,0,0,0,0,0,0,0],"split_type":[0,0,0,0,0,0,0,0,0,0,0,0,0,0,0],"sum_hessian":[2.2E1,9E0,1.3E1,7E0,2E0,4E0,9E0,6E0,1E0,1E0,1E0,2E0,2E0,4E0,5E0],"tree_param":{"num_deleted":"0","num_feature":"46","num_nodes":"15","size_leaf_vector":"1"}},{"base_weights":[-2.9265952E-1,8.322515E-1,-5.8196616E0,-2.2779465E-1,2.4602865E-1,-1.5136491E-1,-7.215843E-1,-1.1298996E-1,5.6192525E-2],"categories":[],"categories_nodes":[],"categories_segments":[],"categories_sizes":[],"default_left":[0,0,0,0,0,0,0,0,0],"id":7,"left_children":[1,3,5,7,-1,-1,-1,-1,-1],"loss_changes":[1.1053897E2,2.6447327E1,7.113678E0,7.7590213E0,0E0,0E0,0E0,0E0,0E0],"parents":[2147483647,0,0,1,1,2,2,3,3],"right_children":[2,4,6,8,-1,-1,-1,-1,-1],"split_conditions":[7.9676E2,4.5718748E7,9.16E1,9.72E1,2.4602865E-1,-1.5136491E-1,-7.215843E-1,-1.1298996E-1,5.6192525E-2],"split_indices":[17,32,0,3,0,0,0,0,0],"split_type":[0,0,0,0,0,0,0,0,0],"sum_hessian":[1.6E1,1.4E1,2E0,9E0,5E0,1E0,1E0,4E0,5E0],"tree_param":{"num_deleted":"0","num_feature":"46","num_nodes":"9","size_leaf_vector":"1"}},{"base_weights":[-3.0614403E-1,4.9254304E-1,-5.5286765E0,-4.1018206E-1,1.8979034E0,-1.4379655E-1,-6.855049E-1,-9.739369E-2,2.121702E-2,2.3256722E-1,4.0973153E-2],"categories":[],"categories_nodes":[],"categories_segments":[],"categories_sizes":[],"default_left":[0,0,0,0,0,0,0,0,0,0,0],"id":8,"left_children":[1,3,5,7,9,-1,-1,-1,-1,-1,-1],"loss_changes":[9.448883E1,2.6151567E1,6.4200974E0,4.767743E0,4.139843E0,0E0,0E0,0E0,0E0,0E0,0E0],"parents":[2147483647,0,0,1,1,2,2,3,3,4,4],"right_children":[2,4,6,8,10,-1,-1,-1,-1,-1,-1],"split_conditions":[7.9676E2,1.002E2,9.16E1,9.713287E8,1.03636E3,-1.4379655E-1,-6.855049E-1,-9.739369E-2,2.121702E-2,2.3256722E-1,4.0973153E-2],"split_indices":[17,1,0,27,16,0,0,0,0,0,0],"split_type":[0,0,0,0,0,0,0,0,0,0,0],"sum_hessian":[2.1E1,1.9E1,2E0,1.2E1,7E0,1E0,1E0,6E0,6E0,5E0,2E0],"tree_param":{"num_deleted":"0","num_feature":"46","num_nodes":"11","size_leaf_vector":"1"}},{"base_weights":[-7.441194E-1,1.4766121E-1,-5.252243E0,-1.6393879E-1,1.5525742E-1,-1.366066E-1,-6.5122986E-1,-4.6933193E-2,7.16877E-2],"categories":[],"categories_nodes":[],"categories_segments":[],"categories_sizes":[],"default_left":[0,0,0,0,0,0,0,0,0],"id":9,"left_children":[1,3,5,7,-1,-1,-1,-1,-1],"loss_changes":[7.314018E1,7.258861E0,5.7941666E0,4.102384E0,0E0,0E0,0E0,0E0,0E0],"parents":[2147483647,0,0,1,1,2,2,3,3],"right_children":[2,4,6,8,-1,-1,-1,-1,-1],"split_conditions":[7.9676E2,1.214376E6,9.16E1,1E0,1.5525742E-1,-1.366066E-1,-6.5122986E-1,-4.6933193E-2,7.16877E-2],"split_indices":[17,40,0,6,0,0,0,0,0],"split_type":[0,0,0,0,0,0,0,0,0],"sum_hessian":[1.7E1,1.5E1,2E0,1.3E1,2E0,1E0,1E0,1E1,3E0],"tree_param":{"num_deleted":"0","num_feature":"46","num_nodes":"9","size_leaf_vector":"1"}},{"base_weights":[5.2225053E-1,-1.4887829E0,9.923682E-1,-1.7246857E-1,-3.9053727E-2,4.0906015E-1,2.1938339E-1,5.7188757E-2,-5.95665E-3],"categories":[],"categories_nodes":[],"categories_segments":[],"categories_sizes":[],"default_left":[0,0,0,0,0,0,0,0,0],"id":10,"left_children":[1,3,5,-1,-1,7,-1,-1,-1],"loss_changes":[1.9440445E1,3.6276245E-1,1.0315785E1,0E0,0E0,9.4972825E-1,0E0,0E0,0E0],"parents":[2147483647,0,0,1,1,2,2,5,5],"right_children":[2,4,6,-1,-1,8,-1,-1,-1],"split_conditions":[9.54E1,9.72E1,1.19E2,-1.7246857E-1,-3.9053727E-2,9.9925E1,2.1938339E-1,5.7188757E-2,-5.95665E-3],"split_indices":[5,1,9,0,0,5,0,0,0],"split_type":[0,0,0,0,0,0,0,0,0],"sum_hessian":[1.8E1,3E0,1.5E1,2E0,1E0,1.1E1,4E0,8E0,3E0],"tree_param":{"num_deleted":"0","num_feature":"46","num_nodes":"9","size_leaf_vector":"1"}},{"base_weights":[6.041147E-1,-3.3644456E-2,1.7022226E0,-9.749146E-2,3.4622803E-1,2.6210403E-2,1.8985583E-1,5.084429E-2,-2.0175425E-2],"categories":[],"categories_nodes":[],"categories_segments":[],"categories_sizes":[],"default_left":[0,0,0,0,0,0,0,0,0],"id":11,"left_children":[1,3,5,-1,7,-1,-1,-1,-1],"loss_changes":[1.3363508E1,4.985857E0,1.4816093E0,0E0,9.914893E-1,0E0,0E0,0E0,0E0],"parents":[2147483647,0,0,1,1,2,2,4,4],"right_children":[2,4,6,-1,8,-1,-1,-1,-1],"split_conditions":[1.002E2,2.489828E6,9.69E1,-9.749146E-2,9.9925E1,2.6210403E-2,1.8985583E-1,5.084429E-2,-2.0175425E-2],"split_indices":[1,42,3,0,5,0,0,0,0],"split_type":[0,0,0,0,0,0,0,0,0],"sum_hessian":[1.8E1,1.2E1,6E0,3E0,9E0,1E0,5E0,7E0,2E0],"tree_param":{"num_deleted":"0","num_feature":"46","num_nodes":"9","size_leaf_vector":"1"}},{"base_weights":[-1.1620608E-1,-2.8583572E0,6.5195847E-1,-4.1784286E-1,-6.310207E-1,2.831503E-2,1.8945262E-1,-9.416021E-2,5.7671737E-2,-3.6757406E-2,3.216925E-2],"categories":[],"categories_nodes":[],"categories_segments":[],"categories_sizes":[],"default_left":[0,0,0,0,0,0,0,0,0,0,0],"id":12,"left_children":[1,3,5,7,-1,9,-1,-1,-1,-1,-1],"loss_changes":[4.8204845E1,3.9484776E1,1.3894901E1,2.6266787E0,0E0,1.6281298E0,0E0,0E0,0E0,0E0,0E0],"parents":[2147483647,0,0,1,1,2,2,3,3,5,5],"right_children":[2,4,6,8,-1,10,-1,-1,-1,-1,-1],"split_conditions":[3.706443E8,9.81E1,2.60769E3,9.72E1,-6.310207E-1,1.253693E6,1.8945262E-1,-9.416021E-2,5.7671737E-2,-3.6757406E-2,3.216925E-2],"split_indices":[27,2,15,3,0,39,0,0,0,0,0],"split_type":[0,0,0,0,0,0,0,0,0,0,0],"sum_hessian":[2.1E1,4E0,1.7E1,3E0,1E0,1.2E1,5E0,2E0,1E0,5E0,7E0],"tree_param":{"num_deleted":"0","num_feature":"46","num_nodes":"11","size_leaf_vector":"1"}},{"base_weights":[-2.8321978E-1,-2.3660672E0,6.4572716E-1,-7.621791E-1,-5.994698E-1,1.8210728E-1,1.6292694E0,2.2456361E-2,-1.3116913E-1,-1.6030693E-2,6.9354855E-2,4.82811E-2,1.7951813E-1],"categories":[],"categories_nodes":[],"categories_segments":[],"categories_sizes":[],"default_left":[0,0,0,0,0,0,0,0,0,0,0,0,0],"id":13,"left_children":[1,3,5,7,-1,9,11,-1,-1,-1,-1,-1,-1],"loss_changes":[4.409464E1,3.6170383E1,6.9991336E0,3.547921E0,0E0,2.2126777E0,8.432293E-2,0E0,0E0,0E0,0E0,0E0,0E0],"parents":[2147483647,0,0,1,1,2,2,3,3,5,5,6,6],"right_children":[2,4,6,8,-1,10,12,-1,-1,-1,-1,-1,-1],"split_conditions":[9.1805E5,9.96E1,1E0,1.02E2,-5.994698E-1,1.7483E2,9.96E1,2.2456361E-2,-1.3116913E-1,-1.6030693E-2,6.9354855E-2,4.82811E-2,1.7951813E-1],"split_indices":[41,3,8,9,0,10,0,0,0,0,0,0,0],"split_type":[0,0,0,0,0,0,0,0,0,0,0,0,0],"sum_hessian":[2.1E1,6E0,1.5E1,5E0,1E0,1.1E1,4E0,2E0,3E0,7E0,4E0,1E0,3E0],"tree_param":{"num_deleted":"0","num_feature":"46","num_nodes":"13","size_leaf_vector":"1"}},{"base_weights":[-2.5834075E-1,-2.401292E0,5.6141233E-1,-6.03566E-1,-5.6949615E-1,1.6868767E-1,1.6974144E-1,-1.0227852E-1,5.3665545E-2,5.1587295E-2,-1.1278725E-2],"categories":[],"categories_nodes":[],"categories_segments":[],"categories_sizes":[],"default_left":[0,0,0,0,0,0,0,0,0,0,0],"id":14,"left_children":[1,3,5,7,-1,9,-1,-1,-1,-1,-1],"loss_changes":[3.823863E1,3.2089405E1,6.851843E0,2.9388967E0,0E0,1.3285952E0,0E0,0E0,0E0,0E0,0E0],"parents":[2147483647,0,0,1,1,2,2,3,3,5,5],"right_children":[2,4,6,8,-1,10,-1,-1,-1,-1,-1],"split_conditions":[2.391555E6,9.96E1,1.01125E2,9.76E1,-5.6949615E-1,9.8077E2,1.6974144E-1,-1.0227852E-1,5.3665545E-2,5.1587295E-2,-1.1278725E-2],"split_indices":[38,3,5,1,0,16,0,0,0,0,0],"split_type":[0,0,0,0,0,0,0,0,0,0,0],"sum_hessian":[2E1,5E0,1.5E1,4E0,1E0,1.2E1,3E0,3E0,1E0,5E0,7E0],"tree_param":{"num_deleted":"0","num_feature":"46","num_nodes":"11","size_leaf_vector":"1"}},{"base_weights":[-1.6531704E-1,5.454924E-1,-2.2701924E0,1.0572287E-1,1.407411E-1,-5.6014556E-1,-5.4102135E-1,-2.6768059E-2,4.6402305E-2,-1.14735164E-1,2.1377563E-2],"categories":[],"categories_nodes":[],"categories_segments":[],"categories_sizes":[],"default_left":[0,0,0,0,0,0,0,0,0,0,0],"id":15,"left_children":[1,3,5,7,-1,9,-1,-1,-1,-1,-1],"loss_changes":[3.5650177E1,6.6740236E0,2.9186995E1,1.8634868E0,0E0,2.5175319E0,0E0,0E0,0E0,0E0,0E0],"parents":[2147483647,0,0,1,1,2,2,3,3,5,5],"right_children":[2,4,6,8,-1,10,-1,-1,-1,-1,-1],"split_conditions":[7.2986E2,1.471675E6,9.92E1,9.73E1,1.407411E-1,9.61E1,-5.4102135E-1,-2.6768059E-2,4.6402305E-2,-1.14735164E-1,2.1377563E-2],"split_indices":[17,39,1,3,0,4,0,0,0,0,0],"split_type":[0,0,0,0,0,0,0,0,0,0,0],"sum_hessian":[2.2E1,1.7E1,5E0,1.2E1,5E0,4E0,1E0,6E0,6E0,2E0,2E0],"tree_param":{"num_deleted":"0","num_feature":"46","num_nodes":"11","size_leaf_vector":"1"}},{"base_weights":[5.899292E-1,2.7971828E-1,1.7608432E-1,4.4752654E-1,-6.5256245E-2,-1.5773773E-2,5.0202668E-2],"categories":[],"categories_nodes":[],"categories_segments":[],"categories_sizes":[],"default_left":[0,0,0,0,0,0,0],"id":16,"left_children":[1,3,-1,5,-1,-1,-1],"loss_changes":[6.7720656E0,2.951594E0,0E0,5.7399344E-1,0E0,0E0,0E0],"parents":[2147483647,0,0,1,1,3,3],"right_children":[2,4,-1,6,-1,-1,-1],"split_conditions":[1.5910766E9,1.15809E3,1.7608432E-1,1.01E2,-6.5256245E-2,-1.5773773E-2,5.0202668E-2],"split_indices":[27,16,0,9,0,0,0],"split_type":[0,0,0,0,0,0,0],"sum_hessian":[1.9E1,1.6E1,3E0,1.4E1,2E0,1E0,1.3E1],"tree_param":{"num_deleted":"0","num_feature":"46","num_nodes":"7","size_leaf_vector":"1"}},{"base_weights":[-1.5205456E-1,3.373694E-1,-3.2010548E0,-2.1777916E-1,1.1279211E0,3.6322024E-2,-5.1648027E-1,-7.4201964E-2,1.3709354E-2,3.502312E-2,1.5244888E-1],"categories":[],"categories_nodes":[],"categories_segments":[],"categories_sizes":[],"default_left":[0,0,0,0,0,0,0,0,0,0,0],"id":17,"left_children":[1,3,5,7,9,-1,-1,-1,-1,-1,-1],"loss_changes":[3.241727E1,8.584237E0,2.2873974E1,2.3341894E0,1.9333296E0,0E0,0E0,0E0,0E0,0E0,0E0],"parents":[2147483647,0,0,1,1,2,2,3,3,4,4],"right_children":[2,4,6,8,10,-1,-1,-1,-1,-1,-1],"split_conditions":[7.9676E2,1.002E2,9.6E1,2.00941E3,2.50117E3,3.6322024E-2,-5.1648027E-1,-7.4201964E-2,1.3709354E-2,3.502312E-2,1.5244888E-1],"split_indices":[17,1,1,15,15,0,0,0,0,0,0],"split_type":[0,0,0,0,0,0,0,0,0,0,0],"sum_hessian":[2E1,1.8E1,2E0,1.1E1,7E0,1E0,1E0,4E0,7E0,3E0,4E0],"tree_param":{"num_deleted":"0","num_feature":"46","num_nodes":"11","size_leaf_vector":"1"}},{"base_weights":[-2.5392368E-1,4.1496468E-1,-1.9953054E0,6.6047035E-2,1.1693741E0,-4.3174133E-1,-4.906563E-1,3.4933474E-2,-4.0042266E-2,3.3055115E-2,1.296442E-1,-8.6894736E-2,1.4937847E-2],"categories":[],"categories_nodes":[],"categories_segments":[],"categories_sizes":[],"default_left":[0,0,0,0,0,0,0,0,0,0,0,0,0],"id":18,"left_children":[1,3,5,7,9,11,-1,-1,-1,-1,-1,-1,-1],"loss_changes":[2.528857E1,4.1343946E0,2.5193258E1,1.7256229E0,1.043973E-1,1.4001473E0,0E0,0E0,0E0,0E0,0E0,0E0,0E0],"parents":[2147483647,0,0,1,1,2,2,3,3,4,4,5,5],"right_children":[2,4,6,8,10,12,-1,-1,-1,-1,-1,-1,-1],"split_conditions":[7.264E2,1.471675E6,9.92E1,6.7496E2,9.96E1,9.61E1,-4.906563E-1,3.4933474E-2,-4.0042266E-2,3.3055115E-2,1.296442E-1,-8.6894736E-2,1.4937847E-2],"split_indices":[17,39,1,17,0,4,0,0,0,0,0,0,0],"split_type":[0,0,0,0,0,0,0,0,0,0,0,0,0],"sum_hessian":[2E1,1.5E1,5E0,1.1E1,4E0,4E0,1E0,7E0,4E0,1E0,3E0,2E0,2E0],"tree_param":{"num_deleted":"0","num_feature":"46","num_nodes":"13","size_leaf_vector":"1"}},{"base_weights":[6.491937E-2,-3.353475E-1,7.4181694E-1,-1.3538361E-2,-7.831726E-1,8.7697476E-2,-3.4564973E-3,-3.3551026E-2,3.923111E-2,-9.147358E-2,-1.2845993E-2],"categories":[],"categories_nodes":[],"categories_segments":[],"categories_sizes":[],"default_left":[0,0,0,0,0,0,0,0,0,0,0],"id":19,"left_children":[1,3,5,7,9,-1,-1,-1,-1,-1,-1],"loss_changes":[5.1256804E0,1.7187678E0,7.648511E-1,1.1770014E0,3.131733E-1,0E0,0E0,0E0,0E0,0E0,0E0],"parents":[2147483647,0,0,1,1,2,2,3,3,4,4],"right_children":[2,4,6,8,10,-1,-1,-1,-1,-1,-1],"split_conditions":[9.96E1,6.29444E7,1.007E2,2.16491E3,9.99E1,8.7697476E-2,-3.4564973E-3,-3.3551026E-2,3.923111E-2,-9.147358E-2,-1.2845993E-2],"split_indices":[1,24,0,15,2,0,0,0,0,0,0],"split_type":[0,0,0,0,0,0,0,0,0,0,0],"sum_hessian":[1.7E1,1.1E1,6E0,7E0,4E0,5E0,1E0,4E0,3E0,3E0,1E0],"tree_param":{"num_deleted":"0","num_feature":"46","num_nodes":"11","size_leaf_vector":"1"}},{"base_weights":[2.1582472E-1,-8.539963E-2,8.8271075E-1,3.400167E-1,-3.5952166E-1,4.744553E-2,1.4619942E-1,4.5339506E-2,-1.1343765E-2,-6.067551E-2,-4.038391E-3],"categories":[],"categories_nodes":[],"categories_segments":[],"categories_sizes":[],"default_left":[0,0,0,0,0,0,0,0,0,0,0],"id":20,"left_children":[1,3,5,7,9,-1,-1,-1,-1,-1,-1],"loss_changes":[3.892147E0,1.7548672E0,7.253227E-1,3.5990363E-1,6.856104E-1,0E0,0E0,0E0,0E0,0E0,0E0],"parents":[2147483647,0,0,1,1,2,2,3,3,4,4],"right_children":[2,4,6,8,10,-1,-1,-1,-1,-1,-1],"split_conditions":[1.7554E2,2.8487E3,1.036E2,1.01E2,9.713287E8,4.744553E-2,1.4619942E-1,4.5339506E-2,-1.1343765E-2,-6.067551E-2,-4.038391E-3],"split_indices":[10,14,4,0,27,0,0,0,0,0,0],"split_type":[0,0,0,0,0,0,0,0,0,0,0],"sum_hessian":[1.8E1,1.3E1,5E0,5E0,8E0,4E0,1E0,4E0,1E0,4E0,4E0],"tree_param":{"num_deleted":"0","num_feature":"46","num_nodes":"11","size_leaf_vector":"1"}},{"base_weights":[-3.091755E-1,-2.1108353E0,2.7316666E-1,-2.7466583E-1,-4.7277567E-1,3.381876E-2,9.8275565E-2,-8.015861E-2,1.6816966E-2,-3.972524E-2,1.4830919E-2],"categories":[],"categories_nodes":[],"categories_segments":[],"categories_sizes":[],"default_left":[0,0,0,0,0,0,0,0,0,0,0],"id":21,"left_children":[1,3,5,7,-1,9,-1,-1,-1,-1,-1],"loss_changes":[2.1560259E1,2.2727E1,2.6841826E0,1.0681585E0,0E0,7.00512E-1,0E0,0E0,0E0,0E0,0E0],"parents":[2147483647,0,0,1,1,2,2,3,3,5,5],"right_children":[2,4,6,8,-1,10,-1,-1,-1,-1,-1],"split_conditions":[1.8592288E8,9.81E1,2.60769E3,9.46E1,-4.7277567E-1,1.333166E6,9.8275565E-2,-8.015861E-2,1.6816966E-2,-3.972524E-2,1.4830919E-2],"split_indices":[28,2,15,1,0,36,0,0,0,0,0],"split_type":[0,0,0,0,0,0,0,0,0,0,0],"sum_hessian":[1.9E1,4E0,1.5E1,3E0,1E0,1.2E1,3E0,1E0,2E0,2E0,1E1],"tree_param":{"num_deleted":"0","num_feature":"46","num_nodes":"11","size_leaf_vector":"1"}},{"base_weights":[-1.5122505E-1,-1.8605295E0,5.9213585E-1,-4.4913673E-1,-4.3608856E-1,2.332729E-1,1.430975E-1,1.5695954E-2,-8.837738E-2,-5.969391E-3,4.092102E-2],"categories":[],"categories_nodes":[],"categories_segments":[],"categories_sizes":[],"default_left":[0,0,0,0,0,0,0,0,0,0,0],"id":22,"left_children":[1,3,5,-1,7,9,-1,-1,-1,-1,-1],"loss_changes":[2.524366E1,2.0526205E1,3.880588E0,0E0,1.4662112E0,5.9140897E-1,0E0,0E0,0E0,0E0,0E0],"parents":[2147483647,0,0,1,1,2,2,4,4,5,5],"right_children":[2,4,6,-1,8,10,-1,-1,-1,-1,-1],"split_conditions":[9.1805E5,9.72E1,1.4307793E9,-4.4913673E-1,7.519E1,2.6029043E8,1.430975E-1,1.5695954E-2,-8.837738E-2,-5.969391E-3,4.092102E-2],"split_indices":[41,0,27,0,10,30,0,0,0,0,0],"split_type":[0,0,0,0,0,0,0,0,0,0,0],"sum_hessian":[1.8E1,5E0,1.3E1,1E0,4E0,1E1,3E0,2E0,2E0,4E0,6E0],"tree_param":{"num_deleted":"0","num_feature":"46","num_nodes":"11","size_leaf_vector":"1"}},{"base_weights":[2.8739277E-1,-3.40333E-2,1.0966301E0,-2.7071303E-1,3.0894253E-1,5.1271822E-2,1.5096359E-1,-3.7718456E-2,3.4376528E-2,3.6328E-2,-8.5411075E-4],"categories":[],"categories_nodes":[],"categories_segments":[],"categories_sizes":[],"default_left":[0,0,0,0,0,0,0,0,0,0,0],"id":23,"left_children":[1,3,5,7,9,-1,-1,-1,-1,-1,-1],"loss_changes":[5.4996314E0,1.3824415E0,6.7293596E-1,7.8390723E-1,1.2386161E-1,0E0,0E0,0E0,0E0,0E0,0E0],"parents":[2147483647,0,0,1,1,2,2,3,3,4,4],"right_children":[2,4,6,8,10,-1,-1,-1,-1,-1,-1],"split_conditions":[1.003E2,2.2125E2,1.007E2,1.002E2,1.08927E3,5.1271822E-2,1.5096359E-1,-3.7718456E-2,3.4376528E-2,3.6328E-2,-8.5411075E-4],"split_indices":[3,20,1,1,16,0,0,0,0,0,0],"split_type":[0,0,0,0,0,0,0,0,0,0,0],"sum_hessian":[2E1,1.5E1,5E0,9E0,6E0,3E0,2E0,8E0,1E0,5E0,1E0],"tree_param":{"num_deleted":"0","num_feature":"46","num_nodes":"11","size_leaf_vector":"1"}},{"base_weights":[2.349049E-1,-5.624345E-2,1.0206743E0,-2.7124578E-1,2.8965214E-1,4.7426607E-2,1.408994E-1,5.674853E-3,-6.761887E-2,1.4770508E-3,3.33004E-2],"categories":[],"categories_nodes":[],"categories_segments":[],"categories_sizes":[],"default_left":[0,0,0,0,0,0,0,0,0,0,0],"id":24,"left_children":[1,3,5,7,9,-1,-1,-1,-1,-1,-1],"loss_changes":[5.0904675E0,1.342829E0,6.048484E-1,1.4993812E0,7.849777E-2,0E0,0E0,0E0,0E0,0E0,0E0],"parents":[2147483647,0,0,1,1,2,2,3,3,4,4],"right_children":[2,4,6,8,10,-1,-1,-1,-1,-1,-1],"split_conditions":[1.003E2,1.7447E2,1.007E2,1.604E2,9.68E1,4.7426607E-2,1.408994E-1,5.674853E-3,-6.761887E-2,1.4770508E-3,3.33004E-2],"split_indices":[3,10,1,20,0,0,0,0,0,0,0],"split_type":[0,0,0,0,0,0,0,0,0,0,0],"sum_hessian":[2.1E1,1.6E1,5E0,1E1,6E0,3E0,2E0,6E0,4E0,1E0,5E0],"tree_param":{"num_deleted":"0","num_feature":"46","num_nodes":"11","size_leaf_vector":"1"}},{"base_weights":[-2.7244735E-1,-1.8942932E0,1.6869354E-1,-2.2445297E-1,-4.286827E-1,3.7668082E-1,-2.4166761E-1,-5.15096E-2,3.2373812E-2,1.601588E-2,6.910843E-2,-3.5742648E-2,3.181966E-3],"categories":[],"categories_nodes":[],"categories_segments":[],"categories_sizes":[],"default_left":[0,0,0,0,0,0,0,0,0,0,0,0,0],"id":25,"left_children":[1,3,5,7,-1,9,11,-1,-1,-1,-1,-1,-1],"loss_changes":[1.6775194E1,1.9013554E1,1.7126794E0,8.040679E-1,0E0,7.7429557E-1,2.3298314E-1,0E0,0E0,0E0,0E0,0E0,0E0],"parents":[2147483647,0,0,1,1,2,2,3,3,5,5,6,6],"right_children":[2,4,6,8,-1,10,12,-1,-1,-1,-1,-1,-1],"split_conditions":[1.8592288E8,9.81E1,1.04302E3,9.76E1,-4.286827E-1,1.003E2,1.7447E2,-5.15096E-2,3.2373812E-2,1.601588E-2,6.910843E-2,-3.5742648E-2,3.181966E-3],"split_indices":[28,2,16,1,0,3,10,0,0,0,0,0,0],"split_type":[0,0,0,0,0,0,0,0,0,0,0,0,0],"sum_hessian":[2.2E1,4E0,1.8E1,3E0,1E0,1.2E1,6E0,2E0,1E0,8E0,4E0,4E0,2E0],"tree_param":{"num_deleted":"0","num_feature":"46","num_nodes":"13","size_leaf_vector":"1"}},{"base_weights":[-3.2067794E-1,-1.7944291E0,1.5991163E-1,-4.072487E-1,-2.0679283E-1,5.541954E-1,-6.968966E-2,-6.388932E-2,1.5020497E-2,7.698822E-2,2.5388146E-2,2.1711731E-2,-3.4488168E-2],"categories":[],"categories_nodes":[],"categories_segments":[],"categories_sizes":[],"default_left":[0,0,0,0,0,0,0,0,0,0,0,0,0],"id":26,"left_children":[1,3,5,-1,7,9,11,-1,-1,-1,-1,-1,-1],"loss_changes":[1.4452339E1,1.7241476E1,1.4870708E0,0E0,7.1300036E-1,1.9318378E-1,9.430767E-1,0E0,0E0,0E0,0E0,0E0,0E0],"parents":[2147483647,0,0,1,1,2,2,4,4,5,5,6,6],"right_children":[2,4,6,-1,8,10,12,-1,-1,-1,-1,-1,-1],"split_conditions":[1.86131E5,9.72E1,9.5665E2,-4.072487E-1,9.16E1,9.73E1,1.540832E6,-6.388932E-2,1.5020497E-2,7.698822E-2,2.5388146E-2,2.1711731E-2,-3.4488168E-2],"split_indices":[45,0,16,0,2,2,36,0,0,0,0,0,0],"split_type":[0,0,0,0,0,0,0,0,0,0,0,0,0],"sum_hessian":[1.9E1,4E0,1.5E1,1E0,3E0,5E0,1E1,1E0,2E0,2E0,3E0,5E0,5E0],"tree_param":{"num_deleted":"0","num_feature":"46","num_nodes":"13","size_leaf_vector":"1"}},{"base_weights":[-3.4607315E-1,1.4441426E-1,-2.0988827E0,1.1542185E-3,1.0750275E-1,-3.868862E-1,-2.192688E-1,1.9025592E-2,-2.8269067E-2,2.7804567E-2,-6.0694885E-2],"categories":[],"categories_nodes":[],"categories_segments":[],"categories_sizes":[],"default_left":[0,0,0,0,0,0,0,0,0,0,0],"id":27,"left_children":[1,3,5,7,-1,-1,9,-1,-1,-1,-1],"loss_changes":[1.5778266E1,1.9985543E0,1.2459192E1,8.052412E-1,0E0,0E0,7.4715614E-1,0E0,0E0,0E0,0E0],"parents":[2147483647,0,0,1,1,2,2,3,3,6,6],"right_children":[2,4,6,8,-1,-1,10,-1,-1,-1,-1],"split_conditions":[7.2986E2,1.035E2,9.72E1,1.04302E3,1.0750275E-1,-3.868862E-1,9.78E1,1.9025592E-2,-2.8269067E-2,2.7804567E-2,-6.0694885E-2],"split_indices":[17,0,0,16,0,0,0,0,0,0,0],"split_type":[0,0,0,0,0,0,0,0,0,0,0],"sum_hessian":[1.7E1,1.4E1,3E0,1.3E1,1E0,1E0,2E0,8E0,5E0,1E0,1E0],"tree_param":{"num_deleted":"0","num_feature":"46","num_nodes":"11","size_leaf_vector":"1"}},{"base_weights":[-2.490387E-1,-1.6243057E0,1.7010094E-1,-1.9267273E-1,-3.6754188E-1,-9.696059E-2,5.654689E-1,-4.5058187E-2,2.9052734E-2,2.8686333E-2,-2.7675247E-2,3.192889E-2,1.02127455E-1],"categories":[],"categories_nodes":[],"categories_segments":[],"categories_sizes":[],"default_left":[0,0,0,0,0,0,0,0,0,0,0,0,0],"id":28,"left_children":[1,3,5,7,-1,9,11,-1,-1,-1,-1,-1,-1],"loss_changes":[1.2381304E1,1.3974053E1,1.8498172E0,6.2939316E-1,0E0,8.3848286E-1,4.5939016E-1,0E0,0E0,0E0,0E0,0E0,0E0],"parents":[2147483647,0,0,1,1,2,2,3,3,5,5,6,6],"right_children":[2,4,6,8,-1,10,12,-1,-1,-1,-1,-1,-1],"split_conditions":[1.8592288E8,9.81E1,1.7554E2,9.72E1,-3.6754188E-1,2.95181E3,1.007E2,-4.5058187E-2,2.9052734E-2,2.8686333E-2,-2.7675247E-2,3.192889E-2,1.02127455E-1],"split_indices":[28,2,10,3,0,14,3,0,0,0,0,0,0],"split_type":[0,0,0,0,0,0,0,0,0,0,0,0,0],"sum_hessian":[2E1,4E0,1.6E1,3E0,1E0,1E1,6E0,2E0,1E0,3E0,7E0,5E0,1E0],"tree_param":{"num_deleted":"0","num_feature":"46","num_nodes":"13","size_leaf_vector":"1"}},{"base_weights":[9.930906E-2,-3.624926E-2,7.183838E-1,1.5780404E-1,-3.914555E-1,3.110377E-2,9.70211E-2,-1.1571198E-2,2.922236E-2,-1.6472321E-2,-6.3885756E-2],"categories":[],"categories_nodes":[],"categories_segments":[],"categories_sizes":[],"default_left":[0,0,0,0,0,0,0,0,0,0,0],"id":29,"left_children":[1,3,5,7,9,-1,-1,-1,-1,-1,-1],"loss_changes":[1.8722969E0,1.3714234E0,1.08551264E-1,5.1177055E-1,2.874235E-1,0E0,0E0,0E0,0E0,0E0,0E0],"parents":[2147483647,0,0,1,1,2,2,3,3,4,4],"right_children":[2,4,6,8,10,-1,-1,-1,-1,-1,-1],"split_conditions":[1.418E2,1.504585E6,1.037E2,9.69E1,1.539E2,3.110377E-2,9.70211E-2,-1.1571198E-2,2.922236E-2,-1.6472321E-2,-6.3885756E-2],"split_indices":[12,36,0,3,11,0,0,0,0,0,0],"split_type":[0,0,0,0,0,0,0,0,0,0,0],"sum_hessian":[2.1E1,1.8E1,3E0,1.2E1,6E0,2E0,1E0,4E0,8E0,4E0,2E0],"tree_param":{"num_deleted":"0","num_feature":"46","num_nodes":"11","size_leaf_vector":"1"}},{"base_weights":[-1.66012E-1,1.9959034E-1,-2.1824214E0,-2.5930133E-2,9.3901443E-1,-3.50626E-1,2.3262788E-2,-2.0723248E-2,1.8497685E-2,1.3111496E-2,1.16460934E-1],"categories":[],"categories_nodes":[],"categories_segments":[],"categories_sizes":[],"default_left":[0,0,0,0,0,0,0,0,0,0,0],"id":30,"left_children":[1,3,5,7,9,-1,-1,-1,-1,-1,-1],"loss_changes":[1.4442468E1,2.8591883E0,1.0407058E1,5.7366425E-1,5.763345E-1,0E0,0E0,0E0,0E0,0E0,0E0],"parents":[2147483647,0,0,1,1,2,2,3,3,4,4],"right_children":[2,4,6,8,10,-1,-1,-1,-1,-1,-1],"split_conditions":[7.9676E2,1.01E2,9.72E1,9.96E1,9.96E1,-3.50626E-1,2.3262788E-2,-2.0723248E-2,1.8497685E-2,1.3111496E-2,1.16460934E-1],"split_indices":[17,3,0,1,0,0,0,0,0,0,0],"split_type":[0,0,0,0,0,0,0,0,0,0,0],"sum_hessian":[1.8E1,1.6E1,2E0,1.3E1,3E0,1E0,1E0,7E0,6E0,1E0,2E0],"tree_param":{"num_deleted":"0","num_feature":"46","num_nodes":"11","size_leaf_vector":"1"}},{"base_weights":[-1.6072845E-1,-1.4604676E0,2.5548553E-1,-3.330948E-1,-1.6011047E-1,3.3824626E-2,9.120121E-1,-5.1176835E-2,1.2769826E-2,3.6438372E-2,-1.0178147E-2,1.0869675E-1,1.93573E-2],"categories":[],"categories_nodes":[],"categories_segments":[],"categories_sizes":[],"default_left":[0,0,0,0,0,0,0,0,0,0,0,0,0],"id":31,"left_children":[1,3,5,-1,7,9,11,-1,-1,-1,-1,-1,-1],"loss_changes":[1.119252E1,1.1628141E1,2.2975717E0,0E0,4.7019273E-1,6.198232E-1,2.923715E-1,0E0,0E0,0E0,0E0,0E0,0E0],"parents":[2147483647,0,0,1,1,2,2,4,4,5,5,6,6],"right_children":[2,4,6,-1,8,10,12,-1,-1,-1,-1,-1,-1],"split_conditions":[1.8592288E8,9.72E1,1.5910766E9,-3.330948E-1,9.16E1,1.734E2,1.007E2,-5.1176835E-2,1.2769826E-2,3.6438372E-2,-1.0178147E-2,1.0869675E-1,1.93573E-2],"split_indices":[28,0,27,0,2,19,2,0,0,0,0,0,0],"split_type":[0,0,0,0,0,0,0,0,0,0,0,0,0],"sum_hessian":[1.9E1,4E0,1.5E1,1E0,3E0,1.2E1,3E0,1E0,2E0,3E0,9E0,2E0,1E0],"tree_param":{"num_deleted":"0","num_feature":"46","num_nodes":"13","size_leaf_vector":"1"}},{"base_weights":[-2.0321053E-1,-1.3887222E0,2.0550741E-1,-3.164402E-1,-1.5370178E-1,4.1650137E-1,-9.512874E-2,2.4575425E-2,-3.687719E-2,2.66284E-2,8.091202E-2,-3.1420518E-2,1.4772988E-2],"categories":[],"categories_nodes":[],"categories_segments":[],"categories_sizes":[],"default_left":[0,0,0,0,0,0,0,0,0,0,0,0,0],"id":32,"left_children":[1,3,5,-1,7,9,11,-1,-1,-1,-1,-1,-1],"loss_changes":[9.491652E0,1.047863E1,9.9110746E-1,0E0,4.342714E-1,3.153478E-1,4.1884965E-1,0E0,0E0,0E0,0E0,0E0,0E0],"parents":[2147483647,0,0,1,1,2,2,4,4,5,5,6,6],"right_children":[2,4,6,-1,8,10,12,-1,-1,-1,-1,-1,-1],"split_conditions":[1.8592288E8,9.72E1,1.04302E3,-3.164402E-1,9.76E1,1.037E2,1.002E2,2.4575425E-2,-3.687719E-2,2.66284E-2,8.091202E-2,-3.1420518E-2,1.4772988E-2],"split_indices":[28,0,16,0,0,0,2,0,0,0,0,0,0],"split_type":[0,0,0,0,0,0,0,0,0,0,0,0,0],"sum_hessian":[1.8E1,4E0,1.4E1,1E0,3E0,8E0,6E0,1E0,2E0,7E0,1E0,3E0,3E0],"tree_param":{"num_deleted":"0","num_feature":"46","num_nodes":"13","size_leaf_vector":"1"}},{"base_weights":[1.120333E-1,1.6880637E-2,6.773224E-2,1.5132199E-1,-2.3520769E-1,-7.717896E-3,2.6145343E-2,-5.7510374E-4,-5.392329E-2],"categories":[],"categories_nodes":[],"categories_segments":[],"categories_sizes":[],"default_left":[0,0,0,0,0,0,0,0,0],"id":33,"left_children":[1,3,-1,5,7,-1,-1,-1,-1],"loss_changes":[1.1181303E0,6.7952293E-1,0E0,3.4732547E-1,4.8522308E-1,0E0,0E0,0E0,0E0],"parents":[2147483647,0,0,1,1,3,3,4,4],"right_children":[2,4,-1,6,8,-1,-1,-1,-1],"split_conditions":[1.01E2,1.504585E6,6.773224E-2,9.69E1,1.539E2,-7.717896E-3,2.6145343E-2,-5.7510374E-4,-5.392329E-2],"split_indices":[3,36,0,3,11,0,0,0,0],"split_type":[0,0,0,0,0,0,0,0,0],"sum_hessian":[2E1,1.8E1,2E0,1.2E1,6E0,4E0,8E0,4E0,2E0],"tree_param":{"num_deleted":"0","num_feature":"46","num_nodes":"9","size_leaf_vector":"1"}},{"base_weights":[-1.0552547E-1,-1.3137268E0,2.1797621E-1,-3.0192566E-1,-1.3253021E-1,6.412649E-2,7.788811E-1,-4.4077683E-2,1.1714427E-2,2.0313611E-2,-2.014122E-2,1.5750885E-2,9.3350224E-2],"categories":[],"categories_nodes":[],"categories_segments":[],"categories_sizes":[],"default_left":[0,0,0,0,0,0,0,0,0,0,0,0,0],"id":34,"left_children":[1,3,5,-1,7,9,11,-1,-1,-1,-1,-1,-1],"loss_changes":[9.276031E0,9.672688E0,1.5896592E0,0E0,3.5947973E-1,6.3151294E-1,2.3727417E-1,0E0,0E0,0E0,0E0,0E0,0E0],"parents":[2147483647,0,0,1,1,2,2,4,4,5,5,6,6],"right_children":[2,4,6,-1,8,10,12,-1,-1,-1,-1,-1,-1],"split_conditions":[1.8592288E8,9.72E1,1.5910766E9,-3.0192566E-1,9.46E1,1.540832E6,1.007E2,-4.4077683E-2,1.1714427E-2,2.0313611E-2,-2.014122E-2,1.5750885E-2,9.3350224E-2],"split_indices":[28,0,27,0,1,36,1,0,0,0,0,0,0],"split_type":[0,0,0,0,0,0,0,0,0,0,0,0,0],"sum_hessian":[2.2E1,4E0,1.8E1,1E0,3E0,1.5E1,3E0,1E0,2E0,1E1,5E0,1E0,2E0],"tree_param":{"num_deleted":"0","num_feature":"46","num_nodes":"13","size_leaf_vector":"1"}},{"base_weights":[1.0516843E-1,-1.500473E-2,8.7126665E-2,2.4925613E-1,-1.1970876E-1,3.1932067E-2,-5.0533297E-3,-4.1847534E-2,2.6976846E-3],"categories":[],"categories_nodes":[],"categories_segments":[],"categories_sizes":[],"default_left":[0,0,0,0,0,0,0,0,0],"id":35,"left_children":[1,3,-1,5,7,-1,-1,-1,-1],"loss_changes":[2.0384908E0,5.8322173E-1,0E0,1.4216393E-1,6.686605E-1,0E0,0E0,0E0,0E0],"parents":[2147483647,0,0,1,1,3,3,4,4],"right_children":[2,4,-1,6,8,-1,-1,-1,-1],"split_conditions":[1.5910766E9,1.734E2,8.7126665E-2,1.01E2,9.713287E8,3.1932067E-2,-5.0533297E-3,-4.1847534E-2,2.6976846E-3],"split_indices":[27,19,0,0,27,0,0,0,0],"split_type":[0,0,0,0,0,0,0,0,0],"sum_hessian":[2.1E1,1.9E1,2E0,5E0,1.4E1,4E0,1E0,4E0,1E1],"tree_param":{"num_deleted":"0","num_feature":"46","num_nodes":"9","size_leaf_vector":"1"}},{"base_weights":[-1.2285687E-1,-1.2526032E0,2.1664833E-1,-2.8842583E-1,-1.236248E-1,5.6788854E-2,7.219944E-2,-3.978157E-2,1.0037741E-2,2.679348E-2,-2.5154115E-3],"categories":[],"categories_nodes":[],"categories_segments":[],"categories_sizes":[],"default_left":[0,0,0,0,0,0,0,0,0,0,0],"id":36,"left_children":[1,3,5,-1,7,9,-1,-1,-1,-1,-1],"loss_changes":[8.326023E0,8.853951E0,1.3323328E0,0E0,2.8560916E-1,2.4896663E-1,0E0,0E0,0E0,0E0,0E0],"parents":[2147483647,0,0,1,1,2,2,4,4,5,5],"right_children":[2,4,6,-1,8,10,-1,-1,-1,-1,-1],"split_conditions":[1.86131E5,9.72E1,1.01E2,-2.8842583E-1,9.16E1,1.734E2,7.219944E-2,-3.978157E-2,1.0037741E-2,2.679348E-2,-2.5154115E-3],"split_indices":[45,0,3,0,2,19,0,0,0,0,0],"split_type":[0,0,0,0,0,0,0,0,0,0,0],"sum_hessian":[2E1,4E0,1.6E1,1E0,3E0,1.3E1,3E0,1E0,2E0,3E0,1E1],"tree_param":{"num_deleted":"0","num_feature":"46","num_nodes":"11","size_leaf_vector":"1"}},{"base_weights":[-1.5100445E-1,-1.1909775E0,1.4626609E-1,-2.7400437E-1,-1.1870003E-1,-2.5731404E-3,6.678467E-1,1.9355392E-2,-2.8730264E-2,1.0598893E-2,-2.4089508E-2,1.8811798E-2,7.650503E-2],"categories":[],"categories_nodes":[],"categories_segments":[],"categories_sizes":[],"default_left":[0,0,0,0,0,0,0,0,0,0,0,0,0],"id":37,"left_children":[1,3,5,-1,7,9,11,-1,-1,-1,-1,-1,-1],"loss_changes":[6.9755735E0,7.9798994E0,1.3990881E0,0E0,2.6619592E-1,4.136231E-1,4.260564E-2,0E0,0E0,0E0,0E0,0E0,0E0],"parents":[2147483647,0,0,1,1,2,2,4,4,5,5,6,6],"right_children":[2,4,6,-1,8,10,12,-1,-1,-1,-1,-1,-1],"split_conditions":[1.86131E5,9.72E1,1.01E2,-2.7400437E-1,9.76E1,1.540832E6,9.46E1,1.9355392E-2,-2.8730264E-2,1.0598893E-2,-2.4089508E-2,1.8811798E-2,7.650503E-2],"split_indices":[45,0,3,0,0,36,0,0,0,0,0,0,0],"split_type":[0,0,0,0,0,0,0,0,0,0,0,0,0],"sum_hessian":[2.1E1,4E0,1.7E1,1E0,3E0,1.4E1,3E0,1E0,2E0,1E1,4E0,1E0,2E0],"tree_param":{"num_deleted":"0","num_feature":"46","num_nodes":"13","size_leaf_vector":"1"}},{"base_weights":[-9.222412E-2,-1.2289143E0,1.9771242E-1,9.680939E-2,-2.6030427E-1,3.2723743E-2,5.541428E-1,-3.8661957E-3,1.8387605E-2,1.1261139E-2,-2.4447633E-2,2.0952607E-2,7.1404524E-2],"categories":[],"categories_nodes":[],"categories_segments":[],"categories_sizes":[],"default_left":[0,0,0,0,0,0,0,0,0,0,0,0,0],"id":38,"left_children":[1,3,5,7,-1,9,11,-1,-1,-1,-1,-1,-1],"loss_changes":[6.504764E0,7.5388565E0,9.22778E-1,4.249411E-2,0E0,2.9326913E-1,1.259141E-1,0E0,0E0,0E0,0E0,0E0,0E0],"parents":[2147483647,0,0,1,1,2,2,3,3,5,5,6,6],"right_children":[2,4,6,8,-1,10,12,-1,-1,-1,-1,-1,-1],"split_conditions":[1.7710845E8,9.81E1,1E0,9.76E1,-2.6030427E-1,4.12444E6,1.003E2,-3.8661957E-3,1.8387605E-2,1.1261139E-2,-2.4447633E-2,2.0952607E-2,7.1404524E-2],"split_indices":[23,2,8,1,0,42,1,0,0,0,0,0,0],"split_type":[0,0,0,0,0,0,0,0,0,0,0,0,0],"sum_hessian":[1.8E1,3E0,1.5E1,2E0,1E0,1.1E1,4E0,1E0,1E0,9E0,2E0,2E0,2E0],"tree_param":{"num_deleted":"0","num_feature":"46","num_nodes":"13","size_leaf_vector":"1"}},{"base_weights":[4.3818023E-2,-2.033735E-1,1.7355053E-1,-3.263569E-2,-2.9546738E-2,2.8850302E-1,-6.807403E-2,1.0383606E-3,-4.6318057E-3,1.909399E-2,5.3450394E-2,-9.28421E-3,1.5499116E-3],"categories":[],"categories_nodes":[],"categories_segments":[],"categories_sizes":[],"default_left":[0,0,0,0,0,0,0,0,0,0,0,0,0],"id":39,"left_children":[1,3,5,-1,7,9,11,-1,-1,-1,-1,-1,-1],"loss_changes":[6.4460236E-1,1.4000183E-1,3.80719E-1,0E0,3.1596862E-3,1.1394739E-1,1.17887E-2,0E0,0E0,0E0,0E0,0E0,0E0],"parents":[2147483647,0,0,1,1,2,2,4,4,5,5,6,6],"right_children":[2,4,6,-1,8,10,12,-1,-1,-1,-1,-1,-1],"split_conditions":[9.72E1,9.94E1,6.9391E2,-3.263569E-2,1.003E2,1.037E2,9.99E1,1.0383606E-3,-4.6318057E-3,1.909399E-2,5.3450394E-2,-9.28421E-3,1.5499116E-3],"split_indices":[3,0,17,0,0,0,0,0,0,0,0,0,0],"split_type":[0,0,0,0,0,0,0,0,0,0,0,0,0],"sum_hessian":[1.8E1,6E0,1.2E1,3E0,3E0,8E0,4E0,1E0,2E0,7E0,1E0,3E0,1E0],"tree_param":{"num_deleted":"0","num_feature":"46","num_nodes":"13","size_leaf_vector":"1"}},{"base_weights":[-1.6720168E-1,-1.0761582E0,6.839752E-2,-2.4682465E-1,-1.1107445E-1,-1.9654667E-2,4.2551994E-2,-3.5287093E-2,8.7148035E-3,5.1942305E-3,-1.2935638E-2],"categories":[],"categories_nodes":[],"categories_segments":[],"categories_sizes":[],"default_left":[0,0,0,0,0,0,0,0,0,0,0],"id":40,"left_children":[1,3,5,-1,7,9,-1,-1,-1,-1,-1],"loss_changes":[5.2131925E0,6.4432497E0,6.3727164E-1,0E0,2.2247E-1,1.4024237E-1,0E0,0E0,0E0,0E0,0E0],"parents":[2147483647,0,0,1,1,2,2,4,4,5,5],"right_children":[2,4,6,-1,8,10,-1,-1,-1,-1,-1],"split_conditions":[1.8592288E8,9.72E1,7.8031E2,-2.4682465E-1,9.46E1,1.04302E3,4.2551994E-2,-3.5287093E-2,8.7148035E-3,5.1942305E-3,-1.2935638E-2],"split_indices":[28,0,17,0,1,16,0,0,0,0,0],"split_type":[0,0,0,0,0,0,0,0,0,0,0],"sum_hessian":[2.3E1,4E0,1.9E1,1E0,3E0,1.6E1,3E0,1E0,2E0,1E1,6E0],"tree_param":{"num_deleted":"0","num_feature":"46","num_nodes":"11","size_leaf_vector":"1"}},{"base_weights":[-1.4104185E-1,5.8361433E-2,-1.4233831E0,-5.2815605E-2,5.162735E-1,2.0975877E-2,-2.3448335E-1,7.919381E-3,-2.527139E-2,8.425522E-3,6.321945E-2],"categories":[],"categories_nodes":[],"categories_segments":[],"categories_sizes":[],"default_left":[0,0,0,0,0,0,0,0,0,0,0],"id":41,"left_children":[1,3,5,7,9,-1,-1,-1,-1,-1,-1],"loss_changes":[5.7085376E0,1.0454534E0,5.006426E0,4.686171E-1,1.4705431E-1,0E0,0E0,0E0,0E0,0E0,0E0],"parents":[2147483647,0,0,1,1,2,2,3,3,4,4],"right_children":[2,4,6,8,10,-1,-1,-1,-1,-1,-1],"split_conditions":[7.9676E2,1.5910766E9,9.16E1,6.7496E2,1.007E2,2.0975877E-2,-2.3448335E-1,7.919381E-3,-2.527139E-2,8.425522E-3,6.321945E-2],"split_indices":[17,27,0,17,1,0,0,0,0,0,0],"split_type":[0,0,0,0,0,0,0,0,0,0,0],"sum_hessian":[2.1E1,1.9E1,2E0,1.6E1,3E0,1E0,1E0,1E1,6E0,1E0,2E0],"tree_param":{"num_deleted":"0","num_feature":"46","num_nodes":"11","size_leaf_vector":"1"}},{"base_weights":[-8.531675E-2,-1.0567513E0,1.23686135E-1,7.6059975E-2,-2.2275925E-1,3.4111023E-2,5.9004974E-2,-4.2728423E-3,1.5681839E-2,3.014946E-2,-4.4720788E-3],"categories":[],"categories_nodes":[],"categories_segments":[],"categories_sizes":[],"default_left":[0,0,0,0,0,0,0,0,0,0,0],"id":42,"left_children":[1,3,5,7,-1,9,-1,-1,-1,-1,-1],"loss_changes":[4.597423E0,5.4747987E0,7.7358973E-1,3.548009E-2,0E0,3.718147E-1,0E0,0E0,0E0,0E0,0E0],"parents":[2147483647,0,0,1,1,2,2,3,3,5,5],"right_children":[2,4,6,8,-1,10,-1,-1,-1,-1,-1],"split_conditions":[1.7710845E8,9.81E1,1.5910766E9,9.76E1,-2.2275925E-1,9.62E1,5.9004974E-2,-4.2728423E-3,1.5681839E-2,3.014946E-2,-4.4720788E-3],"split_indices":[23,2,27,1,0,4,0,0,0,0,0],"split_type":[0,0,0,0,0,0,0,0,0,0,0],"sum_hessian":[2.1E1,3E0,1.8E1,2E0,1E0,1.6E1,2E0,1E0,1E0,3E0,1.3E1],"tree_param":{"num_deleted":"0","num_feature":"46","num_nodes":"11","size_leaf_vector":"1"}},{"base_weights":[-1.347417E-1,-9.381973E-1,9.5926076E-2,-2.1162109E-1,-1.1464119E-1,-1.3182504E-2,3.8224488E-1,-3.3766937E-2,7.2258E-3,8.42762E-3,-1.2268066E-2,8.63622E-3,5.507126E-2],"categories":[],"categories_nodes":[],"categories_segments":[],"categories_sizes":[],"default_left":[0,0,0,0,0,0,0,0,0,0,0,0,0],"id":43,"left_children":[1,3,5,-1,7,9,11,-1,-1,-1,-1,-1,-1],"loss_changes":[4.167287E0,4.6081967E0,5.67356E-1,0E0,1.9113445E-1,1.5974075E-1,2.0167261E-1,0E0,0E0,0E0,0E0,0E0,0E0],"parents":[2147483647,0,0,1,1,2,2,4,4,5,5,6,6],"right_children":[2,4,6,-1,8,10,12,-1,-1,-1,-1,-1,-1],"split_conditions":[1.8592288E8,9.72E1,1.01E2,-2.1162109E-1,9.46E1,1.42889E6,9.96E1,-3.3766937E-2,7.2258E-3,8.42762E-3,-1.2268066E-2,8.63622E-3,5.507126E-2],"split_indices":[28,0,3,0,1,36,0,0,0,0,0,0,0],"split_type":[0,0,0,0,0,0,0,0,0,0,0,0,0],"sum_hessian":[2.1E1,4E0,1.7E1,1E0,3E0,1.3E1,4E0,1E0,2E0,7E0,6E0,2E0,2E0],"tree_param":{"num_deleted":"0","num_feature":"46","num_nodes":"13","size_leaf_vector":"1"}},{"base_weights":[-1.3428207E-1,-9.5461845E-1,5.5475023E-2,6.744131E-2,-2.010399E-1,2.657102E-1,-4.5823906E-2,-4.4204714E-3,1.4536667E-2,4.4855755E-3,3.6492348E-2,8.359051E-3,-2.1073913E-2],"categories":[],"categories_nodes":[],"categories_segments":[],"categories_sizes":[],"default_left":[0,0,0,0,0,0,0,0,0,0,0,0,0],"id":44,"left_children":[1,3,5,7,-1,9,11,-1,-1,-1,-1,-1,-1],"loss_changes":[3.321915E0,4.451867E0,3.955146E-1,3.252606E-2,0E0,1.1510125E-1,2.950671E-1,0E0,0E0,0E0,0E0,0E0,0E0],"parents":[2147483647,0,0,1,1,2,2,3,3,5,5,6,6],"right_children":[2,4,6,8,-1,10,12,-1,-1,-1,-1,-1,-1],"split_conditions":[1.7710845E8,9.81E1,9.8077E2,9.76E1,-2.010399E-1,1.4933E2,6.5190276E7,-4.4204714E-3,1.4536667E-2,4.4855755E-3,3.6492348E-2,8.359051E-3,-2.1073913E-2],"split_indices":[23,3,16,1,0,20,24,0,0,0,0,0,0],"split_type":[0,0,0,0,0,0,0,0,0,0,0,0,0],"sum_hessian":[2E1,3E0,1.7E1,2E0,1E0,5E0,1.2E1,1E0,1E0,2E0,3E0,7E0,5E0],"tree_param":{"num_deleted":"0","num_feature":"46","num_nodes":"13","size_leaf_vector":"1"}},{"base_weights":[-1.5353757E-1,-8.496094E-1,6.0221054E-2,-1.9098778E-1,-1.0707283E-1,-3.2077245E-2,3.6820985E-2,-3.1024933E-2,6.4069116E-3,3.474655E-3,-1.593094E-2],"categories":[],"categories_nodes":[],"categories_segments":[],"categories_sizes":[],"default_left":[0,0,0,0,0,0,0,0,0,0,0],"id":45,"left_children":[1,3,5,-1,7,9,-1,-1,-1,-1,-1],"loss_changes":[3.1757827E0,3.731944E0,4.9506745E-1,0E0,1.5896548E-1,1.2456535E-1,0E0,0E0,0E0,0E0,0E0],"parents":[2147483647,0,0,1,1,2,2,4,4,5,5],"right_children":[2,4,6,-1,8,10,-1,-1,-1,-1,-1],"split_conditions":[1.8592288E8,9.72E1,7.8031E2,-1.9098778E-1,9.46E1,1.04302E3,3.6820985E-2,-3.1024933E-2,6.4069116E-3,3.474655E-3,-1.593094E-2],"split_indices":[28,0,17,0,1,16,0,0,0,0,0],"split_type":[0,0,0,0,0,0,0,0,0,0,0],"sum_hessian":[2E1,4E0,1.6E1,1E0,3E0,1.3E1,3E0,1E0,2E0,9E0,4E0],"tree_param":{"num_deleted":"0","num_feature":"46","num_nodes":"11","size_leaf_vector":"1"}},{"base_weights":[-1.8212397E-1,5.766787E-2,-9.758644E-1,-1.7605463E-2,3.3953857E-2,-9.1562904E-2,-1.8143845E-1,2.101274E-3,-2.2120286E-2,-2.9473497E-2,1.573906E-2],"categories":[],"categories_nodes":[],"categories_segments":[],"categories_sizes":[],"default_left":[0,0,0,0,0,0,0,0,0,0,0],"id":46,"left_children":[1,3,5,7,-1,9,-1,-1,-1,-1,-1],"loss_changes":[3.291928E0,3.0302057E-1,2.799888E0,9.899886E-2,0E0,1.981297E-1,0E0,0E0,0E0,0E0,0E0],"parents":[2147483647,0,0,1,1,2,2,3,3,5,5],"right_children":[2,4,6,8,-1,10,-1,-1,-1,-1,-1],"split_conditions":[7.2986E2,1.01E2,9.96E1,2.8172E2,3.3953857E-2,9.72E1,-1.8143845E-1,2.101274E-3,-2.2120286E-2,-2.9473497E-2,1.573906E-2],"split_indices":[17,3,3,19,0,3,0,0,0,0,0],"split_type":[0,0,0,0,0,0,0,0,0,0,0],"sum_hessian":[1.6E1,1.3E1,3E0,1.1E1,2E0,2E0,1E0,1E1,1E0,1E0,1E0],"tree_param":{"num_deleted":"0","num_feature":"46","num_nodes":"11","size_leaf_vector":"1"}},{"base_weights":[-1.0184878E-1,-7.664261E-1,9.960623E-2,-1.7236634E-1,-9.620094E-2,7.8063966E-3,5.2540332E-2,1.3384628E-2,-2.1749878E-2,1.3703282E-2,-7.0510106E-3],"categories":[],"categories_nodes":[],"categories_segments":[],"categories_sizes":[],"default_left":[0,0,0,0,0,0,0,0,0,0,0],"id":47,"left_children":[1,3,5,-1,7,9,-1,-1,-1,-1,-1],"loss_changes":[2.8878717E0,3.042004E0,6.603962E-1,0E0,1.4072832E-1,1.6147062E-1,0E0,0E0,0E0,0E0,0E0],"parents":[2147483647,0,0,1,1,2,2,4,4,5,5],"right_children":[2,4,6,-1,8,10,-1,-1,-1,-1,-1],"split_conditions":[3.706443E8,9.72E1,1.011E2,-1.7236634E-1,9.76E1,9.8077E2,5.2540332E-2,1.3384628E-2,-2.1749878E-2,1.3703282E-2,-7.0510106E-3],"split_indices":[27,0,3,0,0,16,0,0,0,0,0],"split_type":[0,0,0,0,0,0,0,0,0,0,0],"sum_hessian":[2E1,4E0,1.6E1,1E0,3E0,1.4E1,2E0,1E0,2E0,5E0,9E0],"tree_param":{"num_deleted":"0","num_feature":"46","num_nodes":"11","size_leaf_vector":"1"}},{"base_weights":[-1.492794E-1,-6.738141E-1,7.048645E-2,-1.6374817E-1,-1.5358429E-1,-5.9280396E-3,3.7812043E-2,6.1187744E-3,-3.1716157E-2,-1.2861825E-2,4.3740845E-3],"categories":[],"categories_nodes":[],"categories_segments":[],"categories_sizes":[],"default_left":[0,0,0,0,0,0,0,0,0,0,0],"id":48,"left_children":[1,3,5,-1,7,9,-1,-1,-1,-1,-1],"loss_changes":[2.352991E0,2.75648E0,3.548569E-1,0E0,1.950655E-1,8.4846385E-2,0E0,0E0,0E0,0E0,0E0],"parents":[2147483647,0,0,1,1,2,2,4,4,5,5],"right_children":[2,4,6,-1,8,10,-1,-1,-1,-1,-1],"split_conditions":[9.1805E5,9.72E1,1.418E2,-1.6374817E-1,1.02E2,9.8E1,3.7812043E-2,6.1187744E-3,-3.1716157E-2,-1.2861825E-2,4.3740845E-3],"split_indices":[41,0,12,0,9,4,0,0,0,0,0],"split_type":[0,0,0,0,0,0,0,0,0,0,0],"sum_hessian":[1.9E1,5E0,1.4E1,1E0,4E0,1.2E1,2E0,2E0,2E0,3E0,9E0],"tree_param":{"num_deleted":"0","num_feature":"46","num_nodes":"11","size_leaf_vector":"1"}},{"base_weights":[-1.0731288E-2,-7.34972E-1,1.5080728E-1,-1.5556069E-1,5.7108562E-2,6.1953228E-2,4.4630814E-2,1.2409592E-2,-3.8433075E-3,4.439721E-4,2.9052734E-2],"categories":[],"categories_nodes":[],"categories_segments":[],"categories_sizes":[],"default_left":[0,0,0,0,0,0,0,0,0,0,0],"id":49,"left_children":[1,3,5,-1,7,9,-1,-1,-1,-1,-1],"loss_changes":[2.5676882E0,2.688874E0,4.4496584E-1,0E0,2.3969635E-2,1.9590162E-1,0E0,0E0,0E0,0E0,0E0],"parents":[2147483647,0,0,1,1,2,2,4,4,5,5],"right_children":[2,4,6,-1,8,10,-1,-1,-1,-1,-1],"split_conditions":[5.010553E7,9.72E1,7.2986E2,-1.5556069E-1,9.76E1,1.955E2,4.4630814E-2,1.2409592E-2,-3.8433075E-3,4.439721E-4,2.9052734E-2],"split_indices":[25,0,17,0,0,11,0,0,0,0,0],"split_type":[0,0,0,0,0,0,0,0,0,0,0],"sum_hessian":[2E1,3E0,1.7E1,1E0,2E0,1.4E1,3E0,1E0,1E0,1.2E1,2E0],"tree_param":{"num_deleted":"0","num_feature":"46","num_nodes":"11","size_leaf_vector":"1"}},{"base_weights":[-7.383652E-2,-6.68811E-1,1.167078E-1,-1.4778252E-1,-9.710121E-2,2.0871805E-1,-7.142893E-2,-2.7558137E-2,5.4252627E-3,5.527369E-3,3.2737605E-2,-1.8037923E-2,2.8141022E-3],"categories":[],"categories_nodes":[],"categories_segments":[],"categories_sizes":[],"default_left":[0,0,0,0,0,0,0,0,0,0,0,0,0],"id":50,"left_children":[1,3,5,-1,7,9,11,-1,-1,-1,-1,-1,-1],"loss_changes":[2.3454356E0,2.1691077E0,2.9187655E-1,0E0,1.2300563E-1,1.8218619E-1,7.0165105E-2,0E0,0E0,0E0,0E0,0E0,0E0],"parents":[2147483647,0,0,1,1,2,2,4,4,5,5,6,6],"right_children":[2,4,6,-1,8,10,12,-1,-1,-1,-1,-1,-1],"split_conditions":[1.8592288E8,9.72E1,1.54164E6,-1.4778252E-1,9.46E1,6.3767E2,9.99E1,-2.7558137E-2,5.4252627E-3,5.527369E-3,3.2737605E-2,-1.8037923E-2,2.8141022E-3],"split_indices":[28,0,36,0,1,17,2,0,0,0,0,0,0],"split_type":[0,0,0,0,0,0,0,0,0,0,0,0,0],"sum_hessian":[1.9E1,4E0,1.5E1,1E0,3E0,1E1,5E0,1E0,2E0,5E0,5E0,2E0,3E0],"tree_param":{"num_deleted":"0","num_feature":"46","num_nodes":"13","size_leaf_vector":"1"}},{"base_weights":[-1.00294285E-1,-6.359131E-1,5.406062E-2,-9.292412E-2,-1.4039345E-1,2.946949E-2,-1.3712565E-2,-2.006836E-2,1.1517716E-2,-5.8049886E-3,3.0350495E-2],"categories":[],"categories_nodes":[],"categories_segments":[],"categories_sizes":[],"default_left":[0,0,0,0,0,0,0,0,0,0,0],"id":51,"left_children":[1,3,5,7,-1,-1,9,-1,-1,-1,-1],"loss_changes":[1.8532364E0,1.9546762E0,2.9759496E-1,1.12813696E-1,0E0,0E0,2.2858703E-1,0E0,0E0,0E0,0E0],"parents":[2147483647,0,0,1,1,2,2,3,3,6,6],"right_children":[2,4,6,8,-1,-1,10,-1,-1,-1,-1],"split_conditions":[1.8592288E8,9.81E1,1.1812643E7,9.76E1,-1.4039345E-1,2.946949E-2,1.037E2,-2.006836E-2,1.1517716E-2,-5.8049886E-3,3.0350495E-2],"split_indices":[28,2,33,1,0,0,3,0,0,0,0],"split_type":[0,0,0,0,0,0,0,0,0,0,0],"sum_hessian":[2.1E1,4E0,1.7E1,3E0,1E0,3E0,1.4E1,2E0,1E0,1.3E1,1E0],"tree_param":{"num_deleted":"0","num_feature":"46","num_nodes":"11","size_leaf_vector":"1"}},{"base_weights":[-5.751502E-2,-6.021118E-1,8.882704E-2,-1.3337365E-1,-8.577156E-2,8.559704E-3,3.876896E-2,-2.5177002E-2,5.3484603E-3,-1.6762849E-2,8.125815E-3],"categories":[],"categories_nodes":[],"categories_segments":[],"categories_sizes":[],"default_left":[0,0,0,0,0,0,0,0,0,0,0],"id":52,"left_children":[1,3,5,-1,7,9,-1,-1,-1,-1,-1],"loss_changes":[1.8865244E0,1.7744395E0,4.5247057E-1,0E0,1.05931036E-1,2.1855886E-1,0E0,0E0,0E0,0E0,0E0],"parents":[2147483647,0,0,1,1,2,2,4,4,5,5],"right_children":[2,4,6,-1,8,10,-1,-1,-1,-1,-1],"split_conditions":[1.8592288E8,9.72E1,7.8031E2,-1.3337365E-1,9.46E1,1.0405115E9,3.876896E-2,-2.5177002E-2,5.3484603E-3,-1.6762849E-2,8.125815E-3],"split_indices":[28,0,17,0,1,27,0,0,0,0,0],"split_type":[0,0,0,0,0,0,0,0,0,0,0],"sum_hessian":[2.2E1,4E0,1.8E1,1E0,3E0,1.5E1,3E0,1E0,2E0,4E0,1.1E1],"tree_param":{"num_deleted":"0","num_feature":"46","num_nodes":"11","size_leaf_vector":"1"}},{"base_weights":[-4.580148E-2,-5.725403E-1,8.817329E-2,-1.267048E-1,-8.215141E-2,1.9354427E-2,3.5861015E-2,-2.3918152E-2,4.9919127E-3,-2.7026366E-3,2.4480693E-2],"categories":[],"categories_nodes":[],"categories_segments":[],"categories_sizes":[],"default_left":[0,0,0,0,0,0,0,0,0,0,0],"id":53,"left_children":[1,3,5,-1,7,9,-1,-1,-1,-1,-1],"loss_changes":[1.744156E0,1.5988041E0,3.6528245E-1,0E0,9.489594E-2,1.8437955E-1,0E0,0E0,0E0,0E0,0E0],"parents":[2147483647,0,0,1,1,2,2,4,4,5,5],"right_children":[2,4,6,-1,8,10,-1,-1,-1,-1,-1],"split_conditions":[1.8592288E8,9.72E1,7.8031E2,-1.267048E-1,9.46E1,1.955E2,3.5861015E-2,-2.3918152E-2,4.9919127E-3,-2.7026366E-3,2.4480693E-2],"split_indices":[28,0,17,0,1,11,0,0,0,0,0],"split_type":[0,0,0,0,0,0,0,0,0,0,0],"sum_hessian":[2.3E1,4E0,1.9E1,1E0,3E0,1.6E1,3E0,1E0,2E0,1.4E1,2E0],"tree_param":{"num_deleted":"0","num_feature":"46","num_nodes":"11","size_leaf_vector":"1"}},{"base_weights":[-7.777162E-2,-5.4441226E-1,5.6171417E-2,-1.20369725E-1,-7.866669E-2,2.3947017E-1,-3.274888E-2,1.0424805E-2,-1.7438762E-2,6.668091E-4,3.5420418E-2,-1.5205841E-2,3.7172956E-3],"categories":[],"categories_nodes":[],"categories_segments":[],"categories_sizes":[],"default_left":[0,0,0,0,0,0,0,0,0,0,0,0,0],"id":54,"left_children":[1,3,5,-1,7,9,11,-1,-1,-1,-1,-1,-1],"loss_changes":[1.4056522E0,1.4406044E0,3.0122402E-1,0E0,8.821465E-2,1.579E-1,1.14102885E-1,0E0,0E0,0E0,0E0,0E0,0E0],"parents":[2147483647,0,0,1,1,2,2,4,4,5,5,6,6],"right_children":[2,4,6,-1,8,10,12,-1,-1,-1,-1,-1,-1],"split_conditions":[1.8592288E8,9.72E1,2.95181E3,-1.20369725E-1,9.76E1,9.899E1,1.0405115E9,1.0424805E-2,-1.7438762E-2,6.668091E-4,3.5420418E-2,-1.5205841E-2,3.7172956E-3],"split_indices":[28,0,14,0,0,12,27,0,0,0,0,0,0],"split_type":[0,0,0,0,0,0,0,0,0,0,0,0,0],"sum_hessian":[2.1E1,4E0,1.7E1,1E0,3E0,5E0,1.2E1,1E0,2E0,2E0,3E0,4E0,8E0],"tree_param":{"num_deleted":"0","num_feature":"46","num_nodes":"13","size_leaf_vector":"1"}},{"base_weights":[-8.281538E-2,-5.154465E-1,7.76111E-2,-1.1435127E-1,-7.255173E-2,2.6878992E-2,2.5466919E-2,-2.1850204E-2,4.893239E-3,1.5517808E-2,-3.3129377E-3],"categories":[],"categories_nodes":[],"categories_segments":[],"categories_sizes":[],"default_left":[0,0,0,0,0,0,0,0,0,0,0],"id":55,"left_children":[1,3,5,-1,7,9,-1,-1,-1,-1,-1],"loss_changes":[1.2893031E0,1.3078724E0,1.1891018E-1,0E0,8.161441E-2,9.752917E-2,0E0,0E0,0E0,0E0,0E0],"parents":[2147483647,0,0,1,1,2,2,4,4,5,5],"right_children":[2,4,6,-1,8,10,-1,-1,-1,-1,-1],"split_conditions":[1.8592288E8,9.72E1,1.4681E2,-1.1435127E-1,9.46E1,2.2374778E8,2.5466919E-2,-2.1850204E-2,4.893239E-3,1.5517808E-2,-3.3129377E-3],"split_indices":[28,0,12,0,1,29,0,0,0,0,0],"split_type":[0,0,0,0,0,0,0,0,0,0,0],"sum_hessian":[1.7E1,4E0,1.3E1,1E0,3E0,1.1E1,2E0,1E0,2E0,3E0,8E0],"tree_param":{"num_deleted":"0","num_feature":"46","num_nodes":"11","size_leaf_vector":"1"}},{"base_weights":[2.295358E-2,-1.2851715E-1,7.83205E-2,-2.1351116E-2,-3.2642365E-2,1.4238358E-1,-9.109497E-2,1.147461E-3,-5.1172893E-3,1.7560272E-2,-1.5808105E-3,-1.4694469E-2,-4.8802697E-4],"categories":[],"categories_nodes":[],"categories_segments":[],"categories_sizes":[],"default_left":[0,0,0,0,0,0,0,0,0,0,0,0,0],"id":56,"left_children":[1,3,5,-1,7,9,11,-1,-1,-1,-1,-1,-1],"loss_changes":[1.8618137E-1,4.1923173E-2,1.8662284E-1,0E0,3.8572322E-3,6.583582E-2,2.3358196E-2,0E0,0E0,0E0,0E0,0E0,0E0],"parents":[2147483647,0,0,1,1,2,2,4,4,5,5,6,6],"right_children":[2,4,6,-1,8,10,12,-1,-1,-1,-1,-1,-1],"split_conditions":[9.72E1,9.68E1,3.1352736E8,-2.1351116E-2,9.69E1,3.3797952E8,9.9925E1,1.147461E-3,-5.1172893E-3,1.7560272E-2,-1.5808105E-3,-1.4694469E-2,-4.8802697E-4],"split_indices":[3,1,22,0,1,29,5,0,0,0,0,0,0],"split_type":[0,0,0,0,0,0,0,0,0,0,0,0,0],"sum_hessian":[2E1,5E0,1.5E1,2E0,3E0,1.1E1,4E0,1E0,2E0,9E0,2E0,2E0,2E0],"tree_param":{"num_deleted":"0","num_feature":"46","num_nodes":"13","size_leaf_vector":"1"}},{"base_weights":[-4.4306707E-2,-4.539383E-1,9.5190935E-2,-1.0951195E-1,-1.9863129E-2,1.6270319E-2,3.0815506E-1,8.781052E-3,-8.502452E-3,1.7646408E-2,-5.6734723E-3,5.056381E-3,3.7716422E-2],"categories":[],"categories_nodes":[],"categories_segments":[],"categories_sizes":[],"default_left":[0,0,0,0,0,0,0,0,0,0,0,0,0],"id":57,"left_children":[1,3,5,-1,7,9,11,-1,-1,-1,-1,-1,-1],"loss_changes":[1.128921E0,1.3698516E0,2.4709514E-1,0E0,3.5530705E-2,1.5035106E-1,5.2033752E-2,0E0,0E0,0E0,0E0,0E0,0E0],"parents":[2147483647,0,0,1,1,2,2,4,4,5,5,6,6],"right_children":[2,4,6,-1,8,10,12,-1,-1,-1,-1,-1,-1],"split_conditions":[2.369807E6,9.72E1,2.60769E3,-1.0951195E-1,9.76E1,1.8139E2,1.002E2,8.781052E-3,-8.502452E-3,1.7646408E-2,-5.6734723E-3,5.056381E-3,3.7716422E-2],"split_indices":[42,0,15,0,0,18,1,0,0,0,0,0,0],"split_type":[0,0,0,0,0,0,0,0,0,0,0,0,0],"sum_hessian":[1.8E1,4E0,1.4E1,1E0,3E0,1.1E1,3E0,1E0,2E0,3E0,8E0,1E0,2E0],"tree_param":{"num_deleted":"0","num_feature":"46","num_nodes":"13","size_leaf_vector":"1"}},{"base_weights":[-6.2661804E-2,-4.6891174E-1,4.203377E-2,-1.0403633E-1,-6.595802E-2,-2.0503325E-2,2.9730797E-2,-1.9406129E-2,4.143016E-3,6.319046E-3,-6.0641607E-3],"categories":[],"categories_nodes":[],"categories_segments":[],"categories_sizes":[],"default_left":[0,0,0,0,0,0,0,0,0,0,0],"id":58,"left_children":[1,3,5,-1,7,9,-1,-1,-1,-1,-1],"loss_changes":[1.0404918E0,1.0827225E0,3.253779E-1,0E0,6.3067086E-2,6.094049E-2,0E0,0E0,0E0,0E0,0E0],"parents":[2147483647,0,0,1,1,2,2,4,4,5,5],"right_children":[2,4,6,-1,8,10,-1,-1,-1,-1,-1],"split_conditions":[1.8592288E8,9.72E1,7.8031E2,-1.0403633E-1,9.46E1,1.1822E2,2.9730797E-2,-1.9406129E-2,4.143016E-3,6.319046E-3,-6.0641607E-3],"split_indices":[28,0,17,0,1,13,0,0,0,0,0],"split_type":[0,0,0,0,0,0,0,0,0,0,0],"sum_hessian":[2.3E1,4E0,1.9E1,1E0,3E0,1.6E1,3E0,1E0,2E0,5E0,1.1E1],"tree_param":{"num_deleted":"0","num_feature":"46","num_nodes":"11","size_leaf_vector":"1"}},{"base_weights":[2.8309777E-2,-2.3475647E-2,2.5426674E-1,1.0349121E-1,-6.714412E-2,-7.659912E-4,3.4412894E-2,1.4103699E-2,-2.3345947E-3,-2.1767808E-2,-6.3004927E-4],"categories":[],"categories_nodes":[],"categories_segments":[],"categories_sizes":[],"default_left":[0,0,0,0,0,0,0,0,0,0,0],"id":59,"left_children":[1,3,5,7,9,-1,-1,-1,-1,-1,-1],"loss_changes":[2.5169587E-1,1.0674891E-1,9.678525E-2,2.710364E-2,1.2685496E-1,0E0,0E0,0E0,0E0,0E0,0E0],"parents":[2147483647,0,0,1,1,2,2,3,3,4,4],"right_children":[2,4,6,8,10,-1,-1,-1,-1,-1,-1],"split_conditions":[1.5910766E9,4.68311E5,1.007E2,9.92E1,2.6125458E8,-7.659912E-4,3.4412894E-2,1.4103699E-2,-2.3345947E-3,-2.1767808E-2,-6.3004927E-4],"split_indices":[27,43,1,4,28,0,0,0,0,0,0],"split_type":[0,0,0,0,0,0,0,0,0,0,0],"sum_hessian":[2E1,1.7E1,3E0,4E0,1.3E1,1E0,2E0,3E0,1E0,3E0,1E1],"tree_param":{"num_deleted":"0","num_feature":"46","num_nodes":"11","size_leaf_vector":"1"}},{"base_weights":[-5.495254E-2,-4.4670257E-1,5.1031817E-2,-9.953995E-2,-6.0678482E-2,-6.47974E-3,2.6832009E-2,-1.7347336E-2,3.4744262E-3,-5.2709724E-3,1.4538765E-2],"categories":[],"categories_nodes":[],"categories_segments":[],"categories_sizes":[],"default_left":[0,0,0,0,0,0,0,0,0,0,0],"id":60,"left_children":[1,3,5,-1,7,9,-1,-1,-1,-1,-1],"loss_changes":[9.7774166E-1,9.9865174E-1,2.391738E-1,0E0,4.9079992E-2,1.19996585E-1,0E0,0E0,0E0,0E0,0E0],"parents":[2147483647,0,0,1,1,2,2,4,4,5,5],"right_children":[2,4,6,-1,8,10,-1,-1,-1,-1,-1],"split_conditions":[1.8592288E8,9.72E1,7.8031E2,-9.953995E-2,9.61E1,1.8856E2,2.6832009E-2,-1.7347336E-2,3.4744262E-3,-5.2709724E-3,1.4538765E-2],"split_indices":[28,0,17,0,4,21,0,0,0,0,0],"split_type":[0,0,0,0,0,0,0,0,0,0,0],"sum_hessian":[2.2E1,4E0,1.8E1,1E0,3E0,1.5E1,3E0,1E0,2E0,1.2E1,3E0],"tree_param":{"num_deleted":"0","num_feature":"46","num_nodes":"11","size_leaf_vector":"1"}},{"base_weights":[-3.3922467E-2,-4.4849205E-1,6.0088687E-2,-9.456291E-2,3.243001E-2,9.963512E-3,3.073934E-2,7.2559356E-3,-2.3914338E-3,-3.2579862E-3,1.457386E-2],"categories":[],"categories_nodes":[],"categories_segments":[],"categories_sizes":[],"default_left":[0,0,0,0,0,0,0,0,0,0,0],"id":61,"left_children":[1,3,5,-1,7,9,-1,-1,-1,-1,-1],"loss_changes":[8.454068E-1,9.8700356E-1,2.2006872E-1,0E0,8.518394E-3,9.716944E-2,0E0,0E0,0E0,0E0,0E0],"parents":[2147483647,0,0,1,1,2,2,4,4,5,5],"right_children":[2,4,6,-1,8,10,-1,-1,-1,-1,-1],"split_conditions":[5.010553E7,9.72E1,1.01E2,-9.456291E-2,9.76E1,7.264E2,3.073934E-2,7.2559356E-3,-2.3914338E-3,-3.2579862E-3,1.457386E-2],"split_indices":[25,0,3,0,0,17,0,0,0,0,0],"split_type":[0,0,0,0,0,0,0,0,0,0,0],"sum_hessian":[2E1,3E0,1.7E1,1E0,2E0,1.5E1,2E0,1E0,1E0,1.2E1,3E0],"tree_param":{"num_deleted":"0","num_feature":"46","num_nodes":"11","size_leaf_vector":"1"}},{"base_weights":[-8.45108E-2,-4.0968782E-1,5.8022182E-2,-8.983459E-2,-6.293678E-2,-9.664154E-3,2.6430259E-2,-1.7208481E-2,3.0807497E-3,3.573227E-3,-1.27499895E-2],"categories":[],"categories_nodes":[],"categories_segments":[],"categories_sizes":[],"default_left":[0,0,0,0,0,0,0,0,0,0,0],"id":62,"left_children":[1,3,5,-1,7,9,-1,-1,-1,-1,-1],"loss_changes":[7.653462E-1,7.9067445E-1,1.7010263E-1,0E0,4.6229515E-2,5.8049075E-2,0E0,0E0,0E0,0E0,0E0],"parents":[2147483647,0,0,1,1,2,2,4,4,5,5],"right_children":[2,4,6,-1,8,10,-1,-1,-1,-1,-1],"split_conditions":[1.8592288E8,9.72E1,7.2986E2,-8.983459E-2,9.46E1,2.8172E2,2.6430259E-2,-1.7208481E-2,3.0807497E-3,3.573227E-3,-1.27499895E-2],"split_indices":[28,0,17,0,1,19,0,0,0,0,0],"split_type":[0,0,0,0,0,0,0,0,0,0,0],"sum_hessian":[1.5E1,4E0,1.1E1,1E0,3E0,9E0,2E0,1E0,2E0,7E0,2E0],"tree_param":{"num_deleted":"0","num_feature":"46","num_nodes":"11","size_leaf_vector":"1"}},{"base_weights":[-6.2034607E-2,-3.895111E-1,3.2377455E-2,-8.534279E-2,-6.0174942E-2,-1.8054707E-2,2.134037E-1,6.739044E-3,-1.2516022E-2,8.544413E-3,-4.055023E-3,5.678177E-3,2.4668377E-2],"categories":[],"categories_nodes":[],"categories_segments":[],"categories_sizes":[],"default_left":[0,0,0,0,0,0,0,0,0,0,0,0,0],"id":63,"left_children":[1,3,5,-1,7,9,11,-1,-1,-1,-1,-1,-1],"loss_changes":[6.928015E-1,7.125678E-1,1.6818476E-1,0E0,4.1594088E-2,3.838869E-2,6.8424195E-3,0E0,0E0,0E0,0E0,0E0,0E0],"parents":[2147483647,0,0,1,1,2,2,4,4,5,5,6,6],"right_children":[2,4,6,-1,8,10,12,-1,-1,-1,-1,-1,-1],"split_conditions":[1.8592288E8,9.72E1,7.8031E2,-8.534279E-2,9.76E1,1.8139E2,9.6E1,6.739044E-3,-1.2516022E-2,8.544413E-3,-4.055023E-3,5.678177E-3,2.4668377E-2],"split_indices":[28,0,17,0,0,18,1,0,0,0,0,0,0],"split_type":[0,0,0,0,0,0,0,0,0,0,0,0,0],"sum_hessian":[2.1E1,4E0,1.7E1,1E0,3E0,1.4E1,3E0,1E0,2E0,2E0,1.2E1,1E0,2E0],"tree_param":{"num_deleted":"0","num_feature":"46","num_nodes":"13","size_leaf_vector":"1"}},{"base_weights":[-5.476157E-2,-3.6878508E-1,2.6482392E-2,-8.107567E-2,-5.5603027E-2,1.4108531E-1,-2.1124268E-2,-1.5722275E-2,3.0677796E-3,5.1116946E-5,2.1124458E-2,-1.2373733E-2,1.4840444E-3],"categories":[],"categories_nodes":[],"categories_segments":[],"categories_sizes":[],"default_left":[0,0,0,0,0,0,0,0,0,0,0,0,0],"id":64,"left_children":[1,3,5,-1,7,9,11,-1,-1,-1,-1,-1,-1],"loss_changes":[6.220667E-1,6.4700735E-1,1.1209756E-1,0E0,3.989458E-2,5.9067495E-2,5.7193056E-2,0E0,0E0,0E0,0E0,0E0,0E0],"parents":[2147483647,0,0,1,1,2,2,4,4,5,5,6,6],"right_children":[2,4,6,-1,8,10,12,-1,-1,-1,-1,-1,-1],"split_conditions":[1.8592288E8,9.72E1,2.95181E3,-8.107567E-2,9.46E1,9.899E1,1.253693E6,-1.5722275E-2,3.0677796E-3,5.1116946E-5,2.1124458E-2,-1.2373733E-2,1.4840444E-3],"split_indices":[28,0,14,0,1,12,39,0,0,0,0,0,0],"split_type":[0,0,0,0,0,0,0,0,0,0,0,0,0],"sum_hessian":[2.3E1,4E0,1.9E1,1E0,3E0,5E0,1.4E1,1E0,2E0,2E0,3E0,3E0,1.1E1],"tree_param":{"num_deleted":"0","num_feature":"46","num_nodes":"13","size_leaf_vector":"1"}},{"base_weights":[-6.29551E-2,9.718577E-3,-4.7801208E-1,-3.8283825E-2,2.6249185E-2,-7.702179E-2,5.3199767E-3,3.844166E-3,-1.022305E-2],"categories":[],"categories_nodes":[],"categories_segments":[],"categories_sizes":[],"default_left":[0,0,0,0,0,0,0,0,0],"id":65,"left_children":[1,3,5,7,-1,-1,-1,-1,-1],"loss_changes":[6.079198E-1,2.2845623E-1,5.06645E-1,8.243134E-2,0E0,0E0,0E0,0E0,0E0],"parents":[2147483647,0,0,1,1,2,2,3,3],"right_children":[2,4,6,8,-1,-1,-1,-1,-1],"split_conditions":[7.9676E2,1.5910766E9,9.72E1,5.9262E2,2.6249185E-2,-7.702179E-2,5.3199767E-3,3.844166E-3,-1.022305E-2],"split_indices":[17,27,0,17,0,0,0,0,0],"split_type":[0,0,0,0,0,0,0,0,0],"sum_hessian":[1.9E1,1.7E1,2E0,1.5E1,2E0,1E0,1E0,7E0,8E0],"tree_param":{"num_deleted":"0","num_feature":"46","num_nodes":"9","size_leaf_vector":"1"}},{"base_weights":[-4.830009E-2,-3.347412E-1,5.040029E-2,-7.3170856E-2,-5.257225E-2,4.3669483E-3,2.33078E-2,6.056595E-3,-1.1047363E-2,-3.4382907E-3,1.449941E-2],"categories":[],"categories_nodes":[],"categories_segments":[],"categories_sizes":[],"default_left":[0,0,0,0,0,0,0,0,0,0,0],"id":66,"left_children":[1,3,5,-1,7,9,-1,-1,-1,-1,-1],"loss_changes":[5.540362E-1,5.2159166E-1,1.2512115E-1,0E0,3.2894373E-2,7.582598E-2,0E0,0E0,0E0,0E0,0E0],"parents":[2147483647,0,0,1,1,2,2,4,4,5,5],"right_children":[2,4,6,-1,8,10,-1,-1,-1,-1,-1],"split_conditions":[1.8592288E8,9.72E1,7.8031E2,-7.3170856E-2,9.76E1,1.955E2,2.33078E-2,6.056595E-3,-1.1047363E-2,-3.4382907E-3,1.449941E-2],"split_indices":[28,0,17,0,0,11,0,0,0,0,0],"split_type":[0,0,0,0,0,0,0,0,0,0,0],"sum_hessian":[1.8E1,4E0,1.4E1,1E0,3E0,1.2E1,2E0,1E0,2E0,1E1,2E0],"tree_param":{"num_deleted":"0","num_feature":"46","num_nodes":"11","size_leaf_vector":"1"}},{"base_weights":[-7.067798E-2,-3.1689912E-1,5.897522E-3,-6.951218E-2,-4.8563004E-2,1.3274384E-2,-3.0765533E-2,-1.3872528E-2,2.773285E-3,-1.2401072E-2,-4.890442E-4],"categories":[],"categories_nodes":[],"categories_segments":[],"categories_sizes":[],"default_left":[0,0,0,0,0,0,0,0,0,0,0],"id":67,"left_children":[1,3,5,-1,7,-1,9,-1,-1,-1,-1],"loss_changes":[3.9781356E-1,4.7369677E-1,8.314369E-2,0E0,3.136328E-2,0E0,3.317172E-2,0E0,0E0,0E0,0E0],"parents":[2147483647,0,0,1,1,2,2,4,4,6,6],"right_children":[2,4,6,-1,8,-1,10,-1,-1,-1,-1],"split_conditions":[1.8592288E8,9.72E1,1.8139E2,-6.951218E-2,9.46E1,1.3274384E-2,2.6125458E8,-1.3872528E-2,2.773285E-3,-1.2401072E-2,-4.890442E-4],"split_indices":[28,0,18,0,1,0,28,0,0,0,0],"split_type":[0,0,0,0,0,0,0,0,0,0,0],"sum_hessian":[2E1,4E0,1.6E1,1E0,3E0,3E0,1.3E1,1E0,2E0,2E0,1.1E1],"tree_param":{"num_deleted":"0","num_feature":"46","num_nodes":"11","size_leaf_vector":"1"}},{"base_weights":[-2.6033575E-2,-3.013321E-1,5.1884547E-2,-4.6482086E-2,-6.6036604E-2,1.4201355E-2,1.8022537E-1,-1.3179016E-2,2.5883995E-3,1.2454033E-2,-2.376175E-3,1.1379243E-3,2.3271434E-2],"categories":[],"categories_nodes":[],"categories_segments":[],"categories_sizes":[],"default_left":[0,0,0,0,0,0,0,0,0,0,0,0,0],"id":68,"left_children":[1,3,5,7,-1,9,11,-1,-1,-1,-1,-1,-1],"loss_changes":[4.8755082E-1,4.268038E-1,8.449381E-2,2.8104898E-2,0E0,6.579145E-2,3.2802105E-2,0E0,0E0,0E0,0E0,0E0,0E0],"parents":[2147483647,0,0,1,1,2,2,3,3,5,5,6,6],"right_children":[2,4,6,8,-1,10,12,-1,-1,-1,-1,-1,-1],"split_conditions":[1.8592288E8,9.81E1,1.007E2,9.46E1,-6.6036604E-2,1.1812643E7,1.01E2,-1.3179016E-2,2.5883995E-3,1.2454033E-2,-2.376175E-3,1.1379243E-3,2.3271434E-2],"split_indices":[28,2,1,1,0,33,3,0,0,0,0,0,0],"split_type":[0,0,0,0,0,0,0,0,0,0,0,0,0],"sum_hessian":[2.1E1,4E0,1.7E1,3E0,1E0,1.4E1,3E0,1E0,2E0,3E0,1.1E1,1E0,2E0],"tree_param":{"num_deleted":"0","num_feature":"46","num_nodes":"13","size_leaf_vector":"1"}},{"base_weights":[-2.8453134E-2,-2.8652343E-1,4.4813793E-2,-6.2734604E-2,-4.4481277E-2,8.894857E-3,1.6830635E-1,5.485916E-3,-9.588114E-3,1.1715508E-2,-2.793312E-3,1.0810852E-3,2.1720124E-2],"categories":[],"categories_nodes":[],"categories_segments":[],"categories_sizes":[],"default_left":[0,0,0,0,0,0,0,0,0,0,0,0,0],"id":69,"left_children":[1,3,5,-1,7,9,11,-1,-1,-1,-1,-1,-1],"loss_changes":[4.288166E-1,3.8456208E-1,7.8345925E-2,0E0,2.5684299E-2,6.307758E-2,2.8454773E-2,0E0,0E0,0E0,0E0,0E0,0E0],"parents":[2147483647,0,0,1,1,2,2,4,4,5,5,6,6],"right_children":[2,4,6,-1,8,10,12,-1,-1,-1,-1,-1,-1],"split_conditions":[1.86131E5,9.72E1,1.007E2,-6.2734604E-2,9.76E1,1.8139E2,9.92E1,5.485916E-3,-9.588114E-3,1.1715508E-2,-2.793312E-3,1.0810852E-3,2.1720124E-2],"split_indices":[45,0,1,0,0,18,0,0,0,0,0,0,0],"split_type":[0,0,0,0,0,0,0,0,0,0,0,0,0],"sum_hessian":[2.1E1,4E0,1.7E1,1E0,3E0,1.4E1,3E0,1E0,2E0,3E0,1.1E1,1E0,2E0],"tree_param":{"num_deleted":"0","num_feature":"46","num_nodes":"13","size_leaf_vector":"1"}},{"base_weights":[-2.5532616E-2,-2.4608918E-1,5.506134E-2,-5.959778E-2,-9.622574E-3,-9.5339455E-3,8.80731E-2,5.2116397E-3,-4.757436E-3,1.2699042E-2,-2.1509172E-3],"categories":[],"categories_nodes":[],"categories_segments":[],"categories_sizes":[],"default_left":[0,0,0,0,0,0,0,0,0,0,0],"id":70,"left_children":[1,3,5,-1,7,-1,9,-1,-1,-1,-1],"loss_changes":[3.3350947E-1,4.0795004E-1,7.790675E-2,0E0,1.1851821E-2,0E0,5.3907253E-2,0E0,0E0,0E0,0E0],"parents":[2147483647,0,0,1,1,2,2,4,4,6,6],"right_children":[2,4,6,-1,8,-1,10,-1,-1,-1,-1],"split_conditions":[2.369807E6,9.72E1,1.0166E2,-5.959778E-2,9.76E1,-9.5339455E-3,3.26961E3,5.2116397E-3,-4.757436E-3,1.2699042E-2,-2.1509172E-3],"split_indices":[42,0,12,0,0,0,14,0,0,0,0],"split_type":[0,0,0,0,0,0,0,0,0,0,0],"sum_hessian":[1.7E1,4E0,1.3E1,1E0,3E0,2E0,1.1E1,1E0,2E0,8E0,3E0],"tree_param":{"num_deleted":"0","num_feature":"46","num_nodes":"11","size_leaf_vector":"1"}},{"base_weights":[3.3531554E-2,1.5792847E-3,1.3546295E-1,5.4045938E-2,-8.109392E-2,3.1514484E-2,1.942571E-2,7.2697112E-3,-1.9922892E-3,-1.3669205E-2,-5.222321E-4,3.921509E-4,4.335022E-3],"categories":[],"categories_nodes":[],"categories_segments":[],"categories_sizes":[],"default_left":[0,0,0,0,0,0,0,0,0,0,0,0,0],"id":71,"left_children":[1,3,5,7,9,11,-1,-1,-1,-1,-1,-1,-1],"loss_changes":[6.818179E-2,7.812177E-2,2.4435893E-2,1.6624E-2,2.881438E-2,8.097512E-4,0E0,0E0,0E0,0E0,0E0,0E0,0E0],"parents":[2147483647,0,0,1,1,2,2,3,3,4,4,5,5],"right_children":[2,4,6,8,10,12,-1,-1,-1,-1,-1,-1,-1],"split_conditions":[7.562254E7,6.4625436E7,1.01E2,1.01E2,2.4160096E8,9.92E1,1.942571E-2,7.2697112E-3,-1.9922892E-3,-1.3669205E-2,-5.222321E-4,3.921509E-4,4.335022E-3],"split_indices":[24,24,3,0,29,0,0,0,0,0,0,0,0],"split_type":[0,0,0,0,0,0,0,0,0,0,0,0,0],"sum_hessian":[2E1,1.6E1,4E0,1E1,6E0,2E0,2E0,8E0,2E0,3E0,3E0,1E0,1E0],"tree_param":{"num_deleted":"0","num_feature":"46","num_nodes":"13","size_leaf_vector":"1"}},{"base_weights":[3.195917E-2,8.029335E-3,1.7286174E-2,-6.3900417E-3,1.3378906E-2,8.6083414E-4,-8.425141E-3],"categories":[],"categories_nodes":[],"categories_segments":[],"categories_sizes":[],"default_left":[0,0,0,0,0,0,0],"id":72,"left_children":[1,3,-1,5,-1,-1,-1],"loss_changes":[6.941931E-2,3.530908E-2,0E0,2.1745568E-2,0E0,0E0,0E0],"parents":[2147483647,0,0,1,1,3,3],"right_children":[2,4,-1,6,-1,-1,-1],"split_conditions":[7.8031E2,1.037E2,1.7286174E-2,2.8172E2,1.3378906E-2,8.6083414E-4,-8.425141E-3],"split_indices":[17,3,0,19,0,0,0],"split_type":[0,0,0,0,0,0,0],"sum_hessian":[2E1,1.8E1,2E0,1.7E1,1E0,1.5E1,2E0],"tree_param":{"num_deleted":"0","num_feature":"46","num_nodes":"7","size_leaf_vector":"1"}},{"base_weights":[-4.7537304E-2,-2.656967E-1,1.942354E-2,-5.784569E-2,-4.2892456E-2,-1.4842442E-2,1.344986E-1,-1.2034989E-2,2.3043314E-3,-1.02882385E-2,8.4044144E-4,2.69928E-3,1.6133627E-2],"categories":[],"categories_nodes":[],"categories_segments":[],"categories_sizes":[],"default_left":[0,0,0,0,0,0,0,0,0,0,0,0,0],"id":73,"left_children":[1,3,5,-1,7,9,11,-1,-1,-1,-1,-1,-1],"loss_changes":[3.119317E-1,3.2361004E-1,6.903E-2,0E0,2.3202121E-2,2.9517794E-2,7.185906E-3,0E0,0E0,0E0,0E0,0E0,0E0],"parents":[2147483647,0,0,1,1,2,2,4,4,5,5,6,6],"right_children":[2,4,6,-1,8,10,12,-1,-1,-1,-1,-1,-1],"split_conditions":[1.8592288E8,9.72E1,7.8031E2,-5.784569E-2,9.46E1,2.6125458E8,9.6E1,-1.2034989E-2,2.3043314E-3,-1.02882385E-2,8.4044144E-4,2.69928E-3,1.6133627E-2],"split_indices":[28,0,17,0,1,28,1,0,0,0,0,0,0],"split_type":[0,0,0,0,0,0,0,0,0,0,0,0,0],"sum_hessian":[2E1,4E0,1.6E1,1E0,3E0,1.3E1,3E0,1E0,2E0,2E0,1.1E1,1E0,2E0],"tree_param":{"num_deleted":"0","num_feature":"46","num_nodes":"13","size_leaf_vector":"1"}},{"base_weights":[5.675543E-3,7.243729E-2,-1.9714832E-2,-1.2031555E-3,9.173737E-3,-1.2918281E-2,1.548415E-2,-2.0224678E-3,7.666321E-3],"categories":[],"categories_nodes":[],"categories_segments":[],"categories_sizes":[],"default_left":[0,0,0,0,0,0,0,0,0],"id":74,"left_children":[1,3,5,-1,-1,-1,7,-1,-1],"loss_changes":[3.702531E-2,1.088528E-2,6.365088E-2,0E0,0E0,0E0,2.9950712E-2,0E0,0E0],"parents":[2147483647,0,0,1,1,2,2,6,6],"right_children":[2,4,6,-1,-1,-1,8,-1,-1],"split_conditions":[1.8139E2,9.68E1,2.6125458E8,-1.2031555E-3,9.173737E-3,-1.2918281E-2,1.8356E2,-2.0224678E-3,7.666321E-3],"split_indices":[18,3,28,0,0,0,21,0,0],"split_type":[0,0,0,0,0,0,0,0,0],"sum_hessian":[2E1,5E0,1.5E1,1E0,4E0,3E0,1.2E1,8E0,4E0],"tree_param":{"num_deleted":"0","num_feature":"46","num_nodes":"9","size_leaf_vector":"1"}},{"base_weights":[5.7495115E-3,-2.2523768E-2,1.2447357E-1,1.850357E-2,-7.099247E-2,2.665329E-3,1.4819591E-2,-4.761887E-3,3.1141494E-3,-1.2758128E-2,-3.0865988E-3],"categories":[],"categories_nodes":[],"categories_segments":[],"categories_sizes":[],"default_left":[0,0,0,0,0,0,0,0,0,0,0],"id":75,"left_children":[1,3,5,7,9,-1,-1,-1,-1,-1,-1],"loss_changes":[6.993799E-2,3.5118826E-2,5.332187E-3,9.839425E-3,1.4227752E-2,0E0,0E0,0E0,0E0,0E0,0E0],"parents":[2147483647,0,0,1,1,2,2,3,3,4,4],"right_children":[2,4,6,8,10,-1,-1,-1,-1,-1,-1],"split_conditions":[7.8031E2,6.4625436E7,9.46E1,9.6E1,2.6125458E8,2.665329E-3,1.4819591E-2,-4.761887E-3,3.1141494E-3,-1.2758128E-2,-3.0865988E-3],"split_indices":[17,24,3,3,28,0,0,0,0,0,0],"split_type":[0,0,0,0,0,0,0,0,0,0,0],"sum_hessian":[1.9E1,1.6E1,3E0,9E0,7E0,1E0,2E0,1E0,8E0,2E0,5E0],"tree_param":{"num_deleted":"0","num_feature":"46","num_nodes":"11","size_leaf_vector":"1"}},{"base_weights":[-2.795047E-2,-2.5514373E-1,4.0515225E-2,-5.6152727E-2,-3.8166046E-2,7.539686E-2,-3.600057E-2,-1.0149765E-2,1.6777039E-3,4.2585754E-3,1.5963491E-2,-6.0356143E-3,4.2888643E-3],"categories":[],"categories_nodes":[],"categories_segments":[],"categories_sizes":[],"default_left":[0,0,0,0,0,0,0,0,0,0,0,0,0],"id":76,"left_children":[1,3,5,-1,7,9,11,-1,-1,-1,-1,-1,-1],"loss_changes":[3.3699107E-1,3.1096068E-1,4.8087254E-2,0E0,1.5621366E-2,2.6369147E-2,1.4116945E-2,0E0,0E0,0E0,0E0,0E0,0E0],"parents":[2147483647,0,0,1,1,2,2,4,4,5,5,6,6],"right_children":[2,4,6,-1,8,10,12,-1,-1,-1,-1,-1,-1],"split_conditions":[1.8592288E8,9.72E1,2.991676E8,-5.6152727E-2,9.46E1,1.007E2,1.011E2,-1.0149765E-2,1.6777039E-3,4.2585754E-3,1.5963491E-2,-6.0356143E-3,4.2888643E-3],"split_indices":[28,0,22,0,1,1,0,0,0,0,0,0,0],"split_type":[0,0,0,0,0,0,0,0,0,0,0,0,0],"sum_hessian":[2E1,4E0,1.6E1,1E0,3E0,1.1E1,5E0,1E0,2E0,9E0,2E0,4E0,1E0],"tree_param":{"num_deleted":"0","num_feature":"46","num_nodes":"13","size_leaf_vector":"1"}},{"base_weights":[-4.2873003E-2,-2.4255523E-1,2.220726E-2,-5.334511E-2,-3.6468506E-2,-6.6006E-3,1.1028099E-1,-9.64241E-3,1.565806E-3,3.2173158E-3,-3.4855844E-3,2.319336E-3,1.3157909E-2],"categories":[],"categories_nodes":[],"categories_segments":[],"categories_sizes":[],"default_left":[0,0,0,0,0,0,0,0,0,0,0,0,0],"id":77,"left_children":[1,3,5,-1,7,9,11,-1,-1,-1,-1,-1,-1],"loss_changes":[2.6529393E-1,2.8029478E-1,4.132337E-2,0E0,1.4010932E-2,1.5363728E-2,4.367441E-3,0E0,0E0,0E0,0E0,0E0,0E0],"parents":[2147483647,0,0,1,1,2,2,4,4,5,5,6,6],"right_children":[2,4,6,-1,8,10,12,-1,-1,-1,-1,-1,-1],"split_conditions":[1.8592288E8,9.72E1,7.8031E2,-5.334511E-2,9.46E1,4.4597028E7,9.6E1,-9.64241E-3,1.565806E-3,3.2173158E-3,-3.4855844E-3,2.319336E-3,1.3157909E-2],"split_indices":[28,0,17,0,1,32,1,0,0,0,0,0,0],"split_type":[0,0,0,0,0,0,0,0,0,0,0,0,0],"sum_hessian":[1.9E1,4E0,1.5E1,1E0,3E0,1.2E1,3E0,1E0,2E0,5E0,7E0,1E0,2E0],"tree_param":{"num_deleted":"0","num_feature":"46","num_nodes":"13","size_leaf_vector":"1"}},{"base_weights":[-2.6121903E-2,-2.3058319E-1,3.940487E-2,-5.0677873E-2,-3.483963E-2,1.379776E-2,1.4576976E-2,3.6529542E-3,-7.080587E-3,4.906082E-3,-2.847399E-3],"categories":[],"categories_nodes":[],"categories_segments":[],"categories_sizes":[],"default_left":[0,0,0,0,0,0,0,0,0,0,0],"id":78,"left_children":[1,3,5,-1,7,9,-1,-1,-1,-1,-1],"loss_changes":[2.7703986E-1,2.5266153E-1,4.1567855E-2,0E0,1.28540285E-2,2.2265797E-2,0E0,0E0,0E0,0E0,0E0],"parents":[2147483647,0,0,1,1,2,2,4,4,5,5],"right_children":[2,4,6,-1,8,10,-1,-1,-1,-1,-1],"split_conditions":[1.8592288E8,9.72E1,1.5910766E9,-5.0677873E-2,9.76E1,1.6869E2,1.4576976E-2,3.6529542E-3,-7.080587E-3,4.906082E-3,-2.847399E-3],"split_indices":[28,0,27,0,0,21,0,0,0,0,0],"split_type":[0,0,0,0,0,0,0,0,0,0,0],"sum_hessian":[1.9E1,4E0,1.5E1,1E0,3E0,1.3E1,2E0,1E0,2E0,7E0,6E0],"tree_param":{"num_deleted":"0","num_feature":"46","num_nodes":"11","size_leaf_vector":"1"}},{"base_weights":[-3.5150353E-2,-2.2890282E-1,7.489656E-3,-4.814415E-2,1.5757242E-2,9.217682E-2,-2.1238709E-2,3.4702301E-3,-1.1066437E-3,3.7317914E-3,1.1631012E-2,-1.0858155E-2,5.5107703E-5],"categories":[],"categories_nodes":[],"categories_segments":[],"categories_sizes":[],"default_left":[0,0,0,0,0,0,0,0,0,0,0,0,0],"id":79,"left_children":[1,3,5,-1,7,9,11,-1,-1,-1,-1,-1,-1],"loss_changes":[1.8346976E-1,2.5473073E-1,4.8183266E-2,0E0,1.9085594E-3,2.279181E-3,2.8607562E-2,0E0,0E0,0E0,0E0,0E0,0E0],"parents":[2147483647,0,0,1,1,2,2,4,4,5,5,6,6],"right_children":[2,4,6,-1,8,10,12,-1,-1,-1,-1,-1,-1],"split_conditions":[1.7710845E8,9.72E1,2.95181E3,-4.814415E-2,9.76E1,2.80432E3,1.152625E6,3.4702301E-3,-1.1066437E-3,3.7317914E-3,1.1631012E-2,-1.0858155E-2,5.5107703E-5],"split_indices":[23,0,14,0,0,14,39,0,0,0,0,0,0],"split_type":[0,0,0,0,0,0,0,0,0,0,0,0,0],"sum_hessian":[2.1E1,3E0,1.8E1,1E0,2E0,4E0,1.4E1,1E0,1E0,2E0,2E0,2E0,1.2E1],"tree_param":{"num_deleted":"0","num_feature":"46","num_nodes":"13","size_leaf_vector":"1"}},{"base_weights":[-4.9608566E-2,-5.2983603E-3,-2.546234E-1,2.5114272E-2,-4.3643408E-2,7.543564E-3,-4.5737077E-2,3.589848E-3,-8.420308E-4,-5.020905E-3,-2.1247864E-4],"categories":[],"categories_nodes":[],"categories_segments":[],"categories_sizes":[],"default_left":[0,0,0,0,0,0,0,0,0,0,0],"id":80,"left_children":[1,3,5,7,9,-1,-1,-1,-1,-1,-1],"loss_changes":[1.5308318E-1,1.8588679E-2,2.3525783E-1,3.557072E-3,1.8014899E-3,0E0,0E0,0E0,0E0,0E0,0E0],"parents":[2147483647,0,0,1,1,2,2,3,3,4,4],"right_children":[2,4,6,8,10,-1,-1,-1,-1,-1,-1],"split_conditions":[7.8031E2,4.4597028E7,9.72E1,3.3694365E8,1.02E2,7.543564E-3,-4.5737077E-2,3.589848E-3,-8.420308E-4,-5.020905E-3,-2.1247864E-4],"split_indices":[17,32,1,28,4,0,0,0,0,0,0],"split_type":[0,0,0,0,0,0,0,0,0,0,0],"sum_hessian":[1.6E1,1.4E1,2E0,8E0,6E0,1E0,1E0,6E0,2E0,5E0,1E0],"tree_param":{"num_deleted":"0","num_feature":"46","num_nodes":"11","size_leaf_vector":"1"}},{"base_weights":[1.4301118E-2,-7.4788146E-3,1.4747365E-2,3.416358E-2,-4.0869974E-2,-4.770279E-4,5.4425555E-3,-9.7612385E-3,-7.3900225E-4],"categories":[],"categories_nodes":[],"categories_segments":[],"categories_sizes":[],"default_left":[0,0,0,0,0,0,0,0,0],"id":81,"left_children":[1,3,-1,5,7,-1,-1,-1,-1],"loss_changes":[6.2013194E-2,2.7815532E-2,0E0,7.359517E-3,2.0175705E-2,0E0,0E0,0E0,0E0],"parents":[2147483647,0,0,1,1,3,3,4,4],"right_children":[2,4,-1,6,8,-1,-1,-1,-1],"split_conditions":[1.5910766E9,1.4899E2,1.4747365E-2,9.68E1,2.6125458E8,-4.770279E-4,5.4425555E-3,-9.7612385E-3,-7.3900225E-4],"split_indices":[27,11,0,3,28,0,0,0,0],"split_type":[0,0,0,0,0,0,0,0,0],"sum_hessian":[2E1,1.8E1,2E0,8E0,1E1,3E0,5E0,3E0,7E0],"tree_param":{"num_deleted":"0","num_feature":"46","num_nodes":"9","size_leaf_vector":"1"}},{"base_weights":[-4.3657E-2,7.597979E-4,-2.8079987E-1,-3.263637E-2,1.17456436E-1,1.6021729E-3,-4.3722153E-2,-7.706299E-3,-7.159424E-4,2.8450012E-3,1.37641905E-2],"categories":[],"categories_nodes":[],"categories_segments":[],"categories_sizes":[],"default_left":[0,0,0,0,0,0,0,0,0,0,0],"id":82,"left_children":[1,3,5,7,9,-1,-1,-1,-1,-1,-1],"loss_changes":[2.0034277E-1,7.008611E-2,1.4629303E-1,1.5294236E-2,3.2706335E-3,0E0,0E0,0E0,0E0,0E0,0E0],"parents":[2147483647,0,0,1,1,2,2,3,3,4,4],"right_children":[2,4,6,8,10,-1,-1,-1,-1,-1,-1],"split_conditions":[7.9676E2,1.007E2,9.6E1,7.4937E5,9.81E1,1.6021729E-3,-4.3722153E-2,-7.706299E-3,-7.159424E-4,2.8450012E-3,1.37641905E-2],"split_indices":[17,1,1,40,3,0,0,0,0,0,0],"split_type":[0,0,0,0,0,0,0,0,0,0,0],"sum_hessian":[1.8E1,1.6E1,2E0,1.3E1,3E0,1E0,1E0,4E0,9E0,1E0,2E0],"tree_param":{"num_deleted":"0","num_feature":"46","num_nodes":"11","size_leaf_vector":"1"}},{"base_weights":[-3.6187258E-2,-1.8889923E-1,8.243137E-3,-4.153595E-2,-2.844429E-2,-9.072367E-3,7.1115494E-2,-7.5698853E-3,1.2540182E-3,-2.868887E-3,7.895661E-3,1.8928528E-3,8.220164E-3],"categories":[],"categories_nodes":[],"categories_segments":[],"categories_sizes":[],"default_left":[0,0,0,0,0,0,0,0,0,0,0,0,0],"id":83,"left_children":[1,3,5,-1,7,9,11,-1,-1,-1,-1,-1,-1],"loss_changes":[1.508283E-1,1.6986875E-1,2.0241184E-2,0E0,8.69609E-3,2.8167486E-2,7.5825304E-4,0E0,0E0,0E0,0E0,0E0,0E0],"parents":[2147483647,0,0,1,1,2,2,4,4,5,5,6,6],"right_children":[2,4,6,-1,8,10,12,-1,-1,-1,-1,-1,-1],"split_conditions":[1.8592288E8,9.72E1,1.10264E3,-4.153595E-2,9.16E1,1.955E2,9.94E1,-7.5698853E-3,1.2540182E-3,-2.868887E-3,7.895661E-3,1.8928528E-3,8.220164E-3],"split_indices":[28,0,16,0,2,11,2,0,0,0,0,0,0],"split_type":[0,0,0,0,0,0,0,0,0,0,0,0,0],"sum_hessian":[2.1E1,4E0,1.7E1,1E0,3E0,1.4E1,3E0,1E0,2E0,1.2E1,2E0,1E0,2E0],"tree_param":{"num_deleted":"0","num_feature":"46","num_nodes":"13","size_leaf_vector":"1"}},{"base_weights":[-1.8917084E-2,-1.7957917E-1,3.2472134E-2,-2.717781E-2,-3.945923E-2,7.041397E-2,-2.6369367E-2,-7.1914676E-3,1.1706034E-3,1.5059154E-3,1.2275696E-2,1.6667685E-3,-4.6917726E-3],"categories":[],"categories_nodes":[],"categories_segments":[],"categories_sizes":[],"default_left":[0,0,0,0,0,0,0,0,0,0,0,0,0],"id":84,"left_children":[1,3,5,7,-1,9,11,-1,-1,-1,-1,-1,-1],"loss_changes":[1.709573E-1,1.531173E-1,3.7577648E-2,7.8E-3,0E0,2.7125753E-2,6.972395E-3,0E0,0E0,0E0,0E0,0E0,0E0],"parents":[2147483647,0,0,1,1,2,2,3,3,5,5,6,6],"right_children":[2,4,6,8,-1,10,12,-1,-1,-1,-1,-1,-1],"split_conditions":[1.8592288E8,9.81E1,2.991676E8,9.46E1,-3.945923E-2,9.78E1,1.06E2,-7.1914676E-3,1.1706034E-3,1.5059154E-3,1.2275696E-2,1.6667685E-3,-4.6917726E-3],"split_indices":[28,2,22,1,0,3,9,0,0,0,0,0,0],"split_type":[0,0,0,0,0,0,0,0,0,0,0,0,0],"sum_hessian":[1.9E1,4E0,1.5E1,3E0,1E0,9E0,6E0,1E0,2E0,5E0,4E0,2E0,4E0],"tree_param":{"num_deleted":"0","num_feature":"46","num_nodes":"13","size_leaf_vector":"1"}},{"base_weights":[9.575553E-3,-7.7651977E-3,9.388542E-2,-2.53582E-2,5.0085448E-2,1.5903473E-3,1.1457825E-2,2.5154115E-3,-4.4291816E-3,7.369995E-4,7.6105753E-3],"categories":[],"categories_nodes":[],"categories_segments":[],"categories_sizes":[],"default_left":[0,0,0,0,0,0,0,0,0,0,0],"id":85,"left_children":[1,3,5,7,9,-1,-1,-1,-1,-1,-1],"loss_changes":[3.435496E-2,2.1625407E-2,4.6324767E-3,1.641621E-2,4.996447E-3,0E0,0E0,0E0,0E0,0E0,0E0],"parents":[2147483647,0,0,1,1,2,2,3,3,4,4],"right_children":[2,4,6,8,10,-1,-1,-1,-1,-1,-1],"split_conditions":[7.8031E2,5.527469E6,9.6E1,2.80432E3,1.003E2,1.5903473E-3,1.1457825E-2,2.5154115E-3,-4.4291816E-3,7.369995E-4,7.6105753E-3],"split_indices":[17,38,1,14,2,0,0,0,0,0,0],"split_type":[0,0,0,0,0,0,0,0,0,0,0],"sum_hessian":[2.2E1,1.9E1,3E0,1.5E1,4E0,1E0,2E0,4E0,1.1E1,2E0,2E0],"tree_param":{"num_deleted":"0","num_feature":"46","num_nodes":"11","size_leaf_vector":"1"}},{"base_weights":[-2.3458065E-2,-1.7312774E-1,1.7163327E-2,-3.8059235E-2,-2.611351E-2,-4.1484833E-4,8.3185196E-2,2.455902E-3,-5.1190695E-3,5.940247E-3,-1.8788265E-3,-2.002716E-4,1.1224874E-2],"categories":[],"categories_nodes":[],"categories_segments":[],"categories_sizes":[],"default_left":[0,0,0,0,0,0,0,0,0,0,0,0,0],"id":86,"left_children":[1,3,5,-1,7,9,11,-1,-1,-1,-1,-1,-1],"loss_changes":[1.4280662E-1,1.4256266E-1,2.2084845E-2,0E0,6.3400907E-3,1.8700844E-2,1.0128252E-2,0E0,0E0,0E0,0E0,0E0,0E0],"parents":[2147483647,0,0,1,1,2,2,4,4,5,5,6,6],"right_children":[2,4,6,-1,8,10,12,-1,-1,-1,-1,-1,-1],"split_conditions":[1.8592288E8,9.72E1,7.562254E7,-3.8059235E-2,9.76E1,1.8139E2,9.92E1,2.455902E-3,-5.1190695E-3,5.940247E-3,-1.8788265E-3,-2.002716E-4,1.1224874E-2],"split_indices":[28,0,24,0,0,18,0,0,0,0,0,0,0],"split_type":[0,0,0,0,0,0,0,0,0,0,0,0,0],"sum_hessian":[2.2E1,4E0,1.8E1,1E0,3E0,1.5E1,3E0,1E0,2E0,3E0,1.2E1,1E0,2E0],"tree_param":{"num_deleted":"0","num_feature":"46","num_nodes":"13","size_leaf_vector":"1"}},{"base_weights":[-2.7218906E-2,-1.6396026E-1,1.2276967E-2,-2.4168015E-2,-3.6156464E-2,3.100586E-2,-3.034846E-2,-6.3541415E-3,1.0136922E-3,6.643423E-3,5.5885317E-5,1.8138885E-3,-4.3673706E-3],"categories":[],"categories_nodes":[],"categories_segments":[],"categories_sizes":[],"default_left":[0,0,0,0,0,0,0,0,0,0,0,0,0],"id":87,"left_children":[1,3,5,7,-1,9,11,-1,-1,-1,-1,-1,-1],"loss_changes":[1.2082875E-1,1.2937953E-1,1.5310867E-2,6.046922E-3,0E0,1.3985813E-2,4.668827E-3,0E0,0E0,0E0,0E0,0E0,0E0],"parents":[2147483647,0,0,1,1,2,2,3,3,5,5,6,6],"right_children":[2,4,6,8,-1,10,12,-1,-1,-1,-1,-1,-1],"split_conditions":[1.8592288E8,9.81E1,3.635296E6,9.46E1,-3.6156464E-2,3.26961E3,9.73E1,-6.3541415E-3,1.0136922E-3,6.643423E-3,5.5885317E-5,1.8138885E-3,-4.3673706E-3],"split_indices":[28,2,42,1,0,14,3,0,0,0,0,0,0],"split_type":[0,0,0,0,0,0,0,0,0,0,0,0,0],"sum_hessian":[2.1E1,4E0,1.7E1,3E0,1E0,1.2E1,5E0,1E0,2E0,5E0,7E0,1E0,4E0],"tree_param":{"num_deleted":"0","num_feature":"46","num_nodes":"13","size_leaf_vector":"1"}},{"base_weights":[-2.592919E-2,-1.5586396E-1,1.1604309E-2,-3.4348678E-2,-2.3086548E-2,-5.780697E-3,1.0045624E-2,-6.036377E-3,9.460449E-4,-2.2980324E-3,5.1563266E-3],"categories":[],"categories_nodes":[],"categories_segments":[],"categories_sizes":[],"default_left":[0,0,0,0,0,0,0,0,0,0,0],"id":88,"left_children":[1,3,5,-1,7,9,-1,-1,-1,-1,-1],"loss_changes":[1.0910064E-1,1.1663043E-1,2.8385151E-2,0E0,5.424115E-3,1.6965656E-2,0E0,0E0,0E0,0E0,0E0],"parents":[2147483647,0,0,1,1,2,2,4,4,5,5],"right_children":[2,4,6,-1,8,10,-1,-1,-1,-1,-1],"split_conditions":[1.8592288E8,9.72E1,7.8031E2,-3.4348678E-2,9.46E1,2.5285E2,1.0045624E-2,-6.036377E-3,9.460449E-4,-2.2980324E-3,5.1563266E-3],"split_indices":[28,0,17,0,1,20,0,0,0,0,0],"split_type":[0,0,0,0,0,0,0,0,0,0,0],"sum_hessian":[2.1E1,4E0,1.7E1,1E0,3E0,1.5E1,2E0,1E0,2E0,1.2E1,3E0],"tree_param":{"num_deleted":"0","num_feature":"46","num_nodes":"11","size_leaf_vector":"1"}},{"base_weights":[-3.0375833E-2,-1.481659E-1,1.0912578E-2,-3.2631304E-2,-2.2050858E-2,5.586052E-2,-4.9794517E-3,2.2350312E-3,-4.4301352E-3,7.712555E-3,2.306366E-3,-3.9665224E-3,5.924225E-4],"categories":[],"categories_nodes":[],"categories_segments":[],"categories_sizes":[],"default_left":[0,0,0,0,0,0,0,0,0,0,0,0,0],"id":89,"left_children":[1,3,5,-1,7,9,11,-1,-1,-1,-1,-1,-1],"loss_changes":[9.402079E-2,1.0513967E-1,1.0992864E-2,0E0,4.9419403E-3,1.0109069E-3,4.7734147E-3,0E0,0E0,0E0,0E0,0E0,0E0],"parents":[2147483647,0,0,1,1,2,2,4,4,5,5,6,6],"right_children":[2,4,6,-1,8,10,12,-1,-1,-1,-1,-1,-1],"split_conditions":[5.921093E7,9.72E1,1.05E2,-3.2631304E-2,9.76E1,1.002E2,1.335595E6,2.2350312E-3,-4.4301352E-3,7.712555E-3,2.306366E-3,-3.9665224E-3,5.924225E-4],"split_indices":[25,0,9,0,0,0,36,0,0,0,0,0,0],"split_type":[0,0,0,0,0,0,0,0,0,0,0,0,0],"sum_hessian":[1.8E1,4E0,1.4E1,1E0,3E0,3E0,1.1E1,1E0,2E0,1E0,2E0,2E0,9E0],"tree_param":{"num_deleted":"0","num_feature":"46","num_nodes":"13","size_leaf_vector":"1"}},{"base_weights":[-1.31554855E-2,-1.4031371E-1,3.0107625E-2,-3.0999755E-2,-2.0393372E-2,5.312139E-2,-2.654419E-2,-5.513001E-3,9.5621747E-4,9.801592E-4,1.0314484E-2,-9.0942386E-4,-4.8172E-3],"categories":[],"categories_nodes":[],"categories_segments":[],"categories_sizes":[],"default_left":[0,0,0,0,0,0,0,0,0,0,0,0,0],"id":90,"left_children":[1,3,5,-1,7,9,11,-1,-1,-1,-1,-1,-1],"loss_changes":[1.08748466E-1,9.542083E-2,2.0966638E-2,0E0,4.6893824E-3,2.2826076E-2,1.4489335E-3,0E0,0E0,0E0,0E0,0E0,0E0],"parents":[2147483647,0,0,1,1,2,2,4,4,5,5,6,6],"right_children":[2,4,6,-1,8,10,12,-1,-1,-1,-1,-1,-1],"split_conditions":[1.8592288E8,9.72E1,3.1352736E8,-3.0999755E-2,9.16E1,9.94E1,9.99E1,-5.513001E-3,9.5621747E-4,9.801592E-4,1.0314484E-2,-9.0942386E-4,-4.8172E-3],"split_indices":[28,0,22,0,2,3,0,0,0,0,0,0,0],"split_type":[0,0,0,0,0,0,0,0,0,0,0,0,0],"sum_hessian":[1.8E1,4E0,1.4E1,1E0,3E0,1E1,4E0,1E0,2E0,6E0,4E0,3E0,1E0],"tree_param":{"num_deleted":"0","num_feature":"46","num_nodes":"13","size_leaf_vector":"1"}},{"base_weights":[-1.3629596E-2,-1.3339233E-1,1.6992569E-2,-2.9449845E-2,-1.9491196E-2,1.9921695E-3,7.6496124E-2,-5.237198E-3,8.9263916E-4,4.093628E-3,-1.3139577E-3,1.0211945E-3,9.518687E-3],"categories":[],"categories_nodes":[],"categories_segments":[],"categories_sizes":[],"default_left":[0,0,0,0,0,0,0,0,0,0,0,0,0],"id":91,"left_children":[1,3,5,-1,7,9,11,-1,-1,-1,-1,-1,-1],"loss_changes":[9.028414E-2,8.601071E-2,1.7699149E-2,0E0,4.205063E-3,1.0555857E-2,3.983559E-3,0E0,0E0,0E0,0E0,0E0,0E0],"parents":[2147483647,0,0,1,1,2,2,4,4,5,5,6,6],"right_children":[2,4,6,-1,8,10,12,-1,-1,-1,-1,-1,-1],"split_conditions":[1.86131E5,9.72E1,7.8031E2,-2.9449845E-2,9.46E1,9.5665E2,9.6E1,-5.237198E-3,8.9263916E-4,4.093628E-3,-1.3139577E-3,1.0211945E-3,9.518687E-3],"split_indices":[45,0,17,0,1,16,1,0,0,0,0,0,0],"split_type":[0,0,0,0,0,0,0,0,0,0,0,0,0],"sum_hessian":[2.3E1,4E0,1.9E1,1E0,3E0,1.6E1,3E0,1E0,2E0,4E0,1.2E1,1E0,2E0],"tree_param":{"num_deleted":"0","num_feature":"46","num_nodes":"13","size_leaf_vector":"1"}},{"base_weights":[-1.7469497E-2,-1.2681274E-1,1.57179E-2,-2.7977372E-2,-1.8629074E-2,6.894531E-2,-5.963252E-3,2.030945E-3,-3.83784E-3,7.991791E-3,1.2527466E-3,-2.5357818E-3,4.401398E-3],"categories":[],"categories_nodes":[],"categories_segments":[],"categories_sizes":[],"default_left":[0,0,0,0,0,0,0,0,0,0,0,0,0],"id":92,"left_children":[1,3,5,-1,7,9,11,-1,-1,-1,-1,-1,-1],"loss_changes":[7.819841E-2,7.752746E-2,2.0029675E-2,0E0,3.855482E-3,2.0940807E-3,1.3716824E-2,0E0,0E0,0E0,0E0,0E0,0E0],"parents":[2147483647,0,0,1,1,2,2,4,4,5,5,6,6],"right_children":[2,4,6,-1,8,10,12,-1,-1,-1,-1,-1,-1],"split_conditions":[2.7776532E7,9.72E1,2.95181E3,-2.7977372E-2,9.76E1,1.002E2,1.8856E2,2.030945E-3,-3.83784E-3,7.991791E-3,1.2527466E-3,-2.5357818E-3,4.401398E-3],"split_indices":[31,0,14,0,0,0,21,0,0,0,0,0,0],"split_type":[0,0,0,0,0,0,0,0,0,0,0,0,0],"sum_hessian":[2E1,4E0,1.6E1,1E0,3E0,4E0,1.2E1,1E0,2E0,3E0,1E0,9E0,3E0],"tree_param":{"num_deleted":"0","num_feature":"46","num_nodes":"13","size_leaf_vector":"1"}},{"base_weights":[-1.589236E-2,-1.200882E-1,1.2364036E-2,-2.6578521E-2,-1.7217636E-2,6.3900754E-2,-5.63914E-3,-4.7836304E-3,8.934021E-4,2.298991E-3,8.351135E-3,-2.9737686E-3,2.6150297E-3],"categories":[],"categories_nodes":[],"categories_segments":[],"categories_sizes":[],"default_left":[0,0,0,0,0,0,0,0,0,0,0,0,0],"id":93,"left_children":[1,3,5,-1,7,9,11,-1,-1,-1,-1,-1,-1],"loss_changes":[6.920134E-2,7.036348E-2,1.7989013E-2,0E0,3.630286E-3,2.091512E-3,1.2268835E-2,0E0,0E0,0E0,0E0,0E0,0E0],"parents":[2147483647,0,0,1,1,2,2,4,4,5,5,6,6],"right_children":[2,4,6,-1,8,10,12,-1,-1,-1,-1,-1,-1],"split_conditions":[1.8592288E8,9.72E1,2.95181E3,-2.6578521E-2,9.46E1,1.1803E2,3.2982195E8,-4.7836304E-3,8.934021E-4,2.298991E-3,8.351135E-3,-2.9737686E-3,2.6150297E-3],"split_indices":[28,0,14,0,1,13,28,0,0,0,0,0,0],"split_type":[0,0,0,0,0,0,0,0,0,0,0,0,0],"sum_hessian":[2.2E1,4E0,1.8E1,1E0,3E0,4E0,1.4E1,1E0,2E0,2E0,2E0,8E0,6E0],"tree_param":{"num_deleted":"0","num_feature":"46","num_nodes":"13","size_leaf_vector":"1"}},{"base_weights":[-1.6212463E-2,-1.1417236E-1,9.088134E-3,-2.5249481E-2,-1.6468048E-2,-4.604564E-3,6.501007E-2,-4.544449E-3,8.3389285E-4,-1.8947307E-3,3.3607483E-3,1.31073E-3,7.7941897E-3],"categories":[],"categories_nodes":[],"categories_segments":[],"categories_sizes":[],"default_left":[0,0,0,0,0,0,0,0,0,0,0,0,0],"id":94,"left_children":[1,3,5,-1,7,9,11,-1,-1,-1,-1,-1,-1],"loss_changes":[6.0520273E-2,6.34154E-2,1.5613788E-2,0E0,3.2542297E-3,9.953887E-3,1.6631819E-3,0E0,0E0,0E0,0E0,0E0,0E0],"parents":[2147483647,0,0,1,1,2,2,4,4,5,5,6,6],"right_children":[2,4,6,-1,8,10,12,-1,-1,-1,-1,-1,-1],"split_conditions":[1.8592288E8,9.72E1,7.8031E2,-2.5249481E-2,9.46E1,5.527469E6,9.6E1,-4.544449E-3,8.3389285E-4,-1.8947307E-3,3.3607483E-3,1.31073E-3,7.7941897E-3],"split_indices":[28,0,17,0,1,38,1,0,0,0,0,0,0],"split_type":[0,0,0,0,0,0,0,0,0,0,0,0,0],"sum_hessian":[2.3E1,4E0,1.9E1,1E0,3E0,1.6E1,3E0,1E0,2E0,1.2E1,4E0,1E0,2E0],"tree_param":{"num_deleted":"0","num_feature":"46","num_nodes":"13","size_leaf_vector":"1"}},{"base_weights":[-2.5426865E-2,-1.0854492E-1,2.1367073E-3,-1.574707E-2,-2.3986816E-2,1.9386292E-2,-2.9843649E-2,-3.3284505E-3,1.8432618E-3,-2.4379732E-3,2.6200868E-3,-2.8152467E-4,-4.265404E-3],"categories":[],"categories_nodes":[],"categories_segments":[],"categories_sizes":[],"default_left":[0,0,0,0,0,0,0,0,0,0,0,0,0],"id":95,"left_children":[1,3,5,7,-1,9,11,-1,-1,-1,-1,-1,-1],"loss_changes":[4.605254E-2,5.7155352E-2,9.404923E-3,3.0112164E-3,0E0,3.9194855E-3,1.9573844E-3,0E0,0E0,0E0,0E0,0E0,0E0],"parents":[2147483647,0,0,1,1,2,2,3,3,5,5,6,6],"right_children":[2,4,6,8,-1,10,12,-1,-1,-1,-1,-1,-1],"split_conditions":[3.706443E8,9.81E1,2.991676E8,9.76E1,-2.3986816E-2,1.333166E6,1.539E2,-3.3284505E-3,1.8432618E-3,-2.4379732E-3,2.6200868E-3,-2.8152467E-4,-4.265404E-3],"split_indices":[27,3,22,1,0,36,11,0,0,0,0,0,0],"split_type":[0,0,0,0,0,0,0,0,0,0,0,0,0],"sum_hessian":[1.9E1,4E0,1.5E1,3E0,1E0,1E1,5E0,2E0,1E0,1E0,9E0,2E0,3E0],"tree_param":{"num_deleted":"0","num_feature":"46","num_nodes":"13","size_leaf_vector":"1"}},{"base_weights":[-1.1428833E-2,-1.0278626E-1,1.7834663E-2,-2.2787476E-2,-1.4545441E-2,1.8052321E-3,6.547165E-2,-4.150772E-3,8.277893E-4,3.038243E-3,-2.7029857E-3,1.1142731E-3,7.986705E-3],"categories":[],"categories_nodes":[],"categories_segments":[],"categories_sizes":[],"default_left":[0,0,0,0,0,0,0,0,0,0,0,0,0],"id":96,"left_children":[1,3,5,-1,7,9,11,-1,-1,-1,-1,-1,-1],"loss_changes":[5.5301912E-2,5.1875018E-2,1.2099311E-2,0E0,2.805073E-3,1.15335705E-2,2.2384077E-3,0E0,0E0,0E0,0E0,0E0,0E0],"parents":[2147483647,0,0,1,1,2,2,4,4,5,5,6,6],"right_children":[2,4,6,-1,8,10,12,-1,-1,-1,-1,-1,-1],"split_conditions":[1.8592288E8,9.72E1,7.8031E2,-2.2787476E-2,9.46E1,6.7496E2,9.6E1,-4.150772E-3,8.277893E-4,3.038243E-3,-2.7029857E-3,1.1142731E-3,7.986705E-3],"split_indices":[28,0,17,0,1,17,1,0,0,0,0,0,0],"split_type":[0,0,0,0,0,0,0,0,0,0,0,0,0],"sum_hessian":[1.9E1,4E0,1.5E1,1E0,3E0,1.2E1,3E0,1E0,2E0,6E0,6E0,1E0,2E0],"tree_param":{"num_deleted":"0","num_feature":"46","num_nodes":"13","size_leaf_vector":"1"}},{"base_weights":[1.275956E-2,-1.4781952E-4,6.119919E-2,-7.5927735E-3,5.5763246E-3,1.0585785E-3,7.4541727E-3,1.4659337E-3,-2.405633E-3],"categories":[],"categories_nodes":[],"categories_segments":[],"categories_sizes":[],"default_left":[0,0,0,0,0,0,0,0,0],"id":97,"left_children":[1,3,5,7,-1,-1,-1,-1,-1],"loss_changes":[1.1888391E-2,7.083482E-3,1.9121617E-3,5.847883E-3,0E0,0E0,0E0,0E0,0E0],"parents":[2147483647,0,0,1,1,2,2,3,3],"right_children":[2,4,6,8,-1,-1,-1,-1,-1],"split_conditions":[7.8031E2,1.037E2,9.6E1,1.6075E2,5.5763246E-3,1.0585785E-3,7.4541727E-3,1.4659337E-3,-2.405633E-3],"split_indices":[17,0,1,11,0,0,0,0,0],"split_type":[0,0,0,0,0,0,0,0,0],"sum_hessian":[1.8E1,1.5E1,3E0,1.4E1,1E0,1E0,2E0,6E0,8E0],"tree_param":{"num_deleted":"0","num_feature":"46","num_nodes":"9","size_leaf_vector":"1"}},{"base_weights":[-8.079529E-3,1.6352335E-2,-1.9622168E-2,2.2119142E-3,-6.240845E-4,-5.0182343E-3,-3.859626E-3,2.2655488E-3,-2.0893097E-3],"categories":[],"categories_nodes":[],"categories_segments":[],"categories_sizes":[],"default_left":[0,0,0,0,0,0,0,0,0],"id":98,"left_children":[1,3,5,-1,-1,-1,7,-1,-1],"loss_changes":[5.115007E-3,9.19785E-4,5.5867876E-3,0E0,0E0,0E0,4.538143E-3,0E0,0E0],"parents":[2147483647,0,0,1,1,2,2,6,6],"right_children":[2,4,6,-1,-1,-1,8,-1,-1],"split_conditions":[5.4037E2,1.01E2,2.6125458E8,2.2119142E-3,-6.240845E-4,-5.0182343E-3,1.6869E2,2.2655488E-3,-2.0893097E-3],"split_indices":[17,0,28,0,0,0,21,0,0],"split_type":[0,0,0,0,0,0,0,0,0],"sum_hessian":[1.6E1,5E0,1.1E1,4E0,1E0,3E0,8E0,3E0,5E0],"tree_param":{"num_deleted":"0","num_feature":"46","num_nodes":"9","size_leaf_vector":"1"}},{"base_weights":[-2.7464125E-2,-9.763489E-2,-4.4141497E-4,-2.1769715E-2,-1.3195038E-2,3.172493E-2,-1.2098139E-2,1.5258789E-3,-2.7765909E-3,7.034302E-4,3.761037E-3,1.4779226E-4,-2.8684998E-3],"categories":[],"categories_nodes":[],"categories_segments":[],"categories_sizes":[],"default_left":[0,0,0,0,0,0,0,0,0,0,0,0,0],"id":99,"left_children":[1,3,5,-1,7,9,11,-1,-1,-1,-1,-1,-1],"loss_changes":[3.4088578E-2,4.7817674E-2,5.6331716E-3,0E0,2.0820624E-3,3.166981E-4,2.5194208E-3,0E0,0E0,0E0,0E0,0E0,0E0],"parents":[2147483647,0,0,1,1,2,2,4,4,5,5,6,6],"right_children":[2,4,6,-1,8,10,12,-1,-1,-1,-1,-1,-1],"split_conditions":[2.1199506E8,9.72E1,1.1212E2,-2.1769715E-2,9.76E1,9.73E1,1.459833E6,1.5258789E-3,-2.7765909E-3,7.034302E-4,3.761037E-3,1.4779226E-4,-2.8684998E-3],"split_indices":[22,0,10,0,0,1,39,0,0,0,0,0,0],"split_type":[0,0,0,0,0,0,0,0,0,0,0,0,0],"sum_hessian":[1.7E1,4E0,1.3E1,1E0,3E0,3E0,1E1,1E0,2E0,1E0,2E0,6E0,4E0],"tree_param":{"num_deleted":"0","num_feature":"46","num_nodes":"13","size_leaf_vector":"1"}}]},"name":"gbtree"},"learner_model_param":{"base_score":"9.85875E1","boost_from_average":"1","num_class":"0","num_feature":"46","num_target":"1"},"objective":{"name":"reg:squarederror","reg_loss_param":{"scale_pos_weight":"1"}}},"version":[2,1,4]}